-0.72642
0.16963
0.56931
-0.27452
0.29721
0.85506
-0.72048
-0.73324
-0.35372
0.72064
0.62715
0.32044
-0.85978
-0.0065423
-0.3685
-0.41997
0.51406
-0.57764
0.30753
0.40288
0.63799
0.51213
0.41046
0.79364
0.38244
-0.54946
0.2218
0.60028
0.20698
0.61056
-0.83736
0.23151
0.45665
0.71155
0.41509
-0.15111
-0.98368
0.70415
0.45424
-0.099695
-0.52732
0.33576
-0.34753
-0.24897
0.21131
0.5116
-0.091584
-0.04476
0.19997
0.42708
-0.77601
0.25962
-0.60153
0.55209
-0.41735
-0.96964
0.042162
-0.19095
-0.66224
0.92331
0.3261
0.13226
0.30064
0.1673
0.70273
-0.94924
-0.69035
-0.51179
-0.30391
0.23046
0.67385
0.0024613
-0.5981
-0.22905
0.2866
-0.52198
0.31271
0.56755
-0.32775
-0.33603
-0.068982
-0.69437
0.70044
0.81194
-0.3295
-0.34196
0.051232
-0.38558
-0.030456
0.63639
-0.39527
0.78573
0.1053
0.55751
0.59126
0.91322
-0.8962
-0.87737
-0.47649
-0.30515
-0.17588
0.50063
0.3671
-0.53103
-0.37737
-0.1521
-0.19062
-0.8898
-0.30286
-0.71858
-0.67077
-0.15407
-0.49717
0.44735
0.8461
-0.78281
-0.89931
0.1005
0.29846
0.44364
0.93502
0.25964
-0.033358
-0.41278
-0.16295
0.33327
-0.16996
-0.52532
-0.2826
-0.93008
-0.15954
0.024135
0.48465
0.28158
-0.026856
-0.38576
0.4999
0.91355
-0.87805
0.54705
0.4765
0.63387
-0.6815
-0.82834
-0.066557
0.19006
-0.57419
-0.46408
-0.66036
-0.50397
0.35295
0.80236
0.9546
-0.14837
-0.76784
-0.12911
-0.19956
-0.15099
-0.082745
0.67018
0.17651
0.42551
-0.48201
-0.6492
1.2408
-0.56025
-0.60173
-0.62738
-0.62661
-0.75955
-0.1266
0.67764
0.30343
0.56578
-0.64821
-0.082491
-0.48219
0.3893
-0.67944
-0.67481
-0.22488
-0.62507
0.53124
0.90064
-0.122
0.015165
0.17124
-0.51925
0.25275
-0.65088
0.81431
0.2689
0.9931
-0.29815
-0.56343
-1.1174
0.60777
0.31526
0.011487
0.2413
-1.1345
0.59535
-0.779
-0.11032
-0.37722
-0.63301
0.29879
0.27673
-0.073932
-0.38586
-0.42099
0.8483
0.76467
0.267
-0.66545
0.16377
-0.31742
-0.66282
0.41093
-0.1398
0.27149
0.016679
-0.095863
0.90969
-0.391
0.18265
-0.37653
-0.71781
-0.25432
-0.40576
0.27292
0.22713
-0.37754
0.16959
0.39833
0.82616
0.30748
-0.40782
-0.36537
0.038543
-0.36842
-0.18299
0.66426
-0.1877
-0.61144
0.44951
0.25273
0.61825
-0.10933
0.58194
1.1805
0.57077
-0.61294
1.1097
-0.84933
-1.0477
0.92786
-0.31725
0.080799
-0.023616
-0.10153
-0.82488
0.18393
0.09592
0.49954
1.0174
-0.78707
0.39434
0.61104
0.61049
0.40395
0.25596
0.63331
-0.15112
0.076499
-0.051845
0.40688
0.31219
-0.41999
0.80646
0.65984
-0.065278
0.66579
0.072018
0.76785
-0.36325
0.41691
0.1055
-0.53808
0.11416
0.60165
0.59336
0.43781
0.14506
0.11877
0.032241
0.12177
-0.40201
0.16808
1.0271
0.092225
0.45686
-0.28429
0.78634
-0.91046
-0.095812
-0.59952
-0.4513
0.31617
-0.044056
0.68444
-0.88046
0.55878
0.078919
0.58314
-0.97405
-0.89945
0.52272
-0.3017
0.25883
0.87087
-0.051883
-0.97691
-0.33296
-0.42503
0.88117
-0.36488
0.26756
-0.63181
0.9831
0.14052
-0.45364
-0.99675
-0.43359
0.30795
0.27485
0.87686
0.52504
-0.43128
-1.2409
0.47256
-0.5409
-0.75875
-0.19401
0.71401
-0.60406
-0.59951
0.094277
-0.05704
0.65626
-0.55308
0.65158
-0.3443
0.69024
-0.10968
0.13241
0.55865
1.002
0.88504
-0.42312
0.60047
-0.76204
-0.13122
-0.79768
0.83157
0.32574
0.057305
-0.63675
0.45414
-1.1247
0.27335
-0.28921
0.77063
-0.88716
0.54332
-0.34016
0.45349
0.36612
-0.88971
0.60781
1.0361
0.2497
-0.65498
0.033509
0.90006
-0.094223
0.41854
0.63306
1.0566
0.3196
-0.3278
0.018072
1.0385
-0.63178
0.74893
-0.81552
-0.59561
-0.19156
0.27483
-0.90115
-0.9532
-0.036679
-0.78711
-0.68055
-0.48652
-0.056358
-1.1181
-0.27626
-0.88296
-0.64313
-0.25869
1.1136
0.41537
0.10684
0.99935
-0.26124
-0.45334
0.12821
0.30407
-0.38562
-0.20022
-1.0063
0.89245
-0.65793
-0.26605
0.50772
0.63295
0.30227
0.99038
-0.36021
0.61746
0.84863
-0.19695
-0.37229
0.52864
1.081
0.52774
0.13681
0.27596
-1.0176
-0.51296
-0.16573
0.36673
0.7012
-0.55014
-0.58178
0.61945
-0.67823
0.41233
-0.19563
-0.049365
-0.19737
-0.88858
0.28418
-0.81426
-0.30503
0.86548
0.84313
-0.10584
-0.36007
-0.66296
-0.83156
0.29675
-0.52815
0.26656
0.072866
-0.85145
0.50371
0.34637
0.11293
0.19412
-0.4624
0.67714
0.28616
0.15735
-0.25447
-0.42359
-0.34687
-0.67462
-1.1426
-0.20719
0.55057
0.96424
-0.36722
0.4227
0.61048
-0.92075
-0.92034
0.49066
-1.1084
0.38179
-0.32845
-0.32571
-0.095379
0.29173
0.99004
0.48709
0.039747
-0.53466
0.033955
-0.59188
-0.51722
-0.44012
0.78893
-0.13351
0.65699
0.32725
-1.0089
0.21218
-0.034472
-0.141
0.42683
-0.60979
0.71513
-1.0854
-0.28285
-0.23573
0.72638
0.34281
0.25664
0.4258
-0.086817
-0.63625
-0.56185
0.067489
-0.44591
0.50964
-0.26574
-0.4863
0.35929
-0.086472
-0.5113
0.3476
0.82496
-0.72219
0.40091
0.3037
0.12554
0.36137
-0.75505
0.78619
-0.50831
0.15548
0.44379
-0.12929
0.62692
-0.75558
0.82495
-0.20582
0.96073
-0.66789
-0.086257
-0.22053
-0.68817
-0.33854
-0.45797
0.12378
0.61127
-0.45791
0.12675
0.63037
-0.24622
-0.70673
-0.81797
0.61276
-0.74759
0.80916
0.49413
-0.28199
-0.65832
-0.01092
-0.33329
0.31922
0.46117
-0.99073
0.57873
-0.29267
0.99172
-0.43275
-0.10528
-0.50454
0.80309
0.95632
0.33963
-0.0094162
0.17848
0.1294
-0.83274
0.54918
0.2377
0.6495
0.92455
0.51755
-0.16528
0.35753
1.0486
-0.13927
-0.41957
0.35144
0.085312
0.22521
-0.84361
-0.42598
-0.6159
0.35559
-0.13202
-0.85538
-0.11534
-0.4422
-0.59697
-0.83077
0.050168
-0.020423
0.42572
0.13038
0.38179
-0.14257
0.70988
-0.14941
0.93941
0.4927
-0.4456
-0.25323
-0.25867
-0.71194
0.076146
0.29148
-0.18861
1.1876
0.13238
-0.53568
-0.16747
-0.58921
-0.19941
-0.37838
-0.51243
0.80346
-0.44799
-0.29273
-0.29998
-0.3785
-0.36617
-0.58886
-0.33503
-0.56833
0.088378
-0.24486
-0.58617
0.41024
0.93375
0.56609
-0.33566
-0.60264
0.45862
0.15749
0.22799
0.47365
-0.82378
-0.079465
-0.10639
0.57871
0.61402
-0.76465
0.7404
0.75134
0.13309
0.24854
-0.69113
0.26641
0.41534
0.22798
0.31343
-0.7294
-0.15899
0.33162
-0.069911
-0.33833
-0.96895
-0.21677
-0.28922
0.053611
-0.08837
0.13781
0.98497
0.8016
-0.083468
0.72367
-0.26995
-0.0060965
0.26943
0.091409
-0.46461
-0.30513
0.90451
0.1407
0.83107
1.2261
0.37493
0.70366
0.6766
0.62418
-0.1643
0.50919
-0.36579
0.61243
-0.80904
0.72134
-0.42171
0.31731
-0.60381
0.36915
0.61547
0.14513
-0.89086
-0.89539
0.12988
0.54393
0.54982
0.92122
-0.1874
0.38975
-0.092511
-1.7882
0.82495
0.32882
-0.52926
-0.026115
-0.56207
0.15056
-0.66063
-0.019839
0.21782
-0.38339
0.40356
0.051856
0.24691
-0.22141
0.52687
-0.037543
0.40943
-1.1033
-0.53849
-0.58092
-0.20777
-0.53153
0.77229
-0.31195
0.89596
-0.11443
-0.372
-0.69581
-0.24042
0.55432
-0.8164
-0.46801
-1.5031
0.27326
-0.25257
0.98296
-0.68702
0.15014
0.055561
0.33494
-0.14237
-0.432
-1.1113
0.568
0.44128
-0.68938
-0.59729
0.60856
0.36161
-0.42057
-0.15141
-0.29968
0.68444
-0.063097
-0.38197
-0.81182
0.10734
0.6802
0.53279
-0.42946
0.46692
0.48137
-0.31248
0.098313
-0.6165
0.56165
-0.48641
0.096879
-0.85129
0.5065
0.14952
-0.68452
0.93823
0.88406
-0.13419
0.011703
-0.65524
0.064104
0.73283
-0.40375
1.033
0.52688
0.076546
-0.06955
0.49919
0.89826
-0.32636
0.66263
0.78003
-0.54398
-0.23208
0.36288
0.37294
-0.12993
-0.042716
-0.59657
-0.60737
0.58983
0.014049
1.236
0.52398
0.48342
0.46417
-0.29014
-0.69538
0.084468
-0.77411
-1.1234
0.61589
0.41247
0.68844
-0.58992
0.31565
0.22975
-0.28515
-0.51935
0.24915
0.78295
0.60487
0.0047826
-0.83339
0.95905
-0.9973
-0.19363
-0.050813
1.1439
1.1379
0.42202
0.80089
-1.0185
0.55603
0.12855
0.40413
0.77601
0.53382
0.19387
0.11831
-0.12414
0.39173
0.10018
-0.29258
0.87437
0.15621
0.3081
-0.75831
-0.1376
-0.7666
-1.0269
0.26573
-0.34266
-0.020545
0.6326
0.20276
-0.17481
0.80729
0.71545
0.53133
-0.58241
-0.048061
-0.34447
0.74517
-0.42707
-0.84044
0.04709
-0.081187
0.15854
0.63554
0.79703
-0.66953
0.18342
-0.57999
0.58451
0.74654
-0.61662
-0.70564
0.36081
-0.32173
-0.28661
-0.47648
-0.9934
0.12274
0.44691
-0.060579
-0.87575
-0.20001
-0.11189
0.42701
-0.48778
0.52351
-0.63772
0.82453
1.0646
-0.8015
-0.18448
0.11364
0.060244
-1.0773
0.65735
-0.7355
-0.62591
0.21517
0.77084
0.7996
-0.71923
0.19324
0.048043
-0.65017
0.77589
0.71491
-1.0732
0.49289
-0.60378
-0.28913
0.011112
0.43488
-0.69688
-0.80332
0.3133
0.88518
-0.69503
-0.59325
-0.93073
-0.13793
0.054328
-0.96092
0.074113
-0.67985
0.2403
0.74829
-0.48263
-0.85411
0.54719
0.19422
-0.16779
-0.72163
0.8065
0.57859
-0.54769
-0.73523
0.81372
-0.3403
0.5544
-0.63144
-0.47613
-1.1377
-0.30261
0.34363
0.18052
0.19866
-0.68599
-0.77021
-0.55224
0.85966
-0.60982
0.74031
0.13694
-0.043763
-1.1609
-0.11954
0.78249
0.45725
-0.92102
-0.20534
-0.049948
-0.082686
0.61845
0.65552
-1.0163
-0.43231
-0.19126
-0.85254
0.4218
0.5114
1.0284
-0.46669
-0.74901
0.47033
0.12035
0.0011867
0.82145
-0.65977
-0.42488
-0.90789
0.25296
-0.83233
-0.58742
-0.57903
0.5691
-0.74577
0.53239
-0.090892
-0.82502
-0.15848
-0.10261
-0.44261
0.59955
-0.22078
0.28036
0.96111
-0.47894
-0.63864
-0.28472
0.72748
0.3377
-0.44614
-0.60182
-0.37301
-0.34691
0.78426
-0.27518
0.90851
0.61248
-0.4849
0.66729
-0.88188
-0.75019
0.97164
-0.39423
-0.42098
0.75427
0.30585
0.60574
0.19715
0.23221
0.038349
0.80566
0.3773
-0.70459
0.37129
0.30726
-0.69005
-0.25529
0.71723
-0.54452
1.1385
0.32787
0.62215
-0.17239
0.20521
-0.51875
-0.14546
-0.23362
-0.7009
-0.41093
0.64398
-0.55305
0.57062
0.098591
-0.97526
0.66886
0.19445
0.29431
-0.78318
0.18983
0.11273
-0.32079
0.45736
0.027636
-0.95695
0.57761
0.23894
-0.4483
0.46971
0.1021
-0.24785
-0.57934
-0.11032
-0.78532
-0.98346
0.95157
-0.039576
-0.064576
0.36511
0.57216
-0.60815
0.66056
0.13968
0.31799
-0.79596
0.34545
-0.28445
-0.49765
0.26683
-0.77301
-0.08957
-0.63935
-0.62254
0.9365
-0.87467
0.21566
-0.26826
-0.14594
0.22761
0.37825
0.58805
-0.21707
0.018704
0.74798
-0.67028
0.075555
-0.39415
-0.66211
0.039824
-0.33635
-0.1944
-0.56083
0.11051
0.20881
0.63098
0.87029
-0.43617
-0.87943
0.63291
-0.59478
-0.54748
-0.1031
0.94644
0.34291
0.25282
0.5758
0.12283
0.78534
-0.052319
0.85728
0.59801
0.66833
0.31155
-1.1211
0.16325
0.85415
-0.12163
0.45827
-0.91147
-0.058105
-0.61151
0.10534
0.2261
-0.052789
0.74868
-0.85043
0.31651
-1.0003
-0.58555
-0.83386
0.93122
-0.36051
0.33264
-0.76913
-1.2211
0.58273
-1.1773
0.8148
-0.58008
-0.78406
-0.82883
0.62307
-0.6147
0.60909
-0.27729
0.9811
0.13133
0.55849
0.7862
-0.064387
0.0093354
0.37924
0.19654
0.268
-0.19912
-0.44941
-0.2879
-0.2068
0.64839
0.31618
-0.36157
0.50265
0.16522
1.1612
0.93519
-0.077585
0.15459
0.68242
0.033766
0.42833
-0.033271
0.10918
0.69741
-0.19537
-0.74097
0.49126
-0.027694
-0.66271
-0.40066
-0.33367
0.80133
0.93327
0.075249
-0.58926
-0.60368
-0.68251
0.21807
-0.30679
0.56478
-0.20195
0.047622
0.54324
0.43044
-0.62025
-0.55121
-0.14443
-0.030783
0.51598
0.17753
-0.68558
0.22243
0.80981
0.90378
-0.13462
-0.57219
0.055488
-0.3554
0.25361
-0.75219
0.61939
-1.0115
0.96655
0.63447
-0.74282
0.56512
0.16156
-0.1147
-0.21867
0.50683
0.10205
-0.33358
-1.3407
-0.086353
0.17112
0.45962
0.49023
0.28446
0.30666
0.0014887
-0.60277
-1.0098
-0.4461
-0.04051
-0.65308
0.39197
0.72198
0.46916
0.053149
0.18427
-0.50956
-0.70974
0.25454
-0.45047
0.93251
0.75883
0.20471
-0.59424
-0.61991
0.2672
-0.72459
-0.54653
-0.86096
0.59356
-0.28038
-0.42991
0.20372
0.86938
-0.33725
-0.17528
-0.55321
-0.069521
0.44329
0.52983
-0.38597
-0.61397
0.98138
-0.75295
1.1341
-0.12748
-0.13074
-0.66281
-0.064704
0.01652
-0.019752
0.071863
0.22811
-0.27421
0.48018
0.60513
0.54046
-0.41176
-0.54042
0.4738
0.025767
-0.42891
0.73881
