-1.2322
-1.1158
-1.1373
1.2933
-1.1562
1.1054
-1.2103
-1.2006
-1.0038
1.1525
0.94961
-0.95562
-1.2409
-0.97858
1.0734
-1.0202
-1.0228
0.88956
0.85631
-0.68241
0.91378
1.04
0.71087
-0.71899
0.98126
-0.79009
0.60533
0.73635
-0.71637
0.84695
-0.68009
0.6409
0.78175
-0.60037
-0.47571
-0.55895
0.51986
-0.52208
-0.63784
0.45932
0.5845
-0.41773
-0.36215
0.17395
-0.33993
-0.33281
-0.14048
-0.2603
-0.26531
0.1258
-0.20428
0.3358
-0.40622
0.30371
0.2571
-0.033907
-0.21444
0.19837
-0.0081574
-0.14408
0.054018
-0.081496
0.080475
-0.052755
-0.030788
0.14803
-0.26494
0.17538
0.095608
-0.083984
-0.25723
-0.2873
-0.14531
-0.33519
-0.38826
0.23692
0.45829
0.19391
0.28846
0.4835
-0.30653
0.53634
-0.54315
0.75448
0.43196
-0.62523
0.63265
-0.49233
0.67837
0.71068
0.75453
0.48287
0.41553
-0.63906
-0.85502
-0.54874
0.7346
-0.76054
0.76544
-0.96483
-0.80647
-0.82609
0.71335
-1.0381
0.89467
0.78105
-0.95273
-0.80771
-1.0004
-1.1825
-0.80472
-0.84017
1.3678
-1.1338
1.1414
-1.3809
-1.1883
-1.2027
-1.1288
1.2522
1.1598
1.1811
1.3234
1.2401
-1.2267
