0,0,3.0255,-13.927,0,0,0,-10.421,-0.29359,0,0,0,0.83411,0,-0.83411,0.83411,-0.83411,0,-0.83411,-0.83411,-0.83411,-0.83411,-0.83411,-0.83411,-0.83411,-0.83411,-0.83411,-0.83411,0,0.83411,0.83411,0.83411,0.83411,0.83411,0.83411,0.83411,0.83411,0.83411,0.83411,-0.83411,-0.83411,-0.83411,-0.83411,-0.83411,-0.83411,-0.83411,-0.83411,-0.83411,-0.83411,0,0.83411,0.83411,0.83411,0.83411,0.83411,0.83411,0.83411,0.83411,0.83411,0.83411,-0.83411,-0.83411,-0.83411,-0.83411,-0.83411,-0.83411,-0.83411,-0.83411,-0.83411,-0.83411,0,0.83411,0.83411,0.83411,0.83411,0.83411,0.83411,0.83411,0.83411,0.83411,0.83411,0,0,0
0,0,4.6741,11.22,0,0,0,-8.8793,-8.3662,0,0,0,0.78566,0,-0.78566,0.78566,-0.78566,0,-0.78566,-0.78566,-0.78566,-0.78566,-0.78566,-0.78566,-0.78566,-0.78566,-0.78566,-0.78566,0,0.78566,0.78566,0.78566,0.78566,0.78566,0.78566,0.78566,0.78566,0.78566,0.78566,-0.78566,-0.78566,-0.78566,-0.78566,-0.78566,-0.78566,-0.78566,-0.78566,-0.78566,-0.78566,0,0.78566,0.78566,0.78566,0.78566,0.78566,0.78566,0.78566,0.78566,0.78566,0.78566,-0.78566,-0.78566,-0.78566,-0.78566,-0.78566,-0.78566,-0.78566,-0.78566,-0.78566,-0.78566,0,0.78566,0.78566,0.78566,0.78566,0.78566,0.78566,0.78566,0.78566,0.78566,0.78566,0,0,0
0,0,10.175,13.096,0,0,0,-8.9943,-84.414,0,0,0,-0.49395,0,0.49395,-0.49395,0.49395,0,0.49395,0.49395,0.49395,0.49395,0.49395,0.49395,0.49395,0.49395,0.49395,0.49395,0,-0.49395,-0.49395,-0.49395,-0.49395,-0.49395,-0.49395,-0.49395,-0.49395,-0.49395,-0.49395,0.49395,0.49395,0.49395,0.49395,0.49395,0.49395,0.49395,0.49395,0.49395,0.49395,0,-0.49395,-0.49395,-0.49395,-0.49395,-0.49395,-0.49395,-0.49395,-0.49395,-0.49395,-0.49395,0.49395,0.49395,0.49395,0.49395,0.49395,0.49395,0.49395,0.49395,0.49395,0.49395,0,-0.49395,-0.49395,-0.49395,-0.49395,-0.49395,-0.49395,-0.49395,-0.49395,-0.49395,-0.49395,0,0,0
0,0,-8.6004,0.55559,0,0,0,-13.781,4.2809,0,0,0,0.50208,0,-0.50208,0.50208,-0.50208,0,-0.50208,-0.50208,-0.50208,-0.50208,-0.50208,-0.50208,-0.50208,-0.50208,-0.50208,-0.50208,0,0.50208,0.50208,0.50208,0.50208,0.50208,0.50208,0.50208,0.50208,0.50208,0.50208,-0.50208,-0.50208,-0.50208,-0.50208,-0.50208,-0.50208,-0.50208,-0.50208,-0.50208,-0.50208,0,0.50208,0.50208,0.50208,0.50208,0.50208,0.50208,0.50208,0.50208,0.50208,0.50208,-0.50208,-0.50208,-0.50208,-0.50208,-0.50208,-0.50208,-0.50208,-0.50208,-0.50208,-0.50208,0,0.50208,0.50208,0.50208,0.50208,0.50208,0.50208,0.50208,0.50208,0.50208,0.50208,0,0,0
0,0,-14.254,-1.9179,0,0,0,-11.291,-0.90174,0,0,0,-0.0057457,0,0.0057457,-0.0057457,0.0057457,0,0.0057457,0.0057457,0.0057457,0.0057457,0.0057457,0.0057457,0.0057457,0.0057457,0.0057457,0.0057457,0,-0.0057457,-0.0057457,-0.0057457,-0.0057457,-0.0057457,-0.0057457,-0.0057457,-0.0057457,-0.0057457,-0.0057457,0.0057457,0.0057457,0.0057457,0.0057457,0.0057457,0.0057457,0.0057457,0.0057457,0.0057457,0.0057457,0,-0.0057457,-0.0057457,-0.0057457,-0.0057457,-0.0057457,-0.0057457,-0.0057457,-0.0057457,-0.0057457,-0.0057457,0.0057457,0.0057457,0.0057457,0.0057457,0.0057457,0.0057457,0.0057457,0.0057457,0.0057457,0.0057457,0,-0.0057457,-0.0057457,-0.0057457,-0.0057457,-0.0057457,-0.0057457,-0.0057457,-0.0057457,-0.0057457,-0.0057457,0,0,0
0,0,8.5949,11.131,0,0,0,-0.22204,11.858,0,0,0,-0.62509,0,0.62509,-0.62509,0.62509,0,0.62509,0.62509,0.62509,0.62509,0.62509,0.62509,0.62509,0.62509,0.62509,0.62509,0,-0.62509,-0.62509,-0.62509,-0.62509,-0.62509,-0.62509,-0.62509,-0.62509,-0.62509,-0.62509,0.62509,0.62509,0.62509,0.62509,0.62509,0.62509,0.62509,0.62509,0.62509,0.62509,0,-0.62509,-0.62509,-0.62509,-0.62509,-0.62509,-0.62509,-0.62509,-0.62509,-0.62509,-0.62509,0.62509,0.62509,0.62509,0.62509,0.62509,0.62509,0.62509,0.62509,0.62509,0.62509,0,-0.62509,-0.62509,-0.62509,-0.62509,-0.62509,-0.62509,-0.62509,-0.62509,-0.62509,-0.62509,0,0,0
0,0,12.209,-8.9744,0,0,0,10.809,3.1018,0,0,0,0.805,0,-0.805,0.805,-0.805,0,-0.805,-0.805,-0.805,-0.805,-0.805,-0.805,-0.805,-0.805,-0.805,-0.805,0,0.805,0.805,0.805,0.805,0.805,0.805,0.805,0.805,0.805,0.805,-0.805,-0.805,-0.805,-0.805,-0.805,-0.805,-0.805,-0.805,-0.805,-0.805,0,0.805,0.805,0.805,0.805,0.805,0.805,0.805,0.805,0.805,0.805,-0.805,-0.805,-0.805,-0.805,-0.805,-0.805,-0.805,-0.805,-0.805,-0.805,0,0.805,0.805,0.805,0.805,0.805,0.805,0.805,0.805,0.805,0.805,0,0,0
0,0,-3.2554,-3.1743,0,0,0,-12.399,-11.093,0,0,0,0.54425,0,-0.54425,0.54425,-0.54425,0,-0.54425,-0.54425,-0.54425,-0.54425,-0.54425,-0.54425,-0.54425,-0.54425,-0.54425,-0.54425,0,0.54425,0.54425,0.54425,0.54425,0.54425,0.54425,0.54425,0.54425,0.54425,0.54425,-0.54425,-0.54425,-0.54425,-0.54425,-0.54425,-0.54425,-0.54425,-0.54425,-0.54425,-0.54425,0,0.54425,0.54425,0.54425,0.54425,0.54425,0.54425,0.54425,0.54425,0.54425,0.54425,-0.54425,-0.54425,-0.54425,-0.54425,-0.54425,-0.54425,-0.54425,-0.54425,-0.54425,-0.54425,0,0.54425,0.54425,0.54425,0.54425,0.54425,0.54425,0.54425,0.54425,0.54425,0.54425,0,0,0
0,0,4.0823,-15.551,0,0,0,8.4903,8.8563,0,0,0,0.79038,0,-0.79038,0.79038,-0.79038,0,-0.79038,-0.79038,-0.79038,-0.79038,-0.79038,-0.79038,-0.79038,-0.79038,-0.79038,-0.79038,0,0.79038,0.79038,0.79038,0.79038,0.79038,0.79038,0.79038,0.79038,0.79038,0.79038,-0.79038,-0.79038,-0.79038,-0.79038,-0.79038,-0.79038,-0.79038,-0.79038,-0.79038,-0.79038,0,0.79038,0.79038,0.79038,0.79038,0.79038,0.79038,0.79038,0.79038,0.79038,0.79038,-0.79038,-0.79038,-0.79038,-0.79038,-0.79038,-0.79038,-0.79038,-0.79038,-0.79038,-0.79038,0,0.79038,0.79038,0.79038,0.79038,0.79038,0.79038,0.79038,0.79038,0.79038,0.79038,0,0,0
0,0,-3.0185,13.311,0,0,0,4.0414,-10.008,0,0,0,-0.051363,0,0.051363,-0.051363,0.051363,0,0.051363,0.051363,0.051363,0.051363,0.051363,0.051363,0.051363,0.051363,0.051363,0.051363,0,-0.051363,-0.051363,-0.051363,-0.051363,-0.051363,-0.051363,-0.051363,-0.051363,-0.051363,-0.051363,0.051363,0.051363,0.051363,0.051363,0.051363,0.051363,0.051363,0.051363,0.051363,0.051363,0,-0.051363,-0.051363,-0.051363,-0.051363,-0.051363,-0.051363,-0.051363,-0.051363,-0.051363,-0.051363,0.051363,0.051363,0.051363,0.051363,0.051363,0.051363,0.051363,0.051363,0.051363,0.051363,0,-0.051363,-0.051363,-0.051363,-0.051363,-0.051363,-0.051363,-0.051363,-0.051363,-0.051363,-0.051363,0,0,0
0,0,0.70096,6.1401,0,0,0,1.024,-9.0142,0,0,0,0.27211,0,-0.27211,0.27211,-0.27211,0,-0.27211,-0.27211,-0.27211,-0.27211,-0.27211,-0.27211,-0.27211,-0.27211,-0.27211,-0.27211,0,0.27211,0.27211,0.27211,0.27211,0.27211,0.27211,0.27211,0.27211,0.27211,0.27211,-0.27211,-0.27211,-0.27211,-0.27211,-0.27211,-0.27211,-0.27211,-0.27211,-0.27211,-0.27211,0,0.27211,0.27211,0.27211,0.27211,0.27211,0.27211,0.27211,0.27211,0.27211,0.27211,-0.27211,-0.27211,-0.27211,-0.27211,-0.27211,-0.27211,-0.27211,-0.27211,-0.27211,-0.27211,0,0.27211,0.27211,0.27211,0.27211,0.27211,0.27211,0.27211,0.27211,0.27211,0.27211,0,0,0
0,0,8.5121,10.63,0,0,0,8.7895,-7.8398,0,0,0,-0.6069,0,0.6069,-0.6069,0.6069,0,0.6069,0.6069,0.6069,0.6069,0.6069,0.6069,0.6069,0.6069,0.6069,0.6069,0,-0.6069,-0.6069,-0.6069,-0.6069,-0.6069,-0.6069,-0.6069,-0.6069,-0.6069,-0.6069,0.6069,0.6069,0.6069,0.6069,0.6069,0.6069,0.6069,0.6069,0.6069,0.6069,0,-0.6069,-0.6069,-0.6069,-0.6069,-0.6069,-0.6069,-0.6069,-0.6069,-0.6069,-0.6069,0.6069,0.6069,0.6069,0.6069,0.6069,0.6069,0.6069,0.6069,0.6069,0.6069,0,-0.6069,-0.6069,-0.6069,-0.6069,-0.6069,-0.6069,-0.6069,-0.6069,-0.6069,-0.6069,0,0,0
0,0,4.1044,-6.2605,0,0,0,-15.496,4.5611,0,0,0,0.83411,0,-0.83411,0.83411,-0.83411,0,-0.83411,-0.83411,-0.83411,-0.83411,-0.83411,-0.83411,-0.83411,-0.83411,-0.83411,-0.83411,0,0.83411,0.83411,0.83411,0.83411,0.83411,0.83411,0.83411,0.83411,0.83411,0.83411,-0.83411,-0.83411,-0.83411,-0.83411,-0.83411,-0.83411,-0.83411,-0.83411,-0.83411,-0.83411,0,0.83411,0.83411,0.83411,0.83411,0.83411,0.83411,0.83411,0.83411,0.83411,0.83411,-0.83411,-0.83411,-0.83411,-0.83411,-0.83411,-0.83411,-0.83411,-0.83411,-0.83411,-0.83411,0,0.83411,0.83411,0.83411,0.83411,0.83411,0.83411,0.83411,0.83411,0.83411,0.83411,0,0,0
0,0,-9.8361,11.773,0,0,0,10.855,-0.03574,0,0,0,0.61253,0,-0.61253,0.61253,-0.61253,0,-0.61253,-0.61253,-0.61253,-0.61253,-0.61253,-0.61253,-0.61253,-0.61253,-0.61253,-0.61253,0,0.61253,0.61253,0.61253,0.61253,0.61253,0.61253,0.61253,0.61253,0.61253,0.61253,-0.61253,-0.61253,-0.61253,-0.61253,-0.61253,-0.61253,-0.61253,-0.61253,-0.61253,-0.61253,0,0.61253,0.61253,0.61253,0.61253,0.61253,0.61253,0.61253,0.61253,0.61253,0.61253,-0.61253,-0.61253,-0.61253,-0.61253,-0.61253,-0.61253,-0.61253,-0.61253,-0.61253,-0.61253,0,0.61253,0.61253,0.61253,0.61253,0.61253,0.61253,0.61253,0.61253,0.61253,0.61253,0,0,0
0,0,13.197,-11.529,0,0,0,4.0044,-1.8457,0,0,0,0.77363,0,-0.77363,0.77363,-0.77363,0,-0.77363,-0.77363,-0.77363,-0.77363,-0.77363,-0.77363,-0.77363,-0.77363,-0.77363,-0.77363,0,0.77363,0.77363,0.77363,0.77363,0.77363,0.77363,0.77363,0.77363,0.77363,0.77363,-0.77363,-0.77363,-0.77363,-0.77363,-0.77363,-0.77363,-0.77363,-0.77363,-0.77363,-0.77363,0,0.77363,0.77363,0.77363,0.77363,0.77363,0.77363,0.77363,0.77363,0.77363,0.77363,-0.77363,-0.77363,-0.77363,-0.77363,-0.77363,-0.77363,-0.77363,-0.77363,-0.77363,-0.77363,0,0.77363,0.77363,0.77363,0.77363,0.77363,0.77363,0.77363,0.77363,0.77363,0.77363,0,0,0
0,0,8.2267,-11.005,0,0,0,6.8346,9.8916,0,0,0,-0.61687,0,0.61687,-0.61687,0.61687,0,0.61687,0.61687,0.61687,0.61687,0.61687,0.61687,0.61687,0.61687,0.61687,0.61687,0,-0.61687,-0.61687,-0.61687,-0.61687,-0.61687,-0.61687,-0.61687,-0.61687,-0.61687,-0.61687,0.61687,0.61687,0.61687,0.61687,0.61687,0.61687,0.61687,0.61687,0.61687,0.61687,0,-0.61687,-0.61687,-0.61687,-0.61687,-0.61687,-0.61687,-0.61687,-0.61687,-0.61687,-0.61687,0.61687,0.61687,0.61687,0.61687,0.61687,0.61687,0.61687,0.61687,0.61687,0.61687,0,-0.61687,-0.61687,-0.61687,-0.61687,-0.61687,-0.61687,-0.61687,-0.61687,-0.61687,-0.61687,0,0,0
0,0,3.7718,-3.2056,0,0,0,0.78115,-6.178,0,0,0,-0.030541,0,0.030541,-0.030541,0.030541,0,0.030541,0.030541,0.030541,0.030541,0.030541,0.030541,0.030541,0.030541,0.030541,0.030541,0,-0.030541,-0.030541,-0.030541,-0.030541,-0.030541,-0.030541,-0.030541,-0.030541,-0.030541,-0.030541,0.030541,0.030541,0.030541,0.030541,0.030541,0.030541,0.030541,0.030541,0.030541,0.030541,0,-0.030541,-0.030541,-0.030541,-0.030541,-0.030541,-0.030541,-0.030541,-0.030541,-0.030541,-0.030541,0.030541,0.030541,0.030541,0.030541,0.030541,0.030541,0.030541,0.030541,0.030541,0.030541,0,-0.030541,-0.030541,-0.030541,-0.030541,-0.030541,-0.030541,-0.030541,-0.030541,-0.030541,-0.030541,0,0,0
0,0,6.5816,-9.808,0,0,0,-7.1868,6.927,0,0,0,0.20742,0,-0.20742,0.20742,-0.20742,0,-0.20742,-0.20742,-0.20742,-0.20742,-0.20742,-0.20742,-0.20742,-0.20742,-0.20742,-0.20742,0,0.20742,0.20742,0.20742,0.20742,0.20742,0.20742,0.20742,0.20742,0.20742,0.20742,-0.20742,-0.20742,-0.20742,-0.20742,-0.20742,-0.20742,-0.20742,-0.20742,-0.20742,-0.20742,0,0.20742,0.20742,0.20742,0.20742,0.20742,0.20742,0.20742,0.20742,0.20742,0.20742,-0.20742,-0.20742,-0.20742,-0.20742,-0.20742,-0.20742,-0.20742,-0.20742,-0.20742,-0.20742,0,0.20742,0.20742,0.20742,0.20742,0.20742,0.20742,0.20742,0.20742,0.20742,0.20742,0,0,0
0,0,1.3836,-8.9949,0,0,0,-4.2065,14.456,0,0,0,-0.48343,0,0.48343,-0.48343,0.48343,0,0.48343,0.48343,0.48343,0.48343,0.48343,0.48343,0.48343,0.48343,0.48343,0.48343,0,-0.48343,-0.48343,-0.48343,-0.48343,-0.48343,-0.48343,-0.48343,-0.48343,-0.48343,-0.48343,0.48343,0.48343,0.48343,0.48343,0.48343,0.48343,0.48343,0.48343,0.48343,0.48343,0,-0.48343,-0.48343,-0.48343,-0.48343,-0.48343,-0.48343,-0.48343,-0.48343,-0.48343,-0.48343,0.48343,0.48343,0.48343,0.48343,0.48343,0.48343,0.48343,0.48343,0.48343,0.48343,0,-0.48343,-0.48343,-0.48343,-0.48343,-0.48343,-0.48343,-0.48343,-0.48343,-0.48343,-0.48343,0,0,0
0,0,-10.24,-9.1749,0,0,0,-5.1621,-9.4547,0,0,0,0.64491,0,-0.64491,0.64491,-0.64491,0,-0.64491,-0.64491,-0.64491,-0.64491,-0.64491,-0.64491,-0.64491,-0.64491,-0.64491,-0.64491,0,0.64491,0.64491,0.64491,0.64491,0.64491,0.64491,0.64491,0.64491,0.64491,0.64491,-0.64491,-0.64491,-0.64491,-0.64491,-0.64491,-0.64491,-0.64491,-0.64491,-0.64491,-0.64491,0,0.64491,0.64491,0.64491,0.64491,0.64491,0.64491,0.64491,0.64491,0.64491,0.64491,-0.64491,-0.64491,-0.64491,-0.64491,-0.64491,-0.64491,-0.64491,-0.64491,-0.64491,-0.64491,0,0.64491,0.64491,0.64491,0.64491,0.64491,0.64491,0.64491,0.64491,0.64491,0.64491,0,0,0
0,0,10.767,-0.85485,0,0,0,5.0329,11.958,0,0,0,0.082296,0,-0.082296,0.082296,-0.082296,0,-0.082296,-0.082296,-0.082296,-0.082296,-0.082296,-0.082296,-0.082296,-0.082296,-0.082296,-0.082296,0,0.082296,0.082296,0.082296,0.082296,0.082296,0.082296,0.082296,0.082296,0.082296,0.082296,-0.082296,-0.082296,-0.082296,-0.082296,-0.082296,-0.082296,-0.082296,-0.082296,-0.082296,-0.082296,0,0.082296,0.082296,0.082296,0.082296,0.082296,0.082296,0.082296,0.082296,0.082296,0.082296,-0.082296,-0.082296,-0.082296,-0.082296,-0.082296,-0.082296,-0.082296,-0.082296,-0.082296,-0.082296,0,0.082296,0.082296,0.082296,0.082296,0.082296,0.082296,0.082296,0.082296,0.082296,0.082296,0,0,0
0,0,12.46,-1.707,0,0,0,5.3529,-12.767,0,0,0,0.83411,0,-0.83411,0.83411,-0.83411,0,-0.83411,-0.83411,-0.83411,-0.83411,-0.83411,-0.83411,-0.83411,-0.83411,-0.83411,-0.83411,0,0.83411,0.83411,0.83411,0.83411,0.83411,0.83411,0.83411,0.83411,0.83411,0.83411,-0.83411,-0.83411,-0.83411,-0.83411,-0.83411,-0.83411,-0.83411,-0.83411,-0.83411,-0.83411,0,0.83411,0.83411,0.83411,0.83411,0.83411,0.83411,0.83411,0.83411,0.83411,0.83411,-0.83411,-0.83411,-0.83411,-0.83411,-0.83411,-0.83411,-0.83411,-0.83411,-0.83411,-0.83411,0,0.83411,0.83411,0.83411,0.83411,0.83411,0.83411,0.83411,0.83411,0.83411,0.83411,0,0,0
0,0,-13.91,-11.778,0,0,0,-0.42239,3.6429,0,0,0,0.063101,0,-0.063101,0.063101,-0.063101,0,-0.063101,-0.063101,-0.063101,-0.063101,-0.063101,-0.063101,-0.063101,-0.063101,-0.063101,-0.063101,0,0.063101,0.063101,0.063101,0.063101,0.063101,0.063101,0.063101,0.063101,0.063101,0.063101,-0.063101,-0.063101,-0.063101,-0.063101,-0.063101,-0.063101,-0.063101,-0.063101,-0.063101,-0.063101,0,0.063101,0.063101,0.063101,0.063101,0.063101,0.063101,0.063101,0.063101,0.063101,0.063101,-0.063101,-0.063101,-0.063101,-0.063101,-0.063101,-0.063101,-0.063101,-0.063101,-0.063101,-0.063101,0,0.063101,0.063101,0.063101,0.063101,0.063101,0.063101,0.063101,0.063101,0.063101,0.063101,0,0,0
0,0,-2.5514,10.647,0,0,0,2.4661,15.503,0,0,0,0.59925,0,-0.59925,0.59925,-0.59925,0,-0.59925,-0.59925,-0.59925,-0.59925,-0.59925,-0.59925,-0.59925,-0.59925,-0.59925,-0.59925,0,0.59925,0.59925,0.59925,0.59925,0.59925,0.59925,0.59925,0.59925,0.59925,0.59925,-0.59925,-0.59925,-0.59925,-0.59925,-0.59925,-0.59925,-0.59925,-0.59925,-0.59925,-0.59925,0,0.59925,0.59925,0.59925,0.59925,0.59925,0.59925,0.59925,0.59925,0.59925,0.59925,-0.59925,-0.59925,-0.59925,-0.59925,-0.59925,-0.59925,-0.59925,-0.59925,-0.59925,-0.59925,0,0.59925,0.59925,0.59925,0.59925,0.59925,0.59925,0.59925,0.59925,0.59925,0.59925,0,0,0
0,0,-10.904,-10.719,0,0,0,-5.1281,-8.3483,0,0,0,0.14776,0,-0.14776,0.14776,-0.14776,0,-0.14776,-0.14776,-0.14776,-0.14776,-0.14776,-0.14776,-0.14776,-0.14776,-0.14776,-0.14776,0,0.14776,0.14776,0.14776,0.14776,0.14776,0.14776,0.14776,0.14776,0.14776,0.14776,-0.14776,-0.14776,-0.14776,-0.14776,-0.14776,-0.14776,-0.14776,-0.14776,-0.14776,-0.14776,0,0.14776,0.14776,0.14776,0.14776,0.14776,0.14776,0.14776,0.14776,0.14776,0.14776,-0.14776,-0.14776,-0.14776,-0.14776,-0.14776,-0.14776,-0.14776,-0.14776,-0.14776,-0.14776,0,0.14776,0.14776,0.14776,0.14776,0.14776,0.14776,0.14776,0.14776,0.14776,0.14776,0,0,0
0,0,-0.15733,9.2014,0,0,0,-10.545,-5.5299,0,0,0,0.065968,0,-0.065968,0.065968,-0.065968,0,-0.065968,-0.065968,-0.065968,-0.065968,-0.065968,-0.065968,-0.065968,-0.065968,-0.065968,-0.065968,0,0.065968,0.065968,0.065968,0.065968,0.065968,0.065968,0.065968,0.065968,0.065968,0.065968,-0.065968,-0.065968,-0.065968,-0.065968,-0.065968,-0.065968,-0.065968,-0.065968,-0.065968,-0.065968,0,0.065968,0.065968,0.065968,0.065968,0.065968,0.065968,0.065968,0.065968,0.065968,0.065968,-0.065968,-0.065968,-0.065968,-0.065968,-0.065968,-0.065968,-0.065968,-0.065968,-0.065968,-0.065968,0,0.065968,0.065968,0.065968,0.065968,0.065968,0.065968,0.065968,0.065968,0.065968,0.065968,0,0,0
0,0,-13.388,-8.7567,0,0,0,-9.3693,-7.5027,0,0,0,0.15832,0,-0.15832,0.15832,-0.15832,0,-0.15832,-0.15832,-0.15832,-0.15832,-0.15832,-0.15832,-0.15832,-0.15832,-0.15832,-0.15832,0,0.15832,0.15832,0.15832,0.15832,0.15832,0.15832,0.15832,0.15832,0.15832,0.15832,-0.15832,-0.15832,-0.15832,-0.15832,-0.15832,-0.15832,-0.15832,-0.15832,-0.15832,-0.15832,0,0.15832,0.15832,0.15832,0.15832,0.15832,0.15832,0.15832,0.15832,0.15832,0.15832,-0.15832,-0.15832,-0.15832,-0.15832,-0.15832,-0.15832,-0.15832,-0.15832,-0.15832,-0.15832,0,0.15832,0.15832,0.15832,0.15832,0.15832,0.15832,0.15832,0.15832,0.15832,0.15832,0,0,0
0,0,-1.6877,6.6872,0,0,0,-9.4007,-12.175,0,0,0,0.04245,0,-0.04245,0.04245,-0.04245,0,-0.04245,-0.04245,-0.04245,-0.04245,-0.04245,-0.04245,-0.04245,-0.04245,-0.04245,-0.04245,0,0.04245,0.04245,0.04245,0.04245,0.04245,0.04245,0.04245,0.04245,0.04245,0.04245,-0.04245,-0.04245,-0.04245,-0.04245,-0.04245,-0.04245,-0.04245,-0.04245,-0.04245,-0.04245,0,0.04245,0.04245,0.04245,0.04245,0.04245,0.04245,0.04245,0.04245,0.04245,0.04245,-0.04245,-0.04245,-0.04245,-0.04245,-0.04245,-0.04245,-0.04245,-0.04245,-0.04245,-0.04245,0,0.04245,0.04245,0.04245,0.04245,0.04245,0.04245,0.04245,0.04245,0.04245,0.04245,0,0,0
0,0,-0.57489,4.5492,0,0,0,-7.2951,-14.624,0,0,0,0.095643,0,-0.095643,0.095643,-0.095643,0,-0.095643,-0.095643,-0.095643,-0.095643,-0.095643,-0.095643,-0.095643,-0.095643,-0.095643,-0.095643,0,0.095643,0.095643,0.095643,0.095643,0.095643,0.095643,0.095643,0.095643,0.095643,0.095643,-0.095643,-0.095643,-0.095643,-0.095643,-0.095643,-0.095643,-0.095643,-0.095643,-0.095643,-0.095643,0,0.095643,0.095643,0.095643,0.095643,0.095643,0.095643,0.095643,0.095643,0.095643,0.095643,-0.095643,-0.095643,-0.095643,-0.095643,-0.095643,-0.095643,-0.095643,-0.095643,-0.095643,-0.095643,0,0.095643,0.095643,0.095643,0.095643,0.095643,0.095643,0.095643,0.095643,0.095643,0.095643,0,0,0
0,0,-1.843,10.446,0,0,0,495.83,-12.411,0,0,0,0.6601,0,-0.6601,0.6601,-0.6601,0,-0.6601,-0.6601,-0.6601,-0.6601,-0.6601,-0.6601,-0.6601,-0.6601,-0.6601,-0.6601,0,0.6601,0.6601,0.6601,0.6601,0.6601,0.6601,0.6601,0.6601,0.6601,0.6601,-0.6601,-0.6601,-0.6601,-0.6601,-0.6601,-0.6601,-0.6601,-0.6601,-0.6601,-0.6601,0,0.6601,0.6601,0.6601,0.6601,0.6601,0.6601,0.6601,0.6601,0.6601,0.6601,-0.6601,-0.6601,-0.6601,-0.6601,-0.6601,-0.6601,-0.6601,-0.6601,-0.6601,-0.6601,0,0.6601,0.6601,0.6601,0.6601,0.6601,0.6601,0.6601,0.6601,0.6601,0.6601,0,0,0
0,0,-6.2759,0.51647,0,0,0,-15.833,0.89012,0,0,0,0.0791,0,-0.0791,0.0791,-0.0791,0,-0.0791,-0.0791,-0.0791,-0.0791,-0.0791,-0.0791,-0.0791,-0.0791,-0.0791,-0.0791,0,0.0791,0.0791,0.0791,0.0791,0.0791,0.0791,0.0791,0.0791,0.0791,0.0791,-0.0791,-0.0791,-0.0791,-0.0791,-0.0791,-0.0791,-0.0791,-0.0791,-0.0791,-0.0791,0,0.0791,0.0791,0.0791,0.0791,0.0791,0.0791,0.0791,0.0791,0.0791,0.0791,-0.0791,-0.0791,-0.0791,-0.0791,-0.0791,-0.0791,-0.0791,-0.0791,-0.0791,-0.0791,0,0.0791,0.0791,0.0791,0.0791,0.0791,0.0791,0.0791,0.0791,0.0791,0.0791,0,0,0
0,0,1.229,9.82,0,0,0,8.6475,6.978,0,0,0,-0.096136,0,0.096136,-0.096136,0.096136,0,0.096136,0.096136,0.096136,0.096136,0.096136,0.096136,0.096136,0.096136,0.096136,0.096136,0,-0.096136,-0.096136,-0.096136,-0.096136,-0.096136,-0.096136,-0.096136,-0.096136,-0.096136,-0.096136,0.096136,0.096136,0.096136,0.096136,0.096136,0.096136,0.096136,0.096136,0.096136,0.096136,0,-0.096136,-0.096136,-0.096136,-0.096136,-0.096136,-0.096136,-0.096136,-0.096136,-0.096136,-0.096136,0.096136,0.096136,0.096136,0.096136,0.096136,0.096136,0.096136,0.096136,0.096136,0.096136,0,-0.096136,-0.096136,-0.096136,-0.096136,-0.096136,-0.096136,-0.096136,-0.096136,-0.096136,-0.096136,0,0,0
0,0,8.0195,0.76815,0,0,0,18.448,0.41066,0,0,0,-0.18504,0,0.18504,-0.18504,0.18504,0,0.18504,0.18504,0.18504,0.18504,0.18504,0.18504,0.18504,0.18504,0.18504,0.18504,0,-0.18504,-0.18504,-0.18504,-0.18504,-0.18504,-0.18504,-0.18504,-0.18504,-0.18504,-0.18504,0.18504,0.18504,0.18504,0.18504,0.18504,0.18504,0.18504,0.18504,0.18504,0.18504,0,-0.18504,-0.18504,-0.18504,-0.18504,-0.18504,-0.18504,-0.18504,-0.18504,-0.18504,-0.18504,0.18504,0.18504,0.18504,0.18504,0.18504,0.18504,0.18504,0.18504,0.18504,0.18504,0,-0.18504,-0.18504,-0.18504,-0.18504,-0.18504,-0.18504,-0.18504,-0.18504,-0.18504,-0.18504,0,0,0
0,0,-8.5426,-1.8981,0,0,0,-2.9227,-15.646,0,0,0,-0.0026699,0,0.0026699,-0.0026699,0.0026699,0,0.0026699,0.0026699,0.0026699,0.0026699,0.0026699,0.0026699,0.0026699,0.0026699,0.0026699,0.0026699,0,-0.0026699,-0.0026699,-0.0026699,-0.0026699,-0.0026699,-0.0026699,-0.0026699,-0.0026699,-0.0026699,-0.0026699,0.0026699,0.0026699,0.0026699,0.0026699,0.0026699,0.0026699,0.0026699,0.0026699,0.0026699,0.0026699,0,-0.0026699,-0.0026699,-0.0026699,-0.0026699,-0.0026699,-0.0026699,-0.0026699,-0.0026699,-0.0026699,-0.0026699,0.0026699,0.0026699,0.0026699,0.0026699,0.0026699,0.0026699,0.0026699,0.0026699,0.0026699,0.0026699,0,-0.0026699,-0.0026699,-0.0026699,-0.0026699,-0.0026699,-0.0026699,-0.0026699,-0.0026699,-0.0026699,-0.0026699,0,0,0
0,0,8.9377,-13.775,0,0,0,-2.6985,-6.7095,0,0,0,-0.094051,0,0.094051,-0.094051,0.094051,0,0.094051,0.094051,0.094051,0.094051,0.094051,0.094051,0.094051,0.094051,0.094051,0.094051,0,-0.094051,-0.094051,-0.094051,-0.094051,-0.094051,-0.094051,-0.094051,-0.094051,-0.094051,-0.094051,0.094051,0.094051,0.094051,0.094051,0.094051,0.094051,0.094051,0.094051,0.094051,0.094051,0,-0.094051,-0.094051,-0.094051,-0.094051,-0.094051,-0.094051,-0.094051,-0.094051,-0.094051,-0.094051,0.094051,0.094051,0.094051,0.094051,0.094051,0.094051,0.094051,0.094051,0.094051,0.094051,0,-0.094051,-0.094051,-0.094051,-0.094051,-0.094051,-0.094051,-0.094051,-0.094051,-0.094051,-0.094051,0,0,0
0,0,9.3065,-10.422,0,0,0,-12.812,-1.5652,0,0,0,0.65723,0,-0.65723,0.65723,-0.65723,0,-0.65723,-0.65723,-0.65723,-0.65723,-0.65723,-0.65723,-0.65723,-0.65723,-0.65723,-0.65723,0,0.65723,0.65723,0.65723,0.65723,0.65723,0.65723,0.65723,0.65723,0.65723,0.65723,-0.65723,-0.65723,-0.65723,-0.65723,-0.65723,-0.65723,-0.65723,-0.65723,-0.65723,-0.65723,0,0.65723,0.65723,0.65723,0.65723,0.65723,0.65723,0.65723,0.65723,0.65723,0.65723,-0.65723,-0.65723,-0.65723,-0.65723,-0.65723,-0.65723,-0.65723,-0.65723,-0.65723,-0.65723,0,0.65723,0.65723,0.65723,0.65723,0.65723,0.65723,0.65723,0.65723,0.65723,0.65723,0,0,0
0,0,-16.223,-7.7865,0,0,0,5.0314,-0.58774,0,0,0,-0.72333,0,0.72333,-0.72333,0.72333,0,0.72333,0.72333,0.72333,0.72333,0.72333,0.72333,0.72333,0.72333,0.72333,0.72333,0,-0.72333,-0.72333,-0.72333,-0.72333,-0.72333,-0.72333,-0.72333,-0.72333,-0.72333,-0.72333,0.72333,0.72333,0.72333,0.72333,0.72333,0.72333,0.72333,0.72333,0.72333,0.72333,0,-0.72333,-0.72333,-0.72333,-0.72333,-0.72333,-0.72333,-0.72333,-0.72333,-0.72333,-0.72333,0.72333,0.72333,0.72333,0.72333,0.72333,0.72333,0.72333,0.72333,0.72333,0.72333,0,-0.72333,-0.72333,-0.72333,-0.72333,-0.72333,-0.72333,-0.72333,-0.72333,-0.72333,-0.72333,0,0,0
0,0,-9.1852,5833.3,0,0,0,-3.3307,257.04,0,0,0,-0.082089,0,0.082089,-0.082089,0.082089,0,0.082089,0.082089,0.082089,0.082089,0.082089,0.082089,0.082089,0.082089,0.082089,0.082089,0,-0.082089,-0.082089,-0.082089,-0.082089,-0.082089,-0.082089,-0.082089,-0.082089,-0.082089,-0.082089,0.082089,0.082089,0.082089,0.082089,0.082089,0.082089,0.082089,0.082089,0.082089,0.082089,0,-0.082089,-0.082089,-0.082089,-0.082089,-0.082089,-0.082089,-0.082089,-0.082089,-0.082089,-0.082089,0.082089,0.082089,0.082089,0.082089,0.082089,0.082089,0.082089,0.082089,0.082089,0.082089,0,-0.082089,-0.082089,-0.082089,-0.082089,-0.082089,-0.082089,-0.082089,-0.082089,-0.082089,-0.082089,0,0,0
0,0,3.4192,5.1088,0,0,0,-3.1164,-9.6368,0,0,0,-0.08813,0,0.08813,-0.08813,0.08813,0,0.08813,0.08813,0.08813,0.08813,0.08813,0.08813,0.08813,0.08813,0.08813,0.08813,0,-0.08813,-0.08813,-0.08813,-0.08813,-0.08813,-0.08813,-0.08813,-0.08813,-0.08813,-0.08813,0.08813,0.08813,0.08813,0.08813,0.08813,0.08813,0.08813,0.08813,0.08813,0.08813,0,-0.08813,-0.08813,-0.08813,-0.08813,-0.08813,-0.08813,-0.08813,-0.08813,-0.08813,-0.08813,0.08813,0.08813,0.08813,0.08813,0.08813,0.08813,0.08813,0.08813,0.08813,0.08813,0,-0.08813,-0.08813,-0.08813,-0.08813,-0.08813,-0.08813,-0.08813,-0.08813,-0.08813,-0.08813,0,0,0
0,0,-4.1281,-3.6363,0,0,0,-11.349,-7.0878,0,0,0,0.044171,0,-0.044171,0.044171,-0.044171,0,-0.044171,-0.044171,-0.044171,-0.044171,-0.044171,-0.044171,-0.044171,-0.044171,-0.044171,-0.044171,0,0.044171,0.044171,0.044171,0.044171,0.044171,0.044171,0.044171,0.044171,0.044171,0.044171,-0.044171,-0.044171,-0.044171,-0.044171,-0.044171,-0.044171,-0.044171,-0.044171,-0.044171,-0.044171,0,0.044171,0.044171,0.044171,0.044171,0.044171,0.044171,0.044171,0.044171,0.044171,0.044171,-0.044171,-0.044171,-0.044171,-0.044171,-0.044171,-0.044171,-0.044171,-0.044171,-0.044171,-0.044171,0,0.044171,0.044171,0.044171,0.044171,0.044171,0.044171,0.044171,0.044171,0.044171,0.044171,0,0,0
0,0,8.7753,-15.85,0,0,0,12.804,12.714,0,0,0,-0.16269,0,0.16269,-0.16269,0.16269,0,0.16269,0.16269,0.16269,0.16269,0.16269,0.16269,0.16269,0.16269,0.16269,0.16269,0,-0.16269,-0.16269,-0.16269,-0.16269,-0.16269,-0.16269,-0.16269,-0.16269,-0.16269,-0.16269,0.16269,0.16269,0.16269,0.16269,0.16269,0.16269,0.16269,0.16269,0.16269,0.16269,0,-0.16269,-0.16269,-0.16269,-0.16269,-0.16269,-0.16269,-0.16269,-0.16269,-0.16269,-0.16269,0.16269,0.16269,0.16269,0.16269,0.16269,0.16269,0.16269,0.16269,0.16269,0.16269,0,-0.16269,-0.16269,-0.16269,-0.16269,-0.16269,-0.16269,-0.16269,-0.16269,-0.16269,-0.16269,0,0,0
0,0,3.9367,-6.7126,0,0,0,-8.6498,-14.891,0,0,0,-0.70941,0,0.70941,-0.70941,0.70941,0,0.70941,0.70941,0.70941,0.70941,0.70941,0.70941,0.70941,0.70941,0.70941,0.70941,0,-0.70941,-0.70941,-0.70941,-0.70941,-0.70941,-0.70941,-0.70941,-0.70941,-0.70941,-0.70941,0.70941,0.70941,0.70941,0.70941,0.70941,0.70941,0.70941,0.70941,0.70941,0.70941,0,-0.70941,-0.70941,-0.70941,-0.70941,-0.70941,-0.70941,-0.70941,-0.70941,-0.70941,-0.70941,0.70941,0.70941,0.70941,0.70941,0.70941,0.70941,0.70941,0.70941,0.70941,0.70941,0,-0.70941,-0.70941,-0.70941,-0.70941,-0.70941,-0.70941,-0.70941,-0.70941,-0.70941,-0.70941,0,0,0
0,0,-9.8199,-5.324,0,0,0,14.089,-14.498,0,0,0,-0.67895,0,0.67895,-0.67895,0.67895,0,0.67895,0.67895,0.67895,0.67895,0.67895,0.67895,0.67895,0.67895,0.67895,0.67895,0,-0.67895,-0.67895,-0.67895,-0.67895,-0.67895,-0.67895,-0.67895,-0.67895,-0.67895,-0.67895,0.67895,0.67895,0.67895,0.67895,0.67895,0.67895,0.67895,0.67895,0.67895,0.67895,0,-0.67895,-0.67895,-0.67895,-0.67895,-0.67895,-0.67895,-0.67895,-0.67895,-0.67895,-0.67895,0.67895,0.67895,0.67895,0.67895,0.67895,0.67895,0.67895,0.67895,0.67895,0.67895,0,-0.67895,-0.67895,-0.67895,-0.67895,-0.67895,-0.67895,-0.67895,-0.67895,-0.67895,-0.67895,0,0,0
0,0,-5.1516,-3.6639,0,0,0,6.8208,-0.89781,0,0,0,0.11671,0,-0.11671,0.11671,-0.11671,0,-0.11671,-0.11671,-0.11671,-0.11671,-0.11671,-0.11671,-0.11671,-0.11671,-0.11671,-0.11671,0,0.11671,0.11671,0.11671,0.11671,0.11671,0.11671,0.11671,0.11671,0.11671,0.11671,-0.11671,-0.11671,-0.11671,-0.11671,-0.11671,-0.11671,-0.11671,-0.11671,-0.11671,-0.11671,0,0.11671,0.11671,0.11671,0.11671,0.11671,0.11671,0.11671,0.11671,0.11671,0.11671,-0.11671,-0.11671,-0.11671,-0.11671,-0.11671,-0.11671,-0.11671,-0.11671,-0.11671,-0.11671,0,0.11671,0.11671,0.11671,0.11671,0.11671,0.11671,0.11671,0.11671,0.11671,0.11671,0,0,0
0,0,-6.5344,10.473,0,0,0,13.249,8.1336,0,0,0,-0.22493,0,0.22493,-0.22493,0.22493,0,0.22493,0.22493,0.22493,0.22493,0.22493,0.22493,0.22493,0.22493,0.22493,0.22493,0,-0.22493,-0.22493,-0.22493,-0.22493,-0.22493,-0.22493,-0.22493,-0.22493,-0.22493,-0.22493,0.22493,0.22493,0.22493,0.22493,0.22493,0.22493,0.22493,0.22493,0.22493,0.22493,0,-0.22493,-0.22493,-0.22493,-0.22493,-0.22493,-0.22493,-0.22493,-0.22493,-0.22493,-0.22493,0.22493,0.22493,0.22493,0.22493,0.22493,0.22493,0.22493,0.22493,0.22493,0.22493,0,-0.22493,-0.22493,-0.22493,-0.22493,-0.22493,-0.22493,-0.22493,-0.22493,-0.22493,-0.22493,0,0,0
0,0,12.262,-2.3939,0,0,0,-13.732,-1.6451,0,0,0,0.74844,0,-0.74844,0.74844,-0.74844,0,-0.74844,-0.74844,-0.74844,-0.74844,-0.74844,-0.74844,-0.74844,-0.74844,-0.74844,-0.74844,0,0.74844,0.74844,0.74844,0.74844,0.74844,0.74844,0.74844,0.74844,0.74844,0.74844,-0.74844,-0.74844,-0.74844,-0.74844,-0.74844,-0.74844,-0.74844,-0.74844,-0.74844,-0.74844,0,0.74844,0.74844,0.74844,0.74844,0.74844,0.74844,0.74844,0.74844,0.74844,0.74844,-0.74844,-0.74844,-0.74844,-0.74844,-0.74844,-0.74844,-0.74844,-0.74844,-0.74844,-0.74844,0,0.74844,0.74844,0.74844,0.74844,0.74844,0.74844,0.74844,0.74844,0.74844,0.74844,0,0,0
0,0,-9.5336,-17.54,0,0,0,-10.233,-2.1996,0,0,0,-0.7476,0,0.7476,-0.7476,0.7476,0,0.7476,0.7476,0.7476,0.7476,0.7476,0.7476,0.7476,0.7476,0.7476,0.7476,0,-0.7476,-0.7476,-0.7476,-0.7476,-0.7476,-0.7476,-0.7476,-0.7476,-0.7476,-0.7476,0.7476,0.7476,0.7476,0.7476,0.7476,0.7476,0.7476,0.7476,0.7476,0.7476,0,-0.7476,-0.7476,-0.7476,-0.7476,-0.7476,-0.7476,-0.7476,-0.7476,-0.7476,-0.7476,0.7476,0.7476,0.7476,0.7476,0.7476,0.7476,0.7476,0.7476,0.7476,0.7476,0,-0.7476,-0.7476,-0.7476,-0.7476,-0.7476,-0.7476,-0.7476,-0.7476,-0.7476,-0.7476,0,0,0
0,0,-10.378,2.116,0,0,0,14.32,-9.4334,0,0,0,0.62986,0,-0.62986,0.62986,-0.62986,0,-0.62986,-0.62986,-0.62986,-0.62986,-0.62986,-0.62986,-0.62986,-0.62986,-0.62986,-0.62986,0,0.62986,0.62986,0.62986,0.62986,0.62986,0.62986,0.62986,0.62986,0.62986,0.62986,-0.62986,-0.62986,-0.62986,-0.62986,-0.62986,-0.62986,-0.62986,-0.62986,-0.62986,-0.62986,0,0.62986,0.62986,0.62986,0.62986,0.62986,0.62986,0.62986,0.62986,0.62986,0.62986,-0.62986,-0.62986,-0.62986,-0.62986,-0.62986,-0.62986,-0.62986,-0.62986,-0.62986,-0.62986,0,0.62986,0.62986,0.62986,0.62986,0.62986,0.62986,0.62986,0.62986,0.62986,0.62986,0,0,0
0,0,-9.1029,-1.0669,0,0,0,12.736,-8.4741,0,0,0,0.049651,0,-0.049651,0.049651,-0.049651,0,-0.049651,-0.049651,-0.049651,-0.049651,-0.049651,-0.049651,-0.049651,-0.049651,-0.049651,-0.049651,0,0.049651,0.049651,0.049651,0.049651,0.049651,0.049651,0.049651,0.049651,0.049651,0.049651,-0.049651,-0.049651,-0.049651,-0.049651,-0.049651,-0.049651,-0.049651,-0.049651,-0.049651,-0.049651,0,0.049651,0.049651,0.049651,0.049651,0.049651,0.049651,0.049651,0.049651,0.049651,0.049651,-0.049651,-0.049651,-0.049651,-0.049651,-0.049651,-0.049651,-0.049651,-0.049651,-0.049651,-0.049651,0,0.049651,0.049651,0.049651,0.049651,0.049651,0.049651,0.049651,0.049651,0.049651,0.049651,0,0,0
0,0,-8.9625,-12.872,0,0,0,4.8298,8.2842,0,0,0,0.673,0,-0.673,0.673,-0.673,0,-0.673,-0.673,-0.673,-0.673,-0.673,-0.673,-0.673,-0.673,-0.673,-0.673,0,0.673,0.673,0.673,0.673,0.673,0.673,0.673,0.673,0.673,0.673,-0.673,-0.673,-0.673,-0.673,-0.673,-0.673,-0.673,-0.673,-0.673,-0.673,0,0.673,0.673,0.673,0.673,0.673,0.673,0.673,0.673,0.673,0.673,-0.673,-0.673,-0.673,-0.673,-0.673,-0.673,-0.673,-0.673,-0.673,-0.673,0,0.673,0.673,0.673,0.673,0.673,0.673,0.673,0.673,0.673,0.673,0,0,0
0,0,-6.5012,-7.2772,0,0,0,1.9584,-6.3177,0,0,0,-0.087052,0,0.087052,-0.087052,0.087052,0,0.087052,0.087052,0.087052,0.087052,0.087052,0.087052,0.087052,0.087052,0.087052,0.087052,0,-0.087052,-0.087052,-0.087052,-0.087052,-0.087052,-0.087052,-0.087052,-0.087052,-0.087052,-0.087052,0.087052,0.087052,0.087052,0.087052,0.087052,0.087052,0.087052,0.087052,0.087052,0.087052,0,-0.087052,-0.087052,-0.087052,-0.087052,-0.087052,-0.087052,-0.087052,-0.087052,-0.087052,-0.087052,0.087052,0.087052,0.087052,0.087052,0.087052,0.087052,0.087052,0.087052,0.087052,0.087052,0,-0.087052,-0.087052,-0.087052,-0.087052,-0.087052,-0.087052,-0.087052,-0.087052,-0.087052,-0.087052,0,0,0
0,0,-9.1882,-11.914,0,0,0,11.667,-6.6678,0,0,0,0.10081,0,-0.10081,0.10081,-0.10081,0,-0.10081,-0.10081,-0.10081,-0.10081,-0.10081,-0.10081,-0.10081,-0.10081,-0.10081,-0.10081,0,0.10081,0.10081,0.10081,0.10081,0.10081,0.10081,0.10081,0.10081,0.10081,0.10081,-0.10081,-0.10081,-0.10081,-0.10081,-0.10081,-0.10081,-0.10081,-0.10081,-0.10081,-0.10081,0,0.10081,0.10081,0.10081,0.10081,0.10081,0.10081,0.10081,0.10081,0.10081,0.10081,-0.10081,-0.10081,-0.10081,-0.10081,-0.10081,-0.10081,-0.10081,-0.10081,-0.10081,-0.10081,0,0.10081,0.10081,0.10081,0.10081,0.10081,0.10081,0.10081,0.10081,0.10081,0.10081,0,0,0
0,0,8.9766,12.255,0,0,0,18.988,-1.9851,0,0,0,0.22044,0,-0.22044,0.22044,-0.22044,0,-0.22044,-0.22044,-0.22044,-0.22044,-0.22044,-0.22044,-0.22044,-0.22044,-0.22044,-0.22044,0,0.22044,0.22044,0.22044,0.22044,0.22044,0.22044,0.22044,0.22044,0.22044,0.22044,-0.22044,-0.22044,-0.22044,-0.22044,-0.22044,-0.22044,-0.22044,-0.22044,-0.22044,-0.22044,0,0.22044,0.22044,0.22044,0.22044,0.22044,0.22044,0.22044,0.22044,0.22044,0.22044,-0.22044,-0.22044,-0.22044,-0.22044,-0.22044,-0.22044,-0.22044,-0.22044,-0.22044,-0.22044,0,0.22044,0.22044,0.22044,0.22044,0.22044,0.22044,0.22044,0.22044,0.22044,0.22044,0,0,0
0,0,-12.281,-11.47,0,0,0,1.7524,6.4992,0,0,0,0.61836,0,-0.61836,0.61836,-0.61836,0,-0.61836,-0.61836,-0.61836,-0.61836,-0.61836,-0.61836,-0.61836,-0.61836,-0.61836,-0.61836,0,0.61836,0.61836,0.61836,0.61836,0.61836,0.61836,0.61836,0.61836,0.61836,0.61836,-0.61836,-0.61836,-0.61836,-0.61836,-0.61836,-0.61836,-0.61836,-0.61836,-0.61836,-0.61836,0,0.61836,0.61836,0.61836,0.61836,0.61836,0.61836,0.61836,0.61836,0.61836,0.61836,-0.61836,-0.61836,-0.61836,-0.61836,-0.61836,-0.61836,-0.61836,-0.61836,-0.61836,-0.61836,0,0.61836,0.61836,0.61836,0.61836,0.61836,0.61836,0.61836,0.61836,0.61836,0.61836,0,0,0
0,0,5.1555,-2.4729,0,0,0,11.5,-8.7847,0,0,0,0.048731,0,-0.048731,0.048731,-0.048731,0,-0.048731,-0.048731,-0.048731,-0.048731,-0.048731,-0.048731,-0.048731,-0.048731,-0.048731,-0.048731,0,0.048731,0.048731,0.048731,0.048731,0.048731,0.048731,0.048731,0.048731,0.048731,0.048731,-0.048731,-0.048731,-0.048731,-0.048731,-0.048731,-0.048731,-0.048731,-0.048731,-0.048731,-0.048731,0,0.048731,0.048731,0.048731,0.048731,0.048731,0.048731,0.048731,0.048731,0.048731,0.048731,-0.048731,-0.048731,-0.048731,-0.048731,-0.048731,-0.048731,-0.048731,-0.048731,-0.048731,-0.048731,0,0.048731,0.048731,0.048731,0.048731,0.048731,0.048731,0.048731,0.048731,0.048731,0.048731,0,0,0
0,0,-8.4451,-2.5841,0,0,0,-6.7176,13.315,0,0,0,0.63907,0,-0.63907,0.63907,-0.63907,0,-0.63907,-0.63907,-0.63907,-0.63907,-0.63907,-0.63907,-0.63907,-0.63907,-0.63907,-0.63907,0,0.63907,0.63907,0.63907,0.63907,0.63907,0.63907,0.63907,0.63907,0.63907,0.63907,-0.63907,-0.63907,-0.63907,-0.63907,-0.63907,-0.63907,-0.63907,-0.63907,-0.63907,-0.63907,0,0.63907,0.63907,0.63907,0.63907,0.63907,0.63907,0.63907,0.63907,0.63907,0.63907,-0.63907,-0.63907,-0.63907,-0.63907,-0.63907,-0.63907,-0.63907,-0.63907,-0.63907,-0.63907,0,0.63907,0.63907,0.63907,0.63907,0.63907,0.63907,0.63907,0.63907,0.63907,0.63907,0,0,0
0,0,-5.91,11.31,0,0,0,12.765,-4.3724,0,0,0,0.63908,0,-0.63908,0.63908,-0.63908,0,-0.63908,-0.63908,-0.63908,-0.63908,-0.63908,-0.63908,-0.63908,-0.63908,-0.63908,-0.63908,0,0.63908,0.63908,0.63908,0.63908,0.63908,0.63908,0.63908,0.63908,0.63908,0.63908,-0.63908,-0.63908,-0.63908,-0.63908,-0.63908,-0.63908,-0.63908,-0.63908,-0.63908,-0.63908,0,0.63908,0.63908,0.63908,0.63908,0.63908,0.63908,0.63908,0.63908,0.63908,0.63908,-0.63908,-0.63908,-0.63908,-0.63908,-0.63908,-0.63908,-0.63908,-0.63908,-0.63908,-0.63908,0,0.63908,0.63908,0.63908,0.63908,0.63908,0.63908,0.63908,0.63908,0.63908,0.63908,0,0,0
0,0,14.598,-2.4041,0,0,0,-0.63947,-11.506,0,0,0,-0.64019,0,0.64019,-0.64019,0.64019,0,0.64019,0.64019,0.64019,0.64019,0.64019,0.64019,0.64019,0.64019,0.64019,0.64019,0,-0.64019,-0.64019,-0.64019,-0.64019,-0.64019,-0.64019,-0.64019,-0.64019,-0.64019,-0.64019,0.64019,0.64019,0.64019,0.64019,0.64019,0.64019,0.64019,0.64019,0.64019,0.64019,0,-0.64019,-0.64019,-0.64019,-0.64019,-0.64019,-0.64019,-0.64019,-0.64019,-0.64019,-0.64019,0.64019,0.64019,0.64019,0.64019,0.64019,0.64019,0.64019,0.64019,0.64019,0.64019,0,-0.64019,-0.64019,-0.64019,-0.64019,-0.64019,-0.64019,-0.64019,-0.64019,-0.64019,-0.64019,0,0,0
0,0,-4.5376,2.5689,0,0,0,16.862,-13.388,0,0,0,-0.56743,0,0.56743,-0.56743,0.56743,0,0.56743,0.56743,0.56743,0.56743,0.56743,0.56743,0.56743,0.56743,0.56743,0.56743,0,-0.56743,-0.56743,-0.56743,-0.56743,-0.56743,-0.56743,-0.56743,-0.56743,-0.56743,-0.56743,0.56743,0.56743,0.56743,0.56743,0.56743,0.56743,0.56743,0.56743,0.56743,0.56743,0,-0.56743,-0.56743,-0.56743,-0.56743,-0.56743,-0.56743,-0.56743,-0.56743,-0.56743,-0.56743,0.56743,0.56743,0.56743,0.56743,0.56743,0.56743,0.56743,0.56743,0.56743,0.56743,0,-0.56743,-0.56743,-0.56743,-0.56743,-0.56743,-0.56743,-0.56743,-0.56743,-0.56743,-0.56743,0,0,0
0,0,12.675,6.2551,0,0,0,-11.813,-1.3001,0,0,0,-0.67174,0,0.67174,-0.67174,0.67174,0,0.67174,0.67174,0.67174,0.67174,0.67174,0.67174,0.67174,0.67174,0.67174,0.67174,0,-0.67174,-0.67174,-0.67174,-0.67174,-0.67174,-0.67174,-0.67174,-0.67174,-0.67174,-0.67174,0.67174,0.67174,0.67174,0.67174,0.67174,0.67174,0.67174,0.67174,0.67174,0.67174,0,-0.67174,-0.67174,-0.67174,-0.67174,-0.67174,-0.67174,-0.67174,-0.67174,-0.67174,-0.67174,0.67174,0.67174,0.67174,0.67174,0.67174,0.67174,0.67174,0.67174,0.67174,0.67174,0,-0.67174,-0.67174,-0.67174,-0.67174,-0.67174,-0.67174,-0.67174,-0.67174,-0.67174,-0.67174,0,0,0
0,0,12.309,7.2467,0,0,0,5.4312,-9.6027,0,0,0,-0.73867,0,0.73867,-0.73867,0.73867,0,0.73867,0.73867,0.73867,0.73867,0.73867,0.73867,0.73867,0.73867,0.73867,0.73867,0,-0.73867,-0.73867,-0.73867,-0.73867,-0.73867,-0.73867,-0.73867,-0.73867,-0.73867,-0.73867,0.73867,0.73867,0.73867,0.73867,0.73867,0.73867,0.73867,0.73867,0.73867,0.73867,0,-0.73867,-0.73867,-0.73867,-0.73867,-0.73867,-0.73867,-0.73867,-0.73867,-0.73867,-0.73867,0.73867,0.73867,0.73867,0.73867,0.73867,0.73867,0.73867,0.73867,0.73867,0.73867,0,-0.73867,-0.73867,-0.73867,-0.73867,-0.73867,-0.73867,-0.73867,-0.73867,-0.73867,-0.73867,0,0,0
0,0,7.9881,-13.982,0,0,0,10.316,4.9216,0,0,0,0.058746,0,-0.058746,0.058746,-0.058746,0,-0.058746,-0.058746,-0.058746,-0.058746,-0.058746,-0.058746,-0.058746,-0.058746,-0.058746,-0.058746,0,0.058746,0.058746,0.058746,0.058746,0.058746,0.058746,0.058746,0.058746,0.058746,0.058746,-0.058746,-0.058746,-0.058746,-0.058746,-0.058746,-0.058746,-0.058746,-0.058746,-0.058746,-0.058746,0,0.058746,0.058746,0.058746,0.058746,0.058746,0.058746,0.058746,0.058746,0.058746,0.058746,-0.058746,-0.058746,-0.058746,-0.058746,-0.058746,-0.058746,-0.058746,-0.058746,-0.058746,-0.058746,0,0.058746,0.058746,0.058746,0.058746,0.058746,0.058746,0.058746,0.058746,0.058746,0.058746,0,0,0
0,0,7.5633,-13.569,0,0,0,1.5482,10.449,0,0,0,-0.6881,0,0.6881,-0.6881,0.6881,0,0.6881,0.6881,0.6881,0.6881,0.6881,0.6881,0.6881,0.6881,0.6881,0.6881,0,-0.6881,-0.6881,-0.6881,-0.6881,-0.6881,-0.6881,-0.6881,-0.6881,-0.6881,-0.6881,0.6881,0.6881,0.6881,0.6881,0.6881,0.6881,0.6881,0.6881,0.6881,0.6881,0,-0.6881,-0.6881,-0.6881,-0.6881,-0.6881,-0.6881,-0.6881,-0.6881,-0.6881,-0.6881,0.6881,0.6881,0.6881,0.6881,0.6881,0.6881,0.6881,0.6881,0.6881,0.6881,0,-0.6881,-0.6881,-0.6881,-0.6881,-0.6881,-0.6881,-0.6881,-0.6881,-0.6881,-0.6881,0,0,0
0,0,-11.277,8.2987,0,0,0,8.3581,4.5739,0,0,0,0.019114,0,-0.019114,0.019114,-0.019114,0,-0.019114,-0.019114,-0.019114,-0.019114,-0.019114,-0.019114,-0.019114,-0.019114,-0.019114,-0.019114,0,0.019114,0.019114,0.019114,0.019114,0.019114,0.019114,0.019114,0.019114,0.019114,0.019114,-0.019114,-0.019114,-0.019114,-0.019114,-0.019114,-0.019114,-0.019114,-0.019114,-0.019114,-0.019114,0,0.019114,0.019114,0.019114,0.019114,0.019114,0.019114,0.019114,0.019114,0.019114,0.019114,-0.019114,-0.019114,-0.019114,-0.019114,-0.019114,-0.019114,-0.019114,-0.019114,-0.019114,-0.019114,0,0.019114,0.019114,0.019114,0.019114,0.019114,0.019114,0.019114,0.019114,0.019114,0.019114,0,0,0
0,0,10.365,12.843,0,0,0,-10.322,8.9791,0,0,0,0.66462,0,-0.66462,0.66462,-0.66462,0,-0.66462,-0.66462,-0.66462,-0.66462,-0.66462,-0.66462,-0.66462,-0.66462,-0.66462,-0.66462,0,0.66462,0.66462,0.66462,0.66462,0.66462,0.66462,0.66462,0.66462,0.66462,0.66462,-0.66462,-0.66462,-0.66462,-0.66462,-0.66462,-0.66462,-0.66462,-0.66462,-0.66462,-0.66462,0,0.66462,0.66462,0.66462,0.66462,0.66462,0.66462,0.66462,0.66462,0.66462,0.66462,-0.66462,-0.66462,-0.66462,-0.66462,-0.66462,-0.66462,-0.66462,-0.66462,-0.66462,-0.66462,0,0.66462,0.66462,0.66462,0.66462,0.66462,0.66462,0.66462,0.66462,0.66462,0.66462,0,0,0
0,0,9.2856,13.773,0,0,0,19.542,-3.592,0,0,0,0.12696,0,-0.12696,0.12696,-0.12696,0,-0.12696,-0.12696,-0.12696,-0.12696,-0.12696,-0.12696,-0.12696,-0.12696,-0.12696,-0.12696,0,0.12696,0.12696,0.12696,0.12696,0.12696,0.12696,0.12696,0.12696,0.12696,0.12696,-0.12696,-0.12696,-0.12696,-0.12696,-0.12696,-0.12696,-0.12696,-0.12696,-0.12696,-0.12696,0,0.12696,0.12696,0.12696,0.12696,0.12696,0.12696,0.12696,0.12696,0.12696,0.12696,-0.12696,-0.12696,-0.12696,-0.12696,-0.12696,-0.12696,-0.12696,-0.12696,-0.12696,-0.12696,0,0.12696,0.12696,0.12696,0.12696,0.12696,0.12696,0.12696,0.12696,0.12696,0.12696,0,0,0
0,0,-11.72,-1.7186,0,0,0,-1.8332,10.161,0,0,0,0.061013,0,-0.061013,0.061013,-0.061013,0,-0.061013,-0.061013,-0.061013,-0.061013,-0.061013,-0.061013,-0.061013,-0.061013,-0.061013,-0.061013,0,0.061013,0.061013,0.061013,0.061013,0.061013,0.061013,0.061013,0.061013,0.061013,0.061013,-0.061013,-0.061013,-0.061013,-0.061013,-0.061013,-0.061013,-0.061013,-0.061013,-0.061013,-0.061013,0,0.061013,0.061013,0.061013,0.061013,0.061013,0.061013,0.061013,0.061013,0.061013,0.061013,-0.061013,-0.061013,-0.061013,-0.061013,-0.061013,-0.061013,-0.061013,-0.061013,-0.061013,-0.061013,0,0.061013,0.061013,0.061013,0.061013,0.061013,0.061013,0.061013,0.061013,0.061013,0.061013,0,0,0
0,0,6.5443,-8.4386,0,0,0,10.791,9.9295,0,0,0,-0.68132,0,0.68132,-0.68132,0.68132,0,0.68132,0.68132,0.68132,0.68132,0.68132,0.68132,0.68132,0.68132,0.68132,0.68132,0,-0.68132,-0.68132,-0.68132,-0.68132,-0.68132,-0.68132,-0.68132,-0.68132,-0.68132,-0.68132,0.68132,0.68132,0.68132,0.68132,0.68132,0.68132,0.68132,0.68132,0.68132,0.68132,0,-0.68132,-0.68132,-0.68132,-0.68132,-0.68132,-0.68132,-0.68132,-0.68132,-0.68132,-0.68132,0.68132,0.68132,0.68132,0.68132,0.68132,0.68132,0.68132,0.68132,0.68132,0.68132,0,-0.68132,-0.68132,-0.68132,-0.68132,-0.68132,-0.68132,-0.68132,-0.68132,-0.68132,-0.68132,0,0,0
0,0,2.2979,5.0513,0,0,0,11.256,-12.054,0,0,0,0.06436,0,-0.06436,0.06436,-0.06436,0,-0.06436,-0.06436,-0.06436,-0.06436,-0.06436,-0.06436,-0.06436,-0.06436,-0.06436,-0.06436,0,0.06436,0.06436,0.06436,0.06436,0.06436,0.06436,0.06436,0.06436,0.06436,0.06436,-0.06436,-0.06436,-0.06436,-0.06436,-0.06436,-0.06436,-0.06436,-0.06436,-0.06436,-0.06436,0,0.06436,0.06436,0.06436,0.06436,0.06436,0.06436,0.06436,0.06436,0.06436,0.06436,-0.06436,-0.06436,-0.06436,-0.06436,-0.06436,-0.06436,-0.06436,-0.06436,-0.06436,-0.06436,0,0.06436,0.06436,0.06436,0.06436,0.06436,0.06436,0.06436,0.06436,0.06436,0.06436,0,0,0
0,0,-2.9924,5.3577,0,0,0,-11.157,-2.1194,0,0,0,-0.049201,0,0.049201,-0.049201,0.049201,0,0.049201,0.049201,0.049201,0.049201,0.049201,0.049201,0.049201,0.049201,0.049201,0.049201,0,-0.049201,-0.049201,-0.049201,-0.049201,-0.049201,-0.049201,-0.049201,-0.049201,-0.049201,-0.049201,0.049201,0.049201,0.049201,0.049201,0.049201,0.049201,0.049201,0.049201,0.049201,0.049201,0,-0.049201,-0.049201,-0.049201,-0.049201,-0.049201,-0.049201,-0.049201,-0.049201,-0.049201,-0.049201,0.049201,0.049201,0.049201,0.049201,0.049201,0.049201,0.049201,0.049201,0.049201,0.049201,0,-0.049201,-0.049201,-0.049201,-0.049201,-0.049201,-0.049201,-0.049201,-0.049201,-0.049201,-0.049201,0,0,0
0,0,-16.348,-7.1693,0,0,0,-10.661,0.18071,0,0,0,0.24847,0,-0.24847,0.24847,-0.24847,0,-0.24847,-0.24847,-0.24847,-0.24847,-0.24847,-0.24847,-0.24847,-0.24847,-0.24847,-0.24847,0,0.24847,0.24847,0.24847,0.24847,0.24847,0.24847,0.24847,0.24847,0.24847,0.24847,-0.24847,-0.24847,-0.24847,-0.24847,-0.24847,-0.24847,-0.24847,-0.24847,-0.24847,-0.24847,0,0.24847,0.24847,0.24847,0.24847,0.24847,0.24847,0.24847,0.24847,0.24847,0.24847,-0.24847,-0.24847,-0.24847,-0.24847,-0.24847,-0.24847,-0.24847,-0.24847,-0.24847,-0.24847,0,0.24847,0.24847,0.24847,0.24847,0.24847,0.24847,0.24847,0.24847,0.24847,0.24847,0,0,0
0,0,1244.1,135.4,0,0,0,1.2974,0.93223,0,0,0,0.074917,0,-0.074917,0.074917,-0.074917,0,-0.074917,-0.074917,-0.074917,-0.074917,-0.074917,-0.074917,-0.074917,-0.074917,-0.074917,-0.074917,0,0.074917,0.074917,0.074917,0.074917,0.074917,0.074917,0.074917,0.074917,0.074917,0.074917,-0.074917,-0.074917,-0.074917,-0.074917,-0.074917,-0.074917,-0.074917,-0.074917,-0.074917,-0.074917,0,0.074917,0.074917,0.074917,0.074917,0.074917,0.074917,0.074917,0.074917,0.074917,0.074917,-0.074917,-0.074917,-0.074917,-0.074917,-0.074917,-0.074917,-0.074917,-0.074917,-0.074917,-0.074917,0,0.074917,0.074917,0.074917,0.074917,0.074917,0.074917,0.074917,0.074917,0.074917,0.074917,0,0,0
0,0,-13.531,-0.70414,0,0,0,-11.477,3.5523,0,0,0,0.83411,0,-0.83411,0.83411,-0.83411,0,-0.83411,-0.83411,-0.83411,-0.83411,-0.83411,-0.83411,-0.83411,-0.83411,-0.83411,-0.83411,0,0.83411,0.83411,0.83411,0.83411,0.83411,0.83411,0.83411,0.83411,0.83411,0.83411,-0.83411,-0.83411,-0.83411,-0.83411,-0.83411,-0.83411,-0.83411,-0.83411,-0.83411,-0.83411,0,0.83411,0.83411,0.83411,0.83411,0.83411,0.83411,0.83411,0.83411,0.83411,0.83411,-0.83411,-0.83411,-0.83411,-0.83411,-0.83411,-0.83411,-0.83411,-0.83411,-0.83411,-0.83411,0,0.83411,0.83411,0.83411,0.83411,0.83411,0.83411,0.83411,0.83411,0.83411,0.83411,0,0,0
0,0,3.1762,-11.455,0,0,0,1.8795,-10.254,0,0,0,0.019887,0,-0.019887,0.019887,-0.019887,0,-0.019887,-0.019887,-0.019887,-0.019887,-0.019887,-0.019887,-0.019887,-0.019887,-0.019887,-0.019887,0,0.019887,0.019887,0.019887,0.019887,0.019887,0.019887,0.019887,0.019887,0.019887,0.019887,-0.019887,-0.019887,-0.019887,-0.019887,-0.019887,-0.019887,-0.019887,-0.019887,-0.019887,-0.019887,0,0.019887,0.019887,0.019887,0.019887,0.019887,0.019887,0.019887,0.019887,0.019887,0.019887,-0.019887,-0.019887,-0.019887,-0.019887,-0.019887,-0.019887,-0.019887,-0.019887,-0.019887,-0.019887,0,0.019887,0.019887,0.019887,0.019887,0.019887,0.019887,0.019887,0.019887,0.019887,0.019887,0,0,0
0,0,3.2301,-10.298,0,0,0,-7.7368,-10.64,0,0,0,0.014289,0,-0.014289,0.014289,-0.014289,0,-0.014289,-0.014289,-0.014289,-0.014289,-0.014289,-0.014289,-0.014289,-0.014289,-0.014289,-0.014289,0,0.014289,0.014289,0.014289,0.014289,0.014289,0.014289,0.014289,0.014289,0.014289,0.014289,-0.014289,-0.014289,-0.014289,-0.014289,-0.014289,-0.014289,-0.014289,-0.014289,-0.014289,-0.014289,0,0.014289,0.014289,0.014289,0.014289,0.014289,0.014289,0.014289,0.014289,0.014289,0.014289,-0.014289,-0.014289,-0.014289,-0.014289,-0.014289,-0.014289,-0.014289,-0.014289,-0.014289,-0.014289,0,0.014289,0.014289,0.014289,0.014289,0.014289,0.014289,0.014289,0.014289,0.014289,0.014289,0,0,0
0,0,-12.329,-5.8562,0,0,0,6.2472,1.923,0,0,0,0.036696,0,-0.036696,0.036696,-0.036696,0,-0.036696,-0.036696,-0.036696,-0.036696,-0.036696,-0.036696,-0.036696,-0.036696,-0.036696,-0.036696,0,0.036696,0.036696,0.036696,0.036696,0.036696,0.036696,0.036696,0.036696,0.036696,0.036696,-0.036696,-0.036696,-0.036696,-0.036696,-0.036696,-0.036696,-0.036696,-0.036696,-0.036696,-0.036696,0,0.036696,0.036696,0.036696,0.036696,0.036696,0.036696,0.036696,0.036696,0.036696,0.036696,-0.036696,-0.036696,-0.036696,-0.036696,-0.036696,-0.036696,-0.036696,-0.036696,-0.036696,-0.036696,0,0.036696,0.036696,0.036696,0.036696,0.036696,0.036696,0.036696,0.036696,0.036696,0.036696,0,0,0
0,0,-12.757,3.7301,0,0,0,-6.2897,-7.4253,0,0,0,0.15764,0,-0.15764,0.15764,-0.15764,0,-0.15764,-0.15764,-0.15764,-0.15764,-0.15764,-0.15764,-0.15764,-0.15764,-0.15764,-0.15764,0,0.15764,0.15764,0.15764,0.15764,0.15764,0.15764,0.15764,0.15764,0.15764,0.15764,-0.15764,-0.15764,-0.15764,-0.15764,-0.15764,-0.15764,-0.15764,-0.15764,-0.15764,-0.15764,0,0.15764,0.15764,0.15764,0.15764,0.15764,0.15764,0.15764,0.15764,0.15764,0.15764,-0.15764,-0.15764,-0.15764,-0.15764,-0.15764,-0.15764,-0.15764,-0.15764,-0.15764,-0.15764,0,0.15764,0.15764,0.15764,0.15764,0.15764,0.15764,0.15764,0.15764,0.15764,0.15764,0,0,0
0,0,-1.0816,4.1441,0,0,0,-8.5671,3.2448,0,0,0,0.13257,0,-0.13257,0.13257,-0.13257,0,-0.13257,-0.13257,-0.13257,-0.13257,-0.13257,-0.13257,-0.13257,-0.13257,-0.13257,-0.13257,0,0.13257,0.13257,0.13257,0.13257,0.13257,0.13257,0.13257,0.13257,0.13257,0.13257,-0.13257,-0.13257,-0.13257,-0.13257,-0.13257,-0.13257,-0.13257,-0.13257,-0.13257,-0.13257,0,0.13257,0.13257,0.13257,0.13257,0.13257,0.13257,0.13257,0.13257,0.13257,0.13257,-0.13257,-0.13257,-0.13257,-0.13257,-0.13257,-0.13257,-0.13257,-0.13257,-0.13257,-0.13257,0,0.13257,0.13257,0.13257,0.13257,0.13257,0.13257,0.13257,0.13257,0.13257,0.13257,0,0,0
0,0,-8.8684,0.39896,0,0,0,10.955,-7.8188,0,0,0,0.62358,0,-0.62358,0.62358,-0.62358,0,-0.62358,-0.62358,-0.62358,-0.62358,-0.62358,-0.62358,-0.62358,-0.62358,-0.62358,-0.62358,0,0.62358,0.62358,0.62358,0.62358,0.62358,0.62358,0.62358,0.62358,0.62358,0.62358,-0.62358,-0.62358,-0.62358,-0.62358,-0.62358,-0.62358,-0.62358,-0.62358,-0.62358,-0.62358,0,0.62358,0.62358,0.62358,0.62358,0.62358,0.62358,0.62358,0.62358,0.62358,0.62358,-0.62358,-0.62358,-0.62358,-0.62358,-0.62358,-0.62358,-0.62358,-0.62358,-0.62358,-0.62358,0,0.62358,0.62358,0.62358,0.62358,0.62358,0.62358,0.62358,0.62358,0.62358,0.62358,0,0,0
0,0,4.1342,5.4598,0,0,0,-11.096,-13.639,0,0,0,-0.70656,0,0.70656,-0.70656,0.70656,0,0.70656,0.70656,0.70656,0.70656,0.70656,0.70656,0.70656,0.70656,0.70656,0.70656,0,-0.70656,-0.70656,-0.70656,-0.70656,-0.70656,-0.70656,-0.70656,-0.70656,-0.70656,-0.70656,0.70656,0.70656,0.70656,0.70656,0.70656,0.70656,0.70656,0.70656,0.70656,0.70656,0,-0.70656,-0.70656,-0.70656,-0.70656,-0.70656,-0.70656,-0.70656,-0.70656,-0.70656,-0.70656,0.70656,0.70656,0.70656,0.70656,0.70656,0.70656,0.70656,0.70656,0.70656,0.70656,0,-0.70656,-0.70656,-0.70656,-0.70656,-0.70656,-0.70656,-0.70656,-0.70656,-0.70656,-0.70656,0,0,0
0,0,8.5998,-3.247,0,0,0,-11.124,12.206,0,0,0,0.63883,0,-0.63883,0.63883,-0.63883,0,-0.63883,-0.63883,-0.63883,-0.63883,-0.63883,-0.63883,-0.63883,-0.63883,-0.63883,-0.63883,0,0.63883,0.63883,0.63883,0.63883,0.63883,0.63883,0.63883,0.63883,0.63883,0.63883,-0.63883,-0.63883,-0.63883,-0.63883,-0.63883,-0.63883,-0.63883,-0.63883,-0.63883,-0.63883,0,0.63883,0.63883,0.63883,0.63883,0.63883,0.63883,0.63883,0.63883,0.63883,0.63883,-0.63883,-0.63883,-0.63883,-0.63883,-0.63883,-0.63883,-0.63883,-0.63883,-0.63883,-0.63883,0,0.63883,0.63883,0.63883,0.63883,0.63883,0.63883,0.63883,0.63883,0.63883,0.63883,0,0,0
0,0,10.465,6.7442,0,0,0,2.3089,-12.799,0,0,0,-0.70961,0,0.70961,-0.70961,0.70961,0,0.70961,0.70961,0.70961,0.70961,0.70961,0.70961,0.70961,0.70961,0.70961,0.70961,0,-0.70961,-0.70961,-0.70961,-0.70961,-0.70961,-0.70961,-0.70961,-0.70961,-0.70961,-0.70961,0.70961,0.70961,0.70961,0.70961,0.70961,0.70961,0.70961,0.70961,0.70961,0.70961,0,-0.70961,-0.70961,-0.70961,-0.70961,-0.70961,-0.70961,-0.70961,-0.70961,-0.70961,-0.70961,0.70961,0.70961,0.70961,0.70961,0.70961,0.70961,0.70961,0.70961,0.70961,0.70961,0,-0.70961,-0.70961,-0.70961,-0.70961,-0.70961,-0.70961,-0.70961,-0.70961,-0.70961,-0.70961,0,0,0
0,0,6.5261,-6.4785,0,0,0,8.8008,-13.682,0,0,0,-0.78198,0,0.78198,-0.78198,0.78198,0,0.78198,0.78198,0.78198,0.78198,0.78198,0.78198,0.78198,0.78198,0.78198,0.78198,0,-0.78198,-0.78198,-0.78198,-0.78198,-0.78198,-0.78198,-0.78198,-0.78198,-0.78198,-0.78198,0.78198,0.78198,0.78198,0.78198,0.78198,0.78198,0.78198,0.78198,0.78198,0.78198,0,-0.78198,-0.78198,-0.78198,-0.78198,-0.78198,-0.78198,-0.78198,-0.78198,-0.78198,-0.78198,0.78198,0.78198,0.78198,0.78198,0.78198,0.78198,0.78198,0.78198,0.78198,0.78198,0,-0.78198,-0.78198,-0.78198,-0.78198,-0.78198,-0.78198,-0.78198,-0.78198,-0.78198,-0.78198,0,0,0
0,0,-12.304,6.7041,0,0,0,11.377,3.4343,0,0,0,-0.62509,0,0.62509,-0.62509,0.62509,0,0.62509,0.62509,0.62509,0.62509,0.62509,0.62509,0.62509,0.62509,0.62509,0.62509,0,-0.62509,-0.62509,-0.62509,-0.62509,-0.62509,-0.62509,-0.62509,-0.62509,-0.62509,-0.62509,0.62509,0.62509,0.62509,0.62509,0.62509,0.62509,0.62509,0.62509,0.62509,0.62509,0,-0.62509,-0.62509,-0.62509,-0.62509,-0.62509,-0.62509,-0.62509,-0.62509,-0.62509,-0.62509,0.62509,0.62509,0.62509,0.62509,0.62509,0.62509,0.62509,0.62509,0.62509,0.62509,0,-0.62509,-0.62509,-0.62509,-0.62509,-0.62509,-0.62509,-0.62509,-0.62509,-0.62509,-0.62509,0,0,0
0,0,-3.7938,-12.904,0,0,0,-4.7748,11.896,0,0,0,0.75415,0,-0.75415,0.75415,-0.75415,0,-0.75415,-0.75415,-0.75415,-0.75415,-0.75415,-0.75415,-0.75415,-0.75415,-0.75415,-0.75415,0,0.75415,0.75415,0.75415,0.75415,0.75415,0.75415,0.75415,0.75415,0.75415,0.75415,-0.75415,-0.75415,-0.75415,-0.75415,-0.75415,-0.75415,-0.75415,-0.75415,-0.75415,-0.75415,0,0.75415,0.75415,0.75415,0.75415,0.75415,0.75415,0.75415,0.75415,0.75415,0.75415,-0.75415,-0.75415,-0.75415,-0.75415,-0.75415,-0.75415,-0.75415,-0.75415,-0.75415,-0.75415,0,0.75415,0.75415,0.75415,0.75415,0.75415,0.75415,0.75415,0.75415,0.75415,0.75415,0,0,0
0,0,-11.407,-2.2049,0,0,0,6.1629,5.1976,0,0,0,-0.20829,0,0.20829,-0.20829,0.20829,0,0.20829,0.20829,0.20829,0.20829,0.20829,0.20829,0.20829,0.20829,0.20829,0.20829,0,-0.20829,-0.20829,-0.20829,-0.20829,-0.20829,-0.20829,-0.20829,-0.20829,-0.20829,-0.20829,0.20829,0.20829,0.20829,0.20829,0.20829,0.20829,0.20829,0.20829,0.20829,0.20829,0,-0.20829,-0.20829,-0.20829,-0.20829,-0.20829,-0.20829,-0.20829,-0.20829,-0.20829,-0.20829,0.20829,0.20829,0.20829,0.20829,0.20829,0.20829,0.20829,0.20829,0.20829,0.20829,0,-0.20829,-0.20829,-0.20829,-0.20829,-0.20829,-0.20829,-0.20829,-0.20829,-0.20829,-0.20829,0,0,0
0,0,-3.7473,0.44456,0,0,0,-17.015,5.5053,0,0,0,0.15113,0,-0.15113,0.15113,-0.15113,0,-0.15113,-0.15113,-0.15113,-0.15113,-0.15113,-0.15113,-0.15113,-0.15113,-0.15113,-0.15113,0,0.15113,0.15113,0.15113,0.15113,0.15113,0.15113,0.15113,0.15113,0.15113,0.15113,-0.15113,-0.15113,-0.15113,-0.15113,-0.15113,-0.15113,-0.15113,-0.15113,-0.15113,-0.15113,0,0.15113,0.15113,0.15113,0.15113,0.15113,0.15113,0.15113,0.15113,0.15113,0.15113,-0.15113,-0.15113,-0.15113,-0.15113,-0.15113,-0.15113,-0.15113,-0.15113,-0.15113,-0.15113,0,0.15113,0.15113,0.15113,0.15113,0.15113,0.15113,0.15113,0.15113,0.15113,0.15113,0,0,0
0,0,-3.8116,-6.3855,0,0,0,9.1119,-11.094,0,0,0,0.036002,0,-0.036002,0.036002,-0.036002,0,-0.036002,-0.036002,-0.036002,-0.036002,-0.036002,-0.036002,-0.036002,-0.036002,-0.036002,-0.036002,0,0.036002,0.036002,0.036002,0.036002,0.036002,0.036002,0.036002,0.036002,0.036002,0.036002,-0.036002,-0.036002,-0.036002,-0.036002,-0.036002,-0.036002,-0.036002,-0.036002,-0.036002,-0.036002,0,0.036002,0.036002,0.036002,0.036002,0.036002,0.036002,0.036002,0.036002,0.036002,0.036002,-0.036002,-0.036002,-0.036002,-0.036002,-0.036002,-0.036002,-0.036002,-0.036002,-0.036002,-0.036002,0,0.036002,0.036002,0.036002,0.036002,0.036002,0.036002,0.036002,0.036002,0.036002,0.036002,0,0,0
0,0,-1.3433,-1.6002,0,0,0,12.826,5.671,0,0,0,0.014563,0,-0.014563,0.014563,-0.014563,0,-0.014563,-0.014563,-0.014563,-0.014563,-0.014563,-0.014563,-0.014563,-0.014563,-0.014563,-0.014563,0,0.014563,0.014563,0.014563,0.014563,0.014563,0.014563,0.014563,0.014563,0.014563,0.014563,-0.014563,-0.014563,-0.014563,-0.014563,-0.014563,-0.014563,-0.014563,-0.014563,-0.014563,-0.014563,0,0.014563,0.014563,0.014563,0.014563,0.014563,0.014563,0.014563,0.014563,0.014563,0.014563,-0.014563,-0.014563,-0.014563,-0.014563,-0.014563,-0.014563,-0.014563,-0.014563,-0.014563,-0.014563,0,0.014563,0.014563,0.014563,0.014563,0.014563,0.014563,0.014563,0.014563,0.014563,0.014563,0,0,0
0,0,4.4722,3.238,0,0,0,-0.12809,14.367,0,0,0,-0.10369,0,0.10369,-0.10369,0.10369,0,0.10369,0.10369,0.10369,0.10369,0.10369,0.10369,0.10369,0.10369,0.10369,0.10369,0,-0.10369,-0.10369,-0.10369,-0.10369,-0.10369,-0.10369,-0.10369,-0.10369,-0.10369,-0.10369,0.10369,0.10369,0.10369,0.10369,0.10369,0.10369,0.10369,0.10369,0.10369,0.10369,0,-0.10369,-0.10369,-0.10369,-0.10369,-0.10369,-0.10369,-0.10369,-0.10369,-0.10369,-0.10369,0.10369,0.10369,0.10369,0.10369,0.10369,0.10369,0.10369,0.10369,0.10369,0.10369,0,-0.10369,-0.10369,-0.10369,-0.10369,-0.10369,-0.10369,-0.10369,-0.10369,-0.10369,-0.10369,0,0,0
0,0,0.019479,5.054,0,0,0,14.512,5.1121,0,0,0,0.013958,0,-0.013958,0.013958,-0.013958,0,-0.013958,-0.013958,-0.013958,-0.013958,-0.013958,-0.013958,-0.013958,-0.013958,-0.013958,-0.013958,0,0.013958,0.013958,0.013958,0.013958,0.013958,0.013958,0.013958,0.013958,0.013958,0.013958,-0.013958,-0.013958,-0.013958,-0.013958,-0.013958,-0.013958,-0.013958,-0.013958,-0.013958,-0.013958,0,0.013958,0.013958,0.013958,0.013958,0.013958,0.013958,0.013958,0.013958,0.013958,0.013958,-0.013958,-0.013958,-0.013958,-0.013958,-0.013958,-0.013958,-0.013958,-0.013958,-0.013958,-0.013958,0,0.013958,0.013958,0.013958,0.013958,0.013958,0.013958,0.013958,0.013958,0.013958,0.013958,0,0,0
0,0,-0.91037,-0.27009,0,0,0,-11.005,-6.4312,0,0,0,0.21742,0,-0.21742,0.21742,-0.21742,0,-0.21742,-0.21742,-0.21742,-0.21742,-0.21742,-0.21742,-0.21742,-0.21742,-0.21742,-0.21742,0,0.21742,0.21742,0.21742,0.21742,0.21742,0.21742,0.21742,0.21742,0.21742,0.21742,-0.21742,-0.21742,-0.21742,-0.21742,-0.21742,-0.21742,-0.21742,-0.21742,-0.21742,-0.21742,0,0.21742,0.21742,0.21742,0.21742,0.21742,0.21742,0.21742,0.21742,0.21742,0.21742,-0.21742,-0.21742,-0.21742,-0.21742,-0.21742,-0.21742,-0.21742,-0.21742,-0.21742,-0.21742,0,0.21742,0.21742,0.21742,0.21742,0.21742,0.21742,0.21742,0.21742,0.21742,0.21742,0,0,0
0,0,7.2695,-17.611,0,0,0,0.92597,-1.4605,0,0,0,-0.83411,0,0.83411,-0.83411,0.83411,0,0.83411,0.83411,0.83411,0.83411,0.83411,0.83411,0.83411,0.83411,0.83411,0.83411,0,-0.83411,-0.83411,-0.83411,-0.83411,-0.83411,-0.83411,-0.83411,-0.83411,-0.83411,-0.83411,0.83411,0.83411,0.83411,0.83411,0.83411,0.83411,0.83411,0.83411,0.83411,0.83411,0,-0.83411,-0.83411,-0.83411,-0.83411,-0.83411,-0.83411,-0.83411,-0.83411,-0.83411,-0.83411,0.83411,0.83411,0.83411,0.83411,0.83411,0.83411,0.83411,0.83411,0.83411,0.83411,0,-0.83411,-0.83411,-0.83411,-0.83411,-0.83411,-0.83411,-0.83411,-0.83411,-0.83411,-0.83411,0,0,0
0,0,5.6635,-11.68,0,0,0,-4.2959,-11.506,0,0,0,0.59345,0,-0.59345,0.59345,-0.59345,0,-0.59345,-0.59345,-0.59345,-0.59345,-0.59345,-0.59345,-0.59345,-0.59345,-0.59345,-0.59345,0,0.59345,0.59345,0.59345,0.59345,0.59345,0.59345,0.59345,0.59345,0.59345,0.59345,-0.59345,-0.59345,-0.59345,-0.59345,-0.59345,-0.59345,-0.59345,-0.59345,-0.59345,-0.59345,0,0.59345,0.59345,0.59345,0.59345,0.59345,0.59345,0.59345,0.59345,0.59345,0.59345,-0.59345,-0.59345,-0.59345,-0.59345,-0.59345,-0.59345,-0.59345,-0.59345,-0.59345,-0.59345,0,0.59345,0.59345,0.59345,0.59345,0.59345,0.59345,0.59345,0.59345,0.59345,0.59345,0,0,0
0,0,5.9749,-12.984,0,0,0,-3.8744,-9.6608,0,0,0,-0.04424,0,0.04424,-0.04424,0.04424,0,0.04424,0.04424,0.04424,0.04424,0.04424,0.04424,0.04424,0.04424,0.04424,0.04424,0,-0.04424,-0.04424,-0.04424,-0.04424,-0.04424,-0.04424,-0.04424,-0.04424,-0.04424,-0.04424,0.04424,0.04424,0.04424,0.04424,0.04424,0.04424,0.04424,0.04424,0.04424,0.04424,0,-0.04424,-0.04424,-0.04424,-0.04424,-0.04424,-0.04424,-0.04424,-0.04424,-0.04424,-0.04424,0.04424,0.04424,0.04424,0.04424,0.04424,0.04424,0.04424,0.04424,0.04424,0.04424,0,-0.04424,-0.04424,-0.04424,-0.04424,-0.04424,-0.04424,-0.04424,-0.04424,-0.04424,-0.04424,0,0,0
0,0,-11.752,6.2921,0,0,0,-3.4733,-10.42,0,0,0,0.25597,0,-0.25597,0.25597,-0.25597,0,-0.25597,-0.25597,-0.25597,-0.25597,-0.25597,-0.25597,-0.25597,-0.25597,-0.25597,-0.25597,0,0.25597,0.25597,0.25597,0.25597,0.25597,0.25597,0.25597,0.25597,0.25597,0.25597,-0.25597,-0.25597,-0.25597,-0.25597,-0.25597,-0.25597,-0.25597,-0.25597,-0.25597,-0.25597,0,0.25597,0.25597,0.25597,0.25597,0.25597,0.25597,0.25597,0.25597,0.25597,0.25597,-0.25597,-0.25597,-0.25597,-0.25597,-0.25597,-0.25597,-0.25597,-0.25597,-0.25597,-0.25597,0,0.25597,0.25597,0.25597,0.25597,0.25597,0.25597,0.25597,0.25597,0.25597,0.25597,0,0,0
0,0,4.8766,11.072,0,0,0,-2.1317,11.736,0,0,0,-0.72035,0,0.72035,-0.72035,0.72035,0,0.72035,0.72035,0.72035,0.72035,0.72035,0.72035,0.72035,0.72035,0.72035,0.72035,0,-0.72035,-0.72035,-0.72035,-0.72035,-0.72035,-0.72035,-0.72035,-0.72035,-0.72035,-0.72035,0.72035,0.72035,0.72035,0.72035,0.72035,0.72035,0.72035,0.72035,0.72035,0.72035,0,-0.72035,-0.72035,-0.72035,-0.72035,-0.72035,-0.72035,-0.72035,-0.72035,-0.72035,-0.72035,0.72035,0.72035,0.72035,0.72035,0.72035,0.72035,0.72035,0.72035,0.72035,0.72035,0,-0.72035,-0.72035,-0.72035,-0.72035,-0.72035,-0.72035,-0.72035,-0.72035,-0.72035,-0.72035,0,0,0
0,0,13.469,-5.1193,0,0,0,9.2324,2.6735,0,0,0,-0.71977,0,0.71977,-0.71977,0.71977,0,0.71977,0.71977,0.71977,0.71977,0.71977,0.71977,0.71977,0.71977,0.71977,0.71977,0,-0.71977,-0.71977,-0.71977,-0.71977,-0.71977,-0.71977,-0.71977,-0.71977,-0.71977,-0.71977,0.71977,0.71977,0.71977,0.71977,0.71977,0.71977,0.71977,0.71977,0.71977,0.71977,0,-0.71977,-0.71977,-0.71977,-0.71977,-0.71977,-0.71977,-0.71977,-0.71977,-0.71977,-0.71977,0.71977,0.71977,0.71977,0.71977,0.71977,0.71977,0.71977,0.71977,0.71977,0.71977,0,-0.71977,-0.71977,-0.71977,-0.71977,-0.71977,-0.71977,-0.71977,-0.71977,-0.71977,-0.71977,0,0,0
0,0,0.26587,-3.3266,0,0,0,8.6111,8.9794,0,0,0,-0.13243,0,0.13243,-0.13243,0.13243,0,0.13243,0.13243,0.13243,0.13243,0.13243,0.13243,0.13243,0.13243,0.13243,0.13243,0,-0.13243,-0.13243,-0.13243,-0.13243,-0.13243,-0.13243,-0.13243,-0.13243,-0.13243,-0.13243,0.13243,0.13243,0.13243,0.13243,0.13243,0.13243,0.13243,0.13243,0.13243,0.13243,0,-0.13243,-0.13243,-0.13243,-0.13243,-0.13243,-0.13243,-0.13243,-0.13243,-0.13243,-0.13243,0.13243,0.13243,0.13243,0.13243,0.13243,0.13243,0.13243,0.13243,0.13243,0.13243,0,-0.13243,-0.13243,-0.13243,-0.13243,-0.13243,-0.13243,-0.13243,-0.13243,-0.13243,-0.13243,0,0,0
0,0,5.2237,9.1496,0,0,0,-9.5049,-11.245,0,0,0,0.70288,0,-0.70288,0.70288,-0.70288,0,-0.70288,-0.70288,-0.70288,-0.70288,-0.70288,-0.70288,-0.70288,-0.70288,-0.70288,-0.70288,0,0.70288,0.70288,0.70288,0.70288,0.70288,0.70288,0.70288,0.70288,0.70288,0.70288,-0.70288,-0.70288,-0.70288,-0.70288,-0.70288,-0.70288,-0.70288,-0.70288,-0.70288,-0.70288,0,0.70288,0.70288,0.70288,0.70288,0.70288,0.70288,0.70288,0.70288,0.70288,0.70288,-0.70288,-0.70288,-0.70288,-0.70288,-0.70288,-0.70288,-0.70288,-0.70288,-0.70288,-0.70288,0,0.70288,0.70288,0.70288,0.70288,0.70288,0.70288,0.70288,0.70288,0.70288,0.70288,0,0,0
0,0,5.9463,2.0734,0,0,0,-3.6487,-4.9518,0,0,0,-0.18554,0,0.18554,-0.18554,0.18554,0,0.18554,0.18554,0.18554,0.18554,0.18554,0.18554,0.18554,0.18554,0.18554,0.18554,0,-0.18554,-0.18554,-0.18554,-0.18554,-0.18554,-0.18554,-0.18554,-0.18554,-0.18554,-0.18554,0.18554,0.18554,0.18554,0.18554,0.18554,0.18554,0.18554,0.18554,0.18554,0.18554,0,-0.18554,-0.18554,-0.18554,-0.18554,-0.18554,-0.18554,-0.18554,-0.18554,-0.18554,-0.18554,0.18554,0.18554,0.18554,0.18554,0.18554,0.18554,0.18554,0.18554,0.18554,0.18554,0,-0.18554,-0.18554,-0.18554,-0.18554,-0.18554,-0.18554,-0.18554,-0.18554,-0.18554,-0.18554,0,0,0
0,0,0.13124,13.041,0,0,0,4.0381,-17.058,0,0,0,0.28263,0,-0.28263,0.28263,-0.28263,0,-0.28263,-0.28263,-0.28263,-0.28263,-0.28263,-0.28263,-0.28263,-0.28263,-0.28263,-0.28263,0,0.28263,0.28263,0.28263,0.28263,0.28263,0.28263,0.28263,0.28263,0.28263,0.28263,-0.28263,-0.28263,-0.28263,-0.28263,-0.28263,-0.28263,-0.28263,-0.28263,-0.28263,-0.28263,0,0.28263,0.28263,0.28263,0.28263,0.28263,0.28263,0.28263,0.28263,0.28263,0.28263,-0.28263,-0.28263,-0.28263,-0.28263,-0.28263,-0.28263,-0.28263,-0.28263,-0.28263,-0.28263,0,0.28263,0.28263,0.28263,0.28263,0.28263,0.28263,0.28263,0.28263,0.28263,0.28263,0,0,0
0,0,12.179,24.45,0,0,0,-5.2414,0.29467,0,0,0,0.53919,0,-0.53919,0.53919,-0.53919,0,-0.53919,-0.53919,-0.53919,-0.53919,-0.53919,-0.53919,-0.53919,-0.53919,-0.53919,-0.53919,0,0.53919,0.53919,0.53919,0.53919,0.53919,0.53919,0.53919,0.53919,0.53919,0.53919,-0.53919,-0.53919,-0.53919,-0.53919,-0.53919,-0.53919,-0.53919,-0.53919,-0.53919,-0.53919,0,0.53919,0.53919,0.53919,0.53919,0.53919,0.53919,0.53919,0.53919,0.53919,0.53919,-0.53919,-0.53919,-0.53919,-0.53919,-0.53919,-0.53919,-0.53919,-0.53919,-0.53919,-0.53919,0,0.53919,0.53919,0.53919,0.53919,0.53919,0.53919,0.53919,0.53919,0.53919,0.53919,0,0,0
0,0,-8.6983,10.686,0,0,0,0.31171,5.0259,0,0,0,0.16899,0,-0.16899,0.16899,-0.16899,0,-0.16899,-0.16899,-0.16899,-0.16899,-0.16899,-0.16899,-0.16899,-0.16899,-0.16899,-0.16899,0,0.16899,0.16899,0.16899,0.16899,0.16899,0.16899,0.16899,0.16899,0.16899,0.16899,-0.16899,-0.16899,-0.16899,-0.16899,-0.16899,-0.16899,-0.16899,-0.16899,-0.16899,-0.16899,0,0.16899,0.16899,0.16899,0.16899,0.16899,0.16899,0.16899,0.16899,0.16899,0.16899,-0.16899,-0.16899,-0.16899,-0.16899,-0.16899,-0.16899,-0.16899,-0.16899,-0.16899,-0.16899,0,0.16899,0.16899,0.16899,0.16899,0.16899,0.16899,0.16899,0.16899,0.16899,0.16899,0,0,0
0,0,-0.44411,-2.7869,0,0,0,16.244,-9.1477,0,0,0,0.83411,0,-0.83411,0.83411,-0.83411,0,-0.83411,-0.83411,-0.83411,-0.83411,-0.83411,-0.83411,-0.83411,-0.83411,-0.83411,-0.83411,0,0.83411,0.83411,0.83411,0.83411,0.83411,0.83411,0.83411,0.83411,0.83411,0.83411,-0.83411,-0.83411,-0.83411,-0.83411,-0.83411,-0.83411,-0.83411,-0.83411,-0.83411,-0.83411,0,0.83411,0.83411,0.83411,0.83411,0.83411,0.83411,0.83411,0.83411,0.83411,0.83411,-0.83411,-0.83411,-0.83411,-0.83411,-0.83411,-0.83411,-0.83411,-0.83411,-0.83411,-0.83411,0,0.83411,0.83411,0.83411,0.83411,0.83411,0.83411,0.83411,0.83411,0.83411,0.83411,0,0,0
0,0,1280.2,-7.2848,0,0,0,304.41,-10.157,0,0,0,0.33679,0,-0.33679,0.33679,-0.33679,0,-0.33679,-0.33679,-0.33679,-0.33679,-0.33679,-0.33679,-0.33679,-0.33679,-0.33679,-0.33679,0,0.33679,0.33679,0.33679,0.33679,0.33679,0.33679,0.33679,0.33679,0.33679,0.33679,-0.33679,-0.33679,-0.33679,-0.33679,-0.33679,-0.33679,-0.33679,-0.33679,-0.33679,-0.33679,0,0.33679,0.33679,0.33679,0.33679,0.33679,0.33679,0.33679,0.33679,0.33679,0.33679,-0.33679,-0.33679,-0.33679,-0.33679,-0.33679,-0.33679,-0.33679,-0.33679,-0.33679,-0.33679,0,0.33679,0.33679,0.33679,0.33679,0.33679,0.33679,0.33679,0.33679,0.33679,0.33679,0,0,0
0,0,6.7888,2.4291,0,0,0,8.3672,-14.833,0,0,0,0.75378,0,-0.75378,0.75378,-0.75378,0,-0.75378,-0.75378,-0.75378,-0.75378,-0.75378,-0.75378,-0.75378,-0.75378,-0.75378,-0.75378,0,0.75378,0.75378,0.75378,0.75378,0.75378,0.75378,0.75378,0.75378,0.75378,0.75378,-0.75378,-0.75378,-0.75378,-0.75378,-0.75378,-0.75378,-0.75378,-0.75378,-0.75378,-0.75378,0,0.75378,0.75378,0.75378,0.75378,0.75378,0.75378,0.75378,0.75378,0.75378,0.75378,-0.75378,-0.75378,-0.75378,-0.75378,-0.75378,-0.75378,-0.75378,-0.75378,-0.75378,-0.75378,0,0.75378,0.75378,0.75378,0.75378,0.75378,0.75378,0.75378,0.75378,0.75378,0.75378,0,0,0
0,0,0.36989,-6.4525,0,0,0,15.111,-7.9604,0,0,0,-0.067955,0,0.067955,-0.067955,0.067955,0,0.067955,0.067955,0.067955,0.067955,0.067955,0.067955,0.067955,0.067955,0.067955,0.067955,0,-0.067955,-0.067955,-0.067955,-0.067955,-0.067955,-0.067955,-0.067955,-0.067955,-0.067955,-0.067955,0.067955,0.067955,0.067955,0.067955,0.067955,0.067955,0.067955,0.067955,0.067955,0.067955,0,-0.067955,-0.067955,-0.067955,-0.067955,-0.067955,-0.067955,-0.067955,-0.067955,-0.067955,-0.067955,0.067955,0.067955,0.067955,0.067955,0.067955,0.067955,0.067955,0.067955,0.067955,0.067955,0,-0.067955,-0.067955,-0.067955,-0.067955,-0.067955,-0.067955,-0.067955,-0.067955,-0.067955,-0.067955,0,0,0
0,0,5.9664,-8.2763,0,0,0,9.4852,12.718,0,0,0,0.57664,0,-0.57664,0.57664,-0.57664,0,-0.57664,-0.57664,-0.57664,-0.57664,-0.57664,-0.57664,-0.57664,-0.57664,-0.57664,-0.57664,0,0.57664,0.57664,0.57664,0.57664,0.57664,0.57664,0.57664,0.57664,0.57664,0.57664,-0.57664,-0.57664,-0.57664,-0.57664,-0.57664,-0.57664,-0.57664,-0.57664,-0.57664,-0.57664,0,0.57664,0.57664,0.57664,0.57664,0.57664,0.57664,0.57664,0.57664,0.57664,0.57664,-0.57664,-0.57664,-0.57664,-0.57664,-0.57664,-0.57664,-0.57664,-0.57664,-0.57664,-0.57664,0,0.57664,0.57664,0.57664,0.57664,0.57664,0.57664,0.57664,0.57664,0.57664,0.57664,0,0,0
0,0,-8.7197,4.5441,0,0,0,15.405,2.8375,0,0,0,0.090116,0,-0.090116,0.090116,-0.090116,0,-0.090116,-0.090116,-0.090116,-0.090116,-0.090116,-0.090116,-0.090116,-0.090116,-0.090116,-0.090116,0,0.090116,0.090116,0.090116,0.090116,0.090116,0.090116,0.090116,0.090116,0.090116,0.090116,-0.090116,-0.090116,-0.090116,-0.090116,-0.090116,-0.090116,-0.090116,-0.090116,-0.090116,-0.090116,0,0.090116,0.090116,0.090116,0.090116,0.090116,0.090116,0.090116,0.090116,0.090116,0.090116,-0.090116,-0.090116,-0.090116,-0.090116,-0.090116,-0.090116,-0.090116,-0.090116,-0.090116,-0.090116,0,0.090116,0.090116,0.090116,0.090116,0.090116,0.090116,0.090116,0.090116,0.090116,0.090116,0,0,0
0,0,4.8145,15.941,0,0,0,3.5943,-66.265,0,0,0,-0.72588,0,0.72588,-0.72588,0.72588,0,0.72588,0.72588,0.72588,0.72588,0.72588,0.72588,0.72588,0.72588,0.72588,0.72588,0,-0.72588,-0.72588,-0.72588,-0.72588,-0.72588,-0.72588,-0.72588,-0.72588,-0.72588,-0.72588,0.72588,0.72588,0.72588,0.72588,0.72588,0.72588,0.72588,0.72588,0.72588,0.72588,0,-0.72588,-0.72588,-0.72588,-0.72588,-0.72588,-0.72588,-0.72588,-0.72588,-0.72588,-0.72588,0.72588,0.72588,0.72588,0.72588,0.72588,0.72588,0.72588,0.72588,0.72588,0.72588,0,-0.72588,-0.72588,-0.72588,-0.72588,-0.72588,-0.72588,-0.72588,-0.72588,-0.72588,-0.72588,0,0,0
0,0,13.995,-2.7937,0,0,0,-8.5502,-8.9642,0,0,0,-0.83411,0,0.83411,-0.83411,0.83411,0,0.83411,0.83411,0.83411,0.83411,0.83411,0.83411,0.83411,0.83411,0.83411,0.83411,0,-0.83411,-0.83411,-0.83411,-0.83411,-0.83411,-0.83411,-0.83411,-0.83411,-0.83411,-0.83411,0.83411,0.83411,0.83411,0.83411,0.83411,0.83411,0.83411,0.83411,0.83411,0.83411,0,-0.83411,-0.83411,-0.83411,-0.83411,-0.83411,-0.83411,-0.83411,-0.83411,-0.83411,-0.83411,0.83411,0.83411,0.83411,0.83411,0.83411,0.83411,0.83411,0.83411,0.83411,0.83411,0,-0.83411,-0.83411,-0.83411,-0.83411,-0.83411,-0.83411,-0.83411,-0.83411,-0.83411,-0.83411,0,0,0
0,0,-3.98,4.5674,0,0,0,-8.2511,-16.465,0,0,0,-0.63203,0,0.63203,-0.63203,0.63203,0,0.63203,0.63203,0.63203,0.63203,0.63203,0.63203,0.63203,0.63203,0.63203,0.63203,0,-0.63203,-0.63203,-0.63203,-0.63203,-0.63203,-0.63203,-0.63203,-0.63203,-0.63203,-0.63203,0.63203,0.63203,0.63203,0.63203,0.63203,0.63203,0.63203,0.63203,0.63203,0.63203,0,-0.63203,-0.63203,-0.63203,-0.63203,-0.63203,-0.63203,-0.63203,-0.63203,-0.63203,-0.63203,0.63203,0.63203,0.63203,0.63203,0.63203,0.63203,0.63203,0.63203,0.63203,0.63203,0,-0.63203,-0.63203,-0.63203,-0.63203,-0.63203,-0.63203,-0.63203,-0.63203,-0.63203,-0.63203,0,0,0
0,0,-12.216,-6.7321,0,0,0,11.38,9.268,0,0,0,-0.67121,0,0.67121,-0.67121,0.67121,0,0.67121,0.67121,0.67121,0.67121,0.67121,0.67121,0.67121,0.67121,0.67121,0.67121,0,-0.67121,-0.67121,-0.67121,-0.67121,-0.67121,-0.67121,-0.67121,-0.67121,-0.67121,-0.67121,0.67121,0.67121,0.67121,0.67121,0.67121,0.67121,0.67121,0.67121,0.67121,0.67121,0,-0.67121,-0.67121,-0.67121,-0.67121,-0.67121,-0.67121,-0.67121,-0.67121,-0.67121,-0.67121,0.67121,0.67121,0.67121,0.67121,0.67121,0.67121,0.67121,0.67121,0.67121,0.67121,0,-0.67121,-0.67121,-0.67121,-0.67121,-0.67121,-0.67121,-0.67121,-0.67121,-0.67121,-0.67121,0,0,0
0,0,12.774,11.998,0,0,0,0.82041,-10.27,0,0,0,0.631,0,-0.631,0.631,-0.631,0,-0.631,-0.631,-0.631,-0.631,-0.631,-0.631,-0.631,-0.631,-0.631,-0.631,0,0.631,0.631,0.631,0.631,0.631,0.631,0.631,0.631,0.631,0.631,-0.631,-0.631,-0.631,-0.631,-0.631,-0.631,-0.631,-0.631,-0.631,-0.631,0,0.631,0.631,0.631,0.631,0.631,0.631,0.631,0.631,0.631,0.631,-0.631,-0.631,-0.631,-0.631,-0.631,-0.631,-0.631,-0.631,-0.631,-0.631,0,0.631,0.631,0.631,0.631,0.631,0.631,0.631,0.631,0.631,0.631,0,0,0
0,0,1.3,4.3304,0,0,0,13.74,5.2765,0,0,0,0.082305,0,-0.082305,0.082305,-0.082305,0,-0.082305,-0.082305,-0.082305,-0.082305,-0.082305,-0.082305,-0.082305,-0.082305,-0.082305,-0.082305,0,0.082305,0.082305,0.082305,0.082305,0.082305,0.082305,0.082305,0.082305,0.082305,0.082305,-0.082305,-0.082305,-0.082305,-0.082305,-0.082305,-0.082305,-0.082305,-0.082305,-0.082305,-0.082305,0,0.082305,0.082305,0.082305,0.082305,0.082305,0.082305,0.082305,0.082305,0.082305,0.082305,-0.082305,-0.082305,-0.082305,-0.082305,-0.082305,-0.082305,-0.082305,-0.082305,-0.082305,-0.082305,0,0.082305,0.082305,0.082305,0.082305,0.082305,0.082305,0.082305,0.082305,0.082305,0.082305,0,0,0
0,0,3.4283,-3.8386,0,0,0,4.7387,18.075,0,0,0,0.54037,0,-0.54037,0.54037,-0.54037,0,-0.54037,-0.54037,-0.54037,-0.54037,-0.54037,-0.54037,-0.54037,-0.54037,-0.54037,-0.54037,0,0.54037,0.54037,0.54037,0.54037,0.54037,0.54037,0.54037,0.54037,0.54037,0.54037,-0.54037,-0.54037,-0.54037,-0.54037,-0.54037,-0.54037,-0.54037,-0.54037,-0.54037,-0.54037,0,0.54037,0.54037,0.54037,0.54037,0.54037,0.54037,0.54037,0.54037,0.54037,0.54037,-0.54037,-0.54037,-0.54037,-0.54037,-0.54037,-0.54037,-0.54037,-0.54037,-0.54037,-0.54037,0,0.54037,0.54037,0.54037,0.54037,0.54037,0.54037,0.54037,0.54037,0.54037,0.54037,0,0,0
0,0,8.4875,33.893,0,0,0,3.0748,-10.042,0,0,0,0.53487,0,-0.53487,0.53487,-0.53487,0,-0.53487,-0.53487,-0.53487,-0.53487,-0.53487,-0.53487,-0.53487,-0.53487,-0.53487,-0.53487,0,0.53487,0.53487,0.53487,0.53487,0.53487,0.53487,0.53487,0.53487,0.53487,0.53487,-0.53487,-0.53487,-0.53487,-0.53487,-0.53487,-0.53487,-0.53487,-0.53487,-0.53487,-0.53487,0,0.53487,0.53487,0.53487,0.53487,0.53487,0.53487,0.53487,0.53487,0.53487,0.53487,-0.53487,-0.53487,-0.53487,-0.53487,-0.53487,-0.53487,-0.53487,-0.53487,-0.53487,-0.53487,0,0.53487,0.53487,0.53487,0.53487,0.53487,0.53487,0.53487,0.53487,0.53487,0.53487,0,0,0
0,0,-3.9026,4.2576,0,0,0,-4.2548,-16.279,0,0,0,0.76574,0,-0.76574,0.76574,-0.76574,0,-0.76574,-0.76574,-0.76574,-0.76574,-0.76574,-0.76574,-0.76574,-0.76574,-0.76574,-0.76574,0,0.76574,0.76574,0.76574,0.76574,0.76574,0.76574,0.76574,0.76574,0.76574,0.76574,-0.76574,-0.76574,-0.76574,-0.76574,-0.76574,-0.76574,-0.76574,-0.76574,-0.76574,-0.76574,0,0.76574,0.76574,0.76574,0.76574,0.76574,0.76574,0.76574,0.76574,0.76574,0.76574,-0.76574,-0.76574,-0.76574,-0.76574,-0.76574,-0.76574,-0.76574,-0.76574,-0.76574,-0.76574,0,0.76574,0.76574,0.76574,0.76574,0.76574,0.76574,0.76574,0.76574,0.76574,0.76574,0,0,0
0,0,-1.5772,7.2492,0,0,0,14.009,4.5718,0,0,0,-0.021174,0,0.021174,-0.021174,0.021174,0,0.021174,0.021174,0.021174,0.021174,0.021174,0.021174,0.021174,0.021174,0.021174,0.021174,0,-0.021174,-0.021174,-0.021174,-0.021174,-0.021174,-0.021174,-0.021174,-0.021174,-0.021174,-0.021174,0.021174,0.021174,0.021174,0.021174,0.021174,0.021174,0.021174,0.021174,0.021174,0.021174,0,-0.021174,-0.021174,-0.021174,-0.021174,-0.021174,-0.021174,-0.021174,-0.021174,-0.021174,-0.021174,0.021174,0.021174,0.021174,0.021174,0.021174,0.021174,0.021174,0.021174,0.021174,0.021174,0,-0.021174,-0.021174,-0.021174,-0.021174,-0.021174,-0.021174,-0.021174,-0.021174,-0.021174,-0.021174,0,0,0
0,0,10.918,5.0451,0,0,0,11.853,10.185,0,0,0,0.58493,0,-0.58493,0.58493,-0.58493,0,-0.58493,-0.58493,-0.58493,-0.58493,-0.58493,-0.58493,-0.58493,-0.58493,-0.58493,-0.58493,0,0.58493,0.58493,0.58493,0.58493,0.58493,0.58493,0.58493,0.58493,0.58493,0.58493,-0.58493,-0.58493,-0.58493,-0.58493,-0.58493,-0.58493,-0.58493,-0.58493,-0.58493,-0.58493,0,0.58493,0.58493,0.58493,0.58493,0.58493,0.58493,0.58493,0.58493,0.58493,0.58493,-0.58493,-0.58493,-0.58493,-0.58493,-0.58493,-0.58493,-0.58493,-0.58493,-0.58493,-0.58493,0,0.58493,0.58493,0.58493,0.58493,0.58493,0.58493,0.58493,0.58493,0.58493,0.58493,0,0,0
0,0,-8.6478,-4.9273,0,0,0,-10.053,11.275,0,0,0,0.83411,0,-0.83411,0.83411,-0.83411,0,-0.83411,-0.83411,-0.83411,-0.83411,-0.83411,-0.83411,-0.83411,-0.83411,-0.83411,-0.83411,0,0.83411,0.83411,0.83411,0.83411,0.83411,0.83411,0.83411,0.83411,0.83411,0.83411,-0.83411,-0.83411,-0.83411,-0.83411,-0.83411,-0.83411,-0.83411,-0.83411,-0.83411,-0.83411,0,0.83411,0.83411,0.83411,0.83411,0.83411,0.83411,0.83411,0.83411,0.83411,0.83411,-0.83411,-0.83411,-0.83411,-0.83411,-0.83411,-0.83411,-0.83411,-0.83411,-0.83411,-0.83411,0,0.83411,0.83411,0.83411,0.83411,0.83411,0.83411,0.83411,0.83411,0.83411,0.83411,0,0,0
0,0,12.714,-10.567,0,0,0,-2.5462,8.2271,0,0,0,0.56425,0,-0.56425,0.56425,-0.56425,0,-0.56425,-0.56425,-0.56425,-0.56425,-0.56425,-0.56425,-0.56425,-0.56425,-0.56425,-0.56425,0,0.56425,0.56425,0.56425,0.56425,0.56425,0.56425,0.56425,0.56425,0.56425,0.56425,-0.56425,-0.56425,-0.56425,-0.56425,-0.56425,-0.56425,-0.56425,-0.56425,-0.56425,-0.56425,0,0.56425,0.56425,0.56425,0.56425,0.56425,0.56425,0.56425,0.56425,0.56425,0.56425,-0.56425,-0.56425,-0.56425,-0.56425,-0.56425,-0.56425,-0.56425,-0.56425,-0.56425,-0.56425,0,0.56425,0.56425,0.56425,0.56425,0.56425,0.56425,0.56425,0.56425,0.56425,0.56425,0,0,0
0,0,-12.747,6.4277,0,0,0,-14.124,-7.2981,0,0,0,0.34405,0,-0.34405,0.34405,-0.34405,0,-0.34405,-0.34405,-0.34405,-0.34405,-0.34405,-0.34405,-0.34405,-0.34405,-0.34405,-0.34405,0,0.34405,0.34405,0.34405,0.34405,0.34405,0.34405,0.34405,0.34405,0.34405,0.34405,-0.34405,-0.34405,-0.34405,-0.34405,-0.34405,-0.34405,-0.34405,-0.34405,-0.34405,-0.34405,0,0.34405,0.34405,0.34405,0.34405,0.34405,0.34405,0.34405,0.34405,0.34405,0.34405,-0.34405,-0.34405,-0.34405,-0.34405,-0.34405,-0.34405,-0.34405,-0.34405,-0.34405,-0.34405,0,0.34405,0.34405,0.34405,0.34405,0.34405,0.34405,0.34405,0.34405,0.34405,0.34405,0,0,0
0,0,0.3047,9.3362,0,0,0,-10.463,11.256,0,0,0,-0.78097,0,0.78097,-0.78097,0.78097,0,0.78097,0.78097,0.78097,0.78097,0.78097,0.78097,0.78097,0.78097,0.78097,0.78097,0,-0.78097,-0.78097,-0.78097,-0.78097,-0.78097,-0.78097,-0.78097,-0.78097,-0.78097,-0.78097,0.78097,0.78097,0.78097,0.78097,0.78097,0.78097,0.78097,0.78097,0.78097,0.78097,0,-0.78097,-0.78097,-0.78097,-0.78097,-0.78097,-0.78097,-0.78097,-0.78097,-0.78097,-0.78097,0.78097,0.78097,0.78097,0.78097,0.78097,0.78097,0.78097,0.78097,0.78097,0.78097,0,-0.78097,-0.78097,-0.78097,-0.78097,-0.78097,-0.78097,-0.78097,-0.78097,-0.78097,-0.78097,0,0,0
