-1.0209,-0.22125,0.33496,-0.042232,0.018943,0.31044,0.023048,-0.09164,-0.056624,-0.18989,0.14336,0.35112,-1.2289,-0.89657,-0.34235,0.032566,0.12454,-0.39539,0.19367,-0.22099,-0.082417,-0.087287,0.019814,0.014414,-0.32564,-0.20624,-0.2852,-0.2752,-0.035645,0.23158,-0.24125,0.14853,0.012738,-0.29905,0.19297,0.14756,0.20214,-0.076842,0.12853,0.0048222,0.38327,0.072087,0.23386,-0.39073,0.26965,-0.03817,0.068781,-0.10828,-0.088726,-0.18832,0.16691,0.28181,-0.030689,-0.25291,-0.02648,-0.10528,-0.16482,0.47226,0.096124,0.22407,0.13755,-0.15214,0.37351,-0.044689,0.28881,0.011703,0.085555,0.49157,-0.16562,0.099775,-0.020829,0.04788,-1.0988,-0.27554,-0.37539,-0.10823,-0.088271,-0.23676,-0.21262,0.4024,-0.097745,0.062845,0.34634,0.11972,-0.18992,0.41396,-0.53785,0.24265,0.22913,0.085678,-0.059359,-0.93815,0.40831,-0.35654,0.17625,-0.93342,1.0789,1.035,0.22979,-0.002382,-0.0077018,-0.3742,-0.24112,-0.93471,-0.045231,-0.1129,0.16151,0.24092,-0.09453,-0.094241,0.88232,0.96419,0.028832,0.12108,-0.071952,0.36078,-0.38144,0.20967,-0.91334,0.061226,-0.20882,-1.0514,-0.26315,-1.206,1.2691
0.013033,-0.14434,-0.014688,-0.0046539,0.32494,0.1229,-0.0014975,0.2129,0.22777,-0.38922,-0.072903,0.22691,0.18011,0.10808,0.39016,0.20197,0.18383,-0.004843,0.014899,0.065357,0.35921,-0.061419,0.3928,0.21794,0.02736,0.17753,0.080268,0.19556,-0.11905,-0.33798,-0.58674,-0.13868,0.20031,-0.14761,-0.18236,-0.045686,-0.21428,-0.23351,-0.28287,-0.47022,-0.14302,-0.28509,0.12599,-0.07542,0.18412,-0.16242,0.098773,0.16786,0.17318,0.15624,0.2009,-0.29699,-0.14471,0.41236,-0.29516,-0.50731,0.46578,-0.11744,0.19216,-0.40646,-0.44037,0.073207,-0.24957,-0.2576,-0.16008,-0.097172,0.10723,-0.22113,0.040329,-0.20903,0.8214,0.14824,0.36654,-0.03647,0.44964,0.2377,0.059237,-0.030749,0.4379,-0.27436,-0.12889,-0.075818,-0.18592,0.049975,0.15644,-0.0041326,0.99728,-0.097339,-0.15348,0.25881,-0.1663,-0.045016,-0.13779,0.10144,0.51675,-0.1497,-0.24338,-0.12395,0.12537,-0.12282,-0.29129,0.24886,0.17788,-0.0067959,0.43259,-0.1121,-0.026646,0.00094227,0.038927,-0.21871,-0.45547,-0.38361,0.10769,0.12025,0.015812,-0.15099,0.11643,0.010591,0.09278,-0.59523,0.19872,0.11541,0.0023191,0.032139,-0.090908
-0.043925,-0.20253,0.2184,-0.10145,-0.026178,0.33215,0.036333,-0.26035,0.10019,-0.089605,-0.14659,0.23981,-0.089433,-0.51889,-0.14295,-0.073216,0.15307,-0.50442,-0.029958,-0.24058,0.17231,0.1875,0.042131,-0.093045,0.0066546,0.051338,0.11896,-0.098146,0.00071678,0.25881,-0.019205,-0.26956,0.21852,0.63388,-0.75967,-0.27385,0.47829,-0.15578,-0.29424,0.2126,-0.072029,0.3582,0.31224,-0.082534,0.10626,-0.19052,0.055439,-0.37973,0.17522,0.14666,-0.4593,0.289,-0.076406,-0.13006,0.030765,-0.11949,0.043352,0.64277,-0.020511,0.17367,-0.0072169,0.047706,-0.10431,0.23888,-0.2936,-0.10107,-0.39548,-0.15321,-0.47201,0.11327,0.06489,-0.25888,-0.091158,0.44038,-0.34135,0.36921,0.27389,-0.12482,0.079967,0.066286,-0.29308,-0.023329,0.22098,-0.025401,-0.083731,0.052829,0.17348,-0.011101,-0.28338,-0.25071,0.86343,-0.22907,0.060138,-0.21172,-0.074357,-0.020309,0.14891,0.10769,0.11857,-0.03478,0.136,0.11716,-0.13264,-0.0056655,0.066268,-0.0094067,0.51586,0.54507,-0.13508,-0.20826,0.16476,-0.13673,0.15194,-0.10606,-0.15971,0.1059,-0.012452,-0.22853,0.025535,-0.056313,-0.058014,-0.17009,0.07217,0.074106,0.17189
-0.025763,0.17535,0.55744,-0.21359,-0.79267,0.42744,-0.21604,-0.81782,-0.065945,-0.095488,-0.097519,0.70811,-0.20653,-0.0236,-0.14472,0.78661,0.28548,0.025857,0.5293,-0.6012,0.088212,-0.070174,-0.67663,-0.66868,-0.60112,-0.2908,-0.18567,-0.12068,0.07618,0.013473,-0.42343,-0.23998,0.44901,-0.2478,0.2339,0.53771,-0.20073,-0.57932,0.57045,-0.078993,0.44206,0.51984,0.11794,-0.78567,0.19615,-0.34737,0.18894,-0.60124,-0.45594,-0.6069,-0.2179,0.27416,-0.18229,-0.41765,0.37495,0.2993,-0.35503,-0.20223,-0.10994,0.52526,0.76257,-0.27051,0.51685,-0.41729,0.1982,-0.15866,0.25457,0.8346,-0.12755,0.29352,-0.47648,-0.19319,-0.6284,-0.087997,-0.54004,0.010861,-0.047863,-0.64588,0.056778,0.28147,-0.39288,0.51756,0.40808,0.63094,0.19789,-0.045452,-0.55717,0.59125,-0.27545,-0.47313,0.009054,-0.3011,0.046001,-0.82696,-0.14349,0.033619,0.25083,0.62949,0.56716,-0.84026,-0.031052,-0.0041431,-0.50155,-0.029658,0.22058,-0.42236,-0.4707,-0.48642,-0.55401,0.10544,0.086518,0.1525,0.83083,0.07782,-0.77731,0.29355,-0.63049,-0.18173,0.28667,0.38978,-0.77795,-0.072499,-0.80548,-0.17842,-0.094671
-0.16714,-0.027132,-0.24873,0.19324,0.38976,-0.51383,-0.051293,0.54488,-0.058621,0.065585,-0.14813,-0.5306,-0.010546,0.26465,-0.14551,-0.28387,0.089276,-0.10817,-0.40027,0.30254,-0.223,0.080703,0.45058,0.13703,0.14465,0.078609,0.40266,1.487,5.8517,-0.2013,0.36339,0.39637,1.2247,6.4018,-0.30781,-0.095016,-0.00098973,0.35167,-0.4893,0.61525,-0.24879,-0.21901,-0.18422,0.1153,0.19579,0.12857,0.13829,0.18361,0.18921,-0.0065569,0.20196,-0.15757,-0.17298,0.26701,-0.17273,0.056803,-0.15203,-0.037635,0.15124,0.14487,-0.086432,0.17865,-0.16605,-0.12265,0.13149,0.069385,0.71396,-0.45118,0.58455,-0.23434,0.26708,0.034084,-0.15656,0.10307,0.47886,-3.9616,-0.58965,0.0026509,0.13054,-0.065413,0.057316,0.00201,-0.059713,-0.34935,-0.42467,-0.0096772,0.1262,-0.37494,-0.55765,-6.9989,5.1466,-0.29373,-0.00041858,0.47767,-0.057858,-1.8268,-0.2235,-0.036547,-0.052916,0.16999,-0.21963,-0.58985,0.37317,3.0142,0.0031284,0.3214,-0.035153,0.099047,0.54587,-1.3124,-0.020533,-0.019299,-0.27647,-0.30064,0.5437,-3.1237,0.26147,-0.076856,0.088245,-0.38025,0.14155,0.094099,0.38857,-0.13677,0.1593
-0.29207,-0.2632,0.15418,0.16123,-0.35653,0.25062,-0.87585,0.13818,-0.18718,0.64028,0.050014,0.12352,-0.28138,-0.017449,-0.39269,0.057867,-0.664,0.43998,-0.12691,0.10325,-0.21488,-0.22773,0.006419,-0.15951,-0.023801,-0.11595,-0.15807,0.11115,-0.29012,0.070422,-0.024482,0.41453,0.024811,0.076942,-0.52837,0.062563,0.13424,-0.13114,0.60789,-0.025445,0.097166,0.15775,-0.20205,-0.23697,0.24909,-0.19092,0.018824,-0.50041,-0.58275,-0.38344,0.21649,0.31008,-0.08922,-0.58402,0.29968,0.28478,0.00013314,-0.24176,0.54586,0.19847,0.43953,-0.22807,-0.083265,0.12628,0.25563,-0.36045,0.56873,-0.059986,0.13679,0.10744,-0.26611,0.3971,0.29315,-1.0358,-0.53428,0.75247,0.71961,0.15465,-0.42427,0.16762,0.22566,0.43405,-0.12585,-0.17443,-0.006575,-0.10415,0.17667,0.43089,-0.20317,-0.41824,0.045749,-0.00062545,-0.18219,0.010163,-0.30074,0.21857,0.27265,-0.20588,-0.060485,-0.067543,0.16002,-0.45596,-0.47871,0.20829,-0.24835,-0.23858,-0.19386,-0.23768,-0.62274,0.38683,0.56494,0.3395,0.080062,0.41267,0.16088,0.99549,-0.13191,0.1304,-0.25795,-0.26509,-0.17895,0.10783,-0.18984,0.14893,0.31329
-0.24413,-0.15296,0.13267,0.12385,-0.042605,0.075025,0.19732,0.042228,-0.57725,0.59239,0.08768,-0.11032,-0.28143,0.23714,-0.26936,0.087057,0.14364,-0.58325,0.011803,0.084584,-3.5257,-0.45027,-0.15807,0.21678,-0.014445,0.14497,0.11503,3.1706,0.03129,-0.043554,-0.20828,-0.021717,0.065342,-0.1214,-0.078002,0.19181,0.55853,-0.019602,0.07025,0.015414,-0.10171,0.24203,0.28899,-0.12605,0.36622,-0.42898,0.073348,-0.15048,-0.056244,-0.0016016,0.16191,0.30974,0.38142,-0.14141,0.16961,0.039081,-0.12758,-0.37447,0.45576,-0.11583,-0.044969,-0.2151,0.21572,-0.0016113,-0.049106,0.16254,0.16933,0.18528,-0.62758,-0.34676,-0.077258,0.097374,0.073315,0.076125,-0.19187,-0.46083,0.073203,-0.087931,-0.22338,0.25586,0.04908,0.34584,-0.0029853,0.21716,0.27063,0.40321,0.098321,-0.080131,-0.89557,0.60891,0.19838,-0.33284,-0.027037,-0.083746,0.065321,-0.61055,0.34114,0.39144,0.25739,-0.074657,0.29354,0.055988,0.020306,0.0065303,-0.20228,0.21614,-0.021028,0.94347,0.038634,0.97418,0.56823,0.25088,0.0095666,0.34106,-0.064764,1.644,0.063647,-0.33385,-0.24503,-0.40224,-0.055727,-0.27215,-0.26359,-0.44547,0.34583
0.021837,0.17871,-0.060432,0.3218,-0.12424,-0.19635,-0.036008,0.1511,-0.26022,-0.65195,0.43988,0.018649,-0.076909,0.13073,-0.23674,-0.059075,-0.048979,-0.024903,-0.14777,0.20245,0.16225,-0.11733,0.13423,0.12433,0.073448,-0.18762,0.16131,0.023835,0.013108,0.02529,0.065976,-0.094212,-0.095166,-0.1755,-0.15951,0.040165,-0.13567,0.0073964,0.086043,0.04163,-0.14795,-0.065172,0.013337,-0.29815,-0.024861,-0.20636,0.32935,0.086426,0.02429,0.25524,0.23974,-0.076552,0.013671,0.18427,0.051163,0.17466,0.24182,-0.04799,0.24888,0.081885,-0.044751,0.12112,0.09528,0.02629,0.11795,-0.0017808,0.48073,0.20468,0.31421,-0.22548,0.21534,0.22109,-0.032732,-0.25664,-0.41392,0.20403,-0.38475,0.010034,-0.16825,-0.0083525,0.26122,0.032399,-0.30653,-0.021689,0.48296,0.21659,0.1717,0.14099,-0.11654,0.30387,-0.11523,0.062556,0.16386,-0.12429,-0.13984,-0.3388,0.2065,0.38261,0.13516,-0.16369,0.32377,-0.18834,-0.1791,-0.2824,-0.30381,0.12237,-0.2685,0.044488,0.21204,0.32844,0.037762,0.36509,0.11908,0.07718,0.075564,0.3383,-0.12488,-1.499,-0.26269,-0.14987,0.030714,-0.16264,-0.01654,-0.25777,0.13309
-0.083782,-0.10743,0.08315,0.0060842,-0.26566,0.10704,0.019218,-0.12949,-0.82114,-0.026612,-0.10355,0.23332,-0.042797,-0.27051,-0.18466,0.25717,-0.028555,-0.093152,0.18763,-0.14017,0.088681,-0.19066,-0.11981,-0.20822,-0.19023,-0.26592,-0.28297,0.054636,-0.057562,-0.040121,0.08137,-0.068777,0.19211,-0.15402,0.28915,-0.13101,0.35439,-0.35452,0.33303,0.016685,0.092245,0.099589,0.72283,-0.34335,0.78871,-0.50489,0.22094,-0.11614,0.073797,-0.36316,0.24076,0.0073523,-0.19898,-0.17817,-0.016728,0.047586,-0.22018,-0.22249,-0.018166,0.58301,0.072603,-0.41602,0.43785,0.18363,-0.018512,-0.057417,0.15922,0.55836,0.053287,0.12428,-0.4531,-0.025166,-0.67057,-0.31895,-0.62748,-0.06848,-0.22271,0.078045,-0.81575,0.53952,-0.21942,0.63653,-0.049702,0.36362,-0.24778,0.77371,0.027591,0.25157,0.26262,-0.24728,-0.071923,-0.66518,0.1711,0.079205,0.072122,-0.75662,0.7017,0.30606,0.34635,-0.17179,0.78288,-0.83781,-0.32169,-0.22268,-0.76906,-0.013311,0.23554,-0.30016,-0.14399,0.11877,0.83023,0.20289,0.047672,0.16494,-0.25065,0.13694,0.08016,-0.14415,-0.45416,0.019237,0.055545,-0.097944,-0.18043,-0.063963,0.16728
0.28795,0.10547,0.57144,-0.27759,-0.36493,0.20279,0.58223,-0.32639,0.0051434,-0.17394,0.10813,0.28037,0.11276,0.073826,-0.065994,0.29721,0.0077446,0.41474,0.26703,-0.41963,-0.34509,0.1003,-0.3841,-0.46138,-0.50752,-0.33863,0.54982,0.77822,0.42781,0.17412,-0.7139,-0.41317,0.58599,-0.43591,0.63142,0.47976,0.14046,-0.39711,0.63507,-0.18659,0.28482,0.24849,0.055576,0.21135,0.054172,-0.3111,-0.11927,-0.23699,0.41728,-0.23764,0.26451,0.15127,-0.065484,-0.17473,0.052819,0.43141,-0.26353,-0.17,-0.082842,0.20609,0.07491,-0.2685,0.46023,-0.11573,0.056512,-0.52502,-0.18702,0.12985,0.62535,0.55831,1.294,0.11537,-0.046044,-0.30458,-0.90485,-0.70377,0.25134,-0.36524,0.037674,0.0093384,-0.096446,-0.035737,0.095562,0.17419,0.5537,0.23343,-0.1004,2.4522,0.64575,-0.46565,0.079018,0.069111,-0.025056,-0.30694,-0.14474,-0.2467,0.02634,0.046419,0.18788,-0.49004,-0.046794,0.17189,1.7446,-0.057058,0.23064,-0.17156,-0.69493,0.17292,-0.21124,3.0374,0.25095,-0.18022,0.53841,0.42288,-0.17899,-0.65068,-0.55036,-0.1836,-0.0053037,0.042052,-0.2957,0.086545,-0.18693,0.30417,-0.12344
-0.031982,0.15844,0.08096,-0.36839,-0.27003,0.042058,-0.05659,-0.07788,0.23436,-0.28718,0.36084,0.14619,0.30035,-0.19525,0.17411,0.097251,0.015727,0.49049,0.18426,-0.096009,-0.29938,0.32665,-0.03662,0.046918,-0.17127,-0.034903,0.02488,-0.018739,-0.1743,-0.16965,0.17642,-1.0603,0.034506,-0.23123,0.20924,0.1273,-0.018692,0.19923,0.20595,-0.34128,0.073876,0.10988,-0.33935,0.072509,-0.12465,0.17152,0.59687,0.054724,-0.088017,-0.026949,-0.12298,-0.076685,0.40311,0.068538,-0.13892,-0.56578,-0.1183,0.34375,-0.68609,0.0076178,0.14534,0.44326,-0.33119,-0.04891,-0.031986,-0.20195,-0.58336,-0.36686,0.21876,0.13892,-0.16672,0.15343,0.095601,-0.27336,-0.14186,0.049624,0.18635,-0.13028,0.31152,-0.11999,-0.038432,0.14194,-0.34573,-0.063675,-0.13644,-0.071171,0.35422,0.054863,-0.18965,0.058409,-0.041386,0.26583,-0.40446,0.015278,-0.18155,-0.10296,0.11148,-0.17405,0.018455,-0.19394,-0.1016,-0.0069849,0.283,-0.024594,0.22955,-0.083673,0.23855,-0.093213,-0.1305,-0.21031,-0.11602,-0.099577,-0.004235,0.12478,0.12088,-0.17867,0.15397,-0.18297,-0.072687,0.57074,0.072079,0.032605,0.015013,0.26517,-0.10764
-0.13944,0.0093786,0.74797,-0.10329,-0.56406,0.96029,0.15438,-0.61437,-0.39059,-0.1507,0.0059901,0.85409,0.091787,-0.23125,-0.18123,0.66412,0.20096,-0.24308,0.92039,-0.97842,0.17509,-0.3667,-0.90727,-0.75387,-0.15004,-0.53635,-0.65122,0.090015,-0.12223,0.059681,-0.99121,-0.06078,0.82281,0.02715,0.37809,0.068141,-0.020514,-0.92276,0.9476,-0.11118,0.39348,0.98927,0.27363,-0.59453,0.41428,-0.069249,0.18893,-0.16645,-0.22727,-0.85748,-0.12306,0.77353,-0.020781,-0.14348,0.41697,-0.18798,-0.79399,0.26418,-0.025599,0.38744,0.61481,-0.38371,0.10097,0.017394,0.32664,-0.09926,-0.18195,0.050941,-0.31897,0.31446,-0.13176,-0.50379,-0.11862,-0.11704,-0.28375,-0.11964,0.62228,-0.32412,0.0011808,0.17631,-0.40933,0.0018325,0.60957,0.99212,0.20647,0.19202,0.12429,0.51337,-0.2949,-0.88541,0.13583,-0.24313,0.18607,-0.26378,-0.03556,-0.188,0.34852,0.22442,0.51391,-0.34381,0.14843,-0.12057,-0.49103,-0.0032612,0.0004666,-0.45484,-0.1839,-1.0245,-0.75421,-0.16737,0.15326,0.18788,0.8472,0.11434,-0.90751,0.001817,-0.25,-0.097513,-0.026495,0.36406,-1.0248,-0.10655,-0.93661,-0.35418,0.15069
-0.18768,-0.28716,0.2175,0.03528,-0.042244,0.11536,0.15391,-0.25639,0.0719,-0.45176,0.063175,0.14628,-0.1505,0.10598,0.098632,0.16873,-0.11108,-0.32568,0.86721,-0.38673,-0.25563,-0.17532,-0.50548,-0.34432,-0.30982,-0.13518,-0.067599,-0.23309,-0.15425,0.057401,-0.033988,-0.75336,0.070004,0.10436,-2.7166,-0.51598,-0.092444,-0.45259,0.48149,0.40604,1.0384,0.48726,0.22425,-0.69122,-0.070373,-0.022328,-0.024592,-0.018513,0.071912,-0.37899,-0.031596,0.16099,-0.035551,-0.16825,0.081637,-0.10313,-0.18738,-0.11966,-0.056515,0.43048,0.20664,-0.20084,0.52416,-0.1662,-0.13161,-0.20582,0.10142,0.23437,-0.042549,-0.19592,-0.47316,-0.2411,-0.43277,0.22347,-0.37494,-0.018615,-0.14251,-0.045923,-0.3446,0.12854,-0.23619,0.40697,0.20029,0.15262,0.28013,0.032014,0.10652,0.058931,0.50837,-7.8089,0.3589,0.16992,0.23371,0.022468,-0.15333,-0.085919,-0.10093,-0.042654,-0.11809,-0.18859,0.088848,0.0049274,-0.037986,-0.51923,-0.30424,-0.46391,0.26104,0.25503,-0.14851,0.051924,-0.10081,0.19416,0.16744,0.29163,-0.37859,0.48137,-0.19597,-0.18283,-0.00438,1.1689,-0.28969,-0.14063,-0.17271,-0.25286,0.12903
0.061793,-0.060111,-0.22679,0.16991,0.44438,-0.22747,0.0076996,0.28256,0.78861,0.20584,0.96914,-0.43143,0.13491,0.17565,0.80128,-0.27595,-0.02835,0.37002,-0.3927,0.25513,-0.088202,0.78033,0.40971,0.26175,0.36442,0.37219,0.10761,0.31881,0.15861,0.094429,0.10236,0.18838,-0.2784,0.15891,-0.17917,-0.086446,-0.10346,0.16842,-0.093645,0.37437,-0.23374,-0.37589,-1.0527,0.024336,0.061567,0.68001,-0.18253,0.10827,0.015314,0.030016,-0.32736,-0.67961,0.035998,0.059718,-0.22856,-0.24567,0.13024,0.15235,0.093703,-0.041032,-0.21617,0.90909,-0.20199,0.17075,-0.36741,0.11399,-0.18282,-0.1578,0.080324,-0.53268,-0.022671,0.66251,-0.069808,0.2934,0.29026,0.30777,-0.25671,0.10948,0.74821,-0.79998,0.057543,-0.21332,0.044024,-0.23902,0.14821,-0.75965,-0.039238,-0.37626,-0.036699,0.037473,-0.0013326,0.14633,-0.6996,0.02924,0.061027,0.20186,-0.027752,-0.080984,-0.11134,0.21635,-0.82924,0.68233,0.0019252,0.075814,0.76889,0.25581,-0.015881,-0.18648,0.24046,0.1838,-0.34187,-0.18412,-0.26845,-0.2995,0.36209,-0.0053951,0.21576,-0.19535,0.2032,-0.41181,0.29511,0.33463,0.066924,0.25261,-0.94289
-0.20184,-0.16137,0.088398,0.041014,0.060467,-0.22087,1.855,0.043271,-0.045204,0.47355,0.091249,0.023101,-0.17553,-0.019519,0.021025,0.073005,-0.020629,-0.030347,-0.1963,-0.17621,0.54753,-0.12987,-0.19788,-0.89244,0.048602,-0.12243,-0.15662,-0.12154,0.046154,0.33407,0.027159,0.90687,-0.065935,-0.21261,0.10929,0.01887,0.083024,0.11551,0.521,-0.10503,0.046172,0.20586,-0.21931,0.074654,-0.16768,-0.18221,0.18731,-0.094252,-0.22021,-0.46109,-0.30749,0.77322,-0.3244,-0.42661,-0.20769,-0.13519,-0.12223,0.46728,0.089708,0.44902,0.46337,-0.11257,-0.15127,-0.25565,-0.32024,-0.33014,-0.37807,-0.085027,-0.086559,-0.17812,-0.22359,-0.3825,-0.36727,0.22028,-0.21983,-0.34573,0.093382,-0.035775,-0.25177,0.20455,-0.015142,0.16828,0.19567,-0.20448,-0.3957,-0.026538,-0.60402,-0.48653,-0.28834,-0.16347,-0.13472,0.089544,0.056983,0.19352,-0.10008,-0.31588,0.042163,0.013608,-0.17482,-0.15689,-0.79653,-0.11684,-0.23167,-0.049353,-0.29659,0.036817,-0.13374,0.047982,0.19588,-0.18992,0.30922,0.26029,-0.17695,-0.22885,0.038654,-0.211,-0.057869,-0.63885,-0.13146,0.19913,0.16816,-0.16661,0.0564,0.027206,-0.040323
-1.0065,-0.93522,0.33732,-0.10868,-0.0029833,0.01492,0.056074,-0.19015,-1.0108,0.0232,-0.20826,0.28202,-1.1411,-0.10709,-0.8755,0.26807,-0.27689,-1.2225,0.048935,-0.027719,-0.062653,0.0095489,-0.38783,-0.16798,-0.12032,-0.35035,0.038299,-0.12919,0.016999,0.38745,0.0091817,0.12776,0.11147,-0.030443,0.3091,-0.29938,0.27108,-0.082727,0.018067,-0.19522,-0.021149,0.087938,0.14221,0.16497,0.93364,0.021515,0.075298,-0.3191,-0.16659,0.027707,-0.021956,0.16493,-0.11282,-0.2834,0.059686,0.33852,-0.16626,-0.028533,0.08718,0.24687,0.030214,-0.37308,0.38746,0.18189,0.24377,-0.24197,0.091336,0.32325,-0.15009,0.012211,-0.1505,-0.076786,-1.0451,0.032019,-0.031576,-0.12943,-0.012298,-0.33799,-0.41015,0.11598,-0.002087,1.0072,0.20043,0.054795,-0.13236,0.33744,-0.85916,0.13392,0.11494,-0.034908,-0.1029,-0.35268,0.22988,-0.10817,0.22935,-1.0183,0.91106,1.1133,0.22587,-0.14346,0.22425,-0.20781,-0.060703,-0.11756,0.0093526,-0.2354,-0.10205,0.13495,-0.0090802,-0.066357,1.1853,0.042972,0.29202,-0.19908,0.12671,-0.14435,-0.17511,0.26294,-0.92251,-0.14358,-0.352,-0.92718,-0.18946,-1.1861,1.2181
0.061406,-0.034581,0.18824,-1.555,0.14669,0.06183,-0.071716,-0.075657,-0.070285,-0.21254,-0.023031,0.17134,0.057337,-0.49895,0.13324,0.3003,0.048245,0.12224,0.17011,-0.009626,0.058233,0.25214,0.12704,-0.25929,0.14122,-0.14144,0.073766,-0.42987,0.12963,0.20531,-0.15011,0.60829,-0.083022,0.026123,-0.13066,-0.071176,-0.038062,-0.21881,-0.0010476,0.31414,-0.12718,-0.28269,0.18849,0.1406,-0.01548,0.040692,-0.16558,-0.082182,0.13187,-0.14201,-0.25518,0.10598,0.4452,-0.15426,-0.12826,-0.16279,0.013417,-0.11973,-0.20737,0.039754,0.074405,0.13915,-0.22079,0.22033,-0.41002,-0.24086,0.027193,0.014572,0.18274,-0.093643,0.21251,-0.015855,0.20004,0.18622,-0.29217,0.26067,0.18696,0.13798,0.10185,-0.0076393,-0.48394,-0.25667,0.24568,-0.064766,-0.092882,-0.19817,0.089483,0.097482,-0.057517,-0.13568,0.42997,0.013659,0.2015,0.04187,-0.37209,0.28518,-0.088568,0.016803,0.12192,-0.032328,0.25814,0.18802,0.012212,-0.26566,-0.085174,-0.28897,0.010933,0.05855,-0.24094,-0.047132,0.10288,-0.14853,-0.011291,-0.14936,-0.17957,0.088627,-0.55413,-0.12363,0.01497,0.16128,-0.094399,0.046727,-0.26662,-0.15007,-0.15735
0.031792,-0.0098501,0.11967,-0.12681,-0.18555,0.35763,0.33541,-0.24459,0.056926,-0.93004,-0.021687,0.36716,0.13656,-0.051489,0.09329,-0.048509,-0.24034,0.14528,0.1535,-0.30824,0.30044,-0.021276,-0.28557,-0.19285,-0.16846,-0.19674,-0.27663,1.8268,-0.21861,0.15893,-0.23022,-0.083482,0.23045,-0.42553,0.83433,0.079408,-0.44336,-0.45063,1.4939,-0.27482,0.11168,0.35724,0.014543,0.092391,-0.090468,0.32089,-0.31642,-0.028928,0.18141,0.17698,0.039295,0.1306,-0.066969,-0.1265,0.14016,0.12561,-0.44225,-0.089958,0.059327,-0.065763,0.093402,0.019082,0.36653,0.67733,0.15353,0.03166,-0.33018,0.076871,-0.19722,0.19414,-0.21,-0.1082,-0.048439,-0.51053,-0.58176,0.02977,0.71167,1.0008,0.097175,0.12813,-0.058995,-0.0086007,-0.2076,0.42411,0.24158,-0.21972,0.3626,0.19374,-0.068003,-0.18888,-0.14803,-0.035444,-0.1196,-0.46203,0.22909,0.22983,-0.095467,-0.17496,0.19486,0.082921,-0.17322,0.026321,0.037898,-0.058852,0.38,-0.8199,-0.085924,1.0328,-0.13851,-0.92118,-0.057251,0.081183,0.35242,0.40416,-0.2159,0.12495,-0.44438,-0.5445,0.21148,0.1388,-0.2523,0.16279,-0.37354,-0.10912,-0.020547
-0.0081328,0.080941,0.93838,-0.010835,-0.4797,0.97366,-0.044471,-0.88655,0.08588,-0.37359,-0.063869,0.88879,-0.26051,-0.17318,-0.30574,0.79601,0.28234,-0.18015,0.85584,-0.37914,-0.07843,-0.29189,-0.8295,-0.25012,-0.22947,-0.10474,-0.14743,0.063368,-0.0051465,-0.0055513,-0.31651,-0.18884,0.097999,-0.09924,0.40626,0.30203,-0.012837,0.0028443,0.89416,-0.1702,0.27356,0.87594,0.019635,-0.641,0.24628,0.09981,-0.077546,-0.11438,-0.25036,-0.1089,0.058321,0.97877,-0.19648,-0.21567,0.23525,-0.22329,-0.6448,-0.034017,0.096847,0.1419,-0.12798,-0.089541,0.14005,-0.0068684,-0.033045,-0.12495,-0.076803,0.088979,-0.1291,0.21451,-0.16018,-0.22359,-0.16123,0.015578,-0.28478,0.12025,0.42604,0.022869,-0.22357,0.44757,-0.12769,-0.010778,0.02037,0.37658,0.015129,0.27846,-0.26644,0.33541,0.044096,-0.3001,-0.10005,0.1292,0.11132,-0.32513,-0.29486,-0.12797,0.13798,0.28283,-0.0080245,-0.15064,0.066577,-0.31214,-0.23885,-0.2462,-0.088087,-0.85494,-0.43164,-0.54654,-1.0298,0.24783,-0.12388,0.31591,0.69127,0.067431,-0.65022,0.45599,-0.74669,-0.39359,-0.22426,0.67421,-1.0326,-0.13005,-0.8316,0.13031,0.035586
-0.079043,-0.59695,0.32456,-0.11268,-0.39474,0.038308,-0.20236,-0.045062,-0.26392,-0.19151,-0.62422,-0.076447,-0.097298,0.029801,0.057561,0.15394,0.089419,-0.84677,0.11981,-0.24715,0.073554,-0.0092087,-0.14036,-0.38632,-0.22914,-0.19934,-0.011253,0.13445,-0.032357,-0.058154,-0.61422,-0.17727,0.72275,0.014804,0.34123,0.073113,0.42248,-0.55783,0.31802,0.13623,0.35657,0.26608,0.60126,-0.036328,0.7936,-0.72469,-0.10901,0.042728,-0.35675,-0.15731,-0.025948,0.094679,-0.26508,-0.21168,0.21085,0.087904,-0.14835,0.052706,0.19154,0.019283,0.52489,-0.017283,0.29707,-0.059096,0.16003,-0.072643,-0.055813,0.60163,-0.3675,0.13362,-0.51065,0.086246,-0.68223,0.052033,-0.76179,0.13108,-0.12884,-0.75191,0.031126,0.23759,-0.19721,0.73867,0.41576,0.58317,-0.076476,0.58483,-0.74014,0.12807,-0.44958,0.28457,-0.21826,-0.55326,0.43575,-0.11299,0.048286,-0.75727,0.47947,0.50895,0.15777,-0.27451,-0.016563,-0.12617,0.20498,-0.38818,-0.17346,-0.27704,-0.20671,-0.16005,-0.28647,-0.097324,0.081391,0.12951,0.16474,0.12088,0.052357,0.20815,0.1124,0.087885,-0.57192,0.14114,-0.07437,-0.33748,-0.056927,-0.84025,0.075417
-0.26836,-0.11284,-0.21751,1.7124,-0.46983,-0.21945,-0.52264,0.21204,-0.30024,0.036104,-0.25539,0.092868,-0.058794,0.022024,-0.2685,-0.90812,-0.74175,-0.033263,-0.15384,0.19572,0.2974,0.011885,0.9574,0.16827,-2.1178,0.3456,0.30889,0.61608,0.036366,0.20809,1.548,-0.34569,-0.86531,0.30528,-0.047046,-0.80123,0.017243,0.11466,0.1877,2.0345,-0.71564,-0.01939,0.17206,0.21198,0.21057,-0.31321,0.11906,-0.15329,0.66706,0.065024,0.31831,-0.45056,0.080336,-0.10155,-2.3169,0.082669,0.24113,-0.097559,-0.58797,-0.090023,0.06164,0.09027,-0.069782,-0.31535,0.15682,-0.0068379,-0.36418,0.16557,0.016522,-0.048154,-0.24027,-0.20436,0.0037371,0.42132,-0.24247,0.0080508,0.5536,0.2101,-0.21308,0.025904,0.034835,-0.10027,0.20091,0.0040951,-0.42995,0.32207,0.023355,-0.91579,-0.067977,0.22642,-0.057544,-0.061474,-0.0093011,-0.026375,0.51203,-0.21382,0.25283,-0.038736,-0.088224,-0.16119,0.44324,-0.28497,1.1855,-0.31788,-0.029861,0.14305,0.58632,1.0838,0.15332,0.30685,0.19346,-0.033833,-0.0077006,-0.6563,0.098519,-0.67549,0.04567,0.29115,0.018201,-0.11001,0.21012,-0.065107,-0.18717,-0.1402,0.076873
-0.28744,-0.44411,-0.28331,-0.048492,0.25613,0.06108,0.45895,-0.065958,-0.096439,-0.41556,0.059111,0.067332,-0.51607,0.11025,0.038512,-0.25193,0.42421,-0.16063,-0.10191,0.26152,0.040169,-0.30043,0.17919,0.090435,0.021776,0.068199,0.085322,-0.018892,-0.16505,0.028483,0.284,0.36401,-0.22095,-0.063029,0.047439,-0.0764,0.31158,0.17948,-0.1541,-0.61456,-0.26645,-0.26957,0.2698,0.12027,0.03524,-0.0039793,0.14253,-0.10444,0.15067,0.086081,-0.45132,0.074629,-0.65132,0.047737,0.65893,0.29141,-0.082515,-0.12945,-0.16237,-0.068856,0.058184,-0.10603,-0.060214,0.30899,-0.026511,0.05454,0.18345,0.13711,-0.065632,-0.26,0.054379,-0.02191,-0.018887,0.1695,-0.5952,-0.094448,0.26497,-0.1053,0.12776,0.12648,0.35273,0.022383,0.1909,-0.043266,0.22727,0.062253,-0.083545,-0.20416,0.12239,-0.32817,0.42882,0.076243,0.222,0.18483,0.43902,0.019551,0.08777,0.4874,0.055556,0.19202,0.22593,-0.28118,-0.13949,-0.051594,-0.29003,0.030115,-0.40217,-0.30881,-0.11949,-0.18734,0.41961,0.16403,0.097045,0.08065,0.068773,0.73519,-0.1336,-0.62917,-0.14514,-0.28833,0.025822,-0.44379,0.060611,-0.45597,0.27763
-0.16265,-0.12958,0.14128,-0.1897,-0.072939,0.0045803,0.31378,-0.23616,0.13044,-0.65633,-0.7289,0.20234,-0.015944,-0.43365,0.11726,0.11532,0.28911,-0.16498,-0.023268,0.015058,0.25419,-0.013397,-0.18545,-0.16817,-0.080113,-0.087717,-0.26006,-0.85322,-0.37652,-0.35336,-0.37511,-0.33967,0.20917,-0.25308,-0.46224,-0.006785,0.28827,-0.044376,0.12372,-0.5587,-0.23048,0.15487,-0.1007,-0.44426,0.080116,0.26219,0.35617,-0.45048,-0.39711,0.019095,-0.30092,0.26665,-0.31101,-0.37345,-0.079257,-0.086058,-0.21544,0.032002,0.087479,0.077086,0.14176,0.1692,0.37058,-0.025233,-0.19677,-0.41082,0.30533,-0.23452,0.15924,-0.31194,-0.050113,-0.040145,0.1521,-0.040252,-0.17723,0.36022,0.15314,0.77185,0.24112,-0.036642,-0.23723,0.12656,0.082498,0.089805,0.31488,-0.043141,0.063786,-0.056547,-0.079799,-0.38674,-0.51731,-0.040456,0.11025,0.13146,0.17541,0.2168,-0.0031816,0.02133,0.0023363,-0.18447,-0.080575,0.26177,-0.42151,0.22282,0.33518,-0.2604,-0.30306,0.032304,0.056936,-0.091381,-0.15869,-0.17705,-0.049798,-0.063669,-0.23009,0.23468,-0.025903,-0.31916,0.017637,0.21465,-0.36263,-0.12193,-0.091217,0.18865,0.10747
-0.1004,-0.15093,-0.42199,0.94538,0.89704,-0.19961,-0.20417,0.33986,-0.0087123,0.093527,-0.25702,-0.52591,0.19057,0.088607,-0.27813,-2.376,-0.40586,0.090032,-0.17578,0.54016,-0.036862,0.068776,0.20523,0.28047,0.15807,1.1269,0.26542,-0.0060255,0.28379,0.11034,0.075871,0.6192,-0.48937,0.2355,-1.4869,-0.68072,0.028521,0.17993,-0.2733,0.18854,-0.95696,-0.46363,0.15017,0.1626,-0.082241,-0.054678,0.082322,0.039544,-0.005745,0.51347,0.063029,-0.048261,0.1426,0.14981,-0.4114,-0.31217,0.44111,-0.06889,0.051293,-0.15874,0.11799,0.32254,-0.35271,0.1617,0.82326,-0.19748,-0.12173,0.11492,0.037273,-0.35867,-0.11646,2.5406,0.012189,0.16682,0.43021,-0.46227,-0.5115,0.17259,0.33889,-0.1031,0.015277,-0.19185,0.099925,-0.56483,-0.13919,0.19745,0.23628,-0.31948,0.00036597,0.27705,0.087622,0.2188,-0.014522,0.17525,0.15031,0.099186,-0.31234,0.0074804,-0.44508,0.25905,0.1596,-0.053502,0.59851,-0.18138,0.24721,0.19019,0.45288,1.3591,0.58851,0.012368,0.12369,-0.087878,-0.21334,-0.68607,0.3346,-0.13744,0.51428,0.4294,-0.19379,-0.10993,0.43585,-0.017373,0.5491,-0.08512,0.1036
0.16235,0.1242,0.35053,-0.13727,0.42432,0.15652,0.17848,-0.41303,-0.13187,-0.040172,-0.16108,0.032387,-0.13739,-0.060627,-0.43613,0.19016,0.11953,-0.2943,0.24305,-0.40693,0.22254,-0.14725,-0.35514,0.030831,-0.083806,-0.16274,0.18819,-0.018368,-0.38907,0.87376,0.11999,-0.29762,0.2588,-0.56917,0.06742,0.12249,-0.44789,-0.16721,0.071427,-0.11327,0.050184,-0.19294,0.037482,-0.057341,0.07179,-0.13694,0.17677,-0.10541,-0.21199,-0.44611,-0.17986,0.043628,-0.07902,-0.39512,-0.35935,0.08865,-0.47935,-0.35184,0.051426,0.18809,-0.072607,-0.059643,0.282,-0.20136,0.67299,-0.16788,0.361,0.15895,0.0088373,-0.86384,0.20101,-0.11195,0.16871,-0.553,-0.25439,0.2689,-0.86641,-0.10845,-0.25514,0.10116,0.021063,-0.14834,0.097932,-0.009943,0.26516,-0.0078765,0.16339,0.031654,0.0567,-0.40083,0.094209,0.16915,-0.24822,1.0601,-0.54852,-0.038439,-0.096694,-0.21214,-0.11923,-0.17201,-0.28826,0.035578,-0.12612,0.22145,0.083199,-0.71436,-0.20786,-0.18571,-0.39325,0.23344,-0.20866,-0.27369,0.19795,0.48146,-0.10358,0.53418,-0.45158,-0.44342,0.088817,1.5735,-0.24424,0.0050834,-0.16876,0.21335,-0.067161
0.65795,0.21519,-0.022627,-0.11133,-0.54612,0.070163,0.43865,-0.020487,0.79289,-0.14806,0.27559,-0.069865,-0.03272,-0.18971,0.94156,-0.23537,0.23336,-0.11809,-0.24153,0.035011,-0.12273,-0.0031934,-0.083785,0.22138,0.2033,-0.069854,-0.26289,-0.34451,-0.29571,0.095693,0.25144,-1.4005,-0.06,0.41018,-0.23744,-0.0031623,-0.26599,0.20742,-0.11967,-0.26224,0.048276,-0.28964,-0.33059,-0.14749,-0.065604,0.020322,0.95932,-0.1578,-0.28246,0.17023,0.10194,-0.14036,0.14088,0.10465,-0.63305,0.087122,-0.08718,0.20211,-0.91079,-0.22653,-0.15994,-0.023849,-0.048685,-0.49797,-0.15744,0.086163,0.24124,-0.37775,-0.071469,1.5153,0.064753,-0.13361,0.017771,-0.34535,-0.0042698,-0.12718,-0.15368,0.24115,0.31005,-0.41268,0.091102,-0.26186,-0.014581,-0.12258,0.014877,-0.0047436,-0.61194,-0.4061,-0.27399,-0.11592,-0.1535,0.13397,-0.28179,0.1987,0.12852,-0.024949,-0.97841,-0.27486,-0.17207,-0.080452,-0.62897,0.32948,-7.2563,0.35709,0.78077,-0.094899,-0.13192,-0.057508,0.1445,0.28432,-0.62293,-0.88588,0.098817,0.034765,0.2897,-1.0076,0.26188,-0.0235,0.32381,0.17453,-0.1315,0.80346,0.28598,0.13626,-1.0154
0.067513,-0.010197,-0.28057,0.17235,-0.14581,-0.28604,0.072268,-0.12608,-0.13977,-0.15435,-0.089813,0.12189,-0.023057,0.049978,-0.21135,-0.043834,0.54751,0.14511,-0.12319,-0.010997,0.68795,-0.31559,0.078026,0.27989,0.24568,0.021994,-0.11411,0.18694,-0.20839,-0.13129,-0.17087,-0.52616,-0.27058,-0.85494,-0.072297,0.3151,0.061587,0.25432,-0.021669,0.024856,-0.15818,-0.21065,-0.00073835,-0.088355,0.1623,0.098756,1.6592,-1.072,1.8576,-0.089304,0.1235,-0.23351,-0.69027,0.27002,0.091173,-0.12866,-0.011081,-0.18273,-0.17286,0.30315,0.047196,-0.23935,0.1713,-0.069753,-0.069585,-0.30238,-0.053829,-0.01542,-1.3718,-1.1545,-0.31005,-4.233,-0.13724,-1.6728,0.94412,0.34225,-0.022403,0.2175,-0.16423,-0.10047,0.25954,0.19541,-0.29206,-0.0075312,0.43053,-0.15807,-0.014902,0.12858,-0.77123,-0.00052966,-0.076987,-0.18144,0.064466,0.15839,-1.1898,-0.28343,0.2763,0.0954,0.16101,0.192,0.29139,0.42451,-0.18823,0.1494,0.092141,0.10562,-0.47894,0.027846,0.027485,0.16865,0.12588,0.15698,-0.21698,-0.057843,-0.067527,0.02936,0.1096,-0.73463,-0.07687,-0.027342,0.16785,0.15521,-0.042267,-0.058895,0.053759
-0.044334,-0.12941,0.23456,-0.063399,0.26828,-0.11878,-0.25831,0.0073685,0.20693,0.016977,-0.10603,-0.068711,0.33261,-0.34454,0.056403,0.011391,-0.28892,0.044742,0.19295,0.14632,0.08152,0.3096,-0.1224,0.14672,0.053211,-0.13915,0.13458,-0.088082,0.15004,0.14677,0.0014644,-0.67622,0.14764,0.23206,0.078952,0.050438,-0.11927,0.026739,0.20213,-0.90586,0.16011,0.15633,-0.29092,0.14496,-0.052801,0.21406,0.44309,-0.10352,-6.6178e-05,0.29549,0.17567,-0.13728,-0.35509,0.15356,-0.0038895,-0.30633,0.12334,0.0017898,-0.48512,0.10215,0.048302,0.12037,0.24612,-0.16482,-0.013836,-0.060695,-0.37873,-0.14506,-0.0020083,0.064992,0.15914,-0.20269,0.10592,0.028582,0.27593,0.15216,0.074937,0.14287,0.060956,-0.36233,-0.13171,-0.0051492,-0.13273,-0.34572,-0.038542,0.38705,0.35605,-0.070294,-0.048736,-0.51569,-0.22197,0.072008,-0.0094918,0.22703,0.34843,0.19389,-0.33293,-0.13504,0.15963,0.094928,-0.33446,-0.12977,0.3161,0.052706,-0.078429,0.16977,0.035246,-0.046947,-0.0096072,-0.12123,-0.21833,-0.0488,-0.15552,0.0045723,0.09894,-0.22967,0.063127,-0.20067,0.24839,0.085887,-0.065402,0.15416,-0.26095,0.19732,-0.26154
-0.60087,0.067551,0.092653,0.20501,0.68712,0.035049,0.22635,-0.12088,-0.74122,0.094399,-0.14165,0.12589,-0.609,-0.24964,-0.30063,-0.11859,-0.061128,0.08503,0.05802,0.13925,0.040789,0.014696,-0.09605,0.045959,0.065693,0.13648,-0.16698,-0.20056,-0.010605,0.14353,-0.20447,1.9867,0.0072122,0.31224,0.081644,-0.089559,0.073955,-0.069878,-0.16829,0.81058,0.14932,0.056795,-0.0095928,0.37305,0.007011,-0.15353,0.22903,-0.28377,1.5163,-0.15951,-0.015134,0.44953,-0.054587,0.17392,-0.17218,-0.1321,-0.14999,-0.20954,-0.52025,0.00090627,-0.033112,0.040854,0.14735,-0.61079,-0.04936,-0.12668,0.056242,-0.16931,0.065789,0.020092,-0.014826,-0.069845,-0.27876,0.26762,-0.23739,0.01018,0.18924,0.012877,-0.16263,0.013871,0.5241,0.20598,-0.095692,0.060435,-0.021608,0.16903,-0.067261,-5.886,0.9575,0.18674,-1.9176,-0.31939,0.076014,-0.10605,0.068034,-0.73414,0.91523,0.027144,-0.093592,-0.15134,0.5733,-0.33442,0.067317,-0.48385,-0.28583,-0.17995,-0.25352,0.013413,-0.23492,-0.33942,0.70717,0.62203,0.11012,-0.14161,0.13489,1.4118,-0.00064481,-0.0053658,-0.69745,-0.1323,-0.12761,-0.63164,-0.088043,-0.53541,0.66279
0.18543,-0.04902,0.36591,-0.51954,-0.24585,0.57295,0.24101,-0.48894,0.21568,-0.067291,0.20266,0.21123,0.14367,0.10581,-0.23272,0.88231,0.64195,-0.25238,0.80917,-0.54225,0.10752,-0.15465,-0.41198,-1.6701,-0.49622,-0.7611,-0.32835,-0.29127,-0.37881,0.22774,-0.97599,-0.84999,0.31875,-0.15473,0.68904,0.47332,-0.020756,-0.47288,0.68123,-0.23407,0.18937,0.34971,0.11881,-0.38103,-0.031851,0.082227,0.086987,-0.18304,-0.093781,-0.56301,-0.5654,0.092846,-0.26949,-0.29062,0.30623,0.0049949,-0.1786,-0.05631,0.035364,0.19525,0.34026,0.17858,0.32144,-0.033797,0.44137,-0.66307,0.29118,0.059735,-0.16271,0.12496,0.096248,-0.2191,0.025301,-0.1739,0.10807,0.4995,0.21527,-0.3637,0.041237,0.088718,-0.26038,0.10489,0.1938,0.22434,0.1085,-0.090892,0.17864,0.97267,-0.45432,-0.12028,0.37616,-0.058335,0.11411,-0.34632,-0.14724,-0.11592,-0.025663,0.091407,-0.054694,-0.42658,-0.070576,0.31581,-4.0978,0.22601,0.021114,-0.066828,-0.50322,-1.2448,-0.51373,0.079477,-0.027339,0.059518,0.51978,0.19861,-0.2201,0.47057,-0.18318,-0.63151,0.021433,0.35306,-0.3344,0.14003,-0.46969,0.046657,0.092399
0.28248,0.2367,-0.05661,-0.14478,-0.17749,0.1583,-0.15773,-0.098651,0.18431,0.079899,0.22251,0.19704,0.25363,-0.15146,-0.0068796,0.20013,0.00065599,0.21117,0.075635,-0.1997,-0.063481,-0.048844,-0.16754,0.0087453,-0.28791,0.079114,0.038129,-0.16246,-0.017078,-0.17183,-0.14151,0.21358,0.092794,-0.15224,0.40933,1.3317,0.032292,-0.10092,0.053482,-0.16296,-0.078528,0.059017,-0.39594,-0.33838,-0.15779,0.092976,0.22766,-0.14619,-0.076879,-0.21695,-0.022215,0.16175,-0.068981,0.06964,0.15531,-0.082491,0.1775,0.20291,0.034165,-0.022434,0.0023611,-0.066108,-0.18421,-0.023795,-0.10135,-0.12841,-0.063859,-0.050725,-0.046521,-0.019508,0.10077,-0.17548,-0.046115,-0.15271,0.16253,-0.036472,0.38322,0.10392,0.18234,-0.14463,-0.23763,-0.24465,0.012491,-0.10582,0.28951,-0.27672,-0.14711,-0.055755,0.1296,-0.11511,-0.22347,0.44382,-0.48375,-0.24184,-0.02888,0.48407,0.13211,-0.41288,0.26653,0.067488,-0.23108,-0.1161,-0.2582,0.36438,0.26321,0.088567,0.040601,0.010128,-0.27119,-0.015369,-0.045514,-0.32726,0.13701,0.199,-0.26159,-0.1108,-0.31248,-0.10482,0.21363,0.28325,-0.031971,0.51956,-0.30776,0.31561,-0.29394
-0.25784,0.17187,-0.0084247,-0.1145,0.049225,-0.15218,0.11569,-0.064351,-0.24764,0.037329,0.19829,-0.2456,-0.17559,0.63406,0.084181,-0.19796,-0.20008,-0.091088,0.029898,0.21676,-0.40756,0.081998,0.078368,0.15274,0.04444,-0.077311,0.0373,0.23683,0.24915,0.67591,-0.081304,-0.26533,0.092045,-0.057159,-0.20663,-0.073032,0.12385,0.16637,0.068967,0.039112,0.05308,-0.26517,0.018529,0.015803,0.17617,-0.20093,-0.36508,0.17255,-0.34412,-0.012266,0.065393,-0.059274,0.95028,-0.12499,0.030451,0.1088,0.34808,-0.22646,0.18254,-0.039236,-0.22377,0.071763,0.071158,-0.0091791,0.23182,0.18767,-0.075033,0.018884,-0.39171,-0.79235,0.02172,0.74322,0.24549,-0.010985,0.70393,-0.7233,-1.8696,-0.21494,0.15987,0.12529,-0.11712,-0.034665,0.018732,0.11945,0.096729,-0.014305,-0.19358,0.16634,-0.16844,0.71257,1.5505,0.10035,-0.24063,0.11657,0.12231,0.0021882,-0.082529,0.25925,0.11591,-0.059939,-0.27365,0.015583,-0.076982,-0.055588,-0.0020861,0.21806,0.077072,0.20591,-0.074761,-0.50385,0.25492,0.056599,-0.10524,-0.068901,0.14961,-0.61254,0.24769,0.25182,0.23491,-0.26586,0.049242,0.0046108,0.19647,0.13269,-0.11622
-0.14612,0.22384,-0.11881,-0.15254,0.016749,-0.22067,0.2605,0.20238,0.29965,0.07244,0.15319,0.10208,-0.088322,0.04224,-0.035445,0.16661,0.29062,-0.38646,0.052102,-0.096376,-0.10506,0.30402,-0.21834,-0.16825,-0.037201,-0.057216,-0.009557,0.024398,0.060852,-0.13783,-0.086456,-1.0759,0.18967,0.53411,-0.043107,-0.1894,0.19537,0.12113,1.0874,-2.5428,-0.009962,0.071855,0.21091,0.37385,-0.011978,-0.3241,-0.065201,0.21774,-0.058834,0.35471,-0.13355,1.2229,0.091195,0.27277,0.0091155,-0.21331,0.51219,0.062649,0.33656,-0.48245,-0.21645,0.50518,-0.14909,-0.78517,-0.29472,-0.15305,0.24195,-0.4051,-0.11972,0.062264,0.21262,0.13769,0.20844,-0.46116,0.19806,-0.58816,0.15054,0.047317,0.12585,-0.18583,-0.21261,-0.42298,0.36237,0.18696,-0.23968,-0.34356,-0.55114,-0.033662,-0.13569,-0.12145,-1.0734,0.034574,-0.3404,-0.072075,-0.045523,0.2023,-0.092251,-0.45515,-0.18284,0.081513,-0.28457,0.49495,0.10449,0.16063,0.51851,0.22413,-0.064209,-0.29572,0.12347,-0.29517,-0.23036,-0.24926,-0.14401,-0.084611,-0.19183,0.19808,0.21887,-0.21721,-0.025675,0.0035233,-0.01481,0.22904,-0.14896,0.16241,-0.18984
-0.20864,-0.06234,-0.036082,0.30648,0.18197,-0.2159,0.15804,0.044658,0.055371,-0.061906,-0.14051,-0.25462,-0.11908,0.29783,-0.25974,-0.21234,0.056376,-0.24764,-0.32737,0.086407,-0.96532,0.04776,0.37626,0.29493,0.11924,0.038875,0.30284,0.19836,0.3227,-0.20016,0.0006591,-0.0048883,-0.21811,-0.039426,0.11579,0.11636,0.2235,0.18375,-0.32701,0.26297,-0.24699,-0.23423,-0.10408,-0.16764,-0.085052,0.35307,0.1452,-0.1578,0.097584,0.21858,0.050266,0.093031,-0.07775,0.2537,-0.17844,0.093433,0.14477,0.10068,-0.12945,-0.12018,-0.12515,0.16047,0.03457,0.079743,-0.05907,0.21822,-0.50165,-0.017314,0.039665,-0.031669,-0.072891,-0.095587,-0.25624,1.1697,0.049176,-0.39752,0.09367,0.1917,-0.19808,0.0020588,0.26244,-0.16248,0.10416,-0.15505,0.050202,-0.0045528,-0.22919,-0.31805,-0.017564,0.2324,-0.17301,0.16349,0.22278,0.30543,0.11692,-0.00076568,0.15939,0.24603,-0.22382,0.28448,0.13541,-0.11352,0.15881,-0.024677,-0.032742,0.15249,-0.10804,0.59534,0.21583,-0.47559,0.26297,-0.025768,-0.30303,-0.074493,0.31137,-0.097828,0.17091,-0.14935,0.15131,0.078882,0.017481,-0.17322,0.20057,-0.0096151,0.28371
0.11242,0.22282,-0.30475,0.015354,-0.13711,0.056488,0.3742,0.16662,-0.10546,0.26964,-0.10916,-0.02555,-0.1934,0.69832,-0.13333,-0.51386,0.46886,0.1473,0.049536,0.094821,-0.16887,0.20484,0.12602,0.31013,0.069766,0.41921,0.23088,-0.0075467,-0.20959,0.31489,0.34505,-0.57694,-0.31366,-0.070446,-0.37503,0.0022138,0.78694,0.14907,-0.28097,0.25842,0.01357,-0.037549,0.25433,0.47001,-0.13469,-0.28737,-0.067567,0.17204,-0.2906,0.11833,-0.3058,0.11672,0.88997,0.33934,-0.076906,0.44771,-0.17612,-0.30928,0.99781,-0.45859,-0.31267,0.27912,0.027827,0.31991,0.10382,0.26068,0.33265,-0.12251,0.11072,0.22194,0.061842,0.22176,0.069737,0.068391,0.26869,-2.2772,-0.10868,-0.32061,0.0314,-0.42331,-0.1278,-0.35814,-0.12267,-0.17949,0.47344,-0.08942,-0.014917,0.0011151,-2.7825,0.19618,-0.43903,-0.1459,0.11523,0.22173,0.84258,-0.10623,-0.10633,-0.017559,0.98894,-0.47422,-0.42914,-0.042597,0.084674,0.28425,0.15748,-0.44772,0.11556,0.20602,-0.0031266,0.44459,0.12767,-0.007489,0.029314,0.27826,0.14486,0.35557,0.32774,0.0017303,0.1115,0.20555,0.23509,0.20846,0.27123,-0.18621,0.13704
-0.19272,0.052614,-0.15684,0.65852,0.55415,-0.44369,-0.025739,0.054921,-0.11712,-0.14635,-0.13387,-0.45999,0.093616,0.073784,0.16463,0.2789,2.0251,0.91846,-0.10793,0.25274,0.011002,0.065466,0.23345,0.31283,0.3179,0.41171,0.66794,0.23269,-0.39948,0.21108,3.746,-0.8001,0.0088574,-0.69733,-0.1672,-0.84063,-0.12804,0.43413,0.056121,0.26803,-0.41343,-0.38144,0.32811,0.53854,0.034432,0.18953,0.32216,0.29722,0.073784,0.42455,0.064429,0.099648,0.28718,0.39124,-0.79536,-0.084148,0.28439,0.12409,0.013745,-0.37878,-0.29436,-0.09154,-0.10084,0.18273,-0.023709,0.24274,0.39947,-0.16555,-0.49562,-0.095287,-0.033704,0.15285,-0.12647,-0.34804,0.21255,-0.29733,-1.6336,-0.28904,-0.11379,-0.042814,0.16282,-0.062759,-0.15012,-0.29218,-0.49504,0.16941,-0.088303,0.13815,0.31223,0.55294,-0.24965,0.20099,0.097764,0.34634,1.5404,-0.058019,-0.20094,-0.047883,0.41594,-0.28388,-0.083075,-0.17001,1.1847,-0.3695,0.0058176,-0.70036,0.31752,0.49602,0.25779,-2.6669,0.21003,0.062527,-0.17255,-0.23721,0.08244,-0.6132,0.099201,0.40136,-0.023039,1.6051,0.16343,0.030637,0.46772,-0.24525,0.024465
-0.21335,-0.16332,0.58709,-0.28961,-0.69736,0.81099,0.17307,-0.83832,-0.034872,-0.0067119,0.15748,0.97117,-0.40306,0.041438,-0.38526,0.76636,0.45842,-0.25282,0.88721,-0.66224,-0.0030144,0.0028347,-0.92061,-0.71557,-0.44035,-0.90371,-0.31772,-0.17815,0.025746,0.31254,-0.27963,-0.28337,0.31936,-0.36328,0.24949,0.19385,-0.010201,-0.8926,0.90432,-0.20316,0.44878,0.35163,0.039112,-0.030149,0.013132,0.02772,-0.12724,-0.4958,-0.45591,-0.68272,0.087568,0.34488,-0.23205,-0.88789,0.1335,0.12865,-0.33832,-0.10581,-0.20221,0.86063,0.23455,-0.2123,0.7099,-0.22447,0.60977,-0.49457,0.13202,0.23509,-0.24374,0.60542,-0.22813,0.032657,-0.31568,-0.14626,-0.061265,0.15576,0.33686,-0.040653,-0.040826,0.24282,0.037155,0.080683,0.19423,0.07788,0.24295,-0.0014111,-0.12603,0.63518,0.11005,-0.65928,-0.11896,0.15217,0.063455,-0.2312,-0.42907,-0.084115,0.44412,0.41975,0.27267,-0.76966,0.14033,0.22108,-0.47447,-0.28235,0.20376,-0.1354,-0.022961,0.010345,-0.72351,0.21315,0.38606,0.033423,0.70765,0.14764,-1.0236,0.26761,-0.20436,0.018695,-0.038973,0.035096,-0.95235,0.027776,-0.7513,-0.11726,0.067225
0.83367,0.30118,-0.067931,0.42917,0.33398,-0.3222,-0.091439,0.4359,0.97548,0.082687,-0.071337,-0.39604,1.0474,0.044156,1.0486,-0.17985,-0.27799,0.71426,-0.036352,0.25102,0.0033798,0.11624,0.16926,-0.054332,0.24894,0.36547,0.20536,0.39879,0.22862,-0.05291,0.23833,0.15239,-0.15549,-0.11526,-0.20352,-0.13775,-0.069041,0.32996,-0.41752,0.28791,-0.088418,-0.088866,-0.94408,0.2568,-0.73615,0.32419,-0.42567,0.304,0.0031029,0.30139,-0.24051,-0.63181,-0.097276,0.38048,-0.24711,0.052521,0.069158,-0.12525,-0.20119,-0.0044318,-0.86511,0.93572,-0.28894,0.21073,-0.34682,0.072465,-0.3253,-0.1793,0.1604,-0.69673,0.82743,0.0042241,0.84722,0.51772,0.70805,-0.040552,0.19284,0.23985,0.063375,-0.9,0.36284,-0.93407,-0.61286,-0.78729,-0.13395,-0.36487,1.0071,-0.28483,-0.33674,0.14952,0.095985,-0.030833,0.030497,0.31351,-0.023056,0.1173,0.048019,-0.074058,-0.22129,0.23709,-0.67079,-0.068835,0.31986,0.097256,0.080075,0.15205,0.0027813,-0.078193,0.061135,0.27165,-0.98473,-0.045355,-0.1068,-0.035258,0.26688,-0.039745,0.39957,-0.17251,-0.03437,0.0012068,0.22741,0.89981,0.19957,0.0064417,-0.1991
0.28445,-0.046704,-0.026694,-0.010905,-0.66276,0.20252,0.13574,-0.28536,-0.11448,-2.6783,1.0202,0.11618,0.10184,-0.51424,0.32102,-0.057339,0.20989,0.080206,0.34316,-0.14459,0.020017,-0.0057666,-0.35089,-0.1685,-0.053301,0.47107,-0.43688,-2.5079,-0.26165,0.43665,0.6995,0.45649,0.24711,-0.53381,0.31675,0.2579,-0.066779,-0.14803,0.18861,-0.65923,0.16293,0.33831,-0.27528,-2.8405,0.063112,0.16358,-0.54189,0.17155,-0.045013,-0.20314,-0.10167,-0.26502,-0.026075,-0.093843,0.37887,-0.077873,-0.15797,0.039786,0.19902,0.36763,0.14106,-0.039793,-0.22802,0.74886,-0.056889,-0.17009,-0.032742,-0.014572,-0.15467,0.39095,-0.096377,-0.12342,-0.12746,-0.10313,-0.18801,0.13709,0.052417,-0.15048,0.13551,-0.032621,-0.37129,-0.20333,0.093116,0.32666,0.40482,0.12413,-0.13833,-0.17804,0.093046,0.32597,-0.029655,0.080378,0.14342,-0.18009,0.030241,0.12043,-0.10661,0.30706,0.26947,-0.21201,-0.13655,0.011736,-0.16616,0.17034,-0.14421,-0.13357,-0.24147,-0.35629,-0.12944,1.2291,-0.051298,-0.11818,0.34971,-0.14617,-0.11569,0.50283,-0.024781,-0.030918,-0.25691,0.19823,-0.38895,0.09291,-0.11272,0.10475,-0.017139
-0.052681,0.043875,-0.0076595,-0.077682,0.21237,-0.1388,-0.13144,-0.070801,-0.094356,0.13538,0.57912,-0.094845,-0.096104,0.31618,0.0079427,-0.15731,-0.1268,0.84212,-0.28751,0.32961,0.39237,0.20606,0.33523,-0.15791,0.26975,0.25848,0.63153,0.12318,0.049204,-0.10485,0.45783,0.1229,-0.43257,0.079408,0.16607,-0.12627,-0.55366,0.5983,-0.26246,0.35722,-0.69827,-0.28949,-0.83688,0.14236,-0.78717,0.85244,-0.16093,0.25101,0.014622,0.13455,-0.19536,-0.72198,0.068702,0.84616,-0.28544,-0.16452,0.20303,0.049971,-0.3381,-0.36647,-0.69641,0.14934,-0.4592,-0.08716,-0.19064,-0.058419,-0.030181,-0.64418,0.090825,-0.074701,0.65908,0.13712,0.66326,0.13489,0.79799,-0.12034,-0.34891,0.23744,0.67642,-0.21827,-0.24565,-0.68333,-0.77035,-0.29909,0.053055,-0.70322,0.43522,-0.25584,0.052192,0.13198,0.23204,0.54781,-0.72124,0.29812,0.35951,0.73076,-0.71377,-0.32762,-0.07537,0.076504,-0.71255,0.52569,0.134,0.61845,0.21375,0.3184,0.32911,0.3383,0.34317,-0.016474,0.06393,-0.10044,-0.11636,-0.017208,0.36393,0.064171,0.36765,0.044024,0.12278,-0.15906,0.092896,0.30187,0.088949,0.081675,-0.079519
-0.12622,0.31765,-0.11078,0.25742,-2.3387,-0.16755,0.027184,-0.058408,0.13956,-0.26472,0.32934,-0.086824,-0.057028,0.068421,-0.13459,0.039681,-0.076361,-0.062569,-0.16099,0.088401,-0.23543,0.23557,-0.14295,0.085706,-0.023664,-0.041352,0.24228,-0.076426,-0.11907,0.010259,-2.4344,-0.26378,0.1364,0.082772,0.16805,-0.048087,0.052329,0.105,0.088604,-0.29286,0.13731,-0.21478,-0.31038,0.039964,0.0066842,0.24841,-0.035926,0.11974,0.015504,0.073274,-0.018535,-0.18303,0.20711,-0.0060825,0.27836,-0.16928,0.21751,0.25661,-0.87794,-0.47546,-0.12261,0.10403,-0.50365,0.059129,-0.63415,0.029086,-0.13449,-0.3303,-0.19137,-0.1865,0.41866,-0.16662,0.31626,1.2136,0.16772,-0.2029,0.077038,-0.14985,0.30898,-0.51797,-0.19045,-0.12224,-0.37373,-0.012711,-0.043568,-0.46853,0.11599,-0.16153,-0.09514,0.23204,-0.057548,0.3574,-0.40262,0.18304,0.42766,0.09751,-0.25152,-0.43866,0.083667,0.081764,0.11209,0.34249,-0.15045,0.33767,0.40356,0.48184,-0.12067,-0.043554,0.17941,0.07071,0.13494,-0.50726,-0.1125,0.15982,0.17457,-0.13329,-0.29292,-0.058382,0.032833,-1.2305,-0.18412,0.14247,0.20343,0.52016,-0.11681
0.39711,-0.14069,-0.1206,-0.057821,-0.22681,0.14628,0.45536,-0.19418,0.42736,-0.50902,-0.012983,0.10625,0.3337,0.13662,0.5143,0.02238,0.3324,0.14578,0.23914,-0.22088,-0.66662,-0.070021,-0.012001,0.019455,0.010271,-0.044701,-0.20382,-0.77248,-0.57195,-1.1302,0.089648,1.6527,0.13823,-0.46622,0.33038,0.13743,-0.1001,0.11124,0.18209,-0.38405,0.20898,0.25505,0.12121,0.035991,-0.11881,0.16824,0.0058587,-0.24591,-0.37605,-0.26223,0.090829,0.065754,-0.4226,-0.049918,-0.2119,0.05621,0.17356,0.2798,0.36,0.084499,0.15078,-0.17029,-0.015765,0.29676,0.038372,-0.083902,-0.1108,0.0073665,-0.90543,0.2412,0.26947,-0.16173,0.12107,0.35077,-0.0098267,0.089961,0.30787,-0.28847,-0.028124,-0.21346,0.19117,-0.1644,-0.27089,0.29219,0.28517,-0.071913,0.038605,-0.054691,-0.092814,-0.16454,-0.045474,-0.068855,-0.0078224,-0.02287,-0.78744,-0.1135,-0.28688,0.044014,0.27045,-0.16629,-0.38322,0.28644,-0.028284,-0.11686,-0.098993,0.10172,-0.10602,-0.24431,0.070359,0.65921,-0.15371,-0.4927,0.13767,0.32987,-0.12391,-0.15244,0.11664,-0.88112,0.16166,-0.18535,0.074455,0.2169,-0.2691,-0.18681,-0.48537
0.030567,-0.075702,0.35664,1.2663,-6.3033,0.32745,0.31324,-0.64782,0.21325,-0.26553,0.14851,0.63493,0.20331,0.010718,0.076353,0.64327,0.39746,0.048175,0.24147,-0.40652,0.23223,0.27994,-0.36046,-0.13391,-0.081638,-0.63406,1.5213,-0.088093,-0.48568,0.5885,-0.31743,-0.25828,-0.049869,-0.47774,0.52064,0.40529,-0.60827,-0.0093905,0.96769,-0.25509,0.37921,0.34859,0.23337,0.04773,0.27551,-0.15729,0.12906,-0.35444,-0.044684,0.10436,-0.045898,0.29802,-0.16658,-0.028703,0.043596,0.03461,-0.33783,-0.037926,-0.045372,0.65268,-0.041686,-0.5439,0.59532,0.28853,0.37567,-0.29247,0.29816,0.018837,-0.093482,0.3593,-0.063907,-0.27559,0.083173,-0.27556,-0.60609,0.083657,0.4362,-0.50585,-0.12512,0.22772,-0.07178,-0.12669,-0.045032,0.61018,0.011514,-0.02579,-0.10663,-0.070446,-0.19527,0.71489,-0.13668,0.96956,-0.01439,-0.50313,-1.0103,-0.27424,0.19923,-0.082175,0.21444,-0.28428,-0.058509,0.11556,-0.38352,0.034107,0.027307,-0.15061,-0.26975,-0.32066,-0.38212,0.049403,0.042093,-0.11189,0.35209,-0.17309,-0.47169,0.10565,0.029264,-0.43126,0.053057,0.26579,-0.34784,0.095363,-0.51888,0.12977,-0.22867
-0.051577,0.17478,0.531,0.13407,-1.2889,0.39008,0.45672,-0.54292,-0.042583,0.38185,0.68346,0.32842,0.15924,-0.18515,0.0032124,1.1563,0.25894,-0.11259,0.46619,-0.43985,0.17695,0.2494,-0.17854,-0.37436,-0.12699,-0.60523,-0.78739,-0.28286,-0.24073,0.12142,-0.18541,0.95,-1.5283,-0.40316,1.8469,1.0145,-0.20482,-0.53318,0.3865,1.1,0.66625,0.43354,0.10363,-0.69111,-0.16153,-0.14769,-0.20455,-0.23342,0.48036,-0.20124,-0.10176,0.12576,0.049352,-0.19277,0.48775,0.0051078,-0.23398,0.033706,-0.092451,0.30274,-0.015353,-0.40876,0.20431,-0.19836,0.74583,-0.22196,-0.42193,-0.16373,-0.22316,0.1644,-0.13798,-0.97798,0.046374,-0.31379,-0.1567,2.5738,0.23896,1.4089,-0.19699,-0.18454,-0.23722,-0.14263,0.079381,0.48848,0.3962,0.016588,1.7476,0.19492,-0.17588,-1.1991,-0.46711,0.028399,0.21639,-0.15015,-0.18844,-0.063469,-0.051012,-0.15095,0.20454,-0.4488,0.14195,-0.049188,-0.19053,-0.12881,0.28069,-0.18539,-0.38048,1.6843,-0.35245,0.62414,-0.15551,0.054462,0.30943,0.18792,-0.40801,1.1746,-0.31557,0.080547,0.18651,-0.50335,-0.54591,-0.12873,-0.44323,0.30736,-0.041269
0.31133,-0.037799,0.037568,-0.21161,-0.16642,0.25887,0.46884,-0.23395,0.26172,-0.6546,0.60162,0.12388,0.26878,-0.089691,0.61423,0.23011,-0.44468,0.49699,-0.035969,-0.10685,0.37079,0.35987,0.021493,-0.072325,-0.27031,0.073029,-0.17351,-0.2006,-0.18789,0.22883,-0.17801,-0.25942,0.011634,-0.35144,0.12387,-0.12271,-0.05816,-0.13148,0.106,0.014374,-0.15123,-0.10802,-0.0017164,0.0038908,-0.23877,-0.069833,0.086256,-0.15998,0.21447,0.1292,0.059234,-0.1862,0.12141,0.10301,-0.046894,-0.85817,0.11072,0.40348,-0.27405,-0.061831,0.071017,-0.14421,-0.14618,0.030473,-0.16471,-0.059551,-0.2167,-0.047236,-0.16652,-0.024372,0.30629,-0.04678,0.082472,-0.015847,-0.15241,-0.050152,0.22767,-0.05952,0.16352,-0.2037,-0.090543,0.031497,0.018063,0.04423,0.10272,-0.24731,0.17233,-0.15843,0.037351,-0.25348,0.35194,0.085711,-0.17638,-0.077518,-0.080901,-0.10955,-0.24508,0.065884,0.24028,0.043886,0.032696,0.52516,-0.080295,0.0019049,0.67309,-0.20039,0.28052,-0.10132,0.002287,0.10349,-0.47625,-0.24295,0.13881,-0.21038,-0.146,-0.53078,0.0029008,-0.10515,0.27621,-0.81658,-0.28182,0.25725,0.089471,-0.0079076,-0.31503
-0.11534,0.34471,-0.35242,0.33782,1.2205,-0.35171,-0.56325,0.22962,-0.18531,0.09176,-0.095918,-0.12653,-0.3114,0.03694,-0.32819,-0.34865,-0.26758,-0.11301,-0.29106,0.099366,-0.49417,-0.12379,-0.20458,0.28199,-0.39037,0.22855,0.17441,0.26662,0.23391,0.30073,0.58909,-0.010764,-0.24987,-0.0031467,-0.22626,-0.25516,0.23015,0.29082,-0.0064837,0.18796,-0.34947,-0.0015972,-0.10234,0.20334,0.036478,-0.050314,0.25693,0.17541,-0.20486,0.0003571,0.096518,0.22081,-0.17971,0.032679,-0.082404,-0.030097,-0.19062,0.11926,-0.55169,0.032297,-0.15673,-0.15677,0.057211,-0.097267,-0.094598,0.066285,0.40616,0.0049717,-0.0032955,-0.38676,0.13573,-0.0053387,0.12971,0.10586,-0.016542,-0.029593,-0.23022,0.022704,-0.086424,-0.13117,-0.22024,0.052775,0.11883,-0.027657,0.01198,-0.17066,-0.4555,-0.021022,0.10913,-0.24074,-0.055841,-0.12022,0.15836,0.2191,0.44334,0.052499,0.25114,0.069869,-0.37905,0.080353,0.029484,-0.13118,0.16037,-0.21656,0.11474,-0.0012105,0.21929,0.037982,0.15117,0.16098,-0.014365,0.34827,-0.31314,0.063301,0.14559,-0.11243,-0.029628,0.33887,0.097909,-0.35415,0.37293,-0.25331,0.10886,0.097551,0.2585
0.64674,-0.019721,-0.29906,0.27703,0.43882,-0.32564,-0.03796,0.23957,0.97449,-0.085314,0.040578,-0.44825,0.72738,0.2941,0.65539,-0.16193,0.20426,0.72547,-0.16826,0.3061,0.094718,0.02514,0.36135,0.075982,0.38903,0.3903,0.26069,-0.061495,0.29005,-0.041039,-0.090807,0.22607,0.099423,0.042583,-0.19995,-0.26686,-0.092593,0.29384,-0.16472,0.15751,-0.24319,-0.18038,-0.65577,-0.10707,-0.73784,0.65722,0.15054,0.20311,0.23316,0.94473,-0.40495,-0.63328,0.13082,0.97194,-0.47714,0.054722,0.053176,-0.049396,0.0040866,-0.86449,-0.6146,0.77127,-0.22026,-0.10019,-0.059653,0.24944,-0.29604,-0.053031,-0.087511,-0.82054,0.73719,-0.074022,0.64505,0.13608,0.28476,0.1426,0.09631,0.20221,0.076257,-1.0382,0.16896,-0.6547,-1.0522,-0.24323,0.14478,0.13205,0.9587,-0.18857,-0.35065,0.0077855,-0.053543,0.034878,-0.10765,0.17215,0.092293,-0.057519,-0.92721,-0.8379,-0.087405,0.39858,-0.75244,-0.026929,0.24409,0.32399,0.073123,0.16529,-0.02226,0.14251,0.25597,-0.0053877,-0.6951,-0.082649,-0.076055,-0.034745,0.21915,0.087114,0.3698,0.075457,0.045377,-0.012898,0.10224,0.93472,0.074451,0.0011043,-0.23601
0.4169,0.2435,0.20912,-0.036665,-0.0072634,0.26963,0.020575,-0.14756,0.33243,-0.22595,0.17364,0.12761,0.21032,-0.05786,0.19832,0.019605,0.099935,-0.17128,0.25667,-0.2152,0.1134,-0.04641,-0.12621,0.12246,-0.099735,-0.3157,-0.12516,1.053,0.16316,0.012568,0.053027,-0.051383,0.3349,0.03398,0.1982,0.038495,-0.13457,-0.38438,0.27247,0.15991,0.18078,-0.14146,0.10296,-0.070962,-0.055211,0.10591,1.8981,-0.034551,-0.11396,-0.33774,-0.13547,-0.23108,0.14338,-0.22674,0.33834,-0.20778,-0.37109,0.019911,0.2902,0.23877,-0.093667,0.24451,0.073545,0.5564,-0.12344,0.020663,0.16743,0.15462,0.29936,-0.0218,0.13925,-0.073474,-0.1435,-0.38764,-0.32121,0.37484,0.16598,-0.40814,0.016859,0.13004,-0.006416,-0.21941,-0.0025207,0.1928,0.18689,-0.10298,0.1202,0.30411,0.24626,-0.16367,0.62254,-0.072594,-0.15553,-0.19364,-0.3004,0.21849,0.17384,-0.23539,0.21416,0.056934,-0.41519,0.15217,-0.43176,0.18294,0.14274,-0.39386,-0.17546,-0.087791,-0.16158,-0.098437,-0.13102,-0.35962,0.22668,0.19898,-0.14672,0.42822,0.027278,-0.35348,0.14326,-0.61792,-0.16366,-0.0096207,-0.24716,0.29006,0.063965
0.10459,0.41206,0.089565,0.2649,0.23565,-0.1181,-0.2351,0.15957,0.24558,-0.2511,0.1799,-0.042813,0.30952,-0.067409,-0.23457,-0.15791,0.26566,-0.58446,0.0012922,0.050985,-1.3094,0.085196,0.15452,0.40695,0.04546,0.14652,-0.0079394,0.36869,-0.23729,-0.38801,-0.096033,-0.32383,-0.16897,-0.44784,0.71516,-0.33323,-0.3863,-0.061286,-0.05243,0.98851,-0.076123,-0.22496,-0.070917,0.2537,-0.17552,0.11056,-0.27755,0.45211,-0.1665,0.18954,0.31379,-0.19422,-0.021466,0.072493,-1.0203,0.23984,0.30707,0.075817,-0.013085,-0.14648,0.1449,0.087767,-0.15173,-0.035819,0.41146,-0.33783,-0.56901,-0.22496,0.38422,0.055936,0.22184,-0.55297,0.067327,-0.19158,0.44628,-0.3792,0.24266,0.065368,0.40081,-0.19993,0.35098,-0.055148,-0.27645,-0.041306,-0.3899,-0.22797,-0.22977,-1.2445,-0.22787,0.48253,0.61436,-0.020044,-0.088603,-0.005806,0.23041,0.42463,0.14504,-0.33693,0.23213,-0.018918,-0.18842,0.36545,0.61371,0.054241,0.2033,-0.097389,-0.15431,0.0032812,0.056409,-0.66031,-0.087954,-0.27222,-0.057289,-0.40554,0.13033,-0.18077,-0.10492,0.20172,0.39338,-0.49002,0.057641,0.016847,-0.18667,0.18937,0.022177
-0.30904,-0.24573,0.35595,-0.023172,-0.30129,0.11952,-0.22825,-0.34188,0.052294,0.037305,-0.15102,0.21016,-0.072369,-0.11915,-0.23181,0.46363,-0.14835,0.039788,0.17375,-0.55773,-0.085383,0.088877,-0.50294,-0.82706,-0.19278,-0.56354,-0.32472,0.013323,-0.40126,-0.03182,-0.24566,-0.042172,0.090891,-0.10534,0.51482,-0.088771,0.14882,-0.30828,0.18416,-0.054391,0.2322,0.037835,0.41287,-0.31555,0.23779,-0.52951,0.15061,-0.11172,0.053685,-0.11134,0.091845,0.10951,-0.22681,-0.11625,0.14982,0.10195,0.18048,0.49224,-0.17091,-0.029491,0.26384,0.068337,0.34818,-0.10374,0.048773,0.10717,-0.068316,0.17799,-0.20669,0.07589,-0.16391,-0.30199,-0.27669,-0.038216,-0.32122,0.088148,-0.035453,-0.21054,-0.23327,0.2344,-1.6629,0.22032,-0.0022633,0.27886,-0.48953,0.090221,-0.33057,0.185,-0.009227,-0.0079614,-0.1031,-0.057174,0.28011,-0.52828,-0.33779,-0.20106,0.35782,0.38215,0.52686,-0.4824,0.16303,0.12708,-0.37762,-0.12329,-0.20599,-0.038168,-0.39963,-0.0092191,-0.094998,0.19126,-0.019116,-0.086523,0.14612,0.15756,-0.12046,0.22656,-1.6676,-0.39306,-0.32987,0.043481,-0.45972,-0.15854,-0.25231,0.016152,-0.019984
-0.11504,-0.34275,-0.14429,0.18307,0.34762,-0.17659,0.070692,0.41001,0.11958,-0.12968,-0.31256,-0.13216,-0.18478,0.47058,-0.044851,-0.2006,-0.035638,0.073058,-0.38585,0.037798,-0.012033,-0.13612,-0.042435,-0.26539,0.020218,0.23693,0.22148,0.18816,0.54378,0.27864,0.18231,-0.51997,-0.16111,0.15077,-0.14469,-0.17092,-0.10957,-0.031767,0.027715,-0.078166,-0.21317,0.25662,-0.23619,0.84833,-0.24977,0.23547,-0.29826,0.29277,0.3287,0.13117,-1.4515,-0.2923,0.16608,-0.058568,-0.37638,-0.3738,0.2816,-0.010067,-0.23748,0.24389,-0.046197,0.088099,-0.20558,0.032682,0.092693,-0.089287,0.21391,-0.27937,-1.3524,0.04485,-0.14004,0.30926,-0.2413,-0.06268,0.10583,-0.15484,0.069575,-0.15822,0.1536,0.17066,0.08163,0.15405,0.039302,-0.34298,-0.36787,-0.037795,0.015429,-0.93602,0.59582,-0.24562,-0.52937,0.11516,0.20924,0.27641,0.62521,0.17095,-0.18284,0.0080767,-0.38142,0.33403,0.25659,-0.24542,0.17916,-0.31915,-0.22438,-0.019256,0.16907,-0.25067,0.12254,-0.18229,0.16645,0.13509,-0.11216,-0.11623,0.20429,-0.24384,0.33219,0.18863,-0.10869,0.36766,0.35119,-0.14555,0.19691,-0.19838,0.22676
-0.13125,0.057585,-0.15679,-0.066051,0.10029,-0.038469,0.17259,0.11623,0.53266,-0.11374,0.3924,0.2188,0.27747,0.18474,0.4182,0.085077,-0.070758,-0.69042,0.27768,-0.23646,0.26908,0.3949,-0.28409,0.07794,0.13046,0.050612,-0.25704,-0.25323,-0.35737,-0.18984,0.11489,0.018047,0.1646,-0.30083,0.33809,0.047062,-0.080394,-0.18887,0.25142,-0.2329,0.14891,0.26637,-0.053209,-0.44598,-0.30137,-0.10056,-2.5407,-0.3127,-0.28171,0.051436,0.31658,0.10062,0.082191,0.06241,-0.13458,0.13227,0.075992,-0.13207,0.075555,-0.20968,0.018307,0.30469,0.25108,-0.64021,0.08147,0.11298,0.10752,-0.028206,-0.47486,0.051349,0.24028,0.13649,-0.025606,0.65519,0.25284,0.10623,0.20541,-0.088959,0.040523,-0.48629,-0.11122,-0.021445,0.11364,-0.076675,0.39781,0.030527,-0.011979,-0.082294,0.054918,0.23628,-1.5712,0.26409,-0.021872,-0.10109,0.19068,0.26398,-0.11227,-0.050289,0.28825,0.15741,-0.42107,0.64382,0.25567,-0.045485,0.55423,-0.066528,0.0059893,0.21764,-0.0095895,-0.044991,-0.038627,-0.58236,-0.13843,-0.14487,-0.11247,-0.50554,0.17473,-0.12156,-0.18867,-0.45249,0.070143,-0.05666,-0.038204,0.13784,-0.27935
-1.2553,-0.26663,0.5339,-0.0036266,-0.066484,0.46817,-0.24065,-0.50344,-0.081041,0.11327,-1.433,0.15406,-0.56927,0.057169,-0.41747,0.10117,-0.26392,-0.082877,0.19263,-0.20743,0.15774,-0.38716,-0.53854,-0.30081,-0.49556,-0.3286,-0.028639,0.21504,0.19238,0.13576,-0.18404,-0.062136,0.16094,0.26541,0.41659,-0.0050787,0.11753,-0.49606,0.52653,-0.10657,0.12295,0.16595,0.17962,-0.036342,0.33147,-0.20719,0.19748,-0.10107,-0.12417,-0.40815,-0.077781,0.31588,-0.27391,-0.22324,0.23639,0.07431,-0.23015,0.15965,-0.12822,0.25619,0.16814,-0.39993,0.28042,0.8768,0.17246,-0.15168,0.23642,0.33803,-0.20242,0.083361,-0.47133,0.034896,-0.34535,0.0071865,-0.51258,0.20988,-0.022902,-0.23847,-0.086556,0.098446,-0.01813,0.14192,0.37934,0.21741,-0.19097,0.47451,-0.68216,0.19832,-0.049016,0.089462,-0.24479,0.20275,0.17007,-0.49095,-0.07497,-0.18371,0.53654,-0.011352,0.51124,-0.37591,0.28246,-0.12217,-0.16283,-0.18411,-0.24468,-0.11188,0.33781,0.020804,-0.18669,-0.08848,0.41625,1.5061,0.34669,0.089164,-0.28971,0.065061,-0.42667,-0.075817,0.074907,0.31348,-0.20262,-0.43795,-0.14097,0.16253,1.4065
0.39313,0.33642,-0.08146,0.12121,0.17467,0.076154,-0.021417,0.061139,0.75145,0.22648,0.028632,-0.14189,0.63327,0.17413,-0.09775,0.040712,-0.21269,0.81516,-0.3004,0.3161,-0.075035,-0.0063098,0.20209,0.17907,0.065725,-0.048521,0.017026,0.23704,-0.029552,0.047267,0.054681,0.035723,-0.2887,-0.09242,-0.20735,0.036818,-0.072097,0.39812,-0.34725,0.030793,-0.16222,-0.031806,-0.43198,0.25211,-0.65382,0.56943,-0.050616,0.3447,0.28257,0.68018,0.070105,-0.52021,0.046774,0.69169,-0.41681,0.20898,0.21329,-0.016875,-0.45425,-0.53145,-0.6289,0.23746,-0.35421,0.056579,-0.041756,0.17826,0.045961,-0.26131,0.042194,-0.050361,0.49881,0.64509,0.56721,0.063594,-0.070872,-0.11299,-0.13536,0.023298,0.5655,-0.70109,0.12754,-0.48191,-0.68263,-0.093716,0.075321,0.064947,0.44558,-0.23545,-0.12317,-0.1632,-0.21364,0.10394,-0.57289,0.014146,0.13823,0.41831,-0.76568,-0.77776,-0.22376,0.3208,-0.72214,0.07373,-0.085914,0.5488,0.099,0.062537,0.30446,0.19508,0.25712,-0.22116,-0.55936,-0.78153,-0.22527,-0.12725,0.028718,-0.0021101,-0.073947,0.020972,0.14392,-0.13865,0.34491,0.62521,0.35067,0.48896,-0.048597
0.20656,0.40438,-0.031599,0.058569,0.027746,-0.22648,0.080932,0.28633,0.33378,-0.21085,0.56537,-0.33652,0.78739,-0.081425,-0.028702,-0.18213,-0.08957,0.49056,-0.2893,0.030702,-0.20073,-0.026314,0.20486,0.31358,0.33512,0.13884,0.11755,0.17169,0.14524,-0.32816,0.14178,-0.084335,-0.055859,0.1666,-0.3387,-0.10764,-0.034525,-0.044194,-0.28707,0.052486,-0.52327,-0.18244,-0.75354,0.20436,-0.62348,0.78522,0.046181,0.25633,0.15853,0.30583,0.07076,-0.13326,-0.11593,0.53054,0.030626,-0.15354,0.54909,0.1398,-0.024722,-0.47446,-0.45563,0.1608,-0.81484,0.092519,-0.19593,0.20702,-0.33632,-0.70838,0.051399,0.027171,0.47358,0.31911,0.72124,0.017016,-0.037296,0.10562,-0.18844,-0.050155,0.73737,-0.58142,-0.1385,-0.82027,-0.68606,-0.29127,-0.081492,-0.73188,0.54398,-0.18344,-0.2723,0.11207,0.01413,0.31036,-0.44466,0.088152,0.13263,0.29543,-0.5718,-0.64962,0.072245,0.35486,0.048243,0.14901,0.28099,0.53397,-0.018422,0.011561,-0.084367,0.058116,0.30387,-0.2722,-0.076646,-0.049408,-0.2823,-0.21128,0.033803,0.0088008,0.28943,0.24615,0.16535,0.031767,0.26913,0.70781,0.0080159,-0.075674,-0.26464
-0.17334,-0.23927,0.06227,0.02172,0.95697,0.052255,-0.12119,0.12564,-0.16926,-0.087874,-0.22748,0.060292,-0.55425,0.12846,0.038604,0.086988,0.098583,-0.28281,0.2278,-0.21821,-0.05147,0.10013,0.11389,-1.181,-0.24258,-0.54904,-0.27414,-0.22258,0.033822,0.28658,-0.22093,-0.25431,0.47265,0.042877,0.27474,0.14937,-0.59557,-0.023354,0.089058,0.15196,0.4939,-0.15953,0.19364,-0.055444,0.3756,-0.18391,-0.016227,0.036256,-0.28056,0.042411,-6.9913,0.20903,-0.43064,-0.32964,0.41486,-0.049802,-0.46551,-0.35436,0.154,0.24953,0.36626,0.24507,0.17331,-0.15201,0.063909,1.2749,1.4399,0.32529,0.36556,-0.124,-0.16746,-0.24815,-0.21123,0.16817,0.59407,0.2573,-1.1071,-0.068374,-0.22412,-0.20378,0.0051107,0.41077,0.15178,0.12275,-0.045953,0.15484,-0.16977,0.059044,0.76083,0.0057694,-0.48085,0.015309,0.25995,-0.13311,-0.088344,-0.27828,0.32565,0.23478,0.15047,-0.15821,0.12359,-0.16547,0.21054,0.66256,-0.21302,-0.014029,-0.17901,0.22734,-0.23619,0.43207,0.52447,0.47377,0.23826,0.027551,-0.1205,0.23178,0.31066,-0.20007,-0.28997,1.2534,-0.011511,-0.30361,0.094273,-0.36126,0.0063924
-0.2775,0.079751,0.80223,-0.39822,0.0079386,0.85029,-0.41256,-0.80147,-0.1579,-0.17024,-0.16844,0.88658,-0.22673,-0.09992,-0.052109,0.49109,-0.06462,-0.083183,0.82735,-0.66433,-0.20276,0.12449,-0.80413,-0.51293,-0.29241,-0.76601,-0.35775,-0.1472,0.096222,0.1445,-0.18196,-0.33337,0.56713,0.062159,0.8703,0.31276,0.11884,-0.70152,0.70887,-0.22867,0.71953,0.60943,0.039349,-0.44052,-0.051897,-0.069833,0.058038,-0.13799,-0.15565,-0.85759,-0.1743,0.080408,-0.066047,-0.072615,-0.40963,0.12476,-0.02474,-0.12158,0.069755,0.12851,0.092582,-0.7075,0.37471,-0.23249,0.48754,-0.32223,0.34335,0.24379,-0.13233,0.6634,-0.26178,0.080505,-0.21529,-0.43827,-0.60461,0.14446,0.57654,-0.73075,-0.14096,0.019375,-0.87273,-0.00074311,0.11273,0.91687,0.11984,0.37163,-0.177,0.20298,-0.40055,-0.39835,0.34636,-0.00014577,0.20253,-0.62606,-0.38109,-0.037351,0.21428,0.10852,0.52004,-0.76621,0.20468,0.11967,-0.35077,-0.20389,-0.22157,-0.36598,-0.0040536,0.24962,-0.51234,0.15802,0.12786,0.087525,0.4974,0.24521,-0.52675,-0.011257,-0.58533,-0.08532,-0.22802,0.1207,-0.93023,0.10078,-0.65862,-0.035836,0.001688
-0.076304,-0.13853,-0.15146,0.10056,-0.011077,0.096221,0.1325,-0.097213,0.017115,0.39264,0.15509,-0.12607,-0.30747,0.19043,0.037085,0.19558,-0.48716,-0.45675,0.12959,0.025842,0.56165,0.098938,-0.13086,-0.15235,-0.12962,-0.21575,-0.06441,0.22154,-0.047688,0.39877,0.20551,-0.27149,0.15806,0.18218,0.088256,-0.14395,0.10196,-0.20138,-0.26286,0.24663,0.15534,0.03336,0.12336,0.28744,0.22583,-0.39651,0.23431,0.0075214,-0.2349,0.072722,0.36531,0.09424,1.056,-0.18088,0.21388,0.048718,-0.42359,0.34083,0.0061053,0.099168,0.071659,0.098261,0.33821,0.2314,0.1195,-0.18085,0.35501,0.17412,-0.13753,-0.20853,-0.35376,0.12972,-0.25196,-0.13491,-0.030195,0.0066836,0.061771,-0.12463,-0.39,0.25515,0.23189,0.27067,0.45957,-0.079721,-0.090785,0.26905,-0.21886,0.68468,0.44492,-0.12836,-0.2427,-0.11643,0.10776,0.043905,0.15117,-0.17682,0.47406,0.19099,-0.12466,0.012404,-0.21217,-0.091766,-0.18659,0.0044062,0.14897,0.10352,0.017411,0.064172,0.20208,-0.19796,0.16939,0.18504,-0.037043,-0.13154,-0.032157,0.1492,-0.18179,0.13708,-0.042567,0.09779,-0.17475,-0.24327,-0.078956,-0.36961,0.023849
0.15418,0.2872,-0.21827,-0.046811,-0.73114,-0.2448,0.18185,0.31046,0.090006,-0.46977,0.051114,-0.042303,0.26716,0.080257,-0.14451,-0.057223,-0.23652,-0.034512,-0.23347,0.31134,-0.050023,0.093949,0.30447,-0.0063858,0.77762,0.15388,0.17302,0.7032,0.05378,0.11406,0.11196,-0.028858,-0.17226,0.35615,-0.10237,-0.30906,0.14764,-0.035618,0.02931,0.86668,0.056636,-0.285,-0.44769,0.14572,-0.24466,0.28194,-0.11356,-0.138,-0.27781,-0.12018,-0.18102,-0.47911,0.046014,-0.18261,0.37712,-0.32718,-0.061255,-0.0040157,-0.19221,-0.085158,-0.034177,0.12489,0.069682,-0.031501,-0.58992,0.035167,0.85526,-0.19364,-0.1051,-0.15144,-0.2515,-0.067192,0.15312,0.21011,0.22634,0.36927,-0.16194,0.12569,-0.1352,0.0071543,-0.15042,0.023532,0.10202,-0.26017,-0.07741,0.2698,-0.12358,0.022055,0.0016383,-0.090336,-0.19556,-0.12048,0.26778,0.016823,0.16333,0.15084,0.16024,-0.02858,-0.0011253,0.075284,0.0145,-0.12841,0.041762,-0.08513,0.080854,0.087904,0.04747,0.29055,0.26768,-0.074311,0.089274,-0.12951,-0.1016,-0.019136,-0.14961,-0.22601,-0.0016857,0.070144,-0.029459,1.0741,0.16902,0.20007,0.085635,0.21899,-0.29208
0.19536,0.24305,0.11872,0.017033,-0.30334,0.067288,0.045552,-0.18169,0.30485,-0.11249,0.094317,0.38958,0.47928,-0.29355,0.32947,0.29169,0.093057,0.2541,-0.063704,-0.01847,0.0089689,-0.021274,0.23455,-0.22917,-0.093334,-0.22829,-0.027336,-0.24033,-0.17711,-0.068896,-0.15482,0.38246,0.17154,-0.26385,-0.057803,0.29871,-0.08718,-0.33979,0.30061,-0.21523,0.17435,0.21103,-0.057147,-0.21635,0.15759,0.018915,0.022983,-0.3073,0.087312,-0.075098,-0.041113,-0.1901,-0.016527,0.010351,0.11739,0.070202,-0.13586,0.10462,0.0057605,-0.035474,0.19715,-0.38302,-0.0045877,0.31138,-0.078226,-0.38123,-0.56696,-0.16868,-0.57765,-0.0009523,-0.13171,-0.15367,-0.15093,-0.62195,-0.28046,-0.032521,0.40497,-0.087022,0.043703,-0.064682,-0.15114,-0.4393,-0.025187,0.033545,0.17017,0.095652,0.072381,0.14119,0.015777,-0.078392,-1.3232,-0.012241,-0.28361,-0.25045,0.18443,0.04214,-0.042038,-0.092752,0.14694,-0.34023,-0.28384,-0.1056,-0.11354,-0.015205,-0.12623,-0.051154,-0.32053,0.10042,0.037977,0.22066,-0.04371,-0.42292,-0.024583,0.11701,-0.20276,0.51023,0.014338,0.031383,-0.041409,0.21335,-0.33168,0.074013,-0.37867,0.49369,-0.36634
0.23941,0.57143,0.15079,-0.12624,-0.10854,0.12765,-0.1934,-0.11905,0.074526,-1.5915,0.24669,-0.016264,0.52561,0.13489,0.22934,0.069906,0.20553,-0.050604,0.088572,-0.26051,-0.039965,0.23063,-0.19986,-0.19277,0.11091,0.03249,-0.1514,-0.16563,0.44044,-0.089545,-0.047611,-0.082574,0.26748,0.029238,0.26707,0.12275,-0.18903,0.0031351,0.024621,0.65854,0.015903,0.33994,0.12197,-0.14139,-0.30323,0.078176,0.74128,-0.2788,-0.29844,0.19124,0.058719,0.042489,-0.20454,0.11962,-0.19596,0.20827,0.1118,-0.21892,-0.28215,-0.053968,-0.08013,0.10068,-0.01265,-0.25215,0.082125,0.24002,0.6564,0.30322,0.086586,0.29748,-0.10113,-0.56394,-0.023942,0.15509,-0.032483,-0.11705,0.32939,0.069482,0.1501,0.055264,0.21439,-0.32471,-0.52633,0.17381,1.2447,-0.19117,-0.078334,0.37694,-0.33546,-0.23375,-0.15925,-0.13561,-0.30302,-0.32085,0.034377,0.15812,-0.16091,-0.17072,-0.08397,0.08994,-0.56794,0.055204,0.16159,0.26502,0.0069965,-0.10556,-0.26408,-0.066141,-0.002966,0.16958,-0.27444,-0.3334,0.063843,0.084547,-0.18356,0.1781,0.016938,0.046262,0.29615,-0.38377,-0.072066,0.47418,-0.047009,0.30692,-0.20663
0.33146,0.0060924,0.0088054,-0.11568,0.16596,0.014887,0.32996,-0.32331,0.13683,-0.23087,0.2925,0.23562,-0.034069,-0.064215,0.12033,-0.10755,0.25706,0.27728,0.04016,-0.10873,-0.086643,0.048251,-0.053785,-0.094561,-0.012441,-0.20847,-0.52529,-0.53366,0.00014741,-0.059298,-0.20744,-0.36778,0.24106,-0.72637,0.35246,-0.010595,-0.12141,0.058691,0.31228,-0.72568,0.09548,0.30442,0.066777,-0.69196,-0.13551,-0.090975,0.079757,-0.47974,-0.063708,-0.14911,0.025913,-0.1574,0.031066,-0.0066216,0.1521,-0.10096,-0.19427,0.26551,-0.18382,0.14189,0.048582,-0.023831,0.090509,-0.4168,0.083045,-0.20045,-0.12899,-0.060406,0.0044638,0.33791,0.13885,-0.99865,0.19902,0.091898,-0.20224,0.30153,0.31386,-0.1394,0.18074,-0.19505,0.46615,0.0085592,-0.071509,0.12968,0.66389,0.13937,0.27588,0.053713,0.21144,-0.4324,0.33104,0.016193,0.11369,-0.28652,-0.3245,0.20906,0.047289,0.12669,0.077824,-0.011596,-0.36313,0.12819,0.24099,0.28368,0.21922,-0.20477,-0.29955,-0.048218,-0.16409,0.46494,-0.068297,-0.34453,0.32425,-0.0028112,-0.096701,-0.30303,0.13367,-0.48557,-0.17242,0.11544,-0.23753,0.39833,0.065536,-0.12103,-0.30083
0.12093,0.14675,0.02955,-0.67075,-2.4421,0.63459,0.063057,-0.56971,0.058839,0.036515,0.14006,0.61102,-0.19691,-0.19226,0.024656,0.60057,-0.56166,-0.22751,0.55559,-0.5152,0.25839,0.13473,-0.82363,-0.54343,1.535,-0.06853,-0.72933,0.68551,-0.37654,0.38164,-0.96507,-0.11319,-0.078304,-0.41517,0.33039,0.4234,0.11382,-0.43065,-0.052322,-0.30858,-0.45413,0.64907,0.18111,-0.15262,0.21036,-0.1958,0.049463,-0.17643,-0.18162,-0.30886,0.090158,0.23047,-0.011219,-0.41288,3.314,0.015367,-0.62193,-0.015444,0.25386,0.10777,0.11371,-0.39676,0.29064,1.6772,1.0523,0.1462,0.55323,0.24046,0.0048444,0.6518,0.10189,-0.00036201,-0.013771,-1.4986,-0.66969,0.17509,-0.77175,-0.13097,0.24232,0.051462,-0.16442,0.15181,0.1453,0.38427,0.075617,0.12667,-0.0040819,-0.03686,-0.026687,-0.62867,0.25442,-1.9742,-0.25968,-0.28161,-0.20537,-0.031696,0.16127,0.167,0.090576,-0.21444,0.039926,0.11101,-0.25076,0.28296,-0.13384,-0.020913,-0.24226,0.84443,-0.34275,0.57412,0.1608,0.063269,0.69328,-0.022508,-0.20709,0.32529,-0.35998,-0.28939,-0.13368,-0.22674,-0.64666,0.14407,-0.44231,0.19062,0.022819
0.60202,0.074314,0.26718,-0.10731,-0.070595,0.23624,0.3191,-0.1066,0.53116,-0.069104,0.22883,0.13946,0.19627,-0.22218,0.5679,0.15006,0.087452,0.38769,0.04525,-0.27355,-0.27592,-0.024996,0.091168,-0.42483,-0.21585,-0.24332,-0.024791,-0.13847,0.26335,0.47478,0.0062987,-0.62978,0.12606,0.16208,0.54285,-0.03407,0.048716,0.025252,-0.11071,0.11552,-0.18187,0.047167,0.080664,0.03724,0.10825,0.12513,-0.15174,0.13232,0.0050648,-0.18187,0.090322,-0.057272,-0.53143,-0.00083959,-0.1092,-0.12379,0.23501,0.075095,-0.15966,0.067337,0.045667,-0.28244,0.10602,-0.068095,-0.3389,-0.26359,0.022953,0.005878,-0.13888,0.14308,-0.10951,-0.13924,-0.032019,0.075684,0.082121,0.086201,0.16931,-0.011416,-0.10846,0.047152,-7.0412e-05,-0.092413,0.022228,0.033582,-0.12728,-0.23614,0.29994,0.11866,-0.014906,-0.23334,-0.16464,0.084127,-0.29664,0.1041,-0.10142,0.21636,0.035511,-0.2963,0.11502,0.022963,-0.54748,0.617,0.037947,-0.045487,0.26088,-0.12902,-0.23941,-0.18812,-0.2901,-0.12013,-0.50892,-0.58408,-0.11964,-0.010786,-0.17833,0.017524,-0.095865,-0.01684,0.1457,-0.25962,0.14352,0.39815,-0.25673,0.069434,-0.26555
0.24461,0.24484,0.14305,-0.010391,-0.31959,0.048875,-0.22186,0.058062,0.25254,-0.47607,0.46444,0.089069,0.31729,-0.45385,0.272,0.18273,-0.40219,0.56813,0.14762,-0.21437,-0.01395,0.61829,-0.055262,-0.14574,-0.19054,-0.15752,0.031375,0.07347,-0.052887,-0.11966,-0.17418,-0.029849,-0.016667,0.29218,0.033349,0.22767,0.33281,-0.24187,0.24033,0.014251,0.21386,0.11674,0.2368,-0.17774,0.043326,0.067903,0.20531,0.02258,-0.0045976,0.098655,-0.14391,0.018453,0.27619,0.079064,0.066249,0.095399,0.25695,-0.13824,-0.034053,-0.29375,-0.20786,-0.20381,-0.096598,-0.21167,-0.26075,0.14056,-0.1481,0.14819,-0.053528,-0.082932,0.16216,-0.19209,0.21162,0.75896,0.0077954,0.085829,0.63144,-0.25307,0.17071,-0.27327,0.055211,-0.068725,0.055516,-0.040845,-0.059914,-0.24006,-0.1106,0.47814,-0.13634,-0.067638,-0.10518,0.1268,-0.16817,-0.21328,0.064428,-0.08969,-0.26105,-0.02414,0.10665,-0.2317,-0.16753,0.041462,0.10037,-0.060621,0.22231,0.33004,0.27224,0.4999,0.10393,-0.27968,-0.2267,-0.24479,0.023761,-0.019393,-0.1018,0.050985,-0.0059668,0.5364,0.22539,-0.23749,-0.00797,0.42753,0.054635,0.26805,-0.45518
-0.27583,-0.87335,0.37024,-0.057938,-0.26861,0.45351,-0.23719,-0.2063,-0.32378,-0.28546,-0.74992,0.30165,-0.66672,-0.12595,-0.15012,0.099419,0.12833,-0.86399,0.37809,-0.30562,-0.18475,-0.75091,-0.34383,-0.15224,-0.048885,-0.31967,-0.12862,-0.10529,-0.097395,0.28091,-0.16773,0.043493,2.1466e-05,-0.032291,0.23527,-0.12245,0.085953,-0.33527,0.25741,0.21967,0.34213,0.26276,0.4844,-0.039551,0.051794,-0.072594,0.019629,-0.39584,-0.10566,-0.16966,0.18113,0.86492,-0.076628,-0.10935,0.49389,0.18353,-0.99165,0.28487,-0.059452,0.089132,0.13206,0.071449,0.89487,-0.34983,0.15165,0.046862,-0.10186,0.8881,-0.31372,0.11109,-0.96862,-0.12546,-0.29717,-0.080657,-0.023037,-0.14222,0.20841,-0.23738,-0.30288,1.0357,-0.055478,0.9197,0.96816,0.31648,0.087794,0.89927,-0.0034167,0.26562,0.35377,0.080116,-0.30927,-0.67064,0.85941,-0.016319,-0.15235,-0.68013,-0.03166,0.13033,0.41279,-0.17836,0.67438,-0.044704,-0.13903,-0.97149,0.070613,-0.22907,-0.25873,-0.3613,-0.19086,0.0092218,0.11387,-0.040353,0.32144,0.19429,-0.23951,0.085369,-0.1422,0.063527,-0.31648,0.14541,-0.16569,-0.028966,-0.29542,-0.25088,0.35415
0.51252,0.40968,0.16248,0.18139,-0.51074,0.26175,-0.01563,0.024593,-0.027412,0.2251,0.18512,-0.13701,0.37463,-0.42626,0.31399,0.037395,0.1158,0.061949,0.22011,0.0055565,-0.0024543,-0.076733,-0.060889,0.020076,0.053429,-0.15934,-0.03619,0.12819,-1.8389,-0.3142,0.10331,-0.20177,0.50629,-0.12422,-0.092761,-0.045052,-0.30354,-0.29262,-0.3286,-0.58724,0.24131,-0.13447,0.073508,0.25576,-0.06543,0.12236,-0.12524,-0.14625,-0.016303,0.027441,-0.21878,-0.095747,0.21083,-0.26838,-0.10614,0.043046,-0.074502,-0.8662,0.30969,-0.26789,0.15968,0.046768,-0.046483,0.12863,-0.040343,0.26231,-0.10687,-0.097928,0.028253,0.36419,0.48392,0.048882,-0.04036,-0.094913,1.1616,-0.24129,-0.27025,-0.48737,0.50386,0.049322,-0.10838,0.028131,0.10744,0.060571,-0.0015818,0.090496,0.16548,0.2506,0.093528,-0.095875,-1.2171,0.81934,-0.36121,0.028784,-0.56198,1.0328,0.005664,-0.08823,-0.022019,-0.10453,0.065716,0.26512,0.051152,1.3577,0.097011,-0.1695,-0.19957,-0.48934,0.14885,0.070828,-0.17667,-0.35686,0.013244,-0.15486,-0.17144,-0.2634,0.10061,-0.2677,0.27337,0.048957,-0.07066,0.27842,0.17425,0.40278,0.030175
0.42029,0.64035,0.015566,-0.15651,0.11136,0.2225,-0.068026,-0.062132,0.29233,-1.1693,0.0066199,0.21665,0.39341,-0.32802,0.1279,0.048347,-0.087202,0.28578,-0.10002,0.10953,0.3697,-0.047065,-0.03488,0.10386,-0.16701,-0.26759,0.037375,-0.28214,-0.022611,-0.50617,-0.24489,-0.070214,0.17069,-0.18369,-0.088519,0.068061,0.070506,-0.17325,0.077451,0.83617,0.26689,-0.09543,-0.29281,-0.36204,-0.26592,0.014355,0.034945,0.08469,-0.148,-0.031753,0.40965,-0.016941,-0.10546,0.26196,-0.44877,-0.196,-0.01596,-0.063629,-1.1159,0.030932,0.019381,-0.24688,-0.22226,-0.67342,-0.40827,-0.11513,0.20539,-0.11813,-0.19485,-0.0081354,-0.077122,-0.43201,0.063256,0.70843,0.26851,-0.22227,0.14079,0.16881,0.25417,-0.18983,-0.12231,-0.20161,-0.39801,0.092135,-0.062706,-0.029367,0.17611,0.33634,-0.08323,0.0060348,0.0015384,0.39111,-0.24593,-0.13527,0.60311,0.33473,-0.25998,-0.51508,-0.29991,0.077679,-0.60451,0.20478,0.26514,0.5156,0.29007,-0.16879,-0.24035,0.2134,-0.14568,-0.23554,-0.30898,-0.65996,-0.093813,0.1721,0.22569,-0.34451,0.25489,-0.0858,0.32938,-0.02349,-0.15137,0.6601,-0.23734,0.45202,-0.06774
-0.26917,0.14167,-0.12804,0.11924,1.0727,-0.00077488,0.23191,-0.099439,-0.16247,-0.12933,-0.39004,-0.20009,0.019122,-0.090102,-0.057097,0.020773,0.34855,0.011997,0.036441,-0.061217,0.1143,-0.0086752,0.12498,-0.2193,-0.07307,0.20399,0.17327,-0.026114,-1.3058,-0.11227,-0.16437,0.031074,0.020874,0.24325,-0.19444,0.0013053,-0.21775,-0.015749,-0.14729,-0.95174,-0.18335,-0.035889,-0.21793,-0.28165,-0.30007,-0.066889,-0.01743,-0.7097,-1.9121,-0.09574,-0.14434,-0.026318,-0.21834,-0.11481,-0.096077,0.38841,-0.22461,0.31156,-0.24879,0.45724,0.3553,-0.070892,0.10243,-0.35453,1.0331,0.37422,-0.18491,-0.065016,-0.24841,0.068234,-0.084429,-0.12453,-0.3653,0.19698,0.56338,1.1316,-0.12309,-0.13265,-0.26557,0.34085,0.080677,0.37308,0.36885,0.13244,0.18599,0.36096,0.10686,-0.23369,0.6276,0.58087,0.037998,0.064187,0.19571,0.089942,0.24107,-0.35558,0.25177,0.33084,0.19434,-0.097673,0.36563,0.42768,0.21121,0.19534,-0.30525,-0.088538,0.081725,-0.0027551,-0.12635,-0.061627,-0.011627,0.14738,-0.18678,0.049099,0.20609,0.049861,0.12946,-0.16736,-0.15398,0.18098,-0.016021,-0.041504,-0.066259,0.17475,-0.025159
-0.51995,-0.10595,0.27929,-0.35994,-0.15066,0.29325,-0.10746,-0.47488,-0.33163,-0.027498,0.0061285,0.17133,-0.49501,-0.52493,-0.8196,0.38758,-0.76034,-0.57688,0.090818,-0.27962,0.16296,-0.47773,-0.12118,-0.37638,-0.18304,-0.21329,-0.50616,0.061862,0.21572,-0.041036,-0.27385,-0.030369,0.015367,-0.25699,0.28105,-1.4624,-1.1382,-0.42571,0.2214,0.24811,0.13977,0.39642,0.22177,-0.38821,0.38945,-0.64691,-0.24451,-0.27748,-0.076527,-0.27043,-0.51869,0.45782,0.0092987,-0.086299,-0.32926,-0.48814,-0.70019,0.78463,-0.0076583,0.28124,0.41593,-0.49213,0.55723,0.29543,-0.39951,-0.56592,-0.50337,0.45576,-0.21805,0.57279,-0.22686,-0.42334,-0.38528,-0.37627,-0.56666,-0.26478,-0.1116,0.26561,-0.11717,0.51857,0.2267,0.69853,0.23935,0.081611,-1.2957,0.5436,-0.66263,-0.21004,0.39804,-0.011587,-0.1103,0.038822,0.45728,-0.23491,-0.035694,0.097812,0.041293,0.1414,0.16003,-0.25774,0.47949,-0.21735,0.81125,-0.23985,-0.01705,0.20262,1.1825,0.29326,-0.32589,-0.19757,0.35889,0.090744,0.081226,-0.50035,-0.55349,-0.10328,-0.16924,0.40814,-0.13531,0.011316,-0.18222,-0.74507,-0.47805,-0.17307,0.21854
0.20591,0.24497,0.13411,-0.75366,-0.25421,0.26168,-0.03459,-0.10476,-0.061548,0.13762,0.25177,0.32489,0.25381,0.08769,0.042044,0.13721,0.34234,-0.12922,0.30363,-0.1482,0.029753,0.32203,-0.22296,-0.16951,-0.2971,-0.076805,-0.13898,0.04305,-0.041686,0.2564,0.013893,0.196,-0.027616,0.12353,0.16352,-0.0067368,0.12033,-0.18782,0.010052,-0.41837,0.27028,0.30781,0.069388,0.061199,-0.053795,-0.01271,0.095309,-0.036759,0.046484,-0.17848,0.089428,-0.25146,0.15313,-0.13553,-0.13906,-0.36038,-0.0070552,0.24604,0.18309,0.15853,-0.038519,0.073765,0.20052,0.1839,-0.35456,0.11677,-0.029159,0.10104,0.10356,-0.46185,-0.011277,-0.09964,-0.053157,-0.38766,0.087252,-0.021025,0.39738,-0.095466,0.14511,0.14492,-0.12268,-0.16229,0.014824,0.23598,0.04859,0.063097,-0.016008,0.048026,0.061091,0.013119,-0.2967,0.38274,0.1988,-0.33136,0.33218,0.2574,-0.18943,-0.32378,0.06573,0.015201,-0.17469,0.57292,-0.56279,0.1467,0.15258,-0.27879,-0.093168,-0.451,-0.034965,0.24112,0.12678,-0.35728,0.25566,0.12002,-0.16231,-0.48343,-0.058877,-0.098038,0.20779,-0.27236,-0.21623,0.23953,-0.32382,0.13866,-0.31422
-0.10051,-0.024921,0.033432,-0.11066,-0.26568,0.21996,-0.73131,-0.046367,-0.1356,-0.069656,0.23019,0.075004,-0.071419,-0.21435,-0.057483,0.065291,-0.0082799,-1.569,-0.00078183,-0.13054,2.5782,-0.67645,0.023492,0.031045,0.087366,-0.19251,0.072095,-1.1302,-0.22156,0.045371,0.080108,0.014933,0.14431,-1.3408,-0.11447,0.20569,-0.077026,0.0079371,0.054778,2.249,0.2282,-0.0548,0.033984,-0.29793,0.32469,-0.29049,0.18091,-0.29554,0.19883,-0.17109,0.88234,0.26294,0.15547,-0.061713,-0.24256,-0.11861,-0.096311,-0.1378,0.17523,0.13566,0.16303,-0.69827,0.12983,0.18264,0.31158,-0.051634,-0.01125,0.27406,0.11276,2.2516,0.070861,0.0019539,0.10228,-0.40928,-0.50935,-0.069913,0.40896,-0.19576,0.23442,0.09304,-0.05075,0.17221,0.019668,0.65204,0.00023369,-0.20221,0.22837,0.17505,-0.095993,-0.67404,0.34888,1.0689,-0.20217,-0.47688,-0.54732,0.16634,0.33976,-0.23573,0.14597,-0.32653,-0.059489,-0.18701,-0.14555,0.13266,-0.057608,0.12346,0.012441,1.3857,-0.14383,0.14091,0.0089492,-0.16259,0.2797,-0.013512,0.04052,-0.044127,0.017599,0.085308,-0.25955,2.1794,-0.22445,-0.16919,-0.17415,-0.17757,0.12975
-0.066724,0.036149,-0.14893,0.13003,-0.13955,-0.41511,-0.029372,0.26563,-0.17748,-0.38654,0.094704,-0.15131,-0.13828,0.15306,-0.21241,-0.18383,0.3225,0.22537,-0.2488,0.013025,0.016467,-0.12734,-0.0096833,0.48313,0.16186,0.26427,-0.067022,0.18229,-0.0096924,0.022602,0.062649,-0.7847,-0.024037,0.12201,-0.61712,-0.023116,-0.21683,0.050192,-0.22927,-0.40995,-0.022689,-0.12272,0.11749,0.13192,0.17173,-0.2227,-0.30857,0.12548,0.17786,0.094694,0.20767,-0.16464,0.3305,-0.20131,0.086053,-0.16154,0.11008,0.24552,-0.1937,0.12412,-0.14711,0.25828,0.089111,-0.027983,-0.012306,0.4869,-0.40983,-0.14983,0.12603,0.11946,-0.18669,0.01828,-0.20774,0.078874,0.49478,-0.38609,-0.21705,-0.05241,0.055821,-0.038559,0.21655,-0.11797,0.025893,-0.15289,0.069332,0.21684,-0.031315,0.060221,0.11389,0.055309,-0.040659,-0.11999,0.21665,0.3435,0.021902,0.13721,-0.094554,-0.17622,-0.38751,0.022105,-0.0080064,-0.14427,-0.16918,-0.1768,-0.085707,0.31485,-0.62014,-0.37091,0.0049696,0.12187,-0.099062,0.21523,-0.11941,0.43642,0.17744,-0.5516,0.41458,0.04004,-0.14066,0.26623,0.20906,-0.24979,0.16757,0.091027,0.0069727
0.11428,0.47947,0.23755,-0.016117,0.065515,0.26064,-0.028825,-0.016806,0.27978,-0.034537,0.14338,0.11781,0.20708,-0.069499,-0.070882,0.090437,0.38282,-1.0114,0.056782,-0.12527,0.17081,-0.032465,0.081582,-0.28757,-0.19947,-0.30492,0.11279,0.083565,-0.41756,0.16908,-0.12135,0.13965,-0.041157,-0.68251,0.02993,0.091161,-0.10312,-0.067659,0.32756,-0.48917,0.31462,0.11061,-0.34934,0.1924,-0.22012,-0.15426,-0.053435,-0.1663,-0.24808,-0.077263,-0.4544,0.12903,0.0010345,0.0091734,-0.023031,0.021543,-0.08916,0.32538,0.34899,0.20377,0.099252,-0.14499,0.05182,0.039568,-0.043727,0.015407,0.14871,0.21918,0.092024,-0.21415,0.044335,-0.05515,-0.043623,-0.82333,0.057704,0.07088,-0.23823,0.13041,-0.040157,-0.13787,-0.11763,0.049286,-0.24005,0.33893,-0.1431,-0.45788,0.27392,0.4254,0.15502,-0.14914,-0.10997,0.39218,-0.047857,-0.1897,-0.26659,0.084812,-0.22475,-0.097833,0.14498,-0.34753,-0.22667,-0.063557,-0.16328,0.33678,-0.042576,0.021521,-0.036664,-0.21427,-0.092815,0.28557,-0.010879,0.092266,0.065822,0.22947,-0.026122,0.039583,-0.066349,0.045098,0.34907,-0.1567,-0.30066,0.30822,-0.20383,0.15692,-0.034599
-0.037221,0.079892,-0.086842,-0.32239,-0.27112,-0.082915,0.86173,0.084102,-0.060045,-0.17136,0.31775,-0.1196,-0.055941,0.12833,0.19611,0.06203,0.46194,0.28886,0.11435,-0.085379,0.1314,0.30733,-0.0048532,-0.29651,0.05697,-0.11025,-0.22465,-0.36542,-0.18408,0.026091,-0.26922,-0.27618,0.041002,0.4979,0.031304,0.14457,-0.20578,0.096449,0.1299,-0.46233,0.23067,-0.28383,-0.14706,-0.25171,0.075325,0.060348,-0.25905,-0.17029,-0.17901,-0.13983,-0.14904,-0.0046633,0.056052,0.044552,-0.12381,0.059368,-0.1694,-0.47176,0.13784,0.092961,0.022383,0.06616,-0.16917,-0.0016218,-0.06413,0.0843,0.14168,-0.14139,0.040554,0.28286,-0.039834,-0.038867,0.20944,0.85275,-0.14855,0.065833,-0.024034,-0.13034,0.15864,-0.17618,-0.10117,-0.26048,-0.048654,0.26779,0.39203,-0.44122,0.23778,0.090192,-0.054875,0.0067731,0.21252,0.076395,-0.5327,-0.24984,-0.22777,0.38921,-0.22946,-0.28452,0.062164,-0.28275,0.1014,0.3857,-0.072019,0.20982,0.59655,-0.0097269,-0.053169,-0.19869,0.10266,-0.08735,-0.21858,-0.41222,-0.040548,0.33664,-0.11276,0.16751,-0.0043614,0.060206,0.12601,0.19361,-0.26947,0.20176,0.10519,0.34067,-0.20593
-0.42316,-0.30638,0.34578,-0.45015,-0.1664,0.29364,-0.069288,-0.1558,-0.19026,0.14837,-0.24318,0.023582,-0.31474,-0.79447,-0.32393,0.36236,-0.037767,-0.37936,0.03922,-0.15004,0.12311,-0.18962,-0.36249,-0.10619,-0.062689,-0.35041,-0.014464,0.11641,-0.1475,-0.20249,-0.10836,0.10412,0.069395,0.20849,0.28994,0.16396,0.1918,0.0045646,-0.0063091,-0.38476,0.27335,0.11292,0.39901,-0.13694,0.39133,-0.31182,0.088954,-0.15476,-0.22078,-0.17086,0.32278,0.20596,0.012612,-0.14547,-0.17014,-0.12381,0.015296,0.0096959,0.2033,0.14028,0.40748,-0.28134,1.1909,-0.18616,0.21166,-0.38032,0.077448,0.90734,-0.28104,0.12092,-1.0314,-0.17156,-1.0078,-0.051063,-0.25742,0.07748,0.31211,-0.34515,-0.13858,-0.020576,-0.08941,0.28074,-0.018699,0.13516,-0.10122,0.13504,-0.2554,0.1982,0.13841,-0.15657,0.11329,-0.22078,0.42513,-0.099908,-0.21671,-1.171,1.0902,0.49871,0.15721,0.021434,0.20714,-0.24603,-0.2284,-0.20674,-0.13044,-0.2304,-0.069073,-0.087722,-0.23293,0.74938,0.24977,0.46529,0.084683,-0.038244,-0.34155,-0.14458,-0.40813,0.0089959,-0.2566,0.1825,-0.38149,-0.1094,-0.17945,-0.38178,0.29968
-0.16027,-0.27655,0.017258,-0.11043,0.14676,0.1079,-0.19791,0.25171,0.062941,-0.15031,0.15072,-0.17028,-0.1205,-0.1216,0.12182,0.088252,-0.32485,0.069781,-0.24335,0.07454,0.047106,0.17173,0.053736,0.19549,0.14495,0.12017,0.14014,0.013867,-0.10761,0.1156,-0.16093,0.3512,0.10388,-0.043415,-0.15296,-0.16316,0.094043,0.20755,-0.20177,0.57475,-0.099847,0.016119,0.29445,-0.041963,0.22514,-0.33038,0.09533,0.14034,0.010739,0.18929,-0.16455,0.34229,-0.093431,0.14789,0.18087,-0.085479,0.20078,-0.098595,0.86648,0.12923,0.079674,0.17421,0.027845,-0.34556,0.19755,0.042517,-0.058283,0.29227,0.20718,-0.067056,-0.10098,-0.44466,-0.2838,0.012056,-0.16212,-0.086164,0.18589,-0.055863,-0.095278,0.040779,0.0076486,0.18105,0.24598,-0.25187,-0.047425,0.28196,-0.036283,0.15074,0.23525,0.095502,0.21946,-0.43061,0.17234,0.060599,-0.26387,-0.28233,0.036567,0.39686,-0.21537,0.16999,-0.051874,0.01897,0.093034,-0.17787,-0.12186,-0.085923,0.23591,0.057676,0.19723,0.1529,0.051865,0.23071,-0.19883,-0.14731,0.037669,-0.17259,0.00076975,-0.0091016,-0.11068,-0.16527,0.1227,-0.28697,0.17425,-0.38987,0.078181
-0.15212,0.11546,-0.13387,0.25334,-0.25385,-0.0089944,0.13123,-0.031504,-0.086918,0.29363,-0.14464,-0.10202,-0.41546,0.056989,0.0031529,-0.32394,-0.12567,-0.36741,-0.25414,0.21382,-0.07051,-0.14957,0.0037975,0.15342,0.0021481,0.15824,0.5015,0.50389,0.58029,0.33985,0.17239,0.34603,-0.021375,0.55079,0.34825,-0.10908,0.19555,0.26717,-0.15173,0.31683,-0.081703,-0.24233,-0.022067,0.53404,-0.032345,-0.042123,0.27254,0.12871,0.11305,0.060773,0.38683,0.018427,-0.1208,0.118,-0.25685,0.24436,0.1653,-0.030121,-0.23875,-0.19014,-0.07434,0.075761,0.035723,-0.12595,0.020536,-0.022247,-0.13348,-0.06067,0.0078412,0.090254,-0.15617,0.27047,-0.11397,-0.2478,0.073456,0.18164,-0.14994,0.10114,0.148,0.13248,-0.0027152,0.10759,0.11489,0.18496,0.26415,0.24832,-0.12731,-0.30812,-0.19759,0.60431,-0.15124,-0.018973,0.12745,0.030327,0.32648,0.23087,0.099737,-0.025349,0.11762,-0.14784,-0.019237,-0.27942,0.39147,0.063555,-0.16415,0.27662,0.29897,-0.03725,-0.067523,-0.053182,0.10516,0.49639,-0.020806,-0.13401,0.14305,-0.22634,0.17315,0.38643,-0.031912,0.16766,0.24327,-0.4987,0.27698,-0.046018,0.25843
0.5811,0.13891,0.18272,2.2358,3.6147,0.019475,0.029502,-0.055121,0.43275,-0.16365,0.24932,0.0060136,-0.063911,0.27242,0.59363,-0.011084,0.0998,0.32278,-0.08324,-0.25852,-2.0548,0.71562,0.016947,0.80978,0.063487,-0.16548,0.02441,-0.11179,-0.035521,0.032734,0.055951,-1.377,0.058321,0.078661,0.55608,0.28595,-0.12883,0.12871,-0.25973,1.2966,-0.064052,-0.050554,-0.029181,-0.19147,-0.042812,0.1735,0.21711,-0.0080479,0.0061947,-0.20955,-0.17438,-0.1062,-0.23807,-0.154,-0.30714,0.19417,-0.039697,-2.1996,0.044395,0.10035,-0.036353,0.22178,-0.18466,1.1815,0.0056728,-0.27949,0.11406,-0.26597,-0.40008,0.14332,0.29944,0.42255,0.30203,-0.12449,0.13078,0.3436,-0.024475,-0.0087596,-0.057121,0.039527,-0.15177,-0.21963,-0.18975,0.27992,0.21723,-0.16973,0.028142,-0.035669,-1.2276,0.068973,-1.5479,0.014498,0.1309,-0.27016,-0.87581,0.20895,-0.29422,-0.13008,0.19723,-0.12765,-0.43534,-0.077012,-0.22005,-0.18697,0.35516,0.13026,-0.10951,-0.3291,0.033223,0.70444,-0.29412,-0.34809,0.042186,-0.10004,-0.17813,-0.19142,0.090611,-0.27704,0.39855,0.62135,-0.024961,0.32257,0.027708,0.1759,-0.47001
-0.065287,-0.0048282,-0.44536,0.33276,-0.095292,-0.33392,0.38904,0.48334,0.27146,0.21208,-0.042956,-0.18995,0.65158,0.27913,0.40166,-0.44662,0.43606,0.43106,-0.50411,0.44146,-0.16028,0.75246,0.30261,0.17681,0.44187,0.41005,0.3306,-0.38118,-0.37071,0.41209,0.10735,0.28681,-0.48278,0.55645,-0.28713,0.35115,0.74288,0.22702,-0.28005,-0.34766,-0.43313,-0.29394,0.16719,0.17088,-0.43957,-0.44251,0.34387,0.066534,0.063046,0.55158,0.20867,-0.66861,0.11255,0.50634,0.050047,0.3423,0.19583,-0.48596,0.044692,-0.35271,-0.30657,0.68774,-0.62726,0.024302,0.45785,0.56939,0.11613,-0.46622,-0.28344,-0.60632,0.49115,0.26428,0.34328,0.34338,0.70091,0.28417,-0.077845,0.15588,0.23498,-0.67574,0.028679,-0.27641,-0.29694,-0.54667,0.67364,-0.73356,0.5701,0.18272,0.029248,-0.046002,-0.0096465,0.76868,-0.51805,0.17202,-0.15071,0.45736,-0.24637,-0.40887,0.13915,-0.018823,-0.69013,-0.073053,-0.4484,0.48701,0.18067,0.22209,-0.992,0.021291,0.41006,-0.16223,-0.062692,-0.24863,-0.47396,-0.056866,0.063576,0.23382,0.58927,-0.17083,0.69302,0.056602,0.46478,0.16435,0.35737,0.28528,0.0069826
-0.065135,0.12058,-0.13389,0.21322,-0.33923,-0.065585,-0.18627,-0.090413,-0.20408,-0.083066,0.1298,0.091771,-0.087243,-0.14533,-0.025889,0.17668,-0.26918,0.028811,-0.18068,0.26024,-0.068667,-0.073013,0.056783,0.15257,0.2316,0.24609,0.022184,0.16183,0.17037,0.38426,0.26874,-0.76161,-0.11877,0.12965,0.20227,-0.18941,-0.19647,0.0077878,0.024829,-0.20605,-0.13373,-0.15663,0.31813,0.14303,0.11304,-0.2238,-0.029878,0.15862,0.060023,0.22668,-0.0024781,0.049374,-0.54992,-0.11872,-0.1383,0.25903,0.012422,0.067373,-0.29531,0.12333,-0.080431,-0.016177,0.2669,0.19088,0.31266,-0.019189,0.074855,0.11442,-0.019815,0.30593,-0.25946,-0.39813,-0.15884,0.082181,-0.031878,-0.19966,-0.013033,0.30963,0.043721,-0.42869,0.12805,-0.030227,0.10164,-0.020096,0.14194,0.12033,-0.12407,-0.10465,0.11608,0.25355,-0.47735,-0.16847,-0.17623,0.070863,0.73021,-0.29305,0.31386,0.2434,-0.23753,0.22016,-0.075305,0.11546,0.18823,0.075628,-0.20895,-0.049864,0.49315,0.079481,0.046055,-0.30768,-0.037555,-0.19037,-0.073942,-0.19279,0.1939,-0.16526,0.20192,-0.051574,0.024296,-0.0078132,0.24838,-0.22304,0.16321,-0.10103,0.063943
0.73192,-0.00282,-0.091893,0.31673,0.11871,-0.36334,-0.23548,0.29419,-0.26835,0.29458,-0.33606,-0.11445,-0.19726,-0.15286,-0.43491,-0.09979,-0.082415,0.040201,-0.20794,0.080176,-0.22165,-0.17674,0.094678,0.31182,0.075692,0.033654,0.45307,0.65815,0.37703,0.088207,-0.030117,-0.061244,-0.11016,0.013677,0.025005,-0.020906,0.32261,-0.057386,-0.27981,0.40951,-0.081503,0.046777,0.34609,-0.26313,-0.25318,-0.030008,0.24348,0.10904,0.21505,0.04561,0.45132,-0.13138,0.070266,0.087015,-0.30387,-1.1172,0.0068221,-0.23404,-0.33843,-0.16921,-0.33627,0.14264,0.017249,-0.043936,-0.30367,-0.13631,0.0041692,-0.11083,-0.083398,-0.054049,0.015893,0.035612,-0.030948,0.071578,0.21685,-0.015638,-0.55726,0.23596,-0.24365,0.2493,-0.18304,-0.2906,-0.076456,0.18838,0.21155,-0.30338,0.069613,-0.0069373,-0.36706,0.18846,0.261,0.1645,-0.17475,-0.12934,0.25345,0.77765,-0.20641,-0.077393,-0.20603,0.064626,0.31801,-0.14524,0.096195,-0.16421,-0.14471,-0.081355,-0.092066,-0.27371,-0.21907,-0.17586,0.072457,-0.26191,0.013572,-0.30818,-0.018087,-0.06115,-0.0093075,0.28454,0.08656,0.26368,0.045825,0.30134,0.0039387,0.54946,0.035717
0.90347,0.78142,0.020135,-0.12225,0.0021671,-0.38583,-0.18215,0.25707,0.21094,0.036515,0.12358,-0.35822,0.97292,0.29537,0.11746,0.11811,-0.16837,0.95081,-0.053274,0.13202,0.082397,-0.049587,0.079865,0.1831,0.26291,0.025132,0.29439,0.090806,-0.031399,-0.26,0.36077,-0.066178,-0.44021,0.24255,0.12509,-0.047684,-0.13437,0.40293,0.0058955,0.02773,-0.1833,-0.033835,-0.3658,0.19627,-0.50088,0.61721,-0.048619,0.0028321,-0.043181,0.29362,-0.15966,0.079231,0.27524,0.13616,-0.20646,-0.087991,0.033198,-0.1565,0.08586,0.061643,-0.12357,0.065035,-0.96788,-0.39667,-0.036778,-0.016085,0.073532,-0.97008,0.050414,0.086061,0.18888,0.31212,0.095183,0.18682,0.054571,-0.076976,0.3237,0.25824,-0.08743,-0.25726,-0.22695,-0.75438,-0.95064,-0.17799,0.2418,-0.8041,0.79327,0.096748,-0.22083,-0.013166,0.1624,1.044,-1.0209,0.35705,0.18901,0.86298,-0.76604,-0.73997,0.00348,0.23938,0.030387,0.36661,0.16129,0.71071,0.12176,0.084635,-0.020498,0.076972,-0.05702,0.11611,-0.79546,-0.88068,-0.20538,0.073597,0.04156,0.10479,0.27322,0.17774,1.07,0.26721,0.12216,0.83661,0.14829,0.86527,-0.063512
-0.1348,-0.020771,0.36757,-0.38338,-0.28737,0.44899,0.0044611,-0.25713,-0.082616,-0.18157,0.27565,0.35961,0.022531,-0.17233,0.14808,0.83241,-0.079537,0.16655,0.52468,-0.49013,-0.65064,-0.17959,-0.59295,-0.26248,-0.40434,-0.29188,-0.68771,-0.12997,-0.24447,0.5847,-0.54877,-1.8993,0.24584,-0.66507,0.92376,0.33461,-0.023612,-0.2439,-0.44777,-0.17521,0.39472,0.20617,-0.024317,1.5331,-0.041508,-0.079862,-0.0081779,-0.42523,-0.055282,-0.071961,-0.19471,0.53749,0.029646,-0.21544,1.2428,0.19453,-0.1865,-0.48177,-0.05676,0.060724,0.25452,-0.21696,0.24919,-0.040307,-0.14205,-0.47901,-0.42138,-0.074542,-0.02231,0.063574,0.15089,-0.0084692,-0.023976,-0.45687,-0.74774,-0.25404,0.5909,-0.39182,-0.027042,-0.071721,-0.4068,0.15034,0.0031831,0.52441,0.15794,0.076636,0.047879,0.36358,0.75401,-0.92837,-0.046457,-0.11047,0.044333,-0.28715,-0.17564,0.16068,-0.036437,0.097215,0.41945,-0.69226,-0.25188,0.20612,-0.31337,0.53418,0.029179,-0.13675,-0.18728,-0.41917,-0.43814,-7.6655,0.15631,-0.17853,0.60277,-0.016623,-0.28312,0.049431,-0.26825,-0.28648,-0.094345,0.18441,-0.31706,-0.017536,-0.58918,0.12507,-0.087527
-0.14628,-0.33347,-0.12266,-0.0921,-0.31989,0.10107,-0.30256,0.13592,-0.025872,0.37175,-0.033891,-0.14648,-0.16824,0.21306,-0.043992,-0.19179,-0.077622,-0.35932,0.046214,0.19312,0.19932,0.036256,-0.3825,0.039982,0.093131,0.13743,0.51496,-0.0070434,0.11053,0.20156,0.0056215,0.20162,-0.076425,-0.079998,-0.037786,-0.046375,0.054315,0.15489,-0.14912,-0.22768,0.1403,0.12782,0.18668,0.15211,0.37951,-0.3088,0.2675,0.37018,0.38808,0.25513,0.51709,0.057551,-0.37331,0.24803,0.23766,-0.063926,-0.054175,-0.29063,-0.03687,-0.29217,0.32855,0.42004,0.14063,-0.42529,-0.39082,-0.21926,0.41572,0.39265,0.031452,-0.26431,-0.067511,-0.35798,-0.092011,0.024711,-0.16795,-0.38812,-0.17709,-0.089164,-0.076595,-0.053825,-0.21826,0.36447,-0.031743,-0.14278,-0.24095,0.19808,-0.012424,-0.18104,0.14706,0.17367,0.1944,-0.30511,0.31278,0.024339,-0.23306,0.07447,0.02664,-0.032245,-0.12197,0.10302,0.17107,0.19513,0.12532,-0.22772,-0.19994,-0.14638,0.091341,0.11751,0.23034,0.46565,-0.01013,-0.050043,0.14329,0.057985,0.13896,0.012609,-0.077958,0.20667,-0.25431,0.17548,0.030623,-0.065269,0.029962,-0.067564,0.095789
0.39194,0.0051855,-0.7986,0.015289,0.48649,-0.59146,-0.19213,0.64065,0.10537,0.12203,0.10127,-0.91489,0.16769,0.25216,0.36914,-0.66075,-0.17469,-0.14932,-0.97203,0.98283,0.085894,0.28115,0.9477,0.91805,0.88247,0.55579,0.10982,-0.076945,-0.087715,-0.023503,0.54294,0.86704,-0.54571,0.36264,-0.48991,-0.38241,0.099161,0.80442,-0.59911,-0.051055,-1.1783,-0.90982,-0.16026,0.014437,-0.12059,0.031275,0.10257,0.3603,0.05168,0.93391,0.055961,-0.0095664,0.25916,0.80827,-0.58247,0.048552,0.57699,0.1047,-0.066841,-0.344,-0.85608,0.33319,-0.60393,-0.012126,-0.27751,0.64343,0.11235,-0.0033365,-0.14167,-0.19008,0.014405,0.16018,0.045841,0.409,0.24793,-0.095442,-0.58407,0.39949,0.19438,-0.28854,0.41724,-0.1611,-0.043323,-0.63725,-0.16678,-0.21325,0.11198,-0.67319,0.062556,0.59871,0.097064,0.17213,0.0010921,-0.0059045,0.23093,0.059824,-0.31089,-0.08573,-0.6226,0.55316,-0.38204,0.18279,0.21718,0.17393,0.27655,0.50353,0.50141,0.72285,0.89952,-0.0014273,-0.31425,-0.14595,-0.86792,0.022462,0.66793,-0.21879,0.269,0.14034,0.038892,-0.28606,0.57753,0.062953,0.95945,0.16834,-0.30159
0.042942,0.17035,0.10669,-0.029203,-0.084329,0.045495,0.033152,-0.024363,0.089054,0.52303,-0.0035476,-0.27449,0.11514,0.23807,-0.14199,-0.19531,-0.14304,0.04636,0.024415,0.2673,-0.33914,-0.0046206,-0.076481,0.26272,0.31267,0.37409,0.10904,0.087363,1.3305,0.59139,0.29525,0.65875,-0.21385,-0.29936,0.076078,-0.06338,0.046727,0.15235,-0.1642,-0.21576,-0.065355,0.10748,0.034086,-0.11608,-0.018826,-0.22649,-0.35001,-0.074159,0.037895,-0.014688,-0.3758,-0.65033,0.69637,0.045976,-0.85896,0.081366,-0.082686,0.19991,0.20689,0.060735,-0.14446,0.22069,0.17838,-0.39855,-0.11024,-0.083866,-0.045553,0.016655,0.23466,-0.26445,0.051893,-0.1549,-0.10576,0.060288,0.75775,-0.44072,1.047,-0.059231,-0.20609,0.042097,-0.16243,0.083824,0.26163,-0.22793,-0.28045,-0.34778,0.14342,0.17531,-0.021157,-0.2845,-0.47459,-0.8267,-0.27254,0.15994,-0.064975,-0.17378,-0.12497,0.20512,-0.027704,0.25665,0.039192,-0.0060553,-0.01275,0.20647,0.15599,0.20678,0.058868,0.19282,0.16459,-0.3364,0.23361,-0.063207,-0.16785,-0.18649,-0.087341,-0.20114,0.017692,0.16674,0.20472,-0.16088,0.012382,0.042472,0.23047,-0.1627,0.10176
-0.27951,-0.11384,0.12254,-0.11253,0.48246,0.21353,-0.41211,-0.29562,-0.83587,0.15683,-0.10194,0.14232,-0.097982,0.01523,-0.64925,0.20481,-0.33507,-0.0087423,0.09669,-0.02232,0.056698,-0.85814,-0.060839,0.037304,-0.13701,0.03023,-0.10406,-1.1729,-0.44926,-0.26414,-0.0093822,-0.071234,0.061238,-3.7656,-0.13621,-0.56219,-1.6087,-0.077592,0.23315,0.60878,-0.034254,-0.1174,0.24592,0.13579,1.7274,-0.64398,-0.26043,0.26575,0.057617,-0.076744,0.34419,-0.013316,0.27556,0.12853,-0.25629,0.034932,0.077383,0.13164,0.15873,-0.16039,-0.031927,0.043523,-0.19093,0.50593,-0.0050273,-0.15565,0.26938,-0.18309,0.32979,1.1871,-0.12286,0.12921,-0.21965,-0.11595,-0.14877,1.0621,0.26885,-0.27321,0.17842,-0.13517,-0.27603,-0.12729,-0.094865,0.034366,-0.092904,-0.14994,-0.09269,-0.03556,0.12976,0.31334,0.17467,0.57237,0.1618,-0.17185,-0.083919,0.0044689,0.56085,0.10048,-0.13123,-0.050611,0.24056,0.26659,0.45777,0.32229,-0.23796,-3.0877,-0.22151,0.53995,-0.34031,0.57833,0.090697,-0.18973,0.098549,-2.2845,-0.32245,0.27878,-0.090765,-0.092863,-0.07872,1.5312,-0.11067,-0.21739,0.050709,-0.26471,0.10812
0.12331,-0.30428,-0.050788,0.28482,0.10875,-0.0013051,-0.062176,0.19462,-0.018532,0.71163,-0.1625,-0.11685,0.0766,0.28136,0.11092,-0.11387,-0.14572,0.2008,-0.17242,0.059672,-1.4749,0.022853,-0.088096,0.10852,0.096094,-0.5604,0.11439,0.2294,0.20626,1.3177,-0.15029,0.051673,-0.081231,-0.1603,-2.2991,-0.010916,-0.096199,-0.029605,0.086369,-0.63989,0.10123,-0.1488,0.26717,0.2552,0.21942,0.0053775,0.038737,0.24653,-0.14802,0.013207,-1.4312,0.16662,-0.0038512,-0.037792,0.058231,0.11269,0.13874,0.066653,-0.21404,-0.17355,-0.18663,0.40373,-0.049137,0.124,-0.18532,0.18287,-0.0070142,-0.042177,-0.37689,-0.48251,0.14645,-0.033414,-0.017731,-0.006241,-0.067577,0.31239,0.16967,-0.014528,-0.10365,-0.084878,0.26683,-0.166,0.25828,-0.042897,0.19899,-0.085414,-0.27912,0.71414,0.016174,-0.27171,-1.4532,-0.2733,-0.051825,0.046605,-0.063594,-0.33626,0.058201,0.0042118,-0.2832,0.13085,0.2908,0.012619,0.24403,-2.5454,0.23291,0.040793,0.14129,-1.1827,0.27199,0.18229,-0.13381,0.22128,-0.22928,-0.10771,0.001445,-0.12761,0.16076,-0.18198,-0.33294,0.1024,0.29106,-0.28751,0.18809,-0.16667,0.061318
-0.32658,-0.087117,0.17214,-0.046344,0.20236,0.13173,-0.17164,-0.15591,0.12569,-0.79042,2.1471,-0.098795,-0.46968,0.24402,-0.23549,-0.12992,-2.5804,-0.35132,0.089346,-0.47261,0.48745,0.10343,0.23186,-0.42057,-0.47508,0.14568,-0.075251,-1.3898,-0.2359,0.21849,0.45826,-1.853,-0.040579,-0.036739,1.7038,0.13819,0.18541,-0.28599,0.18764,-0.78121,0.1449,-0.0797,0.10794,0.092314,0.39746,-0.31744,-0.13808,0.025036,-0.56547,0.30675,-1.374,0.19664,-0.48318,0.22724,0.72276,0.053254,-0.20306,-0.013455,-0.34401,0.26125,0.2382,-0.015865,0.052578,0.079353,0.17664,-0.11794,-0.29462,0.24193,1.272,-0.13239,-0.42528,-0.42945,-0.48399,0.16353,-0.25371,0.0062725,0.97627,-0.14669,-0.28397,0.2342,0.18372,0.30436,0.1997,0.10045,-0.057644,0.45934,0.35404,0.28794,1.3689,0.046738,-2.7451,-0.36652,0.25128,-0.0075708,-0.050933,-0.11563,0.30253,0.27576,0.18827,0.16555,0.52925,-0.16532,0.03107,-0.67609,0.087364,0.16423,-0.17096,-0.16486,-0.2004,0.81642,0.04122,0.11366,0.18914,0.026252,-0.15482,2.1032,-0.17055,0.039771,-0.17751,-0.04866,0.037753,0.036273,0.087862,-0.29551,0.10146
0.55298,0.19015,-0.26264,0.33057,0.30424,-0.0027877,-0.24615,0.3559,0.38285,-0.01384,0.14598,-0.0035064,0.22351,0.17695,0.21634,0.086553,0.0088763,0.36315,-0.14203,0.15061,-0.032757,0.35104,0.41503,0.46547,0.4626,0.23205,0.084677,0.20604,0.019564,-0.059507,0.16184,0.12974,-0.30462,0.17578,-0.18533,-0.0098284,0.20099,0.0046151,-0.46949,0.15319,-0.10175,-0.21081,-0.35937,0.13459,-0.20324,0.037416,0.073057,0.045504,0.44961,0.030874,-0.15207,-0.22625,-0.006909,0.42605,-0.052741,0.46092,0.378,-3.8634,0.069467,-0.26042,-0.1574,0.061289,-0.068572,-0.063938,-0.30144,0.17763,-0.089292,-0.16549,-0.032073,-0.43108,0.11255,0.093584,0.16006,0.17886,0.050013,-0.10692,-0.06808,0.31928,0.076364,-0.56503,-0.052202,-0.55052,-0.030924,-0.3122,0.029505,-0.43466,0.059928,0.0031632,0.096534,0.0694,-0.16127,0.12527,-0.12974,0.40607,-0.12831,0.024778,-0.037204,-0.24328,-0.32914,0.34515,-0.38531,0.038481,0.063255,0.21259,0.41786,0.44249,0.001046,0.03543,0.2183,-0.053116,-0.36416,-0.49423,-0.089564,0.16314,0.053494,0.081236,1.2239,0.028377,0.13082,-0.25504,0.25748,0.49669,0.17812,0.25202,-0.39942
