-0.013011,0.17066,-0.051073,-0.14139,-0.17269,-0.11709,-0.11533,0.28528,-0.2379,-0.11614,0.024869,0.13828,0.10952,-0.090092,-0.15503,0.24478,0.22122,0.12668,0.22766,-0.12691,-0.069114,0.18377,0.28465,0.3393,0.38792,-0.17407,-0.20596,0.092162,-0.22887,-0.18393,-0.36926,-0.12173,-0.1773,-0.21509,0.053467,-0.10062,0.55217,0.32877,0.24978,-0.1702,-0.30963,-0.21561,-0.17693,0.20258,-0.14104,-0.0012032,0.22316,0.23599,-0.16875,-0.062632,-0.11396,-0.42761,-0.097585,0.26125,-0.11085,0.023343,-0.21594,0.15644,0.36562,-0.064451,0.25218,-0.20242,0.28412,-0.25094,0.28685,0.084929,0.16034,0.091314,-0.043568,0.14726,0.034681,0.016541,0.26313,0.47173,-0.20867,0.29251,-0.093949,0.05061,0.18308,0.45499,-0.15592,-0.1661,0.0652,0.083393,0.04189,-0.10515,-0.033158,-0.095302,-0.61161,0.15167,-0.12902,-0.22129,0.068846,-0.19243,0.079962,0.48752,-0.24234,0.29236,-0.13543,-0.087274
0.06006,0.34924,0.17173,0.25053,0.25899,0.17906,-0.078106,0.33607,-0.28067,-0.31916,0.22487,0.36219,-0.0065513,-0.33395,-0.11051,-0.22166,-0.21696,-0.004205,0.16021,-0.14974,-0.21906,-0.085971,-0.061691,0.14552,0.55182,0.16637,-0.19263,-0.25525,-0.19219,0.14796,-0.024384,0.045108,-0.021486,-0.077398,0.056976,0.22618,0.031467,0.26875,0.029912,-0.12176,-0.067632,-0.53732,0.14005,0.16859,0.12352,-0.33215,-0.17063,-0.0055638,-0.064806,0.20897,0.08197,-0.033833,0.10651,0.078589,-0.053686,0.0052803,-0.090318,0.14143,-0.087575,-0.20256,-0.12942,-0.2702,0.25977,-0.1146,0.16723,-0.029606,-0.05321,0.040315,-0.17545,0.20842,-0.19269,0.14168,0.42628,0.13134,0.22934,0.012611,0.00018524,0.20388,-0.086989,0.5438,-0.25798,-0.26865,-0.17688,-0.22131,-0.15105,-0.10877,-0.27013,-0.059842,-2.103,-0.24719,0.1175,-0.11154,-0.015103,-0.1752,-0.010343,0.016654,-0.37553,0.080016,-0.02033,0.012823
-0.1283,0.14221,0.020524,0.2512,-0.032802,0.23065,-0.13443,-0.070046,-0.263,-0.50122,0.022569,0.48072,-0.24881,-0.45946,-0.13757,-0.078582,-0.03162,0.00042756,0.2884,-0.20103,-0.35293,-0.02602,0.34295,0.058207,0.052555,-0.24149,0.16204,-0.22853,-0.094854,0.051823,-0.30638,-0.061444,0.031228,-0.10611,0.13935,-0.14878,0.085736,0.14477,-0.083522,-0.12646,-0.18675,-0.2069,-0.058006,0.41361,-0.23654,-0.342,-0.12261,0.19983,0.018153,0.13709,0.26164,-0.44392,-0.051117,-0.3583,-0.18041,0.12912,0.20428,-0.06278,0.32527,-0.17554,0.18538,-0.24338,0.35992,-0.23437,0.33731,-0.22505,0.17523,-0.0022778,0.0086045,-0.086908,0.15019,0.12244,-0.11529,0.13313,0.15941,-0.12544,-0.19586,0.08037,-0.011949,0.21857,-0.4195,-0.21683,0.040668,-0.098611,0.18436,0.14971,-0.18117,-0.01623,-0.44004,-0.20302,-0.22799,0.054105,-0.13729,0.04197,-0.15347,-0.27355,-0.29406,0.32327,-0.20336,-0.1303
-0.30635,0.1409,-0.14931,0.12163,-0.20951,-0.24576,0.10194,-0.20955,-0.14602,-0.14733,-0.33348,-0.059832,-0.37678,0.35577,0.18442,-0.20662,-0.19189,-0.025096,0.13166,-0.013734,0.10439,-0.11825,0.10581,0.0521,-0.027082,-0.2078,-0.12841,-0.25608,0.17085,-0.12592,-0.2531,0.018081,-0.21584,-0.096159,-0.23806,-0.16082,0.0076567,0.12006,-0.040585,0.42389,-0.15955,0.14442,-0.0176,0.1362,0.16976,-0.12286,0.42131,-0.28511,-0.16376,-0.041392,0.22009,0.23118,0.33091,0.027741,-0.11654,-0.058569,-0.0015412,0.15471,0.19214,-0.19125,-0.23329,0.51917,-0.13524,-0.0078367,-0.12181,-0.12634,-0.12575,-0.011542,0.31169,-0.071842,0.14669,0.053693,-0.1235,0.046644,-0.040828,0.36236,0.11448,0.21182,0.029761,0.079836,-0.12676,0.21901,-0.050563,-0.068882,-0.0015318,0.094396,0.12331,0.22691,-0.37515,-0.020071,-0.55075,-0.076451,-0.19483,-0.03494,0.25158,-0.076057,-0.64482,-0.25114,-0.0089472,-0.17176
0.017124,0.22199,0.26516,-0.21141,-0.20432,-0.066855,-0.15955,0.19539,0.020927,-0.48339,0.38629,0.41653,-0.21536,-0.026247,0.059666,-0.15377,0.092378,0.092988,0.19774,-0.18941,-0.44962,0.012762,0.090594,-0.2769,0.084022,-0.28607,-0.10891,0.051777,0.064855,0.050568,-0.062026,-0.030511,0.081681,0.015081,-0.048918,-0.096903,0.082942,0.048523,-0.0083308,0.005249,0.0022875,-0.46241,0.11076,0.27584,0.052745,-0.21514,-0.16809,-0.0079567,-0.043835,0.15158,-0.076951,-0.19016,0.16751,-0.288,0.15525,0.074595,0.23892,-0.30362,0.26447,-0.35764,0.10009,-0.005458,0.35148,0.035316,0.031577,0.078476,0.20831,0.36931,0.20599,-0.17902,-0.043503,-0.24975,0.39223,0.30654,0.08874,0.226,-0.31204,-0.034243,0.19954,-0.040675,-0.058266,-0.076093,0.16281,0.13529,-0.050127,-0.10866,-0.17717,-0.016425,-0.37242,-0.091267,-0.18697,0.18915,-0.057513,-0.38571,0.42541,0.44637,-0.01672,0.12689,-0.16167,-0.24547
0.081605,-0.31819,-0.16078,-0.13618,-0.23084,-0.24541,-0.078377,0.083777,0.30395,0.093574,-0.013144,-0.30467,0.09232,0.40622,0.11801,-0.044884,-0.31146,0.07168,-0.23037,0.15657,-0.019724,-0.22073,-0.43938,0.17108,-0.10658,0.18134,0.073913,-0.27082,0.17995,0.11225,0.1179,-0.11458,0.055276,0.25849,-0.3989,-0.13849,-0.14577,-0.18496,-0.0048804,0.10943,0.23396,0.35019,-0.055846,-0.3761,0.12981,-0.086319,0.083606,0.16196,-0.15091,0.087534,-0.13653,0.31571,0.091724,0.23001,0.22994,-0.11854,-0.13661,0.1309,-0.089465,-0.095523,0.067915,-0.21662,-0.22148,-0.050297,-0.053201,-0.45996,-0.23038,-0.27046,0.41864,-0.095065,0.21957,0.12951,-0.15044,-0.002186,-0.36601,-0.15249,0.087082,0.014616,-0.34371,-0.41203,0.42112,-0.00041693,0.05739,-0.21865,0.1023,-0.061613,-0.049021,-0.16196,0.16157,0.13059,-0.084933,-0.14977,-0.22197,0.12035,-0.13083,0.34451,-0.084584,-0.23419,-0.029803,-0.011585
0.33981,-0.24604,-0.038577,-0.28963,0.19224,0.04183,0.20564,0.12434,0.22434,0.18212,-0.031447,0.35233,0.36486,-0.14565,0.20882,-0.21015,0.16538,-0.0025295,-0.20368,0.12605,-0.24227,-0.34758,-0.031894,-0.090333,0.088287,0.068898,0.20829,-0.067167,-0.032701,0.20346,-0.20648,0.1506,0.097339,-0.23286,-0.041292,0.14628,0.21021,0.25534,0.086599,-0.39167,0.071685,-0.12141,-0.05418,0.075674,0.20857,0.0049584,-0.5598,0.42795,-0.0086209,-0.050047,0.059092,-0.19273,-0.073558,-0.091481,-0.082864,0.089026,-0.14704,0.30021,-0.13972,0.0090166,-0.16921,-0.66843,0.3132,0.0039126,0.081119,-0.16482,0.04645,0.033058,0.16488,0.023187,-0.16022,0.21741,0.080988,0.1474,-0.21699,0.083112,-0.058995,0.010601,-0.17465,0.033227,-0.3121,-0.20198,0.22288,0.11249,-0.20514,-0.02522,-0.046446,-0.11202,0.45421,0.034408,0.13242,0.17681,-0.0020123,0.020466,-0.087012,-0.0022819,0.029057,-0.28831,0.13409,-0.082243
0.065479,0.023942,-0.17793,-0.018801,0.11146,-0.12861,0.015836,0.090687,0.41992,0.07276,0.2727,-0.064179,-0.034683,0.10913,-0.19082,0.15757,0.32451,0.17706,-0.086275,-0.15031,-0.12841,0.17639,0.095154,0.15217,-0.037685,0.005135,-0.055093,-0.031026,-0.12258,-0.061236,-0.14338,-0.068102,0.22614,-0.1464,-0.015256,-0.082084,0.056617,0.14726,-0.20295,-0.28299,-0.010317,-0.24625,-0.064647,0.083885,-0.28626,-0.33942,-0.034449,0.22488,0.22974,-0.14849,0.13473,0.30421,-0.13014,0.36017,0.027928,-0.24043,0.30984,0.2722,0.13289,-0.087693,-0.19052,-0.55845,-0.10073,0.12781,-0.25012,-0.25604,0.040528,0.052944,0.26465,-0.17751,-0.0054693,-0.0081955,0.11724,-0.067335,0.031395,-0.027788,-0.096919,-0.27548,-0.13303,0.042022,0.1053,0.017493,0.12481,0.053221,-0.19062,0.092201,0.19693,0.23747,-0.20866,-0.14393,0.17168,0.13402,0.056966,-0.01054,-0.036129,-0.08748,-0.2137,-0.44357,-0.1424,0.18982
-0.15133,0.26483,0.096846,0.10527,-0.17467,0.054131,0.07019,0.070331,-0.20212,-0.11135,0.041407,0.10651,-0.22153,-0.11931,-0.16857,-0.18345,-0.044961,-0.28418,0.26625,-0.12017,-0.29491,0.093077,0.11224,0.17253,0.12576,0.011954,0.17455,-0.11467,-0.18995,0.15848,-0.30837,0.16982,-0.23875,0.23273,0.063751,-0.19745,0.26917,0.37143,-0.099524,0.17235,-0.21123,-0.19166,0.077472,0.13028,0.068983,0.0098919,-0.16397,-0.066585,-0.1847,0.19276,0.20421,0.11353,-0.077347,-0.058008,-0.23694,0.21524,-0.0061676,-0.12429,0.73385,-0.017114,-0.19838,-0.14401,0.45453,0.21324,0.20201,0.23205,0.086444,0.2431,-0.52999,-0.15521,-0.039299,-0.17849,0.17477,0.26848,-0.25305,-0.17431,-0.1493,0.21357,-0.20406,0.39886,-0.068644,-0.13121,0.21894,-0.17576,0.15703,0.064492,-0.016523,-0.21676,-0.41217,-0.17296,-0.33362,0.038827,0.33061,-0.13709,0.50325,0.16098,-0.1229,-0.32171,0.19566,-0.079342
0.026399,0.11922,-0.20662,-0.061927,0.00078416,-0.23528,0.20415,-0.0037346,-0.42634,0.0072984,-0.27732,0.019944,0.066429,0.14711,0.15672,0.16003,-0.31055,-0.21169,-0.056376,0.25616,0.21821,0.17234,-0.3168,0.11242,0.051668,-0.16258,0.27621,-0.18282,0.0501,-0.09078,0.038053,0.15878,-0.12506,-0.097206,0.073095,0.037052,-0.12755,-0.020814,0.074026,0.20299,-0.053487,-0.081112,-0.20951,-0.25124,0.09491,-0.14083,0.28844,-0.31025,0.11549,-0.16216,0.037572,0.21755,0.07657,-0.10088,-0.18836,0.061445,0.15213,-0.11344,0.13104,0.013927,0.10342,0.6858,-0.13306,-0.089225,0.29567,-0.19733,0.27704,0.1508,0.32516,0.017054,0.24018,0.24809,-0.051641,-0.061263,0.11682,0.039207,0.13074,0.18143,-0.14533,-0.28345,0.12556,-0.0088308,-0.016334,-0.20231,0.084409,-0.11068,-0.32301,-0.11338,0.10164,0.015493,-0.19434,0.16628,-0.27381,-0.042198,-0.072033,0.030935,0.26778,-0.0054313,-0.20345,0.12035
0.054015,-0.35918,-0.071649,-0.10139,-0.15022,0.1131,0.18139,0.084311,0.23803,0.46603,0.070246,-0.25397,0.24177,0.052735,-0.012602,0.13402,-0.089005,0.1727,-0.31078,0.30022,0.51426,-0.17751,-0.29261,-0.27624,-0.14835,0.15633,0.037978,0.0019302,0.23102,-0.14771,0.010768,-0.1638,0.16699,0.13332,0.0030299,0.15349,0.15803,-0.1591,0.14904,-0.0089992,-0.096051,0.42285,0.13954,-0.10013,-0.18124,-0.20051,0.13546,-0.23121,0.30761,-0.019646,-0.079954,-0.082064,-0.31729,0.086285,-0.18136,-0.039023,-0.19883,0.28723,-0.92583,0.40265,-0.025803,-0.053569,-0.43747,0.082349,-0.33738,0.16602,-0.12276,-0.044708,0.19779,-0.15611,0.30523,-0.011193,-0.30492,-0.22981,-0.022018,-0.054879,0.30024,-0.18084,0.032215,-0.061252,0.45612,-0.11224,-0.31206,-0.20001,-0.12242,0.1498,-0.099188,0.22833,0.86028,-0.22893,-0.02933,-0.04445,-0.15639,0.17476,-0.24289,-0.38988,0.30416,0.27517,0.16631,0.2672
-0.06425,0.049476,-0.022483,0.028929,0.1874,-0.1759,0.0096119,-0.16971,-0.26139,-0.075786,0.29301,0.11858,-0.3749,-0.37385,0.13951,0.084558,0.070742,-0.22083,0.4405,-0.058802,-0.10126,-0.21854,0.14756,0.27047,0.30587,0.2189,-0.15243,-0.074031,-0.029149,0.042503,-0.050583,0.19553,-0.027681,-0.099526,-0.14354,-0.19005,0.19277,0.00015365,0.0064999,0.2029,0.0096643,-0.10683,0.12088,0.34841,0.022984,-0.1505,0.059856,0.075312,-0.11469,0.00072241,0.11464,-0.062431,-0.064825,0.071055,0.073156,0.38672,0.2521,-0.29148,0.61591,0.042454,0.1186,-0.21438,0.30437,-0.2581,0.071703,-0.06772,0.16139,0.062326,-0.32671,-0.11219,0.1376,-0.25093,0.35401,0.16911,0.10919,0.048672,-0.047023,-0.051785,-0.064115,0.12498,-0.082581,-0.003653,0.033344,0.17244,-0.22333,-0.069132,-0.022107,0.0801,-0.82646,0.20845,-0.25216,-0.11456,0.13249,-0.1983,0.24514,0.40442,-0.1026,0.19891,0.013764,0.076075
0.051955,0.22502,0.078819,-0.030895,-0.0004987,0.072352,-0.23691,-0.023486,-0.010231,-0.050158,-0.13665,0.18115,-0.1135,0.30146,0.20396,-0.011248,-0.19176,0.30637,0.14314,-0.034125,0.070375,0.06446,-0.14238,-0.24345,-0.24761,0.1036,0.036692,-0.30521,0.25302,0.022972,-0.023236,-0.043973,0.0086166,-0.033857,-0.28343,0.078902,0.064661,-0.23962,-0.12259,0.41106,0.27001,-0.18315,0.090463,0.02377,0.083725,-0.18165,0.14139,-0.19823,-0.068586,-0.096916,-0.16942,0.13291,0.21354,-0.1549,0.28745,-0.025172,0.024093,-0.15966,0.097916,-0.18213,-0.19265,0.49119,0.05261,0.059665,0.13574,0.11498,0.32439,0.12717,-0.13168,-0.032536,0.0062003,0.058744,0.14852,0.071439,-0.15677,-0.080671,0.18361,0.23254,-0.11968,-0.30272,0.025437,0.21038,-0.37782,-0.059381,0.032394,-0.044863,-0.21381,0.079871,-0.41971,-0.051076,-0.018677,0.064429,0.13973,-0.060014,0.26374,-0.069133,-0.22757,0.27871,0.016171,0.23257
-0.11089,0.21589,0.11239,-0.35081,-0.28258,0.092272,-0.10713,0.3821,-0.0049959,-0.20458,0.09754,0.4159,-0.21472,-0.0063763,-0.028394,-0.13589,0.17783,0.052211,0.053731,0.1098,-0.064272,-0.29193,0.25458,-0.11358,0.092762,0.094289,0.03968,0.17637,-0.12169,0.25634,0.07918,0.11259,0.046245,0.12271,0.25558,-0.017897,-0.17602,0.33648,0.20706,0.11349,0.06783,-0.047627,-0.20923,0.042706,0.03155,0.040746,-0.22825,0.26354,0.012774,-0.15302,0.12893,-0.098664,0.38091,-0.26553,0.1924,-0.059013,0.0028103,-0.10393,0.26551,-0.22189,0.10334,-0.19325,0.030905,-0.15883,-0.025635,0.067334,0.10771,0.27522,0.18838,-0.045795,-0.035366,0.10706,-0.080893,0.21303,0.29415,0.10818,-0.27152,0.02775,0.14896,0.11023,-0.33782,0.088725,0.15642,-0.20908,-0.040949,0.038466,-0.18742,0.044404,-0.33089,-0.21256,-0.36737,0.19275,0.12571,-0.3125,0.22242,0.21043,-0.40172,0.18895,-0.091854,-0.045975
-0.069315,0.071064,-0.050929,0.10461,-0.26158,0.12929,-0.22584,0.33383,0.19792,0.14233,-0.29457,0.04647,0.19026,-0.097489,-0.093093,0.040098,-0.10061,0.16446,-0.0027121,0.16974,0.47277,0.1725,-0.074635,0.018021,-0.049328,0.078626,-0.23844,0.15114,-0.088737,0.022955,-0.17424,-0.023325,-0.003782,0.24521,-0.12927,-0.30052,0.061217,-4.4724e-06,-0.13907,0.10674,-0.19199,0.27809,-0.07635,0.15661,0.28812,-0.073548,0.12912,-0.19518,0.25231,-0.34277,-0.12992,-0.18505,0.045135,0.10267,0.017194,-0.2215,-0.039605,-0.0052971,0.28739,-0.15171,0.10649,0.50335,0.16991,0.28346,0.41976,0.19238,0.1526,0.37375,0.23186,-0.1626,-0.15313,0.10469,-0.20976,-0.068183,0.020248,-0.36753,-0.32199,0.084519,0.19943,-0.028571,0.24479,0.18029,0.080755,0.16051,0.5414,-0.28869,0.050934,0.25193,-0.28747,-0.13118,0.048125,-0.11757,-0.016045,-0.034199,0.098558,0.068711,0.069439,-0.19678,-0.12709,-0.20221
0.080944,-0.021371,-0.091199,0.24853,-0.16191,-0.077183,0.27697,-0.33945,0.15926,0.1914,-0.05324,0.048839,0.048317,-0.14973,0.13351,-0.12563,0.19449,-0.16808,0.059299,0.095529,0.096411,0.10558,0.2357,-0.096922,0.24606,-0.029527,0.23337,0.013553,-0.31051,-0.12876,0.23005,-0.29086,-0.21248,-0.12619,0.2887,-0.18947,-0.045047,0.18251,0.16591,-0.70002,0.076374,-0.16831,-0.068497,0.20052,0.031889,0.0043973,0.052345,0.16059,0.1666,0.27839,-0.16176,-0.15831,0.17134,0.1725,-0.023904,-0.17993,0.098033,0.32094,0.079461,-0.48109,-0.035553,-0.2546,0.018718,0.015634,-0.15193,-0.088365,0.032685,-0.2578,-0.074268,-0.13717,0.095003,0.076156,-0.069589,-0.0072173,-0.32337,-0.36917,-0.1224,0.12859,0.045691,0.093654,-0.27464,-0.43748,0.072068,0.024873,-0.081156,0.25283,0.0091797,-0.31274,-2.4991,-0.096495,-0.24647,-0.067143,0.18585,-0.096025,-0.0062644,-0.17473,0.035456,0.13265,0.28784,0.1674
0.17405,-0.047623,0.034928,0.15874,0.091378,0.2643,0.20012,-0.15792,0.21052,-0.19781,0.24255,0.24752,0.094438,-0.014732,-0.11468,-0.026494,0.064259,0.084916,-0.28026,-0.057334,0.075474,0.20902,0.095907,0.0030246,0.15763,-0.1681,-0.1311,0.035307,-0.12085,0.17858,0.04623,-0.2837,-0.35793,0.26902,0.25648,0.080642,0.22279,0.24795,-0.10966,-0.16128,0.05804,-0.11925,-0.12442,0.013889,0.018503,0.30942,-0.20208,0.29848,-0.18558,0.21926,-0.11972,-0.1687,-0.058839,0.108,-0.0043516,0.24486,0.063258,-0.31156,0.08995,-0.09078,-0.055295,-0.16026,0.13639,-0.11859,-0.22137,0.015479,0.061007,-0.063874,0.18473,-0.041529,0.036145,0.1,0.28439,-0.024232,0.055416,0.11981,-0.24079,-0.053887,0.11124,0.27457,-0.1124,-0.11405,0.30909,0.27136,0.13426,0.28354,0.14762,0.13393,-1.2288,0.1744,-0.0061867,0.13753,0.21953,-0.11275,-0.0015919,-0.0048565,-0.22718,-0.12766,-0.086928,0.021263
0.17209,-0.038397,-0.015618,-0.22321,-0.32161,0.1301,-0.030004,-0.42209,-0.025802,0.33193,-0.0080252,-0.27958,0.33413,0.1365,-0.081111,0.038266,-0.18452,0.027863,-0.1583,-0.066075,0.35816,0.11365,-0.28339,-0.16406,-0.18445,0.18035,-0.059664,0.041785,0.39565,0.14671,0.18217,-0.078198,0.10761,0.036036,0.12483,-0.041398,0.13801,-0.24985,-0.054858,0.051992,-0.0084329,0.33495,0.094207,-0.075817,0.1131,-0.015422,0.29371,-0.26502,0.22884,0.10281,-0.22012,0.090943,-0.13486,0.12549,-0.18382,0.26146,0.084466,0.1788,-0.50038,-0.029411,0.034566,0.0055515,-0.26291,-0.019047,-0.39337,-0.24377,-0.010838,-0.17303,0.10583,0.06758,0.11438,0.11376,-0.086677,0.13475,0.10824,-0.11859,-0.16113,0.19892,-0.26698,-0.20998,0.18321,0.17201,-0.37742,-0.044987,0.012273,-0.066021,0.13201,-0.042031,0.82692,-0.16409,0.38432,-0.15217,0.13006,-0.067273,-0.2819,-0.27612,0.35968,0.013075,-0.17224,0.35631
0.055382,-0.056315,-0.15995,-0.11959,-0.064,-0.01464,0.18706,0.0078965,0.40118,-0.13774,-0.14182,-0.074503,0.1222,0.13446,0.063166,-0.23254,0.010721,0.052198,-0.42749,0.18908,0.077986,0.20211,-0.40764,-0.13595,-0.34201,0.26109,0.23327,-0.24769,0.40567,-0.13405,0.11339,-0.064474,0.18012,0.27228,-0.1481,0.10196,-0.53102,-0.0093161,0.096241,0.21316,0.039052,0.38368,-0.21549,-0.31477,0.038516,0.13826,-0.28199,0.15935,0.20136,0.018363,0.19389,0.032885,-0.039566,0.011762,0.1801,0.008611,0.19295,-0.03813,-0.2091,0.23787,-0.07553,0.11563,-0.18508,-0.16385,-0.23928,-0.1506,-0.1986,-0.33414,-0.23534,0.24675,-0.011351,-0.096015,-0.064682,-0.31609,-0.20949,-0.22598,-0.025627,0.16265,0.16387,-0.0084252,0.31512,-0.0044212,-0.37455,-0.18857,-0.23398,0.17154,0.12089,0.20399,-5.6739,-0.032217,-0.053053,0.048914,0.12793,0.14615,-0.2241,-0.01786,0.28933,0.11318,-0.002509,0.16512
-0.24011,-0.0050075,0.33509,0.27246,0.10551,-0.12239,0.11745,0.1874,-0.3134,-0.021684,0.039069,0.12675,0.040101,-0.30541,-0.026371,-0.099515,0.19079,-0.15272,-0.091961,-0.044552,-0.19136,0.25536,0.48291,0.36744,0.12832,0.083103,-0.14178,-0.1203,-0.13723,0.12053,-0.10484,-0.062994,-0.072253,0.037072,0.28704,-0.11673,-0.056277,0.20327,-0.12789,-0.25879,-0.22279,-0.15464,0.24044,0.18457,0.239,-0.15461,-0.24435,0.13178,-0.040265,0.13945,0.078756,-0.30341,0.046546,-0.056655,-0.099999,-0.11272,-0.095431,0.22061,0.66077,-0.029482,-0.096553,-0.017618,0.44033,0.041295,0.15354,0.24591,-0.17955,0.1693,-0.16345,-0.17939,-0.090524,-0.087355,-0.094451,0.093849,0.26019,-0.092722,-0.22912,-0.10127,-0.19434,0.39477,-0.35255,0.04117,0.10162,-0.10608,0.089579,0.13521,0.027728,-0.13968,-0.86827,0.10842,-0.39535,-0.13466,0.28264,-0.10115,-0.25561,-0.23578,-0.10796,0.3886,-0.22222,0.12527
-0.22407,0.12437,0.26368,0.20192,-0.035465,-0.019592,0.076941,-0.078136,0.15971,0.098239,0.093386,-0.10528,-0.23051,0.13195,0.18033,-0.31636,0.10918,-0.16781,0.1887,0.13437,0.2812,0.22824,-0.30462,-0.093102,-0.11142,0.14476,-0.010134,0.082273,-0.10432,0.016101,0.17002,0.15145,-0.062238,0.29578,0.16456,-0.10527,-0.2651,-0.19203,-0.10713,0.41139,0.065827,0.11897,-0.078094,-0.18939,0.32776,-0.075945,0.086013,-0.40195,-0.097648,-0.096141,-0.16456,0.21284,0.18785,0.14975,0.11698,-0.12815,-0.29309,0.061189,0.18507,-0.23655,0.10348,0.40414,-0.30718,0.10606,0.19523,0.016026,0.16077,0.093003,0.26816,0.071376,0.17749,0.28052,-0.007165,-0.31609,0.25209,-0.031286,0.11573,-0.10307,-0.14428,-0.21106,0.063626,0.023028,-0.15727,-0.32706,-0.30916,0.023706,-0.080147,0.080203,0.84315,-0.15393,-0.1639,0.044209,-0.17139,-0.0049703,-0.094745,0.18799,0.1927,-0.10711,-0.31442,-0.28343
-0.03865,-0.015607,-0.14918,0.13759,0.021776,0.29626,0.1281,-0.32087,0.17852,-0.16233,0.2953,0.034858,0.20007,-0.18376,0.30362,0.16379,-0.11373,0.038066,-0.19582,0.11452,0.029058,-0.27239,-0.16951,0.015182,0.19979,0.091721,-0.23062,0.087555,-0.068978,0.070883,0.13403,-0.37146,-0.024957,-0.083718,0.18923,0.26226,0.12319,-0.048387,-0.025883,-0.1299,0.045761,-0.036751,-0.075016,0.095359,-0.090951,0.11755,0.11085,-0.020325,-0.27858,0.27459,-0.070508,-0.24611,-0.064657,0.20088,-0.24217,0.11286,0.043593,-0.026052,0.2716,-0.14733,-0.0044074,-0.43808,0.23143,-0.066679,-0.027259,0.046044,-0.30719,-0.24531,-0.15333,-0.11768,0.12411,-0.17313,-0.086975,0.31197,0.10113,0.077597,-0.27612,-0.35982,0.27703,0.0090735,-0.06505,0.14641,-0.042147,-0.091812,0.33969,0.18291,0.10685,0.13058,-0.57664,0.25172,0.053377,0.12933,0.14469,-0.014534,-0.17198,-0.066501,0.21143,0.053128,0.21065,0.060057
0.054455,-0.14513,-0.11828,0.26413,-0.14051,-0.21753,0.21961,-0.34074,-0.048901,0.15961,-0.13424,-0.0058059,0.28858,0.044566,0.26472,0.11881,-0.0015375,0.011784,-0.02337,-0.18465,0.062053,0.2202,-0.39032,0.184,-0.26524,-0.018711,0.022354,-0.16154,0.44463,0.15661,-0.078443,0.080245,-0.14441,-0.076492,0.10967,-0.11464,0.072451,-0.37444,0.033382,0.22944,-0.047053,0.11888,0.11321,-0.42299,0.088187,0.1655,0.29533,-0.27996,0.039446,0.11547,-0.2611,0.15916,-0.12107,0.19712,0.060364,0.21066,0.093373,0.15167,-0.39029,0.28317,0.12866,0.2101,-0.10806,0.0031716,-0.17473,-0.17567,-0.053228,0.0048932,-0.25458,-0.021755,0.28646,0.053061,-0.32022,-0.24142,-0.31927,0.022319,0.11241,0.0078486,-0.27804,-0.023585,0.38624,0.20973,-0.19794,0.10448,-0.14368,0.19898,0.19655,-0.11424,0.44668,-0.17075,0.35151,0.10971,0.074065,0.18307,-0.46873,-0.21317,0.25915,0.32082,0.13981,0.027119
-0.024734,0.15404,0.023137,-0.14268,0.030539,-0.16881,-0.015454,0.4086,0.11093,-0.36426,-0.054544,-0.024099,-0.15566,0.0015072,-0.029254,0.061178,0.11257,-0.12212,0.26365,-0.13737,-0.19476,-0.066177,0.012878,0.11289,0.015855,-0.28105,-0.12212,-0.068995,0.17122,-0.014815,-0.33811,0.10109,-0.06834,-0.11194,0.22416,0.022547,6.2713,0.080718,-0.085919,-0.0098189,-0.020325,-0.24344,0.2039,0.45459,-0.20265,0.04448,0.11231,0.17876,-0.018221,-0.12183,0.17422,-0.2834,0.39677,0.15381,-0.19861,0.23693,-0.21591,-0.041066,-0.1205,-0.017381,0.13952,0.14022,0.25208,-0.093626,-0.02405,-0.16801,0.072526,0.029839,-0.30732,0.020083,0.034921,0.13955,0.26012,0.4494,0.284,-0.17514,-0.027761,-0.010398,0.21852,0.35454,-0.34288,0.2871,-0.2292,0.21193,-0.089031,0.25556,-0.1301,-0.070266,-28.601,-0.17957,-0.14641,-0.25256,0.05607,0.04518,-0.23336,0.022046,-0.3961,0.28872,-0.13849,-0.078478
-0.23384,0.086123,-0.26692,0.11011,-0.11752,0.12984,-0.18012,-0.0045579,-0.1367,-0.15745,0.10328,0.1431,-0.25691,-0.16436,0.16081,-0.21,0.10692,-0.001918,-0.014242,0.027876,0.11266,-0.096935,-0.040176,-0.12654,0.3095,-0.15424,-0.13001,0.051984,-0.23705,0.037219,0.21917,-0.35656,-0.15949,0.15263,-0.064641,0.024803,0.022125,-0.14998,0.2536,-0.44057,-0.2258,-0.12749,0.14152,0.00024871,-0.016838,-0.14317,-0.39527,0.45236,0.17664,0.21994,-0.04309,0.082114,0.20187,0.014209,0.0095453,-0.35099,0.038888,-0.014943,0.099147,0.26272,0.095629,-0.3441,0.13532,0.14612,0.012476,-0.0020144,0.12283,0.10918,0.050133,-0.01789,-0.087479,-0.0032698,-0.19462,0.070832,-0.16798,-0.22484,-0.13594,-0.090993,0.20265,0.12749,-0.26,-0.6818,0.092938,-0.14214,-0.11006,0.22934,-0.0049911,0.056223,-0.22352,0.16104,0.095874,-0.023836,0.27597,0.00051967,0.056716,0.10502,-0.17983,0.19315,0.054303,0.041444
0.075282,-0.2385,-0.2657,-0.15093,0.05234,0.027685,-0.2925,-0.22118,0.37554,-0.11583,-0.072221,-0.15241,-0.20668,-0.23098,-0.2202,-0.21182,-0.075631,-0.17124,0.082743,0.039324,-0.31768,-0.176,-0.14596,-0.25608,0.27681,-0.12177,0.11848,0.18416,-0.38417,0.11447,0.11982,-0.0090685,0.02638,-0.17859,0.2897,0.088217,0.10818,0.21823,0.27997,-0.41085,0.034166,-0.2271,-0.10069,0.22166,0.006653,-0.19014,-0.26862,0.2736,-0.27989,-0.090858,0.19806,-0.17321,0.041055,0.30767,0.1408,-0.23029,0.20748,0.10158,0.0034492,-0.1128,-0.084294,-0.46375,0.13291,0.12791,-0.17368,-0.07468,0.054267,0.1031,-0.21573,-0.12549,-0.10682,-0.020984,0.1861,0.084635,-0.14313,-0.36102,-0.0028991,0.03349,0.13484,0.16939,-0.24929,-0.50496,0.32349,0.2082,-0.050669,-0.17116,0.060015,-0.1941,-0.27402,0.14227,-0.048679,-0.23333,-0.11315,0.10128,-0.048487,0.059618,0.17281,0.088529,0.1073,-0.061016
0.18148,-0.34623,-0.09977,0.34859,0.17083,-0.047291,-0.18418,0.021198,0.19734,-0.21309,-0.24167,-0.12291,0.19321,0.44266,0.16503,0.17326,-0.24455,-0.055738,0.039391,-0.022072,0.30617,0.18133,-0.11284,0.10046,-0.11213,-0.16027,-0.065169,0.091785,0.24758,-0.14907,-0.051538,0.10849,0.24454,0.11785,-0.28985,-0.23704,0.10936,-0.30416,-0.21037,0.23414,0.068521,0.35869,0.068499,-0.42426,-0.20771,0.17567,-0.20143,-0.003259,-0.073499,0.084726,0.12384,0.083226,-0.37861,-0.15812,0.22352,0.054126,-0.12855,0.11497,-0.38768,0.032808,-0.14991,-0.023683,-0.091365,0.14864,-0.16755,-0.051747,-0.11985,-0.37692,-0.043083,-0.058086,0.084819,-0.042886,-0.19734,-0.23919,0.059485,-0.20942,0.25531,-0.18965,-0.2482,-0.28624,0.37971,-0.0074319,-0.1412,0.12616,0.20866,0.0024318,-0.043316,0.086868,-0.76675,-0.23134,0.15488,-0.19547,-0.10419,0.14339,-0.48121,-0.19941,-0.034209,0.24141,-0.21225,0.11792
0.052078,-0.041444,0.23882,0.27818,0.13004,-0.14678,-0.16854,0.21684,-0.37286,0.028009,-0.03577,-0.093337,-0.054334,0.24055,-0.019616,0.063159,-0.064535,-0.18614,-0.011039,-0.085959,0.28227,-0.1557,-0.25331,0.099716,-0.23817,-0.063428,-0.14869,0.17251,-0.13622,0.1481,-0.26712,-0.077442,-0.032447,-0.06187,-0.15973,-0.19678,-0.37298,-0.16835,-0.091206,0.47185,-0.15419,-0.1137,-0.10447,-0.2496,0.2008,0.18564,0.38981,-0.16265,-0.088374,-0.010649,-0.044678,0.18458,0.093562,0.064272,0.19568,-0.1546,-0.037475,0.29157,0.0037162,-0.07615,-0.22785,0.31378,-0.1988,0.09583,-0.10034,-0.18427,0.010638,0.16598,0.039505,0.15563,0.33039,0.26389,0.0066112,-0.060985,0.10424,-0.0069253,0.21084,-0.026003,0.12629,0.04179,0.00079997,0.46088,0.083537,-0.15632,-0.22038,-0.24938,0.03719,0.30663,0.25886,-0.29864,0.1088,0.067409,-0.28215,-0.092783,-0.14445,-0.022641,0.12962,0.011827,-0.26208,-0.025306
0.46935,-0.44388,0.0010259,0.10584,0.12185,-0.0032393,0.064045,0.059052,0.10573,-0.28895,0.33221,0.345,0.31055,-0.23667,0.077528,-0.24031,-0.17124,-0.093692,-0.091307,-0.11233,-0.13684,0.089609,0.023454,-0.22564,0.21953,-0.095924,0.03222,-0.082553,-0.28706,-0.1357,-0.16527,0.14136,-0.016102,-0.20339,0.28188,0.044812,0.02106,0.0069383,0.30091,-0.21115,-0.20768,0.087907,0.14263,-0.13097,0.089046,0.16089,-0.19984,0.48668,0.075428,0.22968,-0.088605,0.29389,-0.057636,-0.064376,0.095505,-0.10033,0.051686,0.22376,0.11392,0.044881,0.13732,-0.46839,0.039264,-0.072817,-0.099132,0.25544,-0.24891,-0.27537,-0.14356,0.0061965,-0.0076088,0.14382,-0.092506,-0.12932,-0.074836,-0.14195,-0.20128,-0.074276,-0.019391,0.34186,-0.10306,-0.33546,0.27919,0.040473,-0.024516,0.056667,-0.008478,0.16348,0.6509,0.071411,0.25202,-0.014195,-0.11283,0.043912,0.051218,-0.17358,0.42985,-0.41895,0.28986,0.29882
-0.21373,-0.12617,-0.12426,0.25316,-0.1657,0.12427,0.14406,-0.12509,-0.098952,0.14057,0.22895,-0.14661,-0.36414,-0.01303,-0.078824,0.35819,0.12505,-0.054666,-0.024984,-0.38563,0.16805,0.073802,0.28907,0.29624,0.29776,0.057264,-0.061555,0.24548,-0.075784,0.0047703,0.0054088,0.047341,-0.10106,0.091563,0.060606,-0.067037,-0.16001,0.27584,0.019183,-0.48037,-0.08566,0.010663,0.03357,-0.044569,-0.25684,0.020175,0.15536,0.083848,-0.1199,0.077677,0.032956,-0.079829,-0.176,-0.032882,0.041156,-0.083886,0.042089,0.0088684,-0.15611,0.065501,-0.048407,-0.49728,0.046355,-0.28745,-0.20402,-0.11215,-0.34738,-0.1936,-0.15469,0.0374,-0.16387,-0.16936,-0.02124,0.13107,-0.047528,0.17411,-0.015679,-0.37013,0.021618,0.041897,-0.27342,0.037883,0.19512,0.23986,0.10686,0.30989,0.13852,0.058845,-0.70247,0.0067899,-0.21795,-0.3289,-0.17934,0.038516,-0.082466,0.12243,0.24071,-0.29301,-0.03074,-0.11046
0.09779,0.02086,-0.095801,-0.07907,0.055783,0.12074,0.13366,-0.59516,0.009404,-0.048676,0.26241,0.07566,-0.017436,-0.1646,-0.1331,0.21296,-0.16014,0.005247,-0.20896,-0.20325,-0.31113,-0.31576,0.22228,0.2546,0.052204,-0.1012,-0.18237,0.34204,0.1284,0.3004,-0.1927,-0.24468,-0.23556,0.15007,0.087382,-0.019881,0.17371,0.32305,0.17821,-0.56487,-0.22715,0.018678,-0.079826,0.046127,-0.18171,-0.20974,-0.017147,-0.25668,-0.21307,0.21304,0.19042,-0.28317,-0.14415,-0.080248,0.14115,-0.079783,0.039763,-0.26344,-0.0078001,0.18759,0.25107,-0.34398,-0.18098,0.023926,-0.20224,-0.054835,-0.18154,-0.24866,0.31093,0.035592,-0.041077,-0.055433,0.099246,0.31191,0.18167,0.2201,0.094768,0.10618,0.23786,0.11658,-0.17235,0.27992,-0.092489,0.22852,-0.14589,-0.03601,-0.078109,-0.09871,-0.017522,-0.056951,0.16545,-0.065253,0.17809,-0.072372,-0.24173,-0.16153,0.13084,0.28645,-0.14539,-0.18201
0.039118,-0.024628,-0.017191,-0.064475,0.24027,0.48956,0.21055,0.04388,0.2919,-0.042212,0.046928,-0.3259,0.24189,-0.04387,-0.33182,0.017928,0.050306,-0.005949,-0.18147,0.32657,0.24047,0.27664,0.21665,0.039492,-0.059698,0.15973,0.24679,0.14811,-0.20383,0.25087,0.016452,0.16009,-0.048313,0.070247,-0.062041,0.33404,-0.16918,-0.28643,0.16148,0.43876,0.060584,-0.028238,0.36911,-0.14235,0.12125,0.18181,0.13272,0.21084,0.10185,0.10284,0.072485,-0.051346,-0.078446,0.22348,-0.13018,0.16484,-0.08404,0.10512,-0.021794,0.0040471,-0.091897,0.023231,-0.099149,0.2701,-0.0055556,0.17598,0.063314,0.17038,-0.018226,-0.24551,-0.40902,0.15188,0.096023,-0.20163,-0.04857,0.139,0.19012,0.25318,-0.16916,0.0079105,-0.064327,0.054797,-0.024281,-0.073608,0.064593,0.18676,-0.13866,0.11233,0.034317,0.15681,0.16367,0.046072,0.037857,-0.021647,-0.13774,0.19373,0.1872,0.066662,0.1746,0.28283
-0.2266,-0.056894,-0.25205,-0.0040845,-0.31811,-0.046585,-0.12114,-0.51334,-0.028599,-0.024307,0.13186,-0.1539,-0.071514,-0.0078726,-0.069143,-0.12305,-0.060879,-0.18526,-0.18791,0.15516,-0.25601,-0.19462,0.29432,-0.028788,0.17212,0.040318,0.10439,0.15764,-0.1199,0.12936,0.14095,-0.232,-0.053627,-0.073166,-0.10884,-0.073379,0.0096004,0.23068,0.20042,-0.22832,0.1378,0.048111,0.19259,0.30636,-0.012837,-0.082207,0.093849,0.079542,-0.0021102,0.27298,0.020828,0.061001,-0.13549,0.040165,-0.20311,0.072706,0.1664,0.079722,-0.11857,0.035063,0.18115,-0.5424,0.22277,0.054147,0.21466,0.017857,-0.07587,0.044219,-0.12459,-0.27432,-0.13122,-0.32518,0.31196,0.11471,0.31944,0.13889,-0.13855,-0.12671,0.34844,0.15286,0.13565,0.013461,-0.096694,-0.043006,0.28952,-0.067125,0.044568,-0.20486,-0.77285,0.01788,0.1026,0.08209,0.096113,-0.10196,-0.099771,-0.010429,0.1505,0.041319,0.008734,0.078819
0.13958,-0.11787,-0.068958,0.1586,-0.22162,0.15082,0.086328,-0.084062,-0.049818,-0.31274,-0.14659,-0.026356,-0.054695,-0.066213,0.19691,-0.06918,-0.15048,0.15912,0.14208,-0.0097865,-0.17642,-0.27733,0.59152,-0.068177,0.30718,0.11856,0.043769,0.06128,-0.16468,0.09185,0.12523,0.093449,-0.12293,-0.22966,0.17366,-0.13101,0.045556,0.27482,-0.075582,-0.34569,0.12517,0.13954,0.2137,-0.14119,-0.29516,-0.28509,-0.58858,0.48386,-0.060409,-0.057187,-0.22335,-0.20578,0.096244,0.10376,-0.19919,-0.22734,0.12999,0.13451,0.023716,0.037751,-0.15,-0.59247,0.14402,-0.10786,-0.2653,-0.30304,0.070429,-0.055215,0.26957,0.0046893,-0.27139,-0.23221,0.21392,0.25412,-0.18201,-0.0049739,0.15124,0.012121,-0.2592,-0.034501,-0.22321,-0.64216,0.36271,-0.090211,0.13704,0.19131,-0.014055,-0.010157,0.69858,-0.13281,-0.024115,0.10887,0.27061,-0.28586,-0.1224,-0.11263,0.026376,0.1448,0.2611,0.28494
-0.21832,-0.12997,-0.02368,-0.28673,-0.030729,0.19529,0.10291,0.040064,-0.042353,0.035503,0.18998,0.34406,-0.44659,-0.32839,0.42331,-0.044063,0.18739,0.037941,0.077134,-0.38126,-0.059622,0.12596,0.25057,0.35884,0.047978,0.065162,-0.10387,0.2133,0.47564,-0.11775,-0.13673,-0.023009,0.12775,-0.11317,0.07014,0.18728,0.11137,-0.0076415,0.19072,-0.0041874,0.11723,-0.24481,-0.16876,-0.031832,0.061058,-0.13238,-0.2195,0.15175,-0.1618,0.11068,0.023343,-0.43067,0.36477,-0.25836,-0.02781,-0.05361,-0.074388,-0.050954,-0.2657,-0.26806,-0.36221,-0.24891,0.21827,0.01191,0.27543,-0.28733,0.20484,0.13943,0.11802,-0.03567,0.31492,0.058905,-0.058433,0.22294,-0.079001,0.12606,-0.18175,-0.033255,-0.17521,0.022803,-0.30031,-0.26062,0.067445,0.05765,0.06227,0.042771,0.018846,-0.015315,-0.70808,-0.101,-0.37848,0.10071,-0.014819,-0.10488,0.17314,0.21031,-0.094233,0.14408,-0.14444,-0.27693
0.23815,0.31608,-0.58067,-0.10124,0.027153,-0.032489,0.00011374,-0.36912,0.24856,-0.043819,-0.14096,0.18868,0.0080875,0.1239,-0.062899,-0.021445,0.017445,-0.26091,-0.073662,-0.24348,-0.29257,-0.128,0.28742,0.091635,-0.1355,-0.10108,-0.30304,0.33522,-0.2301,-0.057573,-0.07295,-0.0048821,-0.26869,-0.29488,0.04472,0.037546,0.0092374,0.070436,0.0046388,-0.60293,-0.1169,0.057799,-0.17424,0.29961,-0.15163,0.14053,-0.07615,-0.18404,0.067077,0.10246,0.33534,0.065225,0.10138,-0.15364,-0.33993,-0.12861,0.12593,0.25278,-0.13734,0.22891,0.052221,-0.32282,-0.03158,-0.057448,0.097377,-0.047456,-0.149,-0.12869,0.09816,0.19592,-0.25021,0.073207,-0.093789,0.16441,-0.12873,0.58149,-0.18328,-0.0079543,-0.032206,0.33381,-0.26009,0.090613,-0.072987,-0.062562,-0.048202,-0.029848,0.20628,-0.15824,0.017237,-0.16639,0.13143,-0.065559,-0.067119,-0.042233,-0.19268,-0.21181,-0.14464,-0.18208,0.010505,-0.079027
-0.0038678,0.19844,0.12606,0.13668,-0.082236,0.027892,-0.023224,-0.096832,-0.28665,-0.15581,-0.095769,-0.049567,-0.094999,-0.074671,-0.089961,0.14917,-0.010737,0.18115,-0.12388,0.17089,0.28296,0.24348,-0.020165,0.04205,0.043463,0.16341,-0.16269,-0.02902,0.15392,0.011079,-0.14612,0.073793,0.16683,-0.12284,0.010799,0.18826,0.1415,-0.29717,-0.11996,0.38248,0.27024,0.30909,-0.20061,-0.093665,0.054452,-0.040429,0.24102,-0.14247,-0.16725,-0.029619,-0.20304,0.1477,-0.08852,0.10578,0.059229,0.11615,0.15305,0.3383,-0.093546,0.23388,-0.078645,0.7145,-0.27757,0.057928,-0.031469,0.31843,-0.043274,0.022983,-0.13418,0.18398,0.26078,0.21008,-0.20376,-0.0075757,0.088472,0.055678,0.18406,0.18359,-0.30652,-0.012315,0.25454,0.28409,0.087445,-0.16659,0.12054,0.013036,0.15031,-0.16701,0.45193,0.17443,-0.20577,0.24951,0.023883,0.043265,0.12042,-0.10782,-0.14198,-0.16063,0.05634,-0.34669
0.057346,-0.19131,0.1194,0.048002,0.062054,0.35847,0.26521,-0.37653,-0.035404,-0.2864,-0.12615,0.11116,-0.084155,-0.058279,-0.10571,0.28239,0.2026,-0.10463,-0.15022,-0.42079,0.055864,0.083369,-0.069916,0.17602,0.25019,0.10144,-0.089314,-0.027547,-0.0029207,-0.00814,-0.10585,-0.071378,0.11423,-0.077484,0.017998,0.14313,0.027971,0.21482,-0.10339,-0.20378,-0.19817,-0.28162,0.070166,-0.0035104,0.013996,-0.0091824,-0.13057,-0.19589,-0.18868,-0.011932,0.02151,-0.096514,-0.017286,-0.25864,0.10983,0.020177,0.24668,0.091929,-0.14191,0.14665,-0.12771,-0.23775,-0.031312,-0.28507,0.10772,-0.00741,-0.33155,-0.13187,-0.12668,0.018201,-0.12927,-0.28452,0.081502,0.23688,-0.091812,0.23675,-0.27616,0.023433,0.27507,-0.071485,-0.22728,0.24498,0.40566,-0.12679,-0.053816,0.055059,-0.26511,-0.11824,-0.45385,0.32638,-0.16675,-0.27504,0.065814,0.010147,-0.29129,-0.10198,-0.047813,0.27286,0.075894,0.20721
0.084251,-0.24445,-0.23603,-0.27378,0.021176,0.11213,-0.046333,0.30535,-0.19436,-0.23183,-0.028161,-0.076291,-0.11694,0.029663,-0.20661,-0.15323,0.066539,-0.20692,0.17564,0.1282,-0.11475,0.37539,0.077696,0.10505,-0.21423,0.29775,0.18723,0.056543,-0.17966,-0.20751,0.049525,0.19515,-0.11018,-0.10697,-0.13322,-0.13734,-0.013141,-0.041017,-0.12216,0.0033389,-0.048749,0.1381,0.0091659,-0.28301,-0.052641,0.059741,0.16839,-0.16515,0.23842,0.11498,-0.25719,-0.33878,-0.022868,-0.034638,0.10285,0.30924,-0.012028,0.13651,-0.15111,-0.11047,0.12015,0.13322,-0.18557,0.1176,0.043738,0.084941,0.065934,-0.089276,-0.1437,-0.13145,-0.10205,-0.030809,0.17737,-0.143,-0.22893,0.023277,0.077631,0.31437,-0.0095144,0.054889,0.20037,0.27324,0.10778,0.027252,-0.069712,0.020051,-0.24326,-0.001964,0.6736,0.14064,-0.12819,0.23961,0.13957,0.15672,-0.10753,0.034293,-0.034562,0.15433,-0.3579,-0.10764
-0.092589,-0.085193,0.56256,-0.16033,0.27084,-0.028518,-0.14824,0.36533,-0.24085,-0.076302,-0.12188,0.03537,0.030789,0.31189,0.22182,-0.078721,0.097786,0.064819,-0.059447,0.24235,0.29838,0.054949,-0.24003,0.046601,0.033319,0.10292,0.11549,0.033063,0.052864,-0.28491,-0.17402,0.062599,0.15914,-0.13325,-0.30269,0.062248,0.039934,-0.30201,-0.1479,0.25413,0.16183,0.19863,0.11244,0.06328,0.18682,0.034406,0.0078367,0.014652,0.0083033,0.14904,-0.24463,0.2968,0.27981,-0.090044,-0.012294,-0.053602,0.047164,-0.055974,-0.038074,0.13161,0.024033,0.37748,0.036949,0.26969,-0.097132,0.11366,0.28469,-0.00771,-0.30854,-0.25173,0.26492,-0.14578,-0.23082,0.075639,-0.18363,-0.42864,0.27892,0.0132,0.1282,-0.29814,-0.063812,-0.35101,0.0036378,0.087972,-0.14221,0.023201,0.14321,0.012353,0.084496,0.037983,-0.15212,-0.03876,-0.032646,0.21229,0.20451,0.27769,-0.10706,-0.037311,-0.21082,-0.047216
-0.15704,-0.023816,-0.10593,0.30051,0.0031956,-0.086013,0.34424,-0.36701,0.0068292,0.23954,-0.16423,-0.11708,0.17096,-0.1195,-0.19411,0.262,0.23578,0.22729,-0.22161,-0.18303,-0.00035728,-0.32435,-0.011733,0.09554,0.083112,0.14005,-0.035702,0.33195,0.10171,-0.033858,-0.093535,-0.10254,0.035427,-0.047889,0.1346,0.25835,-0.10788,0.12247,0.11813,-0.36641,0.026622,0.075073,0.13084,0.16501,-0.021625,-0.26919,-0.23829,-0.072978,-0.36214,0.34035,-0.55807,0.017084,-0.25264,0.3989,-0.36162,-0.12859,0.017557,-0.12635,-0.0076197,0.17872,0.15647,-0.49833,0.01179,0.11736,0.17757,-0.057037,0.034236,-0.051896,0.22326,0.095455,0.027354,-0.17131,0.040351,-0.030996,-0.13616,0.17093,-0.21211,0.1102,0.20015,0.10489,0.047009,0.09693,0.20492,0.19308,0.16042,0.18985,-0.00208,0.092967,-0.34224,0.1987,-0.094421,-0.048722,-0.079895,-0.091245,-0.013819,-0.107,-0.075657,0.17707,-0.049657,0.072111
0.118,-0.080372,0.20775,0.14081,0.039053,0.019813,0.32396,-0.36851,0.23657,0.29308,0.11675,0.30082,-0.12047,0.0080417,-0.087842,0.16104,0.063165,-0.053142,-0.010848,-0.27457,-0.22167,-0.18332,0.065591,0.1832,-0.13648,-0.10514,-0.056871,-0.17509,0.0001072,0.12635,-0.15208,-0.092127,0.031953,0.094742,0.052281,-0.1091,-0.062678,0.096317,0.17632,-0.60874,-0.21438,-0.20219,-0.0014212,-0.072478,0.095023,-0.021956,0.23014,-0.068207,-0.0020993,-0.15665,0.24989,0.21525,0.020391,-0.1666,-0.21312,0.10458,-0.042985,0.21812,-0.073687,-0.27129,0.045301,-0.18156,0.033715,-0.056696,0.1978,0.13403,-0.042175,0.0072558,-0.30035,0.016846,-0.1176,-0.22467,0.075582,0.20121,0.23765,0.26697,-0.22972,0.01875,-0.04606,0.14655,-0.092493,0.34914,0.18353,-0.1724,-0.0026048,-0.047646,0.26911,0.057212,-0.35549,-0.071743,0.25733,0.081774,0.10748,0.094846,-0.24444,0.021592,-0.2103,-0.11796,0.34926,0.23112
-0.18825,-0.12586,0.39011,0.018935,0.0083929,-0.028117,0.23007,0.3256,-0.52873,-0.079438,-0.10973,-0.059074,-0.037266,-0.064108,0.022929,-0.26641,-0.31593,0.12649,0.20523,-0.35453,-0.020725,-0.16237,0.047144,0.030987,0.092082,0.32255,-0.067898,0.036677,0.21542,-0.15365,-0.32513,-0.19,0.11583,0.021415,-0.071302,0.099008,-0.020392,0.05623,0.10711,0.24839,-0.14391,-0.30561,0.070396,0.03792,-0.18544,-0.1642,0.48127,-0.89023,-0.057759,-0.1262,-0.15079,0.094818,0.15261,-0.079875,0.22897,0.39009,-0.15833,-0.099955,0.18424,-0.073378,0.03137,0.4841,0.015889,0.31806,0.067267,-0.19982,0.035117,0.13144,0.012675,0.16488,-0.091703,0.042153,0.25426,-0.072899,-0.0044756,-0.27294,0.14437,0.028161,-0.13207,0.14861,0.069915,0.26505,-0.082084,-0.12563,-0.32144,0.11181,-0.12481,-0.28528,-0.51772,0.066885,-0.24204,0.15025,-0.12377,-0.12898,-0.11556,0.19702,-0.15792,0.40017,0.097246,-0.26169
0.0038824,-0.17004,-0.089768,0.29148,0.050312,-0.21628,0.22216,-0.19812,0.068525,0.3894,-0.045168,-0.097242,-0.0027189,0.37217,-0.076783,0.0011271,-0.040885,-0.046597,-0.029998,0.13861,0.082178,0.018786,-0.1907,-0.27696,-0.10149,-0.068406,0.032453,0.18741,0.54978,0.1116,0.033138,-0.14698,0.2888,0.020275,-0.21869,-0.05097,0.19541,-0.14184,0.12819,-0.17221,0.026762,0.46104,-0.29513,-0.22029,0.016704,0.04009,0.15007,-0.26423,-0.10247,-0.24764,0.23244,0.070298,-0.28857,-0.044095,-0.06705,-0.15287,0.19778,-0.20447,-0.76384,0.13247,-0.11665,0.21178,-0.45932,0.011903,-0.28612,-0.22956,-0.13656,0.049368,-0.16632,0.14477,-0.14903,0.21953,-0.37105,-0.068556,-0.12045,-0.30557,0.22388,-0.21426,0.1291,-0.21056,0.11734,-0.16055,-0.14176,-0.037582,-0.19785,0.0033363,0.013258,0.028881,0.93457,0.17134,0.20948,0.21178,0.1243,0.18491,-0.16449,-0.56043,0.12674,-0.14983,-0.24894,0.25414
0.11064,-0.15746,0.098526,0.10965,-0.20786,0.26151,0.15647,-0.17475,0.22606,0.29582,0.30579,0.14577,0.29003,0.067809,-0.056835,-0.12518,0.27767,0.13265,-0.16827,-0.11767,-0.14556,-0.27019,0.0088042,0.25265,0.29264,-0.173,0.015086,-0.076395,-0.041765,0.14997,0.19952,0.13399,-0.011019,0.098229,-0.034383,0.26715,0.25008,-0.027112,-0.063139,-0.54205,-0.081036,-0.28499,0.16734,0.25033,0.11162,-0.19166,-0.64289,0.40458,0.10973,-0.094805,-0.052043,-0.07086,-0.049499,0.18021,-0.20235,-0.26476,0.10775,-0.074395,0.22169,-0.12467,0.24999,-0.6045,0.29618,-0.2646,0.091859,0.15733,0.087429,-0.21519,0.15171,-0.072478,-0.00015137,-0.24209,0.17003,0.039298,-0.15502,-0.10102,0.12826,-0.17025,0.10363,0.18158,0.080899,-0.23124,0.13672,0.11182,-0.12319,0.29931,-0.030836,0.00024445,-0.20139,0.15249,0.017347,0.16332,0.28603,-0.061844,0.052839,-0.051993,0.069999,0.017673,0.092718,0.21968
0.013587,-0.27415,0.030458,-0.16561,-0.28042,-0.068248,-0.09132,-0.16587,-0.11705,0.089589,0.12551,-0.13467,-0.34634,0.17038,0.036564,-0.12516,-0.165,-0.27795,-0.16519,0.031677,-0.22503,0.073928,-0.2317,0.19874,0.069537,-0.25283,-0.16718,0.31386,-0.11717,-0.12287,0.24989,-0.027394,0.01038,-0.12153,0.20236,0.21074,-0.11872,0.30829,0.0073705,-0.31024,0.10797,-0.0069118,-0.093985,0.28795,0.006886,-0.020443,-0.24317,0.0092326,-0.23849,-0.0039152,-0.08098,-0.1629,-0.032091,0.082705,-0.023182,-0.12686,-0.0071672,0.1804,-0.071885,0.13212,-0.28397,-0.18942,0.047377,-0.044457,0.18449,0.23876,-0.042079,-0.24635,-0.093645,-0.036798,0.16162,0.041198,-0.043857,-0.070508,0.29417,0.32118,0.030472,-0.094011,-0.2918,0.28614,-0.15132,0.055353,0.24713,0.34246,0.033947,-0.015231,0.23621,-0.17131,-0.55109,0.29896,-0.18411,-0.14113,0.0096316,0.0054763,-0.11532,0.016572,0.16481,-0.10383,-0.089902,0.089984
-0.061428,0.10525,0.34755,0.048903,-0.2033,0.1019,0.057405,-0.047337,-0.26221,0.10452,0.38865,0.21455,-0.16095,-0.18128,-0.14496,0.017459,0.25896,-0.14824,0.13706,0.1246,-0.31319,0.086751,0.16422,0.23819,0.10458,-0.26233,0.047523,0.17033,0.28215,-0.17058,0.032913,0.12661,-0.2285,0.020953,0.093866,-0.16769,0.56418,0.29043,0.13998,-0.15732,-0.11999,-0.023158,0.034183,0.38071,-0.045098,0.0002408,0.27005,0.2488,-0.26547,-0.17245,-0.089609,-0.082678,0.36869,0.13854,-0.18671,0.40605,0.15444,0.095364,0.17005,-0.11417,-0.20854,0.17595,0.13062,0.16712,0.19438,-0.24404,0.075475,0.37644,-0.2733,0.11335,0.093385,0.11038,0.33437,0.43105,0.15742,0.21816,0.15168,-0.005449,-0.10352,0.46954,-0.19328,0.12222,0.10904,-0.085287,-0.16678,-0.12386,-0.33347,0.025413,-21.888,0.045185,-0.069093,-0.095267,-0.03935,0.0078734,0.089475,-0.37882,-0.12765,-0.011549,0.19878,-0.11331
-0.08011,-0.24157,-0.15095,0.0388,0.15167,0.032554,0.20638,-0.031329,0.42835,0.098583,0.11268,0.013076,-0.045199,-0.32519,0.084205,-0.01068,-0.10682,0.12415,-0.23575,0.096657,0.064139,0.15196,0.1598,0.27814,0.16483,0.19184,0.10593,0.070798,0.20776,-0.0078449,-0.142,0.024798,-0.27791,-0.019337,-0.041786,-0.086127,0.10205,-0.10063,0.1255,-0.34752,0.11635,-0.0077603,-0.17559,0.181,-0.007542,0.039253,-0.28387,0.19114,-0.19486,0.020141,-0.15966,0.21785,-0.1011,-0.18861,-0.29705,-0.28521,-0.072286,0.18828,0.0069939,-0.14521,0.27501,-0.68694,0.086262,-0.217,-0.04008,-0.30438,-0.23757,-0.23428,-0.18773,0.095254,-0.13289,0.10478,-0.039917,0.14866,0.046534,-0.27052,-0.15486,0.0071005,-0.1468,0.30469,-0.28565,-0.22996,-0.14395,0.21616,-0.021564,0.062422,-0.050919,-0.26908,0.11246,0.27673,-0.16519,-0.25561,-0.021642,0.032459,-0.21177,0.12736,0.14459,0.27005,0.13593,0.188
-0.0095321,0.16725,0.00844,-0.12083,0.056166,0.12942,-0.10827,-0.26285,0.033966,0.12437,-0.12422,-0.18227,0.1315,-0.18535,-0.11114,-0.10131,0.12556,0.21653,-0.19784,-0.21147,-0.06838,0.048922,0.094865,-0.02376,0.096176,-0.072084,-0.055897,0.028294,0.044378,0.31637,-0.12365,-0.010495,0.11783,0.042569,0.027594,0.14422,-0.19569,-0.098808,0.091519,-0.39481,-0.045491,-0.29656,0.29175,0.12169,-0.32505,0.049421,-0.19284,-0.039826,0.0022509,-0.00077708,0.014986,-0.2494,0.2278,-0.14741,-0.020231,-0.16604,-0.053314,-0.082264,0.15642,0.14498,0.32409,-0.35656,0.17919,0.075862,0.03272,0.16831,-0.1833,0.14206,0.0079532,0.083708,0.022584,-0.033901,-0.15261,0.23101,-0.055209,0.039468,-0.03095,-0.37123,-0.082966,0.25113,0.04357,-0.28415,0.16222,0.32848,0.069949,0.23083,0.22211,-0.33648,-5.2736,0.30656,-0.041021,0.092109,0.24079,-0.25287,0.020728,0.10322,0.011338,-0.10571,0.24798,-0.11169
-0.23378,-0.19143,0.024901,0.096474,-0.023659,0.07262,-0.24261,0.01639,0.14316,0.079914,-0.37897,-0.20833,-0.16492,0.14542,0.19773,0.033889,0.071686,-0.01407,-0.4267,-0.075632,0.40901,0.29724,-0.33879,0.20121,-0.071388,-0.18424,0.011912,-0.22064,0.61087,-0.24675,0.10539,-0.14507,-0.10995,-0.069504,-0.25925,0.049935,0.13333,-0.198,0.018129,-0.099455,-0.11921,-0.069963,-0.010537,-0.16056,0.00045956,-0.10611,0.24363,-0.29632,-0.0072415,-0.06764,0.089353,-0.041372,0.21432,0.05516,0.096639,-0.11516,-0.14736,0.19258,-0.29993,0.030196,-0.059551,-0.086234,0.14813,-0.058268,-0.2677,0.068643,0.19194,-0.006536,0.019019,0.25535,0.012035,-0.41189,-0.22252,-0.12674,0.13271,0.16799,1.1744e-05,0.12914,0.35578,0.030686,-0.014669,-0.17461,-0.058569,-0.19821,0.12991,-0.14425,0.1463,0.068296,0.91373,0.15517,0.15085,-0.021219,0.073236,0.073185,-0.12979,-0.11365,0.18081,0.040386,-0.10951,-0.068637
0.25677,-0.012036,-0.22666,-0.14174,-0.012338,0.12048,0.28613,0.044973,0.35938,-0.095388,-0.11829,0.29848,0.19584,-0.12432,-0.13673,-0.1332,0.092931,0.13392,0.077984,-0.054893,0.1539,-0.15003,0.13501,-0.039588,0.15401,0.10376,-0.0013567,-0.13751,-0.13247,0.27756,-0.086226,-0.19191,-0.31204,0.037312,-0.12085,0.12073,-0.60908,-0.108,0.064628,-0.87854,-0.23613,-0.31803,0.072165,0.046474,0.062371,-0.27393,-0.55482,0.40527,-0.28824,-0.088172,0.2105,-0.28011,-0.23877,-0.22147,-0.33636,-0.08982,0.24628,0.23841,0.047608,-0.016719,0.066907,-0.55555,0.014547,-0.081636,-0.29515,-0.24294,-0.15671,0.10401,-0.12428,0.25509,-0.037703,-0.069856,0.068578,0.15822,0.27352,-0.13885,0.1751,0.11766,-0.14066,0.048281,-0.2462,-0.38235,0.3207,-0.11005,0.14585,0.16803,0.28079,-0.055092,3.2017,-0.11011,0.015879,-0.26968,0.13771,-0.0008115,-0.19278,-0.27032,0.028944,0.13474,0.041877,-0.0093847
-0.089283,-0.1372,0.31876,-0.1097,0.021729,-0.075207,0.25545,-0.026306,0.14686,0.33706,0.22999,0.1763,-0.2276,-0.29958,0.36039,-0.079855,-0.083638,-0.12858,-0.16511,-0.0033973,-0.3271,-0.027968,-0.22954,-0.12231,0.096548,-0.21357,-0.24417,-0.055622,0.23984,-0.012476,-0.037964,-0.084795,-0.18905,-0.21632,-0.14866,0.46377,0.13309,-0.1537,0.1805,-0.10293,0.066087,0.22319,0.15909,-0.037309,0.23233,0.11485,-0.059211,0.0013539,-0.059716,-0.084532,0.17981,0.032032,-0.29292,-0.0024822,0.10007,-0.004405,0.089982,0.048239,-0.41898,0.066067,-0.15499,-0.42807,-0.049018,-0.078798,-0.034962,0.31269,0.092508,-0.065376,-0.054587,0.089741,-0.14988,-0.081099,0.11689,0.078599,0.053191,-0.25214,0.13064,0.20146,0.058054,0.090246,0.14965,0.17786,0.2733,0.26247,-0.099443,-0.1958,0.4006,-0.17366,0.36587,-0.033233,-0.16194,-0.32758,-0.15107,0.080205,-0.012801,0.069517,0.22194,0.14094,0.12214,-0.14056
0.79813,-0.31521,0.026638,0.18944,0.26917,0.16651,-0.2854,0.059052,-0.18219,0.28324,-0.30706,0.049439,-0.073039,0.15081,0.0012115,-0.23117,-0.13259,0.2737,-0.083203,0.38118,0.10692,0.10575,0.027739,-0.26216,-0.373,0.22963,-0.041637,0.00515,-0.32589,-0.024363,0.0062445,-0.10892,0.027308,-0.10986,-0.026147,0.20063,0.083478,-0.18153,-0.2326,0.19026,0.22597,0.35286,0.17822,0.010711,0.16961,0.33997,-0.18338,0.12628,-0.025284,-0.12453,-0.18951,-0.090396,-0.040247,0.25046,0.11335,-0.27668,0.11331,-0.02737,-0.067924,0.25169,0.063413,0.095632,-0.089141,0.20051,-0.43263,0.27955,0.28482,-0.34625,-0.020923,0.20226,0.2921,0.081737,0.15644,-0.20139,-0.014596,0.11296,0.23037,-0.14412,0.013494,-0.11323,-0.049021,-0.13711,-0.16959,0.0060081,-0.078259,-0.11009,0.10535,-0.016309,1.1185,0.040312,0.044979,-0.129,-0.097892,0.87091,-0.29536,-0.26266,0.73713,0.090434,0.14082,0.30991
-0.14316,-0.27235,-0.13499,-0.14888,0.0025201,0.12513,-0.068786,-0.21116,0.13564,0.12142,0.17388,0.2731,0.00097287,-0.071149,0.036447,-0.11973,-0.097199,-0.055189,-0.21697,-0.0902,-0.19281,-0.25462,0.027508,0.20381,0.12525,0.020465,0.12329,-0.12974,-0.04662,-0.084299,-0.097295,-0.30042,0.16548,-0.25603,-0.087762,0.22653,0.27073,0.030143,-0.15128,-0.27847,-0.20179,-0.11547,-0.059178,-0.089988,0.13086,0.10008,-0.19033,0.46995,-0.15881,0.091933,-0.1197,-0.042123,-0.087849,-0.079027,0.16407,-0.028753,0.25807,-0.13511,-0.023997,-0.18987,0.25554,-0.32629,0.0037467,-0.18222,0.014662,-0.0775,-0.085078,-0.29548,0.28347,0.093001,0.0042031,0.061219,0.32084,0.095772,-0.016599,-0.019244,-0.2434,0.080116,-0.15334,0.22483,0.12124,-0.61253,-0.12433,-0.086965,-0.021827,-0.1508,-0.084411,-0.23658,0.30928,0.15585,0.15265,0.11363,-0.14613,0.01333,-0.069409,-0.064863,-0.095797,0.023713,0.22589,0.10988
-0.093741,0.075938,-0.052516,0.22834,-0.29016,0.032046,-0.042121,-0.18609,0.079404,-0.33139,0.23825,0.2645,0.055565,0.19685,-0.13389,0.22047,0.19019,-0.16162,-0.11841,-0.049551,-0.41126,-0.038583,0.57223,0.035277,-0.028699,-0.3844,-0.17137,-0.11017,0.21261,0.2525,0.23656,-0.057875,-0.12527,0.13393,0.057795,0.10284,0.014262,-0.10207,0.13154,-0.1353,-0.20898,-0.42836,-0.016612,-0.17595,0.10959,-0.10105,-0.079314,0.29472,0.10017,0.27579,-0.1136,-0.064871,-0.2117,0.11931,0.055581,0.13825,0.17665,-0.17169,0.056548,0.16747,0.19684,-0.4415,0.087583,-0.14752,-0.25306,-0.083249,-0.04534,-0.17594,0.07246,-0.062898,-0.13927,0.042656,0.025457,0.036915,-0.06267,0.42363,-0.14651,-0.15775,0.050791,0.24215,0.076303,-0.1304,0.030015,-0.073934,0.14868,0.34565,-0.089501,-0.26214,-0.090884,-0.027685,-0.018485,-0.2805,-0.07862,-0.0015952,-0.15378,0.18163,0.18888,-0.1429,0.024815,-0.17901
0.13927,-0.22545,0.10018,-0.15357,0.10258,-0.15238,-0.31166,0.17779,-0.10482,-0.35611,0.066517,0.18566,-0.13974,-0.2194,-0.1267,-0.12997,-0.14654,0.085305,0.16959,0.07338,0.030189,-0.11207,-0.056031,-0.00092632,-0.0042586,-0.076685,-0.076567,0.22084,-0.13426,-0.19044,-0.086395,-0.14266,0.010227,0.32904,0.071993,0.21713,-0.10521,-0.1197,-0.12744,0.064113,-0.029436,0.052775,0.27767,0.13699,0.080461,0.011477,-0.064666,0.03915,-0.085225,-0.012005,-0.24277,-0.12885,0.23301,-0.24096,-0.10334,-0.04534,0.022029,-0.29536,-0.20762,-0.41018,-0.38054,0.25519,-0.029518,0.0404,0.098756,-0.01425,0.026191,0.12579,0.014722,-0.14508,0.24939,0.016086,-0.15756,0.15007,-0.10817,-0.27271,-0.038882,-0.013725,-0.24205,-0.056285,-0.12512,-0.017101,-0.19126,0.13059,-0.29208,-0.14015,-0.11356,-0.28857,0.21893,-0.16991,0.00090532,-0.1784,-0.15066,-0.024962,-0.12435,-0.30802,-0.047568,-0.006771,0.003436,-0.45724
0.085148,-0.20452,0.38635,-0.02809,-0.077839,-0.087015,-0.063394,0.3945,0.061833,0.06864,-0.33126,0.15775,0.051911,-0.023514,-0.098322,-0.30418,0.033247,0.33825,0.090757,0.025614,-0.092748,0.36137,-0.012392,-0.032522,-0.24407,-0.056382,0.12661,0.14907,-0.039352,-0.31149,-0.34626,0.31499,0.24863,-0.14693,-0.26832,0.010262,-0.212,0.019037,-0.087318,0.25826,-0.00058196,-0.025305,-0.023186,-0.022783,0.20277,-0.12105,0.13219,0.23497,-0.01072,-0.10283,0.016137,0.11494,0.12292,0.10856,0.019456,0.20673,0.27205,-0.22921,-0.23692,0.056179,-0.019617,0.29033,0.059791,-0.035439,0.013763,0.076775,0.054172,-0.1996,0.085736,-0.018711,0.030111,-0.08665,-0.19175,-0.089173,-0.059598,-0.13805,0.28274,-0.091797,-0.085405,-0.26435,0.15226,-0.24785,0.05754,0.095698,-0.338,-0.038931,0.024178,-0.15289,-0.47143,-0.014096,-0.042253,0.31952,-0.11005,-0.083247,0.0055629,-0.063696,-0.20746,-0.074852,-0.37788,-0.24125
-0.10082,-0.3502,-0.082806,0.26137,-0.049766,-0.063033,0.036921,-0.04172,-0.15925,0.033193,0.27616,0.13543,0.02198,0.12661,0.23134,0.35378,-0.093279,-0.27456,-0.1063,0.11773,-0.1533,-0.042225,0.33504,0.061194,-0.0074833,0.10208,0.081439,0.20712,0.14671,-0.084932,0.54942,0.041935,0.10742,0.017719,0.2199,0.25831,-0.23562,0.28278,-0.16514,-0.14586,0.041489,-0.1617,0.29365,0.096279,-0.043766,0.12964,-0.42559,0.54282,-0.095963,-0.017077,0.25571,-0.093819,0.13555,-0.242,0.13212,-0.20257,-0.09513,-0.35583,-0.025284,-0.17079,0.029593,-0.52538,0.074823,0.16484,-0.21105,-0.13136,0.12238,0.042217,0.14089,0.046024,0.11612,-0.12416,0.12809,0.21059,0.27129,-0.28252,-0.11288,0.13028,0.1591,0.097818,-0.18316,-0.33453,0.07833,0.058866,0.26081,0.052211,0.27447,0.087276,-1.1619,0.26067,-0.099323,-0.25522,-0.10476,-0.072452,-0.11128,-0.18016,-0.057219,-0.020362,0.24226,0.23488
0.17623,-0.025173,-0.23647,0.22612,-0.23656,0.065373,-0.025232,0.038735,0.15937,0.10671,-0.12296,-0.057013,-0.0069632,-0.32904,0.068075,0.30254,0.15012,0.11162,0.038001,-0.042241,0.068855,-0.29277,0.081843,0.31777,-0.1468,0.050239,-0.19802,-0.14446,-0.01554,0.2306,0.0042904,-0.075277,-0.26781,-0.092922,-0.04698,0.015106,0.070122,0.19852,0.15616,-0.5614,-0.33618,-0.28183,-0.10777,0.21839,-0.22947,-0.26887,-0.37451,0.30605,-0.11291,-0.1517,-0.026068,-0.082341,0.1688,-0.061896,0.016242,0.17584,0.1362,-0.040719,0.18028,-0.045899,-0.042313,-0.27911,-0.096911,0.12994,-0.23479,0.14508,-0.055728,-0.14954,-0.16203,-0.025657,0.14502,-0.15537,0.29614,-0.057286,0.034922,-0.22486,0.064101,-0.23501,-0.052196,0.25489,-0.061454,-0.3916,0.38508,0.24823,-0.065741,-0.027109,0.24126,-0.010949,-3.5107,-0.14736,-0.073389,-0.0016342,-0.061342,0.01079,-0.060642,-0.05178,-0.13986,0.18534,0.23298,0.179
0.072555,-0.31244,0.10894,0.066497,-0.017663,0.045036,0.091897,0.43419,-0.16869,-0.16192,-0.1868,0.081187,0.13649,0.25388,0.064063,-0.080455,0.044684,-0.1206,0.1112,0.22753,-0.055224,0.22103,-0.18399,0.11297,-0.29066,0.026895,-0.057346,0.084973,-0.056003,-0.10332,-0.18826,0.15502,0.24369,0.31033,-0.19581,-0.041519,-0.21324,-0.24217,0.14763,0.62817,0.14823,0.049283,-0.15813,0.14292,-0.063228,0.057514,-0.17407,-0.018355,-0.007669,-0.0742,-0.20538,0.093261,-0.36437,-0.082669,0.2565,0.20899,0.064712,-0.098564,-0.20201,0.25061,-0.040879,0.33833,-0.051106,-0.0029935,-0.088478,0.018589,0.0064345,-0.14637,-0.084548,0.097005,0.25465,-0.05927,0.017371,-0.33019,0.0036852,-0.14426,-0.14639,-0.058773,-0.10792,0.0024408,-0.001385,0.0086118,-0.051072,0.043541,-0.31232,-0.0738,0.19697,0.2703,-2.0916,-0.023397,0.15009,0.18792,-0.1814,0.017741,0.29113,0.06255,0.082547,0.0097457,-0.08563,-0.21603
0.39436,-0.30204,-0.31577,0.10739,-0.22527,0.12795,0.28153,-0.23359,0.13734,-0.068469,0.2514,0.023803,0.36208,0.061018,0.062235,0.18804,-0.0073292,0.33149,-0.12563,-0.0035369,-0.15251,0.12767,0.18311,-0.026643,-0.082077,-0.23269,0.048318,0.2454,-0.086263,0.0046202,0.67415,-0.18623,0.16627,-0.13393,-0.1189,-0.0086991,0.091777,0.31238,0.035732,-0.27304,-0.18569,0.03185,-0.20116,0.14853,-0.12847,-0.18513,-0.40841,0.65585,-0.056639,0.039557,0.267,-0.069649,0.13503,-0.0024382,-0.27543,-0.1275,-0.021247,-0.22695,0.079309,0.078907,0.10843,-0.30642,0.26484,-0.004857,0.088651,-0.083326,0.12884,0.12657,-0.15662,-0.049276,-0.010303,-0.22372,-0.027705,0.15004,0.046873,-0.27826,-0.28303,0.19711,0.27901,0.30005,-0.071408,-0.23666,0.26681,0.059045,0.1577,0.11244,0.073228,0.032143,0.46932,-0.10607,0.61466,0.018682,0.092979,-0.088331,-0.33491,-0.3334,0.64104,-0.11757,-0.04893,0.073599
0.063698,0.0090673,-0.12231,-0.16439,-0.18643,0.15444,0.080192,-0.1763,-0.77198,-0.068647,0.087259,-0.19809,0.28236,0.15751,-0.091904,-0.11643,-0.32123,-0.10377,0.16801,0.028367,-0.11748,0.17713,0.12596,0.042895,-0.036542,-0.00091078,0.1045,0.073422,-0.16001,-0.22885,-0.41133,0.10191,0.017892,0.20703,-0.17824,-0.21765,-0.2823,-0.13752,-0.11725,0.39433,0.29777,-0.063501,-0.11279,-0.16839,0.26772,0.14605,0.32338,-0.031414,0.06902,-0.22691,0.046696,0.23065,-0.037368,-0.34759,0.11902,0.083966,0.15611,-0.13649,-0.17161,0.11224,-0.031701,0.35806,0.085353,0.12795,0.49678,-0.17775,-0.12798,0.033493,0.079697,0.18079,0.083947,-0.12855,-0.22011,-0.034821,0.15121,-0.054271,0.14559,-0.16004,-0.17803,-0.32246,-0.0078809,0.18858,0.2909,-0.18015,-0.12913,0.023156,0.22215,0.0035571,-0.57377,0.11993,-0.031844,0.024126,-0.21213,0.0055697,-0.0033429,0.23723,0.027772,0.19022,0.16241,0.091417
0.18822,-0.40479,-0.086104,-0.12468,0.13751,0.052455,0.04978,0.22623,-0.1777,-0.17047,0.16871,0.27778,0.019169,-0.13071,0.16342,0.20081,0.11267,0.057906,-0.049303,0.23979,-0.66469,0.17306,0.34566,0.0075959,0.13598,-0.23267,-0.16978,-0.10223,-0.042823,0.057898,0.10681,0.1569,-0.26087,-0.004763,0.050901,-0.096946,-0.44797,0.14934,-0.07517,-0.8076,-0.20119,-0.30473,0.24946,0.097876,-0.27971,0.14331,0.11888,0.76514,-0.0026333,0.08898,-0.030338,0.18469,-0.027916,-0.13937,-0.31101,-0.088078,0.21002,0.01437,0.18142,0.034394,0.15307,-0.51581,-0.052754,0.093977,-0.029594,-0.34312,-0.00023827,-0.17441,-0.09977,-0.0053243,0.076402,-0.18102,-0.14235,0.031719,-0.25595,0.22875,-0.17215,0.023933,-0.026813,0.010207,-0.056985,-0.50548,-0.10796,0.1525,0.15946,0.045944,0.062708,-0.29345,-0.25157,-0.083028,-0.052104,-0.17985,0.14869,0.0020346,-0.058527,0.0092956,0.10405,-0.04289,0.24615,-0.042689
0.11808,-0.13721,0.048861,-0.15405,0.21754,-0.13722,0.11056,0.39586,0.16092,-0.30069,-0.041545,0.13582,0.21506,0.27262,-0.050894,-0.037517,0.085516,0.13362,0.038598,0.14749,0.31295,-0.097399,0.051502,0.18466,-0.0086549,0.18958,0.15883,-0.14903,-0.17854,-0.043321,0.19498,0.23933,0.23863,0.19179,-0.28799,0.090328,-0.080041,-0.093606,0.13441,0.41613,0.11117,-0.046977,-0.06622,-0.24875,-0.02057,0.074738,0.072183,0.10582,0.15841,-0.23554,0.097583,0.055226,0.23489,0.15699,-0.039072,-0.090609,-0.34022,-0.086028,-0.20259,-0.11117,0.025371,0.29582,-0.02889,-0.14555,0.11063,-0.11018,-0.015616,0.20272,-0.072264,-0.04015,-0.069368,0.045046,-0.15917,-0.21961,0.14872,-0.1511,0.091384,0.34066,-0.01605,-0.04751,-0.17449,-0.0057255,-0.1425,0.042555,0.092454,-0.043268,-0.13928,0.34781,-0.47807,-0.34078,0.016318,0.034984,-0.16188,-0.050912,0.22305,0.14009,-0.23741,-0.12118,0.069303,-0.28822
0.15145,0.038147,0.15832,0.14029,0.017129,0.075138,-0.101,0.22927,0.19578,-0.21238,0.13508,-0.17062,-0.21006,0.31561,0.069322,-0.31002,-0.11287,-0.15264,0.18122,-0.16305,0.17763,0.14547,0.076879,-0.016843,-0.16119,-0.068215,-0.046215,0.090558,0.30128,-0.32962,-0.19179,0.044508,-0.11807,-0.032296,0.022724,-0.27824,-0.28201,-0.31401,0.0032358,0.17536,0.013966,-0.1492,0.082825,-0.18009,0.3047,-0.12182,-0.13687,-0.11259,0.13896,0.092545,-0.10219,-0.13027,0.17609,0.2085,-0.089297,-0.038474,-0.067454,0.039063,0.092043,0.0096667,-0.0068362,0.51183,-0.23759,0.021179,0.22376,0.1575,0.043859,-0.17997,0.10669,-0.30004,0.25483,0.13347,-0.24734,-0.0025229,0.07099,-0.076412,0.0072012,0.16635,-0.21031,-0.25927,-0.088605,-0.20781,-0.28377,-0.0598,0.086648,-0.18355,-0.089452,-0.093744,0.17324,-0.040981,-0.15402,-0.10642,0.012427,0.058419,0.24518,0.031819,0.32548,0.11916,0.05995,0.1728
0.17068,0.22927,-0.11655,-0.23039,-0.12681,0.24891,0.01687,-0.056534,-0.076134,-0.10097,0.1812,0.17747,0.059216,-0.037241,0.28993,-0.12289,-0.13981,-0.28384,0.020737,-0.98122,-0.29696,-0.089071,0.22498,0.018638,0.068922,0.093685,-0.11167,-0.079112,0.14569,0.04287,0.03096,-0.24847,0.16893,-0.12293,0.21627,0.47386,0.011134,0.13184,-0.1397,-0.25174,0.006591,-0.16513,0.14166,0.041974,-0.0052005,0.31284,0.0092343,0.0020462,-0.23743,0.13048,-0.00086628,0.20718,0.32843,-0.31005,-0.18899,-0.10124,-0.12228,-0.38533,-0.45757,0.049837,0.20683,0.0051038,0.072534,-0.019298,0.12647,-0.10631,-0.18243,-0.21159,-0.086901,0.21588,0.34663,0.13978,0.076469,-0.078229,-0.03708,-0.089874,0.18915,-0.53487,-0.087791,0.071454,0.071252,-0.2252,-0.044348,-0.11481,-0.03897,-0.03885,-0.28977,-0.012001,-0.24296,0.10153,0.16729,0.066931,-0.0060582,-0.12954,0.012086,-0.093409,0.063502,0.076041,-0.020523,0.21191
-0.096449,-0.20844,-0.24833,0.086462,0.088121,0.1755,-0.058097,-0.10434,0.0774,-0.052142,-0.18038,-0.34343,0.23462,0.27013,-0.11168,-0.06635,-0.19511,0.15535,-0.062053,0.24047,0.13944,-0.17238,-0.27069,0.277,0.070274,0.26861,-0.11916,0.18201,0.16342,-0.034001,0.26889,0.15004,0.16811,-0.15644,0.070702,-0.19802,-0.041499,-0.13504,0.043917,-0.098033,-0.031968,0.38779,0.16962,-0.13495,-0.10685,0.13306,-0.0043395,-0.077914,-0.045346,0.020521,0.17988,-0.078545,0.018522,-0.043694,-0.15255,-0.077286,0.023105,-0.21073,-0.35868,0.19562,-0.028047,0.058572,-0.20216,-0.0646,0.0039768,-0.071465,0.14329,0.020189,0.13898,-0.15836,-0.20133,0.24751,0.10036,-0.091031,-0.20444,0.052657,0.045243,0.2961,0.19874,0.00074742,-0.031853,-0.19006,-0.37043,0.14826,-0.15387,0.031052,0.27858,0.087364,1.0646,-0.056536,-0.19514,-0.20097,-0.2238,0.354,-0.12179,-0.040215,0.36402,-0.11094,-0.20679,0.33253
0.12947,-0.13205,-0.055752,-0.091292,-0.20158,0.15363,0.13155,-0.19007,0.019945,-0.29915,-0.16744,0.26922,-0.099771,0.24548,-0.15797,0.26265,0.012204,-0.26778,0.13317,0.013602,-0.27694,-0.16451,-0.043625,-0.063383,0.13027,0.26217,-0.16164,0.11517,0.20929,0.26166,0.02468,0.064198,0.25553,-0.086427,0.31898,0.20196,0.085028,0.05967,0.11803,-0.061805,0.14851,0.0081054,-0.10378,-0.038492,-0.36052,0.14993,-0.0014018,0.017977,-0.12326,-0.050393,-0.10829,-0.22129,0.051947,0.18498,-0.0031646,-0.43639,0.04424,-0.025777,-0.057251,0.40709,-0.084317,-0.48712,0.010449,0.035985,-0.17981,-0.057626,-0.010748,-0.1658,-0.029574,-0.060045,-0.013344,-0.16272,0.233,-0.030841,0.077856,-0.092947,-0.12161,-0.045383,0.13288,-0.022203,-0.22909,-0.1122,-0.11921,0.31824,0.14247,0.1252,0.16559,-0.35522,1.097,-0.083319,0.16604,-0.10938,0.1015,0.057105,0.19574,-0.062599,0.18138,-0.082995,-0.070461,-0.11047
-0.35624,-0.054951,0.13413,0.20715,-0.13606,-0.0058297,0.042276,-0.0022082,0.185,0.06054,0.39323,0.13309,-0.14048,-0.34393,-0.38084,-0.069226,0.36421,0.19306,0.23654,0.31355,-0.15347,-0.16854,0.44836,-0.24072,0.12925,-0.1821,0.006237,-0.067176,-0.19584,0.11004,0.015472,-0.36787,-0.085908,-0.081656,0.32852,0.26873,-0.17192,0.05667,0.1955,0.0067013,-0.082636,0.080235,0.25386,0.1855,-0.019057,-0.26726,-0.21644,0.34447,0.00015935,-0.022697,-0.10639,-0.21362,-0.0096516,0.32265,-0.20322,-0.002019,-0.37373,0.123,0.20202,-0.14102,-0.088041,-0.39832,-0.21373,0.10288,-0.19546,0.012251,0.21302,-0.10012,-0.022489,-0.059541,-0.25945,-0.060279,-0.046666,0.20247,0.17847,0.2446,-0.19802,0.013689,-0.0068612,0.28246,-0.19815,0.13814,-0.054431,-0.04269,0.19286,0.35777,0.12914,-0.19058,-2.1181,0.0032159,-0.010852,0.045336,-0.17659,-0.28278,-0.14349,-0.15225,-0.18788,-0.0073143,-0.075054,-0.056759
-0.13371,0.10813,0.085407,-0.12891,-0.085013,0.14954,0.29314,-0.18,0.19893,-0.094063,-0.14576,0.23291,0.19904,0.059158,-0.06835,0.15086,-0.041263,-0.13641,0.10341,0.16388,0.15441,0.040354,0.27026,0.084451,-0.081449,-0.12494,0.028881,0.11865,-0.17378,-0.10498,0.16693,-0.12772,-0.0096469,0.092826,-0.084412,0.067331,-0.11777,0.26741,0.31,-0.39232,0.079154,-0.19376,0.15459,-0.13923,0.15195,-0.23388,-0.60902,0.7061,0.022569,-0.02756,-0.13438,-0.060753,-0.217,0.15152,0.028658,-0.11788,0.014102,-0.1038,-0.0058728,0.09855,0.13666,-0.60055,-0.0092276,0.11242,0.0081805,-0.048194,0.15048,-0.21042,-0.05779,0.037456,-0.042937,-0.10752,0.069827,0.21892,-0.14758,-0.16932,-0.29425,0.1015,0.031609,0.10393,-0.21462,-0.73867,0.20528,-0.13206,0.29842,0.064554,0.031927,0.04449,0.048875,0.28889,0.096722,-0.15728,-0.1607,0.076824,0.076913,-0.055111,-0.19637,0.16807,0.037709,0.23236
-0.19388,0.19256,-0.028035,0.07998,0.293,-0.20045,-0.034886,-0.13195,-0.18149,-0.19209,-0.29007,-0.24949,0.13505,0.21923,0.31292,-0.037824,-0.28372,0.34286,0.14842,-0.2048,0.17427,0.019096,-0.053355,-0.21963,0.0076217,0.18854,-0.07856,-0.18763,0.049118,0.091416,0.026399,-0.0067267,0.047305,0.18573,0.105,-0.12965,0.052071,0.033368,-0.23823,1.1045,0.037454,-0.12788,0.10161,-0.16303,0.035861,0.29694,-0.041573,0.015967,0.08179,0.050507,-0.14796,0.17552,-0.093689,-0.081813,-0.00037776,-0.19491,-0.15287,-0.053107,-0.05648,0.15836,-0.1936,0.48769,0.09614,-0.038268,-0.21369,-0.020006,0.11016,-0.075515,0.29544,0.11243,0.065166,0.027093,-0.18186,-0.23095,0.075516,-0.37182,-0.08588,-0.0074978,-0.28272,-0.092261,-0.016212,0.13377,-0.38066,-0.1025,0.10338,-0.065944,-0.1864,-0.046144,4.9499,0.10917,0.10081,0.37513,-0.2957,0.19417,-0.10145,0.20337,-0.1676,0.019255,-0.18343,-0.25717
-0.041266,-0.25568,0.27095,0.12546,0.31904,-0.12052,0.0037279,0.31482,0.014733,0.06437,-0.16321,0.029165,0.10796,0.0042266,0.18308,-0.12823,-0.11085,-0.021055,0.25454,0.077902,0.093137,-0.025579,-0.3151,-0.21669,-0.31665,0.25215,-0.045609,-0.2069,0.016213,-0.20244,-0.15268,-0.051745,0.29083,0.34363,-0.15029,-0.23207,0.045758,0.039899,-0.32751,0.5752,0.098884,-0.073547,-0.1075,-0.11527,0.011405,0.29703,-0.19372,0.23242,0.33634,-0.23602,-0.16547,0.071551,-0.14354,-0.19296,-0.082759,0.067515,-0.30137,-0.13034,-0.082343,-0.017914,-0.12533,0.41844,-0.067024,0.10504,0.20453,0.023499,0.24803,0.21223,-0.021223,0.13523,0.1376,-0.037914,-0.24208,-0.3112,0.036377,0.0098955,0.13829,0.25421,-0.3494,-0.18552,0.093275,-0.21674,0.047153,0.12747,-0.16048,0.10537,-0.0034859,-0.050405,1.8061,0.077368,-0.058712,-0.10029,-0.013832,0.084132,0.2383,-0.073751,-0.24414,-0.20762,-0.0097786,-0.15885
-0.15086,-0.10087,-0.29085,0.051017,-0.010533,0.30301,0.0090248,-0.014546,0.43823,-0.056478,-0.13135,-0.15963,-0.17636,-0.12708,-0.01096,0.0056094,-0.1389,-0.01679,0.16385,-0.14111,-0.29931,-0.062022,0.18576,-0.023414,-0.11541,0.055227,-0.31232,-0.019896,0.017304,0.10085,0.51155,-0.12315,0.089166,-0.1112,-0.051196,-0.015417,-0.0072794,0.2481,-0.14055,-0.18433,-0.12522,-0.018862,-0.14556,0.091218,-0.029563,-0.2499,-0.27375,0.42655,-0.23393,0.21541,-0.17901,-0.29122,0.052768,0.066343,-0.057183,-0.20811,0.041645,0.034652,-0.2067,-0.047556,-0.11765,-0.64786,-0.11319,-0.17669,0.18908,0.17046,-0.29903,-0.2639,0.057125,0.18118,-0.07142,0.079099,0.19517,0.22534,0.03453,-0.038472,-0.033283,0.097948,0.08658,-0.16104,-0.084475,-0.24177,-0.08375,0.17301,0.22133,0.093956,0.25546,-0.2656,-0.92314,-0.19941,-0.13474,-0.071538,-0.053397,0.0098168,-0.26002,0.017232,0.19097,0.13448,0.016613,-0.13697
-0.05465,-0.028992,-0.086838,-0.26157,-0.014878,0.032317,-0.07675,0.20493,-0.064341,0.14497,0.10196,-0.30302,-0.17758,0.14682,0.087655,0.11408,-0.18072,-0.086039,-0.13743,0.28707,0.014901,0.30501,-0.15193,0.058105,-0.26478,0.20108,0.10951,-0.056731,0.24695,-0.056699,-0.24943,-0.12273,-0.1176,0.033234,-0.26078,-0.34289,-0.088664,-0.13707,0.095914,0.16898,0.08409,0.20479,-0.19485,0.13145,0.18662,0.17518,-0.25986,-0.040829,-0.097966,-0.049261,-0.32788,-0.0016016,0.049986,0.13005,-0.053588,0.083512,-0.12064,-0.11243,0.033912,-0.10644,-0.34458,0.32671,-0.020536,0.31395,0.21121,0.22264,0.10933,0.052273,-0.14748,-0.19237,0.13575,0.07166,-0.083048,-0.1275,-0.0069432,-0.48505,-0.15072,0.3142,-0.17365,0.1344,0.31533,-0.069433,0.054023,-0.22755,-0.0096629,0.11867,0.15685,0.1821,0.88032,-0.18944,-0.093764,0.0021073,-0.15261,-0.093856,0.063234,-0.092473,-0.2227,-0.037001,-0.085554,-0.13829
-0.082888,0.01622,-0.25479,0.36678,-0.055,0.1784,-0.13141,-0.30104,0.019715,0.33737,-0.27911,-0.33146,0.29334,-0.011238,-0.081864,0.16605,0.047471,-0.10839,-0.074058,0.020496,0.18457,-0.0040452,-0.14944,0.12149,-0.21311,0.10969,0.24758,0.20447,-0.093544,0.052873,0.065915,0.078142,0.037147,-0.038918,0.0079787,-0.38444,-0.027184,-0.25541,-0.11383,0.35957,0.11831,0.12192,0.13918,0.1371,-0.054111,0.036177,-0.24537,-0.015893,0.28185,-0.13144,-0.020142,0.051451,0.03031,0.33084,0.12753,-0.17637,-0.18023,0.026642,0.20483,-0.23468,-0.11857,0.078852,0.096336,0.050394,-0.057843,0.16147,0.24206,0.20856,0.16831,0.064944,0.0072535,0.18044,0.0011756,-0.11622,0.14505,0.26633,0.1079,0.075414,0.1621,-0.068417,-0.075806,0.11118,0.18443,0.13683,-0.015776,-0.28115,0.20476,-0.29101,-0.35508,0.081761,-0.082465,0.037013,-0.16012,0.065298,0.13119,0.18808,-0.14562,-1.0103,0.096089,-0.10984
0.2273,-0.25654,0.32965,-0.13466,0.25745,-0.0095906,0.004232,0.53535,-0.069181,-0.12197,-0.25877,-0.18271,-0.20669,-0.058323,-0.13876,-0.090052,-0.16789,0.15647,-0.041433,0.18263,0.53173,-0.10729,-0.46307,-0.12345,-0.11061,-0.13419,-0.1819,0.21609,-0.083618,-0.0022797,0.048811,0.11389,-0.072609,0.10935,-0.38058,-0.16466,0.11988,0.16761,0.092899,0.44467,-0.027628,0.30612,0.09151,0.072084,0.07104,0.035148,0.13665,0.24271,0.32229,-0.25921,0.015285,-0.21129,0.072687,-0.17577,0.28844,0.20703,-0.19769,-0.0081597,0.15529,-0.053644,-0.14943,0.27386,-0.079893,0.080849,0.058778,0.21831,-0.13574,-0.19057,-0.021431,-0.15926,-0.14751,0.20683,-0.21915,0.088862,-0.12804,-0.38296,0.15561,0.18583,-0.14227,0.17437,0.26551,-0.036736,-0.32523,-0.065542,-0.1397,-0.0052214,-0.26318,0.26278,0.77327,-0.077629,-0.15924,0.25164,-0.11581,-0.12005,-0.076291,-0.10962,0.0079298,-0.13578,0.10405,0.0057379
0.035126,0.064473,-0.2045,-0.075873,-0.18437,-0.16541,-0.17115,-0.028006,0.028379,0.029241,0.23426,-0.12456,-0.10775,0.1232,-0.052244,0.13375,-0.42043,-0.13087,-0.07162,-0.18085,-0.29583,0.0097148,-0.08847,0.36787,0.095144,0.027924,-0.085192,-0.18817,-0.011722,-0.053406,0.13095,-0.15598,0.041774,-0.066004,0.1293,0.31073,0.36352,0.015963,0.16241,-0.098324,-0.032589,-0.065853,-0.25539,-0.086914,-0.19428,-0.26549,-0.32729,-0.13189,-0.021322,0.026223,-0.24628,-0.20499,0.23537,-0.22725,-0.24469,0.18944,-0.042514,0.088446,-0.20992,0.10351,-0.076899,-0.28012,-0.12107,0.036854,-0.032777,0.081449,0.19593,-0.0045243,-0.01027,0.14926,-0.30269,0.067936,0.17429,0.23728,-0.1688,-0.16543,-0.30597,-0.184,-0.10666,0.10016,-0.052749,-0.20936,0.21937,0.086064,0.22627,-0.11789,-0.10793,0.20983,-1.9585,-0.01339,0.10358,0.1143,0.20926,-0.25894,-0.12568,-0.26433,-0.15545,-0.056665,-0.21078,-0.28533
0.31915,-0.40321,-0.25663,0.25326,0.1295,0.093821,-0.25387,0.031005,-0.016467,-0.02942,-0.24057,0.0045068,0.12278,0.36442,-0.31651,-0.22776,-0.06875,0.0052306,-0.49926,0.19547,0.19932,0.043728,0.06051,-0.063162,0.012601,-0.037351,-0.17,-0.08238,-0.050377,0.014609,-0.11827,0.042632,-9.4634e-05,-0.037852,-0.22638,-0.23231,-0.10255,-0.087287,0.1625,0.28213,-0.065266,0.29545,0.18055,0.052891,-0.048217,0.14865,-0.13805,0.032845,0.24165,0.13315,0.010113,-0.04722,-0.10607,0.24969,0.21024,-0.23881,-0.055631,-0.12905,0.11044,0.36548,0.15196,0.21401,0.044856,-0.076183,-0.13344,-0.11923,0.069719,-0.11518,-0.079451,-0.17047,-0.15879,-0.13449,-0.23345,-2.4349,0.12538,0.091247,-0.1441,-0.13493,-0.050143,-0.35604,0.072371,0.13078,0.013445,-0.15934,-0.039825,0.17318,-0.098891,-0.10281,12.422,0.11753,0.12039,0.18515,-0.17013,2.1322,0.04294,-0.31599,0.50843,-0.13962,-0.15411,0.053344
0.063,0.15875,-0.096906,-0.096212,0.3319,-0.22491,-0.062988,0.24705,0.10009,0.13291,-0.22556,-0.33841,0.11062,0.35718,-0.11164,-0.099159,0.035443,-0.25569,0.048623,-0.036261,0.096513,-0.084361,-0.067819,-0.070213,0.0083509,0.012535,0.29516,-0.14117,-0.21409,0.069813,-0.4704,0.15946,0.12318,0.24048,-0.17422,0.10334,-0.034431,0.076242,-0.19739,0.34307,0.088953,0.27043,-0.31672,-0.28141,0.088184,-0.29322,0.37837,-0.3198,-0.064675,-0.0033066,0.21762,0.31191,0.31449,-0.21243,0.1457,0.45504,0.16534,0.26156,-0.013566,0.31885,-0.048405,0.38277,0.096724,-0.10392,0.027313,-0.11183,0.30758,0.17009,-0.1543,0.21639,0.33834,0.075934,-0.17779,0.095781,0.080358,0.04779,0.006011,0.28689,-0.10434,-0.25172,0.090053,0.65218,0.034128,-0.21596,-0.25457,-0.12971,-0.20996,-0.07004,0.75995,-0.025468,0.20751,-0.0045522,-0.066418,-0.056316,0.020115,0.26703,-0.12109,-0.082352,0.12534,-0.19071
0.059522,0.0053107,-0.10711,0.18758,0.056026,-0.078381,0.028184,0.14914,0.28637,-0.1399,-0.14969,0.16697,-0.27325,0.096289,-0.087933,-0.121,0.090172,-0.18921,-0.0004268,0.23632,0.027958,-0.16278,0.05478,-0.009526,0.32894,0.059758,-0.051801,0.17228,-0.1131,0.084804,0.24141,0.051634,0.16071,0.032225,-0.030377,-0.16063,0.00941,0.33468,-0.077858,-0.65343,-0.11175,-0.22455,0.099099,0.19233,-0.19547,-0.0019646,-0.53754,0.53514,-0.094173,0.11201,0.32745,-0.18849,0.34097,0.10434,0.024061,-0.10463,0.036882,-0.22775,0.076006,-0.083524,-0.082745,-0.27992,0.22547,0.0079448,0.11289,0.13192,-0.14612,-0.073103,-0.063534,0.24509,-0.30123,0.13354,0.034912,-0.12877,0.19656,-0.050012,0.09235,-0.088075,0.24893,0.054021,-0.17577,-0.45094,0.23675,0.34514,-0.090419,-0.0087336,-0.16812,0.0043778,-0.89309,0.31639,0.1363,0.029611,0.1293,0.018967,-0.27116,0.1297,0.25094,-0.21187,-0.089613,0.29754
0.0094139,0.14873,-0.11067,-0.24728,-0.13689,0.030038,-0.22197,0.19255,0.25977,-0.28443,0.033526,-0.044138,0.37915,-0.2288,0.051716,0.015575,0.072037,0.21367,0.082822,0.16526,-0.10724,0.006657,0.0039827,0.0924,-0.079232,-0.17929,0.12634,0.089376,-0.036133,0.24215,0.28805,0.021925,0.29643,-0.22051,-0.079351,-0.091455,0.12366,0.042175,-0.060757,-0.084678,-0.20935,-0.085816,-0.093986,0.10703,-0.12789,-0.16356,-0.35771,0.35829,0.2051,0.051129,-0.007276,-0.14187,-0.096575,0.38244,0.20343,-0.35757,0.14762,0.1328,0.039856,-0.21886,0.17888,-0.39651,0.33829,-0.1824,0.062431,-0.2235,-0.058128,-0.15377,0.0095143,0.081717,-0.11978,0.24211,-0.072925,-0.054796,0.10212,-0.4561,-0.24052,0.19281,-0.070087,0.062016,-0.034083,-0.274,-0.052579,-0.16604,-0.080724,-0.22586,0.29339,-0.14663,0.37862,-0.024477,-0.026081,0.13575,-0.11681,0.0098725,0.041437,-0.21393,-0.017166,-0.086788,0.057259,0.34078
0.15515,0.26922,-0.11999,0.095764,-0.32755,0.086511,-0.0071517,-0.11532,-0.006829,0.13777,0.15222,0.26482,0.070754,-0.16473,0.21651,0.098233,-0.37459,0.11797,-0.12567,-0.11743,0.01497,-0.26533,-0.084632,-0.21721,0.17795,-0.13297,-0.046626,-0.15395,0.23901,0.32042,-0.045508,0.039422,0.1684,-0.081023,0.0054984,0.45017,-0.231,-0.037953,-0.18414,-0.19291,-0.09371,-0.1701,0.29961,0.037274,-0.16098,0.17292,-0.20907,0.40117,-0.10763,0.049345,-0.052817,0.047668,0.083083,-0.31402,-0.24614,-0.097393,-0.052979,-0.14914,-0.15125,-0.072925,0.078457,-0.44567,0.085067,0.33705,-0.017868,0.24641,-0.0197,0.083627,0.097177,0.13505,-0.1423,0.034909,-0.23496,0.1885,0.071585,-0.2895,0.048241,-0.18729,-0.11006,-0.060079,-0.072701,-0.32768,0.047854,-0.031326,-0.01767,-0.16971,-0.095095,-0.037076,-0.4882,0.014484,-0.29089,-0.33323,-0.15921,-0.15105,0.1549,-0.040107,-0.26322,0.34274,0.11868,0.15002
-0.14899,-0.21958,-0.15105,-0.14261,-0.06271,0.048955,-0.15826,0.46015,0.092472,-0.29907,-0.22646,-0.18141,0.015161,-0.14686,0.16485,-0.090254,-0.18153,-0.070607,0.080899,0.37337,-0.044052,-0.03636,-0.28289,0.24546,-0.10552,-0.11983,0.34972,0.025947,0.21997,-0.0017056,0.19738,-0.089547,0.1436,-0.086657,-0.21185,0.032047,0.71934,-0.17122,-0.20077,1.0319,0.23701,-0.02667,0.066587,-0.31733,0.13574,0.044148,0.16004,-0.039423,-0.051375,-0.21057,0.054494,-0.0071974,0.21554,0.018079,0.10531,0.10217,0.11086,-0.13323,0.0062345,-0.20854,-0.30403,0.23336,0.089483,0.030981,-0.061815,-0.051782,-0.0027677,0.083796,-0.017365,0.11852,-0.013899,-0.039208,-0.15563,-0.20618,-0.043992,-0.049661,-0.15005,0.11078,0.00046859,0.18204,0.27726,-0.20734,-0.16394,-0.29409,-0.17497,-0.048744,-0.22752,-0.12688,-0.77655,-0.082368,0.052099,0.017834,-0.064639,-0.011945,0.18381,0.26285,0.052689,-0.097186,-0.19383,0.17198
0.020088,-0.10578,-0.037027,-0.26331,0.18395,-0.1068,-0.14075,-0.091442,0.055533,-0.025865,0.22001,0.30387,-0.35323,-0.22118,-0.058529,0.15016,0.11185,-0.030698,0.0079892,-0.11414,-0.24684,-0.21446,0.28959,0.18342,0.067398,-0.029346,0.11599,-0.15391,-0.045935,-0.048162,-0.17362,-0.011687,0.036808,0.13277,0.34583,0.24316,-0.14126,0.0028659,0.056697,0.040503,-0.22908,-0.41612,0.10487,0.37327,0.17442,0.17342,-0.13188,0.18344,0.17075,0.26738,0.074602,-0.2372,0.0066195,0.032019,0.16527,0.26295,-0.049244,0.075327,0.22917,-0.17554,0.081731,0.16196,0.10258,-0.2052,7.8882e-05,0.061821,-0.012471,0.18572,-0.065405,0.001514,0.016764,0.099351,0.30697,0.0038771,0.31944,-0.018016,-0.023281,-0.10722,-0.10898,0.065277,-0.46081,0.0034402,0.21883,0.26941,0.2509,0.052549,-0.031201,-0.050011,-0.33889,0.18678,-0.1419,-0.20924,0.088437,-0.038289,0.27724,0.4377,-0.29637,-0.13822,-0.05732,-0.15463
0.10317,0.13089,-0.12667,0.11381,-0.075794,-0.25244,0.071163,0.2312,-0.25448,0.21217,-0.19918,-0.20729,0.38814,0.11125,0.15767,0.051728,-0.2057,-0.048363,0.17965,-0.15563,0.30714,0.051587,-0.20013,-0.017201,0.15557,-0.15404,-0.073449,-0.28318,-0.18364,-0.22559,-0.16265,-0.14336,0.19352,0.14062,-0.074177,0.14525,-0.058883,-0.080358,-0.057348,0.54235,0.065929,0.032763,-0.031678,-0.26333,-0.18033,-0.046397,0.30247,-0.36963,0.31205,-0.013095,0.052319,0.12016,-0.074529,-0.11502,0.040064,-0.011348,0.037581,0.078394,0.1541,-0.01584,0.1764,0.28096,0.069453,0.16991,0.21073,-0.14803,0.24725,0.0148,-0.24964,-0.14312,-0.041171,0.17157,-0.31307,-0.10225,-0.015209,-0.07169,0.28116,0.19753,0.022928,-0.072493,0.23864,0.23156,0.016532,0.022021,0.1115,0.039645,-0.071455,-0.10219,0.081756,0.03608,0.28052,-0.057888,0.14822,-0.14557,0.20055,0.15571,-0.11882,-0.14128,-0.27473,0.057428
-0.13608,-0.172,-0.30059,0.19686,0.12629,0.15141,-0.16272,-0.023472,0.22964,0.11602,-0.15342,0.15857,-0.19883,-0.001999,-0.21937,0.059873,0.0008254,-0.054766,-0.13457,0.29169,-0.061498,0.21418,-0.0079637,-0.03491,0.13293,0.25789,-0.10431,-0.0095186,-0.2613,0.098442,-0.19845,0.22893,-0.029496,0.27978,0.041651,-0.068037,0.12821,-0.27174,0.30658,0.5795,0.010659,-0.10369,-0.01727,-0.13224,-0.037859,-0.032936,0.25434,-0.25096,0.23914,0.047626,0.1214,-0.028167,-0.091548,-0.012037,-0.0056806,0.19872,-0.0011288,0.39592,0.051831,-0.23785,-0.097512,0.98468,0.01762,0.13868,-0.021499,-0.14381,0.19047,0.00042636,0.079593,-0.059368,0.13861,0.15664,0.14816,-0.16966,-0.024248,0.34895,-0.037999,0.52862,-0.08147,-0.1588,-0.1175,-0.022513,0.11927,0.15086,0.0685,-0.305,0.21874,-0.22934,-0.69892,-0.020835,0.18287,-0.099103,0.14156,0.17269,0.1203,-0.012441,-0.060379,-0.053344,-0.1647,0.10461
0.17828,-0.10523,-0.064772,-0.055514,-0.11997,0.14846,-0.033045,-0.20692,-0.11956,-0.078359,-0.17323,-0.084428,0.08093,-0.072341,0.16642,0.097532,-0.14809,-0.033421,-0.19201,-0.15316,0.016283,0.10395,0.20136,-0.12906,0.025267,-0.28519,-0.23091,0.13292,-0.0085878,0.27252,0.12528,-0.21733,0.086159,-0.078897,0.085573,-0.12063,0.1757,0.2349,0.35043,-0.43772,0.081508,0.14836,0.20535,0.088799,-0.060418,-0.23044,0.019745,0.29805,-0.022688,0.047941,0.011507,-0.15901,0.14437,-0.24546,0.059012,0.21541,-0.061926,0.22881,0.14215,-0.13926,0.36722,-0.061391,0.086884,-0.37959,0.10024,-0.18499,0.069186,-0.12529,-0.22091,0.29566,0.16139,0.06986,0.080433,0.18768,-0.11499,0.042246,-0.20377,-0.036555,-0.039851,0.16867,-0.26619,0.14188,0.37801,0.22652,0.28362,0.23771,0.023935,-0.016378,0.54417,0.044393,0.20576,-0.14007,0.036539,-0.061254,0.062113,-0.052528,0.11392,-0.038739,-0.082646,-0.022508
-0.19632,0.17161,0.078685,0.08542,-0.22209,-0.17887,0.011219,-0.25841,0.46326,0.1437,0.34614,0.040297,-0.066921,-0.2502,-0.23966,-0.021493,0.13106,0.0031436,-0.03749,-0.02941,0.057044,0.19287,0.099447,0.084383,0.29537,-0.12192,-0.18619,-0.093714,0.12015,-0.18546,-0.067477,-0.1245,0.094903,0.07506,0.15094,-0.18381,0.09358,0.040834,0.083649,-0.58773,-0.0097403,-0.062999,0.31216,0.14204,-0.25702,0.042594,-0.32613,0.20506,-0.11023,-0.059005,0.19482,-0.043225,0.14195,0.095585,0.15362,-0.53078,0.2003,-0.23623,-0.064492,0.043558,-0.007198,-0.58379,0.18747,-0.23218,-0.08067,0.0033565,0.13129,0.11307,-0.052037,0.031871,-0.19127,-0.31941,0.10256,0.063606,-0.14463,-0.12111,-0.17052,0.16649,0.1845,-0.12934,-0.19941,-0.16522,0.18213,0.079557,-0.13036,0.16254,0.11145,0.16051,-0.24692,0.00089057,-0.11897,0.15034,0.27364,0.12541,-0.24704,0.075657,-0.25156,-0.0066001,0.042895,0.24841
0.069079,0.11617,-0.027579,-0.028323,-0.12189,0.11256,0.33539,-0.098587,0.11177,-0.098079,0.20775,0.22662,0.072466,-0.092755,-0.26975,0.023384,0.21035,0.24035,0.10624,-0.33343,-0.096126,-0.24338,0.26974,-0.21512,-0.14592,-0.031648,0.03799,0.37404,-0.065723,0.04317,0.08213,-0.092229,-0.089056,-0.21352,0.22193,-0.047475,-0.043143,-0.010664,-0.056802,-0.26753,0.13978,-0.29139,0.02175,0.0048405,0.099275,-0.203,-0.24426,0.28762,-0.25822,0.0071421,0.040812,-0.051261,-0.045515,-0.2095,0.035114,-0.12746,-0.086895,0.046877,0.09563,-0.0044931,0.078052,-0.22727,-0.03715,0.079131,-0.12576,-0.010061,0.051714,0.11908,0.14983,0.37678,-0.016087,0.039503,0.07027,-0.139,0.28753,0.22497,-0.25113,0.10739,0.20933,0.18408,-0.27776,-0.18944,0.15422,-0.04701,0.28023,0.25328,-0.025454,-0.10768,-0.032259,0.16053,0.1838,-0.19457,0.28518,0.024147,0.12483,0.11671,0.13357,-0.11445,0.038223,0.22923
0.082997,-0.13162,-0.10143,0.27546,-0.0077353,0.074178,-0.034159,-0.24358,0.14647,-0.024945,0.15874,-0.018764,-0.020666,0.079036,0.26391,-0.034393,0.054897,0.27712,-0.040583,0.10484,-0.10416,-0.1588,0.058832,-0.22163,0.067904,-0.24417,-0.021999,-0.114,-0.039996,-0.069601,-0.16231,0.034491,0.0029949,0.0066868,0.24519,0.09618,0.027892,0.19544,0.19885,-0.55412,0.072506,0.035798,0.3773,-0.060906,-0.36245,-0.0039913,0.01563,-0.22114,-0.25625,0.041541,-0.091851,0.18267,0.050319,0.11674,-0.27715,-0.0095105,0.025906,-0.016604,0.10969,0.069305,0.096928,-0.49598,0.1729,0.14732,0.16065,0.14385,-0.041424,0.073541,-0.028832,0.22977,0.0062116,-0.32038,0.21241,0.077602,0.18551,0.040423,-0.33899,0.0047315,0.288,0.065722,-0.060012,0.13737,0.10246,0.12498,0.34342,-0.12865,0.24109,-0.061135,0.30288,0.013024,0.1475,-0.20814,0.27542,-0.041544,-0.28013,0.13827,0.22012,0.20468,0.063804,0.23049
-0.046093,-0.30305,-0.26544,0.10387,-0.048949,-0.010488,0.052211,-0.096558,0.34563,-0.2877,0.28272,0.064154,0.16177,-0.14604,0.076397,-0.13909,-0.09022,-0.21964,0.084243,0.18822,-0.30453,0.13074,-0.014593,0.2188,-0.094658,-0.21946,-0.043562,-0.061841,-0.29216,0.045968,-0.12657,-0.11003,-0.077879,-0.086953,0.022009,0.25633,-0.11815,-0.091439,-0.13678,-0.57921,-0.31526,-0.057035,-0.0113,0.026271,-0.20349,0.047606,-0.18394,0.16867,0.086101,-0.072773,-0.12744,-0.11342,-0.20955,0.055743,-0.11863,-0.30322,-0.046277,0.10418,-0.16769,0.056614,-0.044127,-0.27232,0.26623,-0.18393,0.071548,-0.15203,-0.27875,-0.26851,0.22397,-0.023631,0.011443,-0.10281,0.22065,0.20179,0.10839,0.065927,0.14108,-0.30885,0.13893,0.21114,0.1,-0.29554,-0.014572,0.21107,0.13867,-0.040638,0.1784,-0.09848,-5.6192,0.252,-0.19475,0.12956,-0.039219,0.028702,-0.22316,-0.14133,0.089514,-0.1882,0.30852,0.21913
0.248,-0.14921,-0.33648,0.018131,-0.16947,-0.047374,0.0061896,-0.20488,0.36765,0.014121,-0.019919,-0.17579,0.026413,0.10922,0.087749,-0.24979,-0.14962,0.28162,-0.11493,-0.2215,-0.066219,0.10145,-0.27024,0.090806,-0.30756,-0.12668,-0.12371,0.0072944,0.088181,-0.05059,0.35892,0.21525,-0.031019,0.14191,-0.058592,-0.013613,0.31518,-0.3989,0.13327,0.03127,0.029376,0.14948,-0.11219,-0.17617,-0.17448,-0.082218,0.039876,-0.23372,-0.22133,-0.1372,0.095992,0.12894,0.12614,0.19707,-0.20687,-0.080615,-0.19002,-0.35926,-0.3767,0.087101,0.18859,0.12991,-0.22384,-0.0983,0.076694,0.21518,0.06164,0.017122,0.15785,-0.21785,0.12911,-0.14781,-0.22639,-0.075403,-0.19322,0.067616,0.29316,-0.16953,0.13158,-0.20002,0.45028,0.060704,-0.21221,0.068053,0.0070029,0.1421,-0.038014,-0.20249,0.56223,-0.0031897,0.21363,0.15552,0.090264,0.39744,-0.19435,-0.33207,0.17174,0.24295,0.028749,0.23947
0.43249,-0.16325,-0.17315,0.12523,0.14566,-0.056229,-0.17726,-0.36935,0.21609,-0.1805,-0.041394,-0.14381,-0.26935,0.096851,0.4406,0.28139,-0.42837,0.37019,-0.27206,-0.036644,0.23191,0.098052,-0.099203,-0.023461,-0.34255,-0.17448,0.23823,-0.061471,-0.54105,-0.097224,0.025368,-0.2262,0.16758,0.071483,-0.43116,0.042791,0.058877,-0.20256,0.035968,0.24914,0.014825,0.095807,-0.11568,-0.37351,0.1469,0.068217,0.26358,0.10933,-0.16003,0.010861,-0.33553,-0.10735,0.032873,0.051539,-0.13249,-0.054904,0.15975,-0.0044962,-0.39996,0.77462,0.2803,0.093371,-0.22158,-0.076986,0.065499,0.23297,0.1496,-0.24145,0.51676,-0.1129,-0.19594,0.19692,-0.29635,-0.10155,0.038163,-0.22039,-0.27245,0.20073,0.3881,-0.29086,0.1384,-0.2201,0.028277,-0.17364,0.093552,0.15151,0.048195,0.020913,-0.20401,-0.071273,0.32219,0.10488,-0.14351,0.10767,0.091082,0.16772,0.38915,0.043773,0.20012,-0.10871
-0.11918,-0.26717,-0.33708,-0.097762,-0.072106,-0.12158,0.033999,-0.17327,0.25363,-0.173,0.094346,0.055557,-0.081663,-0.32932,0.17701,0.27789,-0.097694,-0.22245,-0.19427,0.08804,0.091014,-0.071451,0.0094008,0.13055,-0.075468,-0.14161,-0.16585,0.11535,-0.15517,-0.18068,0.32908,-0.1955,-0.16038,-0.18978,0.25315,0.25363,0.13056,0.038889,-0.10008,-0.47066,-0.2744,-0.31064,0.2584,0.24236,-0.2802,-0.15907,-0.40114,0.11175,0.097534,-0.10195,0.01369,-0.18551,-0.041451,-0.26197,-0.14645,0.097121,0.015209,-0.019816,-0.16529,-0.062265,0.018951,-0.61708,0.26968,-0.21763,-0.21411,-0.043107,0.096521,0.080022,-0.18209,0.29955,0.13382,0.076792,-0.069153,0.13524,-0.0064364,-0.093888,-0.1079,0.20511,-0.19037,0.1857,-0.20477,-0.26351,-0.13356,-0.16706,-0.031147,0.1216,-0.15067,0.079296,-0.41836,-0.16205,0.076476,-0.038054,-0.078767,0.06966,-0.20034,-0.0037287,-0.12321,0.033369,-0.11033,0.24154
-0.11392,0.084807,0.14947,0.22619,0.1789,-0.034529,-0.089422,-0.11737,0.28553,-0.12032,0.077419,0.061371,0.29573,-0.094187,-0.18282,0.26258,-0.080075,0.023964,0.002844,0.18057,-0.11149,0.16787,-0.11318,-0.24857,-0.12753,0.16572,0.19491,-0.12845,-0.19087,0.16161,-0.12587,0.10136,0.046812,-0.045715,0.068901,-0.26025,0.10562,-0.18413,-0.21645,0.30249,0.0089774,0.18367,0.076925,-0.24537,-0.11852,0.026673,0.19621,-0.094956,-0.28918,-0.0072724,-0.25389,0.15211,-0.11992,0.11543,0.020788,-0.094169,0.076683,-0.16883,0.31378,-0.10792,0.030088,-0.012419,0.081464,-0.30604,-0.0023181,0.11379,0.02424,0.055248,-0.12852,-0.2846,0.073633,-0.053738,-0.046582,0.063703,-0.1664,-0.0061101,0.21589,0.14726,-0.065165,0.019027,-0.071362,0.13338,-0.15493,-0.10827,0.2068,0.28609,-0.092603,-0.13833,0.19932,-0.17546,-0.044672,0.2372,0.085626,0.086071,-0.15632,-0.31705,-0.21179,0.072626,-0.21992,-0.22325
-0.43119,0.12906,0.37481,-0.4135,0.10929,0.062462,-0.094841,-0.042906,-0.04842,-0.081812,0.21711,0.22502,-0.095482,-0.33297,-0.23506,-0.12238,0.31935,-0.40612,0.071038,0.0083079,-0.25217,0.034819,0.40748,-0.082174,0.41612,-0.083421,-0.092062,-0.08408,-0.16894,0.21019,0.063137,-0.093271,-0.19135,-0.15906,0.34099,-0.22343,0.092747,0.022976,0.11473,0.090284,0.052716,-0.094564,-0.052275,0.43226,0.14528,-0.21378,-0.30368,0.076018,-0.22866,-0.15553,0.26789,-0.43638,0.029763,0.043764,-0.063483,0.23459,0.073202,-0.024726,0.40041,-0.15833,0.11399,-0.28611,0.094639,0.17731,0.1104,0.17727,0.084883,0.32101,-0.13557,0.20141,-0.096707,-0.23369,0.30131,-0.024971,0.12451,0.1669,0.0345,0.056246,-0.22067,0.29099,0.020803,-0.20297,0.12455,-0.086927,-0.15562,0.22789,0.085371,0.17015,-0.61857,0.22203,-0.14801,0.14113,0.078239,-0.27388,0.30973,0.30222,-0.34979,0.10434,0.11692,-0.014306
0.045597,-0.17219,0.15663,-0.23526,0.36157,-0.16183,-0.097416,0.1401,-0.13614,-0.27469,-0.30766,-0.21187,-0.17182,0.12472,0.12598,-0.37709,-0.0054041,-0.15557,0.058331,0.033346,-0.17223,-0.026211,-0.19058,-0.27854,-0.22746,0.0036161,-0.13949,0.058501,0.095898,-0.18545,-0.052606,0.1347,0.047374,-0.067499,0.038707,-0.022821,0.092305,-0.20044,-0.018036,0.25718,0.23119,0.11104,0.24461,0.11001,-0.072215,0.10947,0.14657,0.087794,0.27523,-0.048613,-0.087943,-0.16839,0.03471,0.29397,0.19723,0.2218,-0.020247,-0.22077,0.13075,-0.020498,-0.16161,0.11472,0.049461,0.19837,0.256,0.03158,0.27428,0.13118,0.096704,-0.060748,-0.21785,0.11971,-0.048928,0.031837,-0.1956,-0.23335,0.23078,0.094557,0.1273,-0.016966,0.33173,-0.25081,-0.33308,-0.12131,0.02739,0.21871,-0.091539,0.024257,0.7125,0.1446,-0.079165,0.30812,0.011526,0.055513,0.14817,0.017671,0.26148,-0.16628,0.12805,-0.16877
-0.060101,-0.11621,0.064091,-0.022465,-0.32924,-0.016681,0.20901,-0.20731,0.084209,-0.26421,0.15778,0.31223,-0.072538,0.016101,-0.1257,-0.066648,-0.12271,0.073558,0.15687,-0.20387,-0.076728,-0.08965,0.31208,-0.23291,0.061893,0.064167,-0.17535,0.28838,0.050304,0.026966,0.070528,-0.12894,-0.026559,0.060269,0.30349,0.02563,0.084812,0.18751,-0.090558,-0.38258,-0.066155,-0.12186,-0.1202,-0.063936,0.015336,-0.25139,0.19758,0.20623,0.054144,0.23612,-0.068156,0.13222,0.31082,-0.23506,-0.0052459,-0.27719,0.25326,-0.218,0.20752,0.06401,0.068346,-0.33278,0.063403,-0.34613,0.0044686,0.03748,0.12839,0.057124,0.37054,-0.010049,-0.12369,0.083579,0.27795,0.016667,0.14999,0.27692,0.007024,0.11718,-0.028624,0.244,-0.18582,-0.089222,0.015679,0.32316,0.15564,0.056165,0.25287,-0.23906,-1.3711,-0.013572,-0.010561,-0.070143,-0.11041,0.015475,0.16076,-0.066258,-0.20613,0.14036,0.11815,-0.15746
0.25058,0.24834,-0.036992,0.0016679,0.071601,-0.23322,0.046275,0.18427,-0.38784,-0.11105,-0.29533,-0.22589,-0.026519,0.29195,-0.1356,0.0080668,-0.2346,0.069742,0.036575,0.12593,0.15228,0.0089377,-0.001896,0.21552,0.14151,-0.0054921,0.0072877,-0.14457,-0.16297,0.14127,0.033583,-0.13413,0.24836,0.18967,-0.051076,0.048268,-0.23969,0.093694,-0.084959,0.45164,-0.056593,-0.12016,-0.28684,-0.10187,0.15253,0.30043,0.22648,-0.63909,-0.055263,-0.23997,-0.13939,0.27886,0.15866,-0.078024,0.13316,0.31227,-0.18363,0.19711,0.20989,-0.11627,-0.014341,0.24282,-0.3068,-0.12371,0.26525,0.17218,0.079723,0.27989,-0.08037,-0.132,0.13371,0.021792,-0.054739,0.13628,0.18034,0.19829,0.11873,-0.14069,0.011329,-0.11601,0.31592,0.62826,-0.41109,0.075618,-0.20919,0.060016,-0.048385,-0.0031023,1.6445,-0.051763,0.1542,0.27697,-0.12842,-0.048916,-0.12773,0.1142,-0.22845,-0.045133,0.030407,-0.29837
0.020992,0.20702,-0.0095879,-0.032086,0.16303,0.11716,0.041623,0.12615,-0.34055,0.035095,-0.30359,0.11933,-0.17224,-0.14299,0.015359,0.023761,-0.02366,-0.16294,0.025995,0.21076,-0.11094,0.23727,0.11134,0.11465,-0.24668,0.28221,-0.079467,0.02189,0.01868,-0.11855,0.12736,0.083158,0.0080957,0.018645,0.10323,0.095614,-0.052142,-0.12156,0.055382,0.37291,0.22988,0.073434,0.016714,-0.13192,-0.010283,-0.13127,0.29465,-0.332,-0.11884,-0.29121,-0.04961,0.1411,-0.0050648,0.25261,0.19152,0.14524,-0.009258,-0.015313,-0.20463,-0.11488,-0.074509,0.24726,-0.033914,0.1644,0.24655,0.033431,0.27213,0.24126,0.028488,0.1438,-0.032147,0.30682,0.060013,-0.19038,0.16298,0.21477,0.24013,-0.024068,-0.15673,-0.034487,0.053915,0.21351,-0.11401,0.014631,0.12473,-0.26911,0.099667,0.062999,2.9393,-0.24312,-0.025818,0.084855,-0.27953,-0.23009,-0.15728,0.28577,0.15002,0.072759,-0.040579,-0.022466
0.15372,-0.21956,-0.14027,0.094504,-0.22863,0.13579,0.043388,-0.065252,-0.038286,0.097765,0.16967,0.048692,0.46777,0.09928,0.14403,-0.060133,0.14298,0.10255,0.13782,-0.21729,-0.21024,-0.2747,0.24122,-0.0028443,0.084654,-0.15876,0.084288,-0.064153,0.24351,-0.0089368,0.24855,0.073127,-0.0091466,-0.089419,-0.15017,0.21784,-0.044007,0.20913,0.23702,-0.41973,0.10161,-0.11079,0.30739,-0.1025,-0.17215,0.069039,-0.36046,0.50829,0.048924,-0.10444,0.11286,-0.19658,-0.041536,0.22394,-0.16439,0.10574,0.29046,-0.09885,-0.09629,0.17468,-0.11001,-0.27927,0.1922,0.18544,-0.30049,0.18206,-0.24819,-0.2987,0.18526,0.080939,0.14005,0.078546,-0.073532,0.19973,-0.082742,0.062273,-0.26134,-0.017183,-0.0061456,0.19408,-0.11564,-0.5887,0.088438,0.022722,0.23379,-0.098714,0.18395,-0.05112,-0.15651,-0.085267,0.31701,0.0073079,0.14063,-0.065493,-0.27497,-0.29294,0.2606,0.013987,-0.17434,0.18524
-0.17775,-0.22255,-0.078833,0.024797,0.056778,-0.025987,-0.024474,0.22755,0.30278,0.22101,-0.087686,0.036323,-0.060898,-0.11101,0.27238,-0.13852,-0.013148,0.20704,-0.049707,0.084002,-0.32289,0.2611,0.014811,0.069851,0.035441,-0.043409,0.057442,-0.04685,0.21421,-0.15739,0.13283,0.20654,-0.042461,-0.12697,-0.036032,0.082757,0.28198,0.10217,-0.071201,-0.61739,-0.043681,-0.31438,0.16202,0.25324,-0.23238,-0.1145,-0.14514,0.32304,0.1839,0.27813,-0.15333,-0.033026,-0.18679,0.0090318,0.093824,0.1079,0.12365,0.0019793,0.13722,-0.073224,0.30918,-0.31,0.013114,0.065906,-0.14374,-0.2229,-0.24114,-0.049421,0.22053,0.30165,0.10282,-0.14001,-0.12104,0.34757,-0.21768,-0.04922,-0.30223,-0.25095,-0.19175,0.24356,-0.29936,-0.4297,-0.0909,-0.020667,0.24095,0.012081,-0.055375,-0.067283,-0.80268,0.205,-0.12101,-0.19799,0.31564,0.023039,0.037383,-0.26537,-0.089185,0.15857,0.24005,0.34634
0.32775,-0.1187,-0.050445,0.071491,0.23044,-0.1172,0.11689,-0.22871,0.010328,-0.021245,-0.13979,-0.11138,0.052838,0.39448,0.20518,-0.18991,-0.20573,0.071348,-0.1643,0.14395,0.057521,0.021171,-0.44546,0.22286,-0.14359,-0.0478,0.18943,0.23376,0.31697,-0.0025202,0.10719,0.27712,0.24222,0.020595,-0.13794,-0.016521,-0.16674,-0.25203,-0.11815,-0.14196,0.097421,0.21965,0.083273,-0.079242,-0.19305,0.26583,-0.031761,0.022485,0.26208,0.20222,-0.10152,0.12383,-0.17118,-0.080848,-0.23234,0.0056986,-0.25781,-0.16284,-0.52031,-0.032815,0.20776,0.19346,-0.25635,0.12338,-0.26644,0.19791,-0.22098,-0.045189,-0.032941,-0.12076,0.060429,0.048817,-0.15056,-0.035847,-0.17848,-0.22113,0.079696,0.14478,-0.072413,-0.19356,0.51441,-0.22111,0.032655,-0.068832,-0.26734,0.14313,-0.020858,-0.13291,-3.4247,-0.027383,0.10709,-0.24295,-0.044877,0.19016,-0.39808,-0.075156,0.43395,0.097998,0.04238,0.22561
-0.12861,0.26523,-0.22666,-0.23802,0.24432,0.19412,-0.37373,0.15862,-0.12519,0.12858,-0.19001,-0.059443,-0.11338,0.29267,0.085946,-0.25571,-0.10079,-0.025871,0.099284,0.16558,-0.18882,0.21941,-0.31092,0.015287,-0.30074,-0.014652,0.057907,-0.042669,-0.023661,-0.11513,-0.15122,0.10212,0.13665,0.052919,-0.037521,-0.09124,0.094072,-0.25418,-0.10446,0.13715,-0.053382,-0.074043,-0.10084,0.1393,0.25483,-0.037798,0.03227,0.057193,0.068949,-0.2756,-0.0038969,-0.3786,0.053688,-0.04563,0.038795,-0.064909,-0.16723,-0.085667,0.013292,0.1546,-0.10295,0.54325,-0.098062,0.1096,0.031531,0.075661,0.094966,0.035814,0.060307,0.08414,0.27335,-0.043469,0.12205,-0.20983,0.092636,-0.021314,0.082388,0.0332,-0.06129,-0.1088,-0.10448,-0.033467,-0.16496,0.09372,-0.11378,0.13639,-0.20999,-0.12635,1.0889,0.05565,0.21632,0.31638,0.1705,0.088065,0.29355,0.19973,-0.032809,0.40234,-0.12463,-0.16335
0.26334,-0.060054,-0.075847,-0.1439,-0.096288,0.053514,-0.23508,0.23839,-0.3526,0.27203,-0.064228,-0.0078129,0.21224,0.05782,0.1798,0.12035,-0.19246,-0.0096573,0.29603,0.27211,-0.015131,0.042226,0.038414,-0.0049107,-0.11525,0.0037741,-0.046618,0.057245,-0.020199,0.031552,-0.31275,-0.021845,0.17896,-0.11417,-0.28544,0.17701,-0.015091,-0.33869,-0.26248,0.55664,0.21684,-0.073772,0.16546,-0.15513,0.0095312,0.12941,0.16635,-0.22625,0.26458,-0.24803,-0.27102,0.27255,0.25188,0.27342,-0.15347,-0.10382,0.10168,0.062699,0.15695,0.29385,-0.12912,0.35606,0.10226,-0.19495,-0.02267,0.11167,0.1035,-0.031947,-0.091405,0.12431,0.31759,-0.084541,-0.3111,-0.23136,-0.28208,-0.087833,0.1707,-0.055394,-0.045153,-0.077998,0.087648,0.23306,0.049934,-0.24144,0.078428,-0.20559,-0.32524,-0.0031162,1.5054,-0.25398,0.09149,0.27612,0.047292,0.054209,0.25731,0.31481,0.1591,-0.12198,-0.025391,-0.32674
0.4359,0.045917,-0.25296,0.23693,0.11,-0.14071,-0.25998,-0.22039,-0.12944,-0.11531,-0.045311,-0.33906,-0.25408,0.29772,0.32077,-0.14592,0.073581,0.034703,-0.35451,0.092301,0.11624,-0.00031712,-0.14923,-0.29202,-0.42531,0.23184,-0.11777,0.076825,0.11769,0.12417,0.33804,-0.11962,0.0090976,0.034354,-0.36851,0.030288,0.078696,-0.41858,0.022164,-0.37324,0.13783,0.33,-0.26293,-0.28583,0.25644,0.13496,0.10114,0.053652,0.25995,-0.080998,-0.013659,0.046122,-0.20886,-0.12224,0.10128,-0.013787,-0.061604,-0.020169,-0.19746,0.0092107,0.13521,0.097669,0.019869,0.099913,-0.07261,-0.11694,-0.20652,0.080551,-0.025496,0.12321,-0.15549,-0.049182,-0.34458,-0.38661,0.081594,0.14058,0.079889,-0.22416,-0.20735,-0.2234,0.15367,0.12745,0.16676,-0.034831,0.092877,0.13482,0.35137,-0.16122,-1.9656,0.049642,0.10416,-0.17878,0.081511,0.38436,0.15251,0.26122,0.071182,-0.18449,-0.15505,0.2112
-0.21534,-0.11794,-0.13133,-0.24033,0.17564,-0.31262,0.11282,-0.018731,0.53852,0.032932,0.29334,0.22946,0.071123,-0.31175,0.1263,0.019058,0.3129,0.016636,-0.29224,-0.12616,-0.34273,-0.048745,0.18876,0.26363,-0.031006,-0.16478,0.13157,0.18154,0.021759,0.26039,-0.095147,-0.32381,-0.21098,-0.072274,0.12755,-0.30401,0.02449,-0.020114,-0.024269,-0.19491,0.0071392,-0.014798,-0.20144,0.25492,-0.1625,-0.11911,-0.28909,0.37713,0.070596,-0.012554,0.050947,0.11286,0.093486,-0.11136,-0.10566,-0.13149,-0.091432,-0.15285,-0.24618,-0.13077,0.0052971,-0.52811,0.16768,-0.28306,-0.26017,-0.094417,0.15278,0.06637,0.3087,0.19589,-0.021025,-0.10045,0.11033,0.069384,-0.09156,-0.21872,-0.16434,0.13094,-0.052768,-0.1416,0.16571,-0.3517,0.37763,0.032659,-0.040542,0.08352,0.2601,0.16987,0.84865,0.10057,0.062813,-0.088349,0.031798,-0.30581,-0.1815,-0.12411,0.1424,-0.34238,-0.13987,0.2486
-0.4402,0.19958,-0.059293,0.31518,0.21979,-0.14567,-0.15421,-0.11079,0.054453,-0.43236,0.070498,0.48058,-0.073705,-0.27288,-0.12781,0.074742,0.21365,-0.34037,0.062664,0.12639,-0.039477,-0.24749,0.38693,0.026465,0.38207,-0.20086,-0.22864,0.24127,0.28724,-0.21619,0.15052,0.20176,-0.1802,-0.0059913,0.24817,0.068068,0.086298,0.25987,0.17245,-0.097631,0.10647,-0.10216,-0.056077,0.055496,-0.22939,-0.14576,-0.25297,0.095231,0.15832,-0.1247,0.16875,-0.32867,0.1146,0.10146,-0.21955,0.20786,-0.0055937,0.057365,0.15438,-0.059642,0.1085,0.10223,0.14211,-0.13584,-0.015436,-0.092455,0.061903,0.38626,0.070555,0.13837,-0.26284,-0.13333,0.073896,0.14074,0.0054198,0.089762,0.0016401,-0.12641,0.13439,0.42199,-0.048542,-0.25163,-0.0034861,-0.021135,0.14897,0.19865,-0.039607,0.19949,-3.0647,0.065437,-0.0073386,-0.003782,-0.1829,-0.054517,0.27685,-0.25939,-0.36181,0.25773,-0.1699,-0.24454
-0.11834,-0.016004,0.06003,-0.25159,-0.22646,0.28432,0.22322,-0.028,0.18359,0.12074,-0.053694,0.32464,-0.055603,0.096571,0.0097562,-0.080975,0.060027,0.12688,-0.18212,-0.087929,-0.16136,-0.16659,-0.022073,-0.24817,0.13892,-0.012434,-0.043758,-0.099261,-0.15596,-0.078053,-0.12253,0.0089853,-0.15832,-0.21129,0.35228,0.087377,-0.0059806,0.23367,-0.014549,-0.69425,-0.12354,-0.31359,-0.17148,0.23053,-0.13761,0.082779,-0.23791,0.55042,0.039628,-0.068789,-0.013461,-0.33202,-0.13946,-0.038179,0.17363,-0.12912,-0.18291,-0.066459,-0.0084166,-0.056263,-0.020737,-0.39696,0.13168,-0.053636,0.038282,0.114,0.16023,-0.32033,-0.088686,-0.15747,0.02628,0.18607,0.060507,0.013592,-0.053134,-0.32777,-0.11271,-0.086257,0.18024,0.24845,-0.14262,-0.29813,-0.087896,-0.036483,-0.1222,0.085277,0.07058,-0.29513,-2.3064,0.16996,0.052677,-0.1682,0.16293,-0.13505,-0.32838,0.042425,-0.095828,-0.20002,0.26342,-0.0388
-0.20626,0.18001,-0.28888,-0.10171,-0.036721,-0.36464,0.046631,0.078308,0.096893,-0.056876,-0.076509,-0.24091,-0.093116,0.25696,-0.064092,0.06916,0.065238,-0.017196,0.15783,0.32731,0.22937,-0.036858,-0.058535,0.13055,0.067457,0.24856,0.31664,-0.050087,-0.017186,0.06134,0.14061,0.072589,0.22345,0.27005,0.12001,-0.27799,0.044051,-0.19434,-0.048143,0.083094,-0.19139,0.12796,-0.18416,-0.22107,0.28591,0.04262,0.33571,0.11544,0.21013,0.12679,0.058749,-0.37502,-0.00013676,0.37201,0.19609,-0.1198,0.04188,0.018621,0.031916,-0.11852,0.21651,0.14925,0.29448,-0.063741,0.0509,0.14828,0.10855,0.088521,-0.10796,0.11327,0.058092,-0.075187,-0.1431,-0.27417,-0.049899,0.47401,-0.13613,0.14237,-0.054658,0.17234,0.056911,-0.14511,-0.2084,-0.35966,0.10555,-0.019304,0.18322,0.094803,-0.1438,-0.091473,-0.093995,0.0055795,0.10572,0.12791,0.10058,-0.095589,0.26107,-0.11182,-0.27699,-0.071822
-0.38642,0.005309,0.0051708,0.24077,-0.092531,0.18562,-0.12422,0.24709,-0.11524,0.16907,0.24089,0.17256,-0.42851,-0.41044,-0.11803,-0.22818,0.40747,0.036594,0.089762,-0.11113,-0.45952,-0.0092316,0.36465,0.080198,0.36068,0.15443,-0.059022,0.13119,-0.23334,0.039512,0.047936,-0.1347,-0.055265,-0.2196,0.21634,-0.2248,0.11864,0.39427,0.14882,-0.14028,-0.044863,-0.37079,-0.16467,0.54852,-0.13276,-0.048231,-0.11416,-0.16583,-0.052655,-0.23732,0.34584,-0.073012,-0.078196,-0.085005,0.13861,0.2946,-0.21407,0.44699,0.24963,-0.17357,-0.12757,-0.23115,0.42096,0.09763,-0.01275,0.002524,0.079579,0.2559,0.047929,0.14338,0.14276,-0.15689,0.077719,0.14012,0.31608,0.070901,-0.31706,0.22134,0.081098,0.27672,-0.46435,-0.27417,-0.14302,0.18045,-0.041048,0.0040143,-0.33059,0.037935,-5.4032,-0.10125,-0.038363,-0.19447,0.031626,-0.06485,-0.30414,-0.39188,-0.13485,-0.035007,-0.15934,-0.32718
-0.42381,0.24771,0.34266,-0.12432,-0.21003,0.19875,0.16431,-0.059855,0.062137,0.050557,0.27653,0.18651,-0.31971,-0.42598,-0.27624,-0.13941,0.00045493,-0.1885,-0.096119,-0.21872,-0.39855,0.20903,0.43427,-0.081573,0.41541,-0.051303,0.18663,0.13628,-0.40108,0.1351,0.066512,-0.15037,0.088359,-0.044531,0.30642,-0.063457,0.066556,0.44483,-0.53359,-0.055137,0.17782,-0.25407,0.18152,0.11092,-0.10113,-0.099842,-0.2352,0.24723,-0.20134,0.19732,-0.025266,-0.20574,-0.0099724,0.054779,-0.14551,0.12465,-0.20403,0.098075,0.023429,-0.35412,-0.18039,0.13588,0.31038,0.18887,0.21446,0.083905,0.035448,0.015605,-0.41743,-0.18618,0.093956,-0.14951,0.32664,0.35714,0.34586,-0.00016247,0.093554,0.093425,0.12893,0.12986,-0.18926,0.25627,0.15227,0.086827,-0.067947,-0.022477,-0.08946,0.063974,-0.40674,-0.041621,-0.040903,0.098098,0.13037,-0.12043,-0.041687,-0.25758,-0.39459,-0.0137,-0.075365,0.00045036
-0.047205,0.32233,-0.043887,0.18213,0.061513,0.020828,0.22118,0.0010701,0.096404,-0.24865,-0.029352,-0.14364,-0.35624,-0.0076351,-0.16994,0.16383,0.013854,0.19135,-0.02095,0.21374,0.12467,0.17656,-0.023608,-0.21262,-0.2358,0.11995,-0.11782,-0.074444,-0.033774,-0.20676,-0.034883,-0.19067,0.39785,-0.017126,-0.048977,-0.049929,-0.23301,0.17712,0.10187,0.15909,0.17144,0.10068,-0.20038,-0.03575,0.14934,-0.1435,-0.11082,-0.027416,0.020193,0.078898,0.056541,-0.13936,0.10422,0.0020655,0.11379,-0.024597,0.213,-0.20859,-0.017114,-0.027292,0.0031012,0.17996,0.18216,-0.091024,0.036877,-0.33958,-0.033881,0.028853,-0.17621,-0.19498,0.13876,0.070414,-0.090492,0.17779,-0.11434,-0.022414,-0.26921,-0.22357,-0.046103,-0.0035736,-0.02696,0.052132,-0.16659,0.14005,0.14815,-0.075965,-0.015195,-0.033334,0.49671,-0.026284,0.029032,-0.13215,0.0013408,-0.34316,-0.30472,-0.14931,-0.16069,0.026842,-0.019488,-0.33894
