0.12492,-0.34021,-0.023886,-0.02728,-0.094043,0.17384,0.090612,-0.076366,-0.1012,0.0037645,-0.056691,0.19425,-0.062289,0.063508,0.18332,0.086535,0.038582,0.066658,-0.12016,0.076723,-0.14004,0.33992,0.03009,-0.013099,-0.057426,-0.242,0.058614,-0.23388,0.070771,-0.12363,-0.099496,0.40643,0.016291,0.068958,-0.15868,0.082729,0.18026,0.1051,0.14544,0.032733,-0.018592,-0.10799,0.17644,0.10322,0.28597,0.11761,0.14046,0.063239,-0.2009,-0.098699,0.070213,0.01995,-0.16706,-0.66645,-0.17602,-0.23149,-0.22267,-0.024075,0.08713,-0.28154,-0.39903,0.35008,-0.24147,0.034243,-0.10778,0.011976,0.090179,0.034119,-0.054063,0.056076,-0.37475,0.082963,0.28537,-0.13741,-0.14059,-0.63282,-0.040929,0.35449,-0.018495,-0.077588,0.018138,0.037531,-0.092975,-0.013695,-0.11905,0.22005,-0.21745,-0.148,-0.0091927,-0.067185,0.40444,-0.26969,-0.24997,0.46413,0.15458,0.0069941,-0.0062623,-0.23542,-0.34843,-0.14799
-0.092202,0.062437,-0.20558,0.085011,-0.27979,-0.039347,-0.12291,-0.014687,-0.086572,0.17364,0.17115,-0.1026,-0.16128,0.26483,-0.18802,0.32577,0.42307,-0.058545,-0.10903,0.24136,0.39845,0.31528,0.01869,-0.37397,0.23106,-0.19927,0.047168,-0.1459,-0.036182,0.037754,0.062976,0.053223,0.18476,0.20363,-0.15824,-0.1754,0.11286,0.17656,-0.016395,-0.084994,0.23239,-0.085706,0.30765,0.032714,0.064309,0.13103,-0.1501,-0.048778,0.11491,0.18314,-0.21933,-0.21392,0.27712,0.073144,0.027827,0.23669,-0.0011591,-0.1076,-0.19987,0.1564,-0.21627,0.36874,0.28845,0.14259,0.13802,-0.094255,0.023908,0.11645,-0.25931,-0.095505,-0.2859,0.39625,-0.0059124,0.12018,-0.20283,0.17304,0.12547,0.26713,-0.029876,0.13693,0.22196,-0.14425,-0.28063,0.20884,-0.54455,0.093478,0.054892,0.64437,-0.23031,-0.14292,-0.29861,0.059451,0.076446,-0.27373,-0.15806,0.06461,-0.062339,0.23781,0.071816,0.046179
0.02781,0.16333,0.11822,-0.07911,-0.20514,-0.10637,-0.1102,-0.1767,-0.15691,0.27337,0.14797,-0.091197,-0.056195,-0.17307,-0.1122,0.22123,0.22216,0.091704,0.17371,-0.04878,-0.34178,0.064508,0.057642,-0.14882,0.39714,-0.20606,-0.13962,-0.1622,-0.022233,-0.0016597,-0.078516,-0.35573,-0.2668,0.0067382,0.34524,-0.11838,-0.029368,0.094775,-0.059037,-0.094628,0.10707,0.16786,-0.063905,0.34568,-0.255,-0.25092,-0.2359,-0.18069,0.13088,0.34797,0.017185,0.18629,-0.15469,-0.10882,-0.10656,-0.10548,0.095783,0.04192,-0.35535,-0.20398,0.062145,0.33325,0.20213,-0.012511,-0.019616,0.24053,-0.18044,-0.17745,-0.064914,-0.21854,0.34433,0.53392,-0.24924,-0.23066,0.044043,0.51809,0.013755,-0.083799,-0.1265,0.010928,-0.0873,-0.31572,0.17415,-0.10387,-0.2349,-0.090749,-0.52622,0.43464,-0.1468,-0.10416,-0.42832,0.30587,0.067051,-0.16498,0.092223,0.032259,-0.032118,0.24374,-0.097379,0.052947
0.13059,0.075415,-0.068507,-0.032703,-0.059506,0.63019,0.041485,-0.15277,0.053588,-0.15318,-0.28346,-0.021833,-0.053803,-0.021338,-0.0050475,0.13796,-0.80547,-0.0086761,-0.28423,0.099822,-0.14584,-0.031649,0.20775,-0.058659,-0.26843,0.14422,-0.037041,0.15812,-0.10494,0.29026,0.079884,0.21899,0.15735,-0.10162,-0.21664,-0.11078,-0.21872,-0.49946,0.031832,0.098783,0.11109,-0.028658,0.11608,-0.10336,0.004853,-0.062441,0.14913,-0.16343,-0.14312,0.16337,-0.066342,-0.075805,-0.017846,-0.19741,-0.24484,-0.25123,-0.26708,-0.12416,0.48906,0.24214,-0.11561,0.31804,-0.030224,0.13222,0.16083,-0.16219,-0.042859,0.19112,0.056045,-0.52108,-0.14032,0.073027,-0.035717,0.11534,0.10658,-0.37511,0.29835,-0.1635,-0.1019,0.20562,-0.090316,-0.17371,-0.16327,-0.10088,-0.13214,0.20178,-0.23905,-0.31848,0.10201,0.16226,0.50089,-0.4589,0.23753,-0.014659,0.3409,0.08532,-0.17845,-0.14461,-0.010172,-0.17979
0.13069,-0.16314,0.35441,-0.56707,0.57959,0.020572,-0.22087,-0.027713,-0.2657,-0.72085,-0.010629,0.43722,0.049745,-0.18031,0.59067,0.15407,-0.07706,-0.57272,-0.24928,-0.058694,-0.39725,-0.080423,0.23045,0.57944,-0.50624,-0.24131,0.2911,0.23131,0.069283,-0.41246,-0.53131,0.26099,0.18041,-0.14178,-0.31624,0.40832,-0.51781,-0.12683,-0.66957,0.11462,0.024154,0.18358,-0.47071,0.4956,-0.15795,-0.14355,0.039918,0.3966,-0.24817,-0.12353,0.31339,-0.21363,0.48347,0.18039,-0.11158,-0.38633,-0.15277,0.14537,0.17335,-0.11644,-0.22935,-0.007168,-0.21275,-0.30893,0.22973,-0.18983,0.080336,-0.16442,0.078827,0.10588,0.096772,-0.23411,0.33854,0.18767,-0.27199,-0.058211,-0.081083,0.35359,-0.25037,-0.047859,-0.34343,-0.042886,0.19291,-0.60659,0.059947,0.41682,-0.088488,0.09203,0.061821,0.16606,0.15188,-0.10352,-0.52491,0.015803,0.14529,-0.040061,0.20293,-0.25009,-0.0081967,-0.48924
0.15818,0.10565,0.016422,0.16095,0.1458,0.14992,-0.13952,-0.075095,-0.076119,0.092061,0.4794,-2.7265e-05,0.090483,0.091661,0.14459,0.24698,0.38531,0.17726,-0.0056368,-0.22862,-0.55033,-0.067053,0.093373,-0.023645,0.1225,-0.20904,-0.18811,0.050049,-0.14654,0.14139,0.16521,-0.60113,-0.10609,-0.067968,-0.082888,-0.21994,0.15214,0.25964,-0.11852,0.049324,0.29652,0.039092,-0.13047,0.046006,0.1311,-0.40986,0.29296,-0.040761,0.22296,-0.10026,-0.34573,-0.25637,-0.31554,0.12934,0.12782,0.040499,0.089067,-0.21754,-0.045597,0.21115,0.26258,-0.25753,0.13199,0.18765,-0.032175,-0.24216,-0.3064,0.24069,0.31026,-0.18765,0.0086573,0.27557,0.042429,1.2185,0.24478,0.29002,0.060063,-0.33715,0.12531,0.10967,-0.063222,0.071656,-0.065983,-0.087009,-0.55971,0.0082549,-0.32829,0.79849,0.15545,0.19949,-0.41126,0.847,0.32186,-0.010902,0.0027508,0.25342,-0.0089777,0.26284,0.042136,0.24075
-0.15469,-0.0821,0.25633,0.29242,0.10211,0.24352,0.074931,-0.17462,-0.12579,0.16875,-0.25331,0.307,0.13943,-0.17459,-0.015968,0.3026,0.14999,0.024102,0.354,0.18956,-0.038578,-0.27548,0.044351,-0.26144,0.088541,0.0060842,-0.13146,0.039722,-0.015948,0.15108,0.1574,-0.044346,0.14648,0.0015758,0.17685,-0.36905,0.12536,0.20572,0.34456,-0.055994,-0.17993,-0.24123,0.13695,-0.0093247,0.13005,0.20168,-0.1784,-0.27193,0.16225,0.015336,-0.21319,0.16008,-0.18405,-0.049175,0.1062,-0.013221,-0.030289,-0.12672,-0.090197,0.043193,0.33172,-0.088809,0.3362,0.34333,-0.14238,-0.12001,-0.23735,0.20327,-0.11137,-0.095124,0.1354,0.33432,-0.3547,0.098109,-0.0070469,0.092967,-0.11054,-0.10848,-0.042614,-0.24063,-0.30042,-0.023653,0.1371,0.20938,-0.49982,0.072093,-0.43785,0.16387,-0.05537,0.1834,0.11527,-0.026372,0.31063,-0.061797,-0.17161,0.25138,-0.0059071,-0.023742,-0.26685,0.34706
-0.15536,-0.27536,-0.2742,0.13083,0.020794,0.10209,0.039463,-0.059887,0.17192,0.090547,0.060583,-0.015348,-0.051808,-0.29256,0.10487,-0.10978,0.19746,0.039646,0.30097,0.22523,0.054584,0.44608,-0.32795,0.24363,-0.049416,0.30392,0.34717,0.21302,0.11498,0.10898,0.15757,-0.65511,-0.26238,-0.080571,0.057191,-0.02178,-0.046217,0.233,0.082995,0.090851,0.031996,0.13342,0.22508,-0.058662,-0.084147,-0.12296,-0.34149,-0.072918,0.35118,0.05801,-0.16181,-0.16696,-0.18403,-0.22568,0.0023779,-0.0049062,0.20019,-0.021834,0.036045,-0.16303,0.43244,-0.013614,0.27957,0.333,-0.19191,-0.058354,-0.017883,0.027411,-0.17554,-0.3284,-0.30422,0.57473,0.12995,0.12642,0.30631,0.43288,-0.27544,0.011379,-0.2855,-0.018445,0.17099,0.050449,0.052357,0.30039,-0.39803,-0.056041,0.025346,0.39368,0.11946,0.23664,-0.25597,0.71717,0.31612,-0.1695,0.083212,0.24902,0.11145,0.417,0.062012,0.29461
0.043896,-0.058685,0.24622,-0.3464,0.23289,-0.10758,0.09166,0.13561,-0.013348,-0.22945,-0.54716,-0.0061349,-0.054832,-0.061155,0.05012,0.089629,-0.59837,-0.33931,-0.062082,-0.17411,0.27828,-0.12474,0.041775,0.091833,0.044951,0.25009,0.45205,0.19517,-0.18975,0.10491,0.16812,-0.040866,-0.10397,-0.26467,-0.41685,-0.0055795,-0.16157,0.16891,0.0021948,-0.028875,0.12599,0.38795,-0.15005,-0.12184,-0.46937,0.13117,-0.13518,-0.035126,-0.25897,0.22241,0.095291,0.36804,-0.31844,0.14219,-0.1244,-0.31298,0.26392,-0.16907,-0.020076,0.187,0.27805,0.28721,-0.16017,-0.6369,-0.061748,0.16625,0.14147,-0.07479,-0.11769,0.027526,-0.1052,-0.47017,-0.23185,-0.52752,-0.088088,-0.45315,-0.29206,-0.28783,0.010583,-0.19573,0.082195,0.43157,0.17901,-0.10988,0.047084,0.12608,0.18747,-0.54395,0.086666,0.16073,0.57323,0.098871,-0.12014,-0.0070125,0.000341,-0.13252,0.27802,-0.27766,-0.11706,-0.10573
-0.11813,0.0081578,0.046575,0.30236,-0.27901,-0.38629,-0.037974,0.016115,-0.2222,0.31849,0.1216,-0.37226,0.32378,-0.18586,-0.87829,0.0095162,0.093578,0.14249,0.23555,0.031123,-0.40215,0.12935,0.14977,0.31361,-0.037742,0.36122,0.27404,0.1762,0.108,-0.16522,1.3814,-0.17148,-0.21071,-0.24468,0.1087,-0.54391,-0.12973,0.13536,0.57331,0.21068,0.18893,-0.081011,0.73569,-0.36079,0.4025,0.87824,0.38971,0.19027,0.1002,0.30907,-0.23657,0.024921,-0.5613,0.089173,0.18724,0.43795,0.19661,-0.047298,-0.27358,0.63178,0.47147,0.45388,-0.13177,0.26377,0.68707,0.020767,0.48347,0.11473,-0.25591,-0.26992,0.08213,0.070834,-0.28988,-0.35849,-0.1483,0.29706,-0.13569,-0.17944,0.38772,0.1245,-0.73273,-0.92909,0.40996,0.10683,0.14937,-0.3656,-0.090602,0.016463,-0.68967,0.1592,0.064857,0.15494,0.55445,0.17989,0.07607,-0.27448,-0.25663,0.31839,0.087453,0.12224
0.03684,-1.0268,0.43299,0.27992,-0.023641,1.2584,0.92191,0.2117,1.0161,0.33985,-0.53207,0.11899,0.15185,-0.91832,-0.16185,0.55656,0.28314,0.31293,0.34913,0.87981,-0.27739,0.14091,-0.055448,-0.2964,0.37836,-0.10583,0.043097,-0.91619,-0.074906,0.062236,-0.24694,0.1473,-0.90261,-0.38262,0.11775,-0.2401,-0.053538,-0.89707,0.59376,-0.72578,-0.80387,0.2481,-0.00016364,0.007728,-0.14404,0.080416,-1.0837,0.013501,-0.22447,-0.17454,-0.21187,0.0098004,-0.19432,-0.89733,-0.73051,0.094516,0.11117,0.99777,-0.36849,0.10231,-0.068768,0.23668,-0.076242,-0.22467,0.12124,0.91569,0.13586,-0.04587,1.2231,0.21076,-0.040641,1.1152,0.025946,-0.13234,-0.17286,1.1381,1.3575,-0.11485,-0.054606,-0.11074,0.17736,-0.164,-1.0632,-0.039015,0.60777,0.060526,-0.21479,0.42452,-0.039877,0.91896,-0.11275,0.10267,0.16692,0.39574,0.01634,-0.14216,-0.024803,0.24232,-0.91019,0.22019
-0.091468,0.013256,0.62644,-0.08793,0.23079,-0.14706,-0.33185,-0.29093,-0.2623,0.017982,0.083906,-0.28295,0.39212,0.29745,0.12145,-0.066222,0.23945,-0.29078,-0.18376,-0.46069,0.32703,0.29009,0.64877,-0.12761,-0.18675,-0.20955,-0.17831,0.12768,0.0087243,-0.21236,-0.20058,-0.37692,0.24801,-0.28326,-0.35873,0.11442,0.12136,0.16703,0.4173,0.10948,0.29954,-0.35392,-0.27992,0.030529,-0.19088,0.063277,0.20424,-0.081741,0.070119,0.046617,0.13261,-0.010669,-0.1032,0.31058,0.48523,-0.028943,0.11334,-0.14836,-0.021508,0.19108,-0.32812,-0.18854,0.096531,-0.18683,-0.29545,0.016877,0.077225,-0.12907,-0.17817,-0.088381,-2.7364,0.33748,-0.055403,-0.46957,-0.32886,-0.094885,-0.14701,0.14481,-0.3811,-0.58743,0.2166,-0.035351,-0.020288,0.10129,-0.36237,-0.049321,0.068986,0.12705,0.021338,-0.087234,-0.31285,0.19128,-0.02746,-0.20021,-0.085048,0.32718,-0.29621,-0.167,0.1235,-0.20209
-0.07477,0.17189,0.25975,0.036419,0.37543,-0.26385,0.25453,0.23946,0.17899,-0.023373,-0.015291,-0.21427,-0.047489,0.076053,0.13977,-0.19413,-0.61403,-0.37431,-0.22188,0.20852,1.6681,0.17477,0.15195,0.3632,-0.16011,0.13159,-0.22047,-0.10303,-0.013819,-0.23437,0.54131,0.42535,0.12123,0.078573,-0.24912,-0.040678,0.088596,-0.14338,0.31114,0.12825,-0.033929,0.09762,0.059208,-0.51034,0.019928,0.13341,-0.086764,0.24052,-0.28511,-0.050553,0.16171,0.0044299,-0.18586,0.0031347,0.26147,-0.10196,0.10587,-0.098055,0.25397,0.16581,0.28005,0.44029,-0.32606,-0.0096778,-0.1283,0.24718,-0.11064,-0.055079,0.27998,-0.19429,0.24306,0.11705,-0.15388,1.9086,-0.26244,-0.47859,-0.32319,0.12765,-0.017464,0.053249,0.092028,-0.080077,-0.095127,-0.24275,0.092792,0.026865,0.38789,-1.2047,0.0018843,-0.085629,0.52043,-0.19811,-0.21568,0.2111,0.20832,-0.32148,-0.19173,0.10664,-0.47644,-0.29682
0.14701,-0.035046,-0.23584,0.0070041,0.07484,0.11669,-0.16583,0.34037,0.023556,0.17802,0.018548,0.14981,-0.17837,0.22335,0.028291,0.28206,-0.10346,-0.0025062,-0.11768,-0.14954,-0.21232,-0.13579,-0.12783,-0.21807,0.039021,-0.032986,0.1138,0.066502,0.33793,-0.042022,-0.12924,0.42491,-0.024828,0.030561,0.49796,0.081744,0.19543,-0.059857,-0.056774,0.13981,0.14024,-0.17656,0.30378,0.27767,-0.16741,-0.0034719,0.28183,-0.20361,-0.12518,-0.015668,-0.085793,0.021039,0.10638,-0.089028,0.021728,-0.16471,0.022827,0.22594,0.22107,-0.24625,-0.020307,-0.13857,0.30543,-0.089795,-0.10924,-0.19925,-0.32396,0.06302,0.26483,-0.0040251,0.043887,-0.18739,0.16888,0.014326,0.063828,-0.4056,0.18201,-0.14134,-0.23664,0.38503,-0.31033,-0.0683,0.16704,0.23925,0.0061408,-0.14115,0.11105,0.22863,0.19798,0.25879,-0.21025,-0.34453,-0.24884,-0.12458,-0.29491,0.049944,0.21424,-0.090283,-0.071503,0.0096527
-0.16879,0.18825,0.033076,-0.26681,-0.093092,-0.24311,-0.093177,-0.36284,-0.35286,-0.066176,-0.013652,0.15146,-0.12723,0.047074,0.13729,-0.014215,1.2919,0.28731,0.39964,-0.27364,0.011394,0.41136,0.10246,-0.12689,-0.2446,-0.35557,0.15813,0.024547,0.36969,0.14726,0.33481,-0.017405,-0.011795,-0.00588,0.25563,-0.23818,0.2972,0.34457,-0.03025,0.18049,0.18604,-0.33368,-0.024821,0.081996,-0.11561,-0.016561,0.09685,0.13803,-0.21029,-0.16622,0.16657,0.068935,0.31979,0.28165,-0.20599,0.22116,0.10015,-0.19367,-0.48374,0.34064,0.041765,-0.16232,-0.1704,0.03791,-0.0075673,-0.097008,-0.13837,-0.18669,0.18518,0.28024,0.10219,-0.11871,0.19037,0.26016,-0.0098345,0.065774,-0.057339,-0.34096,-0.027668,-0.095496,-0.0077577,0.30235,-0.038716,-0.14565,0.076049,-0.19834,0.059744,0.34061,0.16722,0.13276,-0.4715,0.38743,-0.048791,-0.4102,0.075381,0.07277,-0.15849,-0.071045,0.18995,-0.29399
-0.10939,-0.060989,0.045943,0.30939,-0.36878,-0.084945,0.0123,0.26803,0.031199,0.41172,-0.14202,0.1807,-0.19001,-0.058718,0.10425,0.12886,0.36236,0.42218,0.20714,0.26624,-0.061199,-0.26123,0.016035,0.00027066,0.22832,-0.26507,0.07942,-0.065009,0.060499,0.28789,-0.016557,-0.35261,0.1284,-0.2049,0.11796,-0.21256,0.22393,-0.0019201,0.024968,0.25614,-0.15275,-0.20247,0.1125,-0.029664,-0.19936,-0.11014,0.24691,0.28737,-0.14824,0.29327,-0.09634,0.085103,0.18301,-0.13892,-0.18414,0.0049964,0.3857,-0.14822,0.0011185,0.022242,0.23682,-0.10025,0.36948,-0.13461,-0.2812,0.092785,0.11749,0.18713,0.1674,-0.1041,-0.12887,0.59667,-0.21636,0.34263,-0.87695,0.52084,-0.10908,-0.018237,-0.26172,-0.061694,-0.15189,-0.31094,0.041201,0.29733,-0.3066,-0.14951,-0.0478,0.27154,0.071144,0.066301,-0.02691,0.49258,0.31125,-0.10281,-0.11988,0.1282,0.15845,0.21696,-0.045525,0.39961
0.46211,-0.22785,0.057694,0.013699,-0.0085135,0.45451,-0.20378,0.2066,0.053813,-0.1879,-0.094183,-0.08814,0.32557,-0.21197,-0.010666,-0.16476,-0.084898,-0.18385,-0.21588,-0.075959,0.21711,0.17795,0.28207,0.13738,-0.034303,0.18825,-0.075896,-0.21147,0.14335,0.12832,-0.22041,-0.18547,-0.095793,-0.13433,0.072386,0.04059,-0.25048,-0.25433,-0.2274,0.0075427,-0.086154,-0.087698,-0.17651,-0.026183,0.14825,-0.16855,-0.21957,0.072617,0.075487,-0.082475,0.0056894,0.061704,0.043307,0.07312,0.11095,0.28815,0.47725,0.041007,0.11698,0.12082,0.018355,0.21058,-0.26045,-0.12837,0.25968,0.15414,0.21206,-0.17572,0.031898,-0.20081,0.29164,0.5194,-0.046614,-0.20039,0.20788,0.24734,0.12166,0.19711,0.041072,-0.36282,0.23502,0.28144,-0.20728,-0.15686,0.047341,0.24501,0.20086,0.17828,0.066256,-0.14524,0.15226,1.2478,0.052494,-0.029376,-0.15655,0.023739,-0.050245,-0.094423,-0.12446,0.030936
0.01281,0.069599,0.14495,0.012462,0.16983,-0.28411,0.12808,-0.16576,-0.19535,-0.29715,0.00050134,-0.31204,-0.12171,0.0046805,0.16809,0.13677,0.032592,-0.39236,-0.36984,0.13542,0.046276,0.28173,-0.16976,-0.020159,-0.077581,-0.0043176,0.081154,0.029862,-0.057448,0.090897,0.073602,-0.6451,0.17375,0.26459,0.034624,0.18294,-0.041021,0.041037,-0.21943,0.21829,-0.072427,-0.14188,0.065063,-0.33684,0.18111,0.1255,-0.022677,0.0061493,-0.017822,-0.24124,0.29244,0.0083446,0.062859,0.025152,-0.22674,0.15727,-0.35648,0.13134,-0.070972,0.0030704,0.053993,0.11475,-0.0357,-0.099617,0.11205,-0.067305,0.028811,-0.1013,0.20422,0.0021272,0.16932,-0.15602,0.31969,0.095101,0.1348,-0.16378,0.036801,0.12981,0.041984,-0.2555,0.33426,-0.37014,0.054651,-0.048275,0.44524,0.047305,0.34922,-0.092349,0.23365,0.1494,0.38871,0.0369,0.015482,0.0025371,0.044532,0.10559,-0.15372,-0.15574,-0.13,-0.39035
0.036809,0.048088,0.24242,-0.044276,-0.22019,0.010957,-0.19362,-0.25061,-0.14566,0.3201,0.22161,0.24743,-0.27445,-0.27462,0.21921,0.0099884,1.5125,-0.062363,-0.13586,-0.059054,0.95157,-0.20877,-0.32732,0.089885,0.12535,0.17125,0.21614,-0.10952,-0.13121,-0.15592,0.04918,-0.90303,0.032051,-0.29801,-0.29633,-0.30909,0.050232,0.056819,-0.26279,0.085444,0.17634,-0.29892,0.086738,-0.10664,-0.033692,-0.51467,-0.083654,0.0062098,0.19086,0.28942,0.031955,-0.2239,0.1274,0.13141,0.069582,-0.11856,0.099675,0.046338,-0.24467,0.126,0.32544,-0.19955,0.09562,0.06081,0.017221,0.014934,-0.25971,0.3922,0.11522,-0.30061,-0.0031877,0.25249,0.22328,0.37171,0.34371,0.54623,-0.091101,-0.13169,0.15081,-0.32157,-0.067684,-0.055702,0.15849,0.02848,0.097598,0.028449,-0.072544,0.42592,0.052148,0.1308,-0.39122,0.51257,0.10134,0.26623,0.16867,-0.12033,0.18272,0.010402,-0.2496,-0.13283
0.17715,-0.17896,-0.10176,-0.13229,0.11686,0.19105,0.066032,0.36413,0.43057,0.14727,-0.26095,0.28817,-0.20085,-0.10062,0.33861,0.16017,-0.22869,-0.17463,0.20815,0.30744,-0.076093,0.080543,-0.34749,-0.29564,0.0823,-0.22923,0.038027,-0.2149,0.25677,0.21362,0.18163,-0.19859,-0.13179,0.014971,0.22418,0.17454,-0.039572,0.046181,-0.11604,-0.055449,-0.17568,-0.3151,-0.15355,0.20615,-0.34235,0.095419,-0.16139,-0.042881,-0.040728,0.20393,0.014014,-0.38522,0.24838,-0.30725,-0.063449,0.28151,0.01481,0.093349,-0.26103,-0.25768,0.16631,-0.054861,-0.20599,0.072648,-0.33743,0.40725,-0.36152,-0.040746,0.021495,-0.37198,-0.12754,-0.046425,0.0019922,0.011152,-0.1065,-0.14422,0.063872,-0.091321,-0.20259,-0.011991,-0.015994,0.14979,-0.023856,0.10295,0.086488,-0.27066,0.05937,0.31132,-0.138,-0.063517,-0.010335,-0.037156,-0.075492,-0.059526,-0.019775,0.45572,0.26567,-0.01166,-0.19361,-0.031542
0.1952,-0.23612,-0.34138,0.090506,-0.12082,-0.055579,0.37825,0.28301,0.32042,-0.12266,0.088374,0.19778,-0.22067,0.24279,0.088809,0.11889,0.23622,0.1733,0.2515,0.27901,0.053298,0.0084992,-0.33904,-0.25627,-0.15578,-0.12741,0.26145,-0.024729,0.2997,-0.016428,-0.13523,0.20554,-0.33374,0.41297,0.27572,-0.17299,-0.15426,0.0062694,0.084897,-0.043312,-0.15944,-0.37971,0.00059769,-0.031699,-0.081902,-0.066277,0.19775,-0.18555,0.07585,-0.24623,0.12045,-0.33354,-0.24591,0.083345,-0.0038647,-0.080462,0.1255,0.25776,0.13647,-0.034558,-0.1335,-0.18248,0.16484,-0.16688,-0.3618,0.040155,-0.035707,-0.11779,0.31309,-0.031638,0.042835,-0.38043,-0.023321,0.06319,0.0053962,0.040755,-0.15499,-0.14474,-0.076838,-0.087239,-0.25543,-0.28315,-0.081922,-0.13443,0.018832,0.050247,-0.0038622,0.060029,-0.25232,0.27162,-0.0010801,-0.1296,0.17097,-0.037081,0.061957,0.21658,0.011522,-0.057428,-0.11008,-0.1508
-0.11902,0.11916,-0.23554,-0.0218,-0.2704,-0.14272,-0.040137,0.16352,0.093995,-0.31372,0.097695,-0.18153,0.065948,-0.24838,0.18029,-0.090094,0.054744,0.02938,-0.0079137,0.18235,0.16939,-0.090261,0.070115,0.24135,-0.21254,-0.12198,-0.071091,0.12077,0.15699,-0.22375,-0.33842,-0.13512,-0.07047,-0.13519,-0.25092,0.35546,-0.10959,0.29034,-0.30961,-0.093547,-0.11635,-0.18977,-0.16964,-0.34595,-0.050779,0.060448,0.18471,-0.29189,0.045579,0.0658,0.40901,-0.12268,0.15638,-0.074179,0.052019,0.049188,0.040212,-0.17924,0.63352,-0.1518,-0.2203,-0.33571,-0.19082,0.2374,-0.32878,-0.031902,0.13408,0.05834,0.19092,-0.10215,-0.3348,-0.57158,-0.040803,-0.073957,-0.067755,-0.24968,-0.078466,0.36964,0.2281,-0.24622,0.21956,0.034904,0.19085,-0.40757,0.22638,-0.057982,-0.0059965,-0.32649,-0.22855,-0.23087,0.097874,-0.83974,-0.43191,-0.0017742,0.077892,-0.065861,0.013698,-0.40388,0.05056,0.02741
-0.27239,-0.011059,0.43824,-0.2131,0.26222,0.12857,0.066778,-0.034253,-0.11,-0.16224,-0.031819,0.17702,-0.0053112,-0.16929,-0.075485,-0.27514,0.11185,-0.071335,0.13546,-0.13377,0.094599,0.07171,0.11623,0.19322,0.017801,-0.19995,-0.41208,-0.017036,-0.19529,-0.056951,0.17542,0.13918,0.31864,-0.20442,-0.11343,0.27451,0.04993,0.28309,0.087019,0.21507,0.40252,-0.26188,-0.10261,0.17357,-0.1005,0.17857,0.28868,0.34077,0.32224,0.21769,-0.18481,0.11769,-0.021039,0.25465,0.057367,-0.14174,-0.0342,-0.19005,-0.08639,0.17672,0.10471,0.27408,0.020894,0.085041,0.32553,-0.28865,0.05208,0.17847,-0.2367,0.038559,0.24681,0.69552,0.12574,0.035001,-0.15862,-0.058398,0.079392,0.22277,0.31023,-0.13736,0.034749,-0.037989,-0.20801,0.18351,0.30638,-0.034799,-0.071589,0.06956,0.15993,-0.12075,-0.06197,0.34687,0.039133,-0.43186,-0.12261,-0.076499,-0.099555,-0.036521,0.24598,-0.26977
-0.27075,-0.07034,0.14145,0.0651,-0.10995,0.28522,0.033222,0.036395,0.14125,0.10643,-0.28883,0.1034,0.24532,-0.043224,-0.41242,0.066391,0.051511,-0.23509,0.11152,0.17055,-0.20256,0.11968,0.61219,-0.22559,-0.14436,0.10808,-0.14834,-0.060996,-0.29893,-0.05352,0.2073,-0.075234,-0.035566,0.1451,0.24475,0.24315,-0.10804,0.16626,0.15091,0.034524,-0.16698,0.32624,-0.010976,-0.026075,-0.095491,0.15395,-0.33948,-0.053646,-0.17062,0.27332,-0.26436,0.24908,-0.17551,-0.18716,-0.17489,-0.047227,-0.10957,-0.16154,0.2335,0.16208,-0.28428,0.052009,0.010607,0.18291,-0.11909,0.23159,0.18051,0.11493,-0.08965,-0.29057,0.24398,0.49654,0.22268,-0.082499,-0.17224,0.11006,0.37029,0.22476,-0.05637,-0.10263,-0.073891,-0.17162,0.02848,0.15819,0.095673,0.054002,0.2022,-0.14019,0.2495,-0.014391,-0.099414,1.5955,-0.096878,0.012882,-0.15425,-0.14668,-0.061597,-0.13653,-0.23305,0.17411
-0.31572,0.37994,-0.02658,-0.066784,0.25017,0.14391,-0.19645,-0.31458,0.028978,-0.07007,0.044014,0.067999,0.25224,0.13458,-0.30487,-0.22883,-0.14597,-0.22906,0.1716,-0.40904,0.12258,-0.086328,0.20319,-0.036824,-0.019926,0.28858,-0.73251,0.014728,0.039983,-0.24935,-0.14538,-0.44098,-0.0093282,0.031977,0.0035971,0.10158,-0.036735,0.0085903,-0.11567,0.096086,0.057147,0.29524,0.093962,-0.21585,0.28269,-0.11206,-0.16165,-0.2327,0.16525,0.13218,-0.19058,0.1762,-0.30303,0.37276,0.32964,-0.064473,-0.24424,-0.42816,0.26378,0.1831,-0.019038,0.044372,0.14369,0.12562,0.024646,-0.25738,-0.053054,0.12739,-0.12932,0.065009,-0.21052,0.3214,0.11991,-11.816,-0.26876,0.17259,0.0019542,0.019658,0.26985,-0.066959,5.5276,-0.063048,-0.077608,-0.18144,0.10643,0.078566,-0.13673,-0.090184,0.14656,-0.071087,0.11548,0.33475,-0.0047857,-0.1452,0.21454,-0.28007,-0.16724,0.19032,-0.12063,-0.065315
-0.029784,-0.027574,-0.073815,-0.13024,0.10915,-0.25743,0.13813,-0.28493,-0.28133,0.014151,-0.10323,-0.43408,-0.10366,0.096574,0.28286,-0.15143,-0.27402,-0.32782,-0.37469,0.056438,0.35175,0.12678,-0.073567,0.23173,-0.23806,-0.14433,0.12657,-0.19768,0.033089,-0.16459,-0.42524,0.40088,0.092986,0.049884,-0.1635,0.3174,-0.26148,0.051699,-0.19738,-0.078135,-0.057674,-0.050434,-0.42794,-0.40938,-0.085874,0.25234,0.10259,-0.040286,0.23237,-0.12476,0.23388,-0.10363,0.38324,0.26619,0.20876,-0.024331,-0.35158,0.02526,0.58318,0.26828,-0.0086281,0.037785,-0.050242,-0.24185,0.11094,-0.16661,0.043462,-0.17213,-0.26049,-0.065351,0.1951,-0.77063,0.24682,0.050113,0.3842,-0.33695,0.071784,0.11462,0.11352,-0.025827,0.2985,0.18722,0.22884,0.020333,0.2835,-0.06894,-0.014865,-0.21183,0.35992,0.18368,0.10723,-0.66369,-0.4372,-0.050043,0.40214,-0.11148,0.05213,-0.30661,-0.1131,-0.14648
0.08862,-0.20803,0.074906,-0.029282,0.28593,-0.24724,-0.27785,-0.2447,-0.28873,-0.32217,0.20827,-0.27381,-0.0576,-0.03138,-0.13867,-0.14742,-0.23385,-0.43115,-0.23017,0.17815,0.21541,-0.164,-0.0067256,0.26637,-0.039118,0.060913,0.027966,-0.011327,0.023262,-0.29982,-0.34088,0.1346,0.11985,-0.26766,0.080309,0.32938,-0.012292,-0.08437,-0.099339,-0.191,-0.072798,-0.019723,-0.10474,-0.15333,-0.040572,0.33141,-0.13595,-0.18201,0.288,-0.26453,0.37113,0.19542,0.11721,-0.018664,0.28836,-0.30516,-0.097265,-0.069038,0.022867,0.055964,-0.29269,0.13369,-0.39891,-0.15267,0.23718,0.13131,-0.017357,-0.14368,-0.11825,-0.15137,-0.088624,-0.48274,0.31921,-0.60542,-0.15301,-0.34027,0.078603,-0.041062,-0.18629,0.0053365,-0.0046469,0.12855,-0.095734,-0.00052919,0.15854,0.16219,0.097365,-0.31537,0.0034365,-0.23771,0.38259,-0.52539,-0.25868,0.18523,0.33124,0.047285,-0.083213,-0.098072,0.21984,-0.37356
0.052107,-0.086798,-0.24671,-0.069302,0.097005,0.13467,0.10385,-0.1859,0.05688,0.14774,0.10114,0.064921,-0.22385,-0.11991,-0.26225,-0.37091,-0.085626,-0.045902,-0.010324,-0.058807,-0.08326,-0.26232,-0.1034,-0.19488,0.053706,0.41143,-0.066945,-0.076275,-0.0030664,0.23278,0.25854,-0.055474,0.024702,-0.021532,0.1288,-0.26796,0.24393,-0.15697,0.030791,-0.046567,-0.10633,0.16349,0.20756,0.11867,0.089721,0.12031,-0.022968,0.14549,-0.016156,0.20693,0.15349,0.15922,0.080398,0.22687,-0.028284,-0.050724,0.12246,-0.031692,0.11272,0.014897,-0.11159,0.11289,0.12962,0.10819,0.095231,0.10865,0.17991,0.063444,0.076354,0.041122,-0.30138,0.23169,-0.37698,-0.028878,-0.41211,-0.19689,0.1335,-0.16229,0.2131,-0.073764,-0.26731,-0.18982,-0.28656,0.029308,-0.44758,-0.26037,-0.55229,0.33547,0.053568,0.054303,0.024743,0.021917,0.18009,0.021979,-0.38231,-0.044798,-0.1297,0.076386,-0.076919,0.39032
-0.14775,0.31051,-0.17431,0.10511,-0.12138,-0.23776,-0.19218,0.1275,-0.31824,-0.32704,0.093309,-0.15211,-0.043608,0.19726,-0.27823,-0.11963,0.11925,-0.13372,0.26591,-0.39745,-0.0054408,0.10124,-0.20488,-0.062269,0.052514,-0.15434,-0.040802,-0.064641,0.30288,0.13999,0.13588,-0.14924,-0.097401,-0.019602,0.26427,-0.13208,-0.11921,0.1782,0.16718,0.12389,0.25211,-0.078935,0.21109,0.046087,0.030212,-0.23802,-0.11095,0.040509,0.24984,-0.28586,0.14005,-0.36869,-0.12947,0.31389,0.18734,-0.32356,-0.092035,-0.17459,0.13565,0.20371,0.21383,0.021548,0.11889,-0.14893,-0.00055255,-0.127,-0.1181,-0.087625,-0.58274,0.48471,-0.34982,0.23279,0.10055,-0.47031,-0.0025887,0.51268,0.17803,0.068785,-0.090914,-0.28663,0.12267,-0.016707,0.12911,0.10783,0.156,-0.21753,-0.19842,0.50413,-0.0072224,-0.38633,-0.24459,0.15575,0.040261,-0.066461,-0.045773,0.065819,-0.38621,0.030259,0.16943,0.053009
-0.1515,0.2169,0.29071,0.33383,-0.19205,0.00083698,0.1467,0.31111,-0.20028,0.28788,-0.0017136,0.30184,0.051421,-0.27565,0.16808,0.09585,0.2102,-0.075256,0.062036,-0.073748,0.049539,0.063895,-0.11397,0.019395,0.11802,-0.27807,-0.11614,-0.044229,0.01585,0.024199,-0.020117,0.11897,0.13574,-0.18851,-0.23432,-0.21313,0.040421,-0.09855,0.15737,-0.065126,-0.27431,0.11479,0.2404,0.14894,-0.012089,-0.098993,-0.23168,0.26832,0.011351,0.025918,0.039714,0.079188,-0.072634,-0.00035109,0.21401,0.17172,0.31285,-0.11499,-0.090864,-0.18972,0.26075,0.079103,0.30484,0.18879,0.058982,-0.21224,0.10145,-0.0032818,0.11199,-0.034263,-0.033423,0.5143,0.14027,0.14562,-0.504,0.31114,0.1962,-0.037012,-0.13516,0.12291,0.1061,0.045397,-0.22428,0.39653,-0.26456,-0.28404,0.05897,0.50002,-0.31864,-0.13904,-0.34387,0.16176,0.08016,0.24645,-0.32884,0.048955,-0.053737,0.093949,0.13488,0.38998
-0.047939,-0.13533,0.047643,-0.3889,-0.073169,0.046783,-0.24439,0.34925,-0.24974,-0.040853,-0.044172,-0.076484,-0.10668,-0.17283,0.15643,0.36467,-0.027882,0.052876,-0.34267,0.11924,-0.063067,0.029783,0.25412,0.3552,0.041932,0.059939,-0.027124,0.037957,-0.084291,-0.32785,-0.026089,-0.11951,-0.16373,0.10383,0.09752,0.25111,0.088078,-0.086921,-0.095445,0.20546,0.084592,-0.27831,-0.23662,-0.041765,0.074985,0.17495,0.2131,-0.3343,0.065546,-0.16075,-0.055357,0.2296,-0.02709,-0.17293,0.14902,-0.27037,-0.11633,0.010103,0.11349,-0.070342,-0.18378,-0.092937,0.0088163,0.0028652,0.10077,0.09399,0.16714,-0.28089,0.056532,0.13296,0.27226,0.060569,0.029702,-0.37873,0.022339,0.055524,-0.069608,0.33627,0.21877,-0.010735,-0.0072052,0.04236,-0.00702,-0.13496,-0.037508,0.022611,0.045709,-0.18106,0.087016,0.20688,-0.0051734,-0.42321,-0.068641,0.42166,0.36053,0.12481,0.18624,-0.0086199,-0.16638,-0.143
-0.03959,-0.18557,-0.056396,0.032234,0.16874,-0.1488,-0.034143,0.062919,-0.17924,0.050057,-0.43252,-0.40246,-0.016186,0.035487,0.1006,-0.061475,-0.024985,-0.22844,-0.33721,0.051248,0.24381,0.023558,-0.01368,0.31372,-0.18321,0.22956,-0.11807,-0.2235,-0.058619,-0.24458,-0.28187,0.2899,-0.2278,0.1178,-0.24303,0.11745,-0.26488,-0.11377,-0.36794,0.03306,-0.1835,0.71024,0.046974,-0.36277,-0.40377,0.22892,0.33131,0.098886,0.04091,0.066114,0.46478,-0.059709,-0.15006,-0.042636,0.11436,-0.0074397,0.27286,-0.24499,-0.013105,0.086624,-0.44701,0.18637,-0.23294,-0.1563,0.052723,0.1428,0.099836,-0.23908,-0.030293,0.23836,0.031098,-0.44711,0.037937,-0.12795,0.016229,0.020916,-0.14004,-0.039052,-0.19646,0.088101,0.24725,0.20814,0.036534,-0.31548,0.40498,0.39566,-0.0028776,-0.23399,0.20073,0.16363,0.19174,-0.41913,0.023382,-0.23316,0.051594,-0.011015,0.2527,-0.31709,0.27471,-0.28328
0.029099,-0.11335,-0.1726,-0.22083,0.019656,-0.046527,-0.033238,0.19146,0.037526,-0.093104,-0.52307,-0.077318,0.079265,-0.24162,0.45741,0.030936,-0.1589,-0.18809,-0.018459,-0.074181,0.37487,0.11245,0.16827,0.27646,0.023711,0.069022,0.39843,0.051744,0.10575,-0.21989,-0.43651,1.4175,-0.29591,-0.27157,-0.093773,0.0021429,0.17579,0.056239,-0.29816,-0.016695,0.073883,-0.62197,-0.21905,-0.27954,-0.3042,0.33731,0.10271,0.01448,-0.18911,-0.12324,0.31606,-0.15652,-0.054554,-0.26606,-0.23561,0.074142,-0.029776,0.060732,0.051024,-0.23528,-0.053162,-0.095166,-0.30171,-0.22636,-0.081509,0.15976,-0.07086,0.048715,0.25479,-0.22482,0.31913,-0.29489,0.41925,0.13424,0.054039,-0.11697,0.028559,-0.07302,-0.027549,0.03466,0.0041342,0.095796,0.097408,-0.027475,-0.071021,-0.09238,0.054912,-0.3755,0.19524,0.1079,0.20746,-1.2267,-0.06836,0.028748,0.30673,-0.13577,0.12019,0.17474,0.029232,-0.25553
0.064234,0.11839,-0.30186,-0.011195,0.077738,-0.25671,0.078111,-0.02058,-0.16658,0.01845,-0.33706,-0.35429,-0.20826,0.24121,0.021947,0.16149,-0.42021,-0.11261,-0.24785,0.048283,0.2389,0.30219,0.22558,-0.049726,-0.36746,0.31881,-0.091691,-0.1948,-0.20065,-0.065433,-0.1219,-0.087737,0.031751,0.0062308,0.56584,-0.10589,-0.15325,-0.052117,-0.020329,0.15157,-0.12418,0.049219,-0.075227,0.088699,0.32093,0.22498,-0.13932,-0.10406,-0.17683,0.10864,-0.045974,0.14443,-0.10222,-0.042902,-0.22069,-0.037059,0.071891,0.25017,0.12559,-0.21379,-0.13431,-0.11438,-0.20837,-0.17949,0.06736,0.14474,-0.13296,0.076609,0.017646,0.12008,0.070902,-0.92895,-0.16573,0.071245,0.079918,-0.11459,0.288,0.43622,0.075704,0.15729,-0.12339,0.38916,-0.00082273,-0.13965,0.108,0.2724,0.026249,-0.94742,0.36005,-0.10284,0.83935,0.12462,-0.16556,-0.15458,0.18698,-0.22003,0.16433,-0.33684,0.048836,-0.18453
0.54828,-0.67736,1.2309,0.12541,-0.16472,0.58493,0.4252,-0.020754,0.60508,-0.10845,-0.7526,0.21981,0.32593,-0.72293,0.30446,-0.28103,-0.10336,0.22216,0.28759,0.55667,0.25602,-0.14549,0.13067,-0.14738,-0.15003,-0.063164,0.060971,-0.40643,-0.011045,0.058853,-0.083859,-0.69722,-0.3334,-0.30868,-0.27214,-0.19125,0.18076,-0.43659,0.33121,-0.60977,-0.29936,0.075164,0.056675,0.10173,0.12588,-0.3142,-0.66873,0.29421,-0.10136,0.113,-0.48954,0.22126,0.18223,-0.59223,-0.24472,0.049551,0.29184,0.43974,-0.14435,0.35703,0.005899,0.46665,-0.10119,-0.34032,-0.22136,0.57728,0.0064508,-0.1433,0.43684,0.19101,0.077346,0.96308,0.21956,-0.098908,0.056986,0.6317,0.76313,0.23536,0.14367,-0.29068,0.077494,0.10512,-0.70933,-0.12474,0.24882,0.076077,-0.79423,-0.059348,0.0061672,0.5181,-0.21399,1.2537,0.083561,0.083993,-0.23781,-0.27128,-0.13918,0.25678,-0.39394,-0.17243
0.027688,0.14201,0.13886,0.022485,0.018574,-0.14834,-0.071475,-0.18686,-0.24692,0.031024,0.13635,0.20864,0.097491,0.20916,0.061158,0.1589,-0.021137,-0.026918,0.16115,-0.063982,-0.31831,-0.2412,-0.24838,-0.026163,0.27523,-0.20965,-0.18554,0.24822,-0.080904,-0.10537,0.377,-0.37513,0.10985,0.19065,-0.52649,-0.35086,-0.0027468,0.05181,0.1931,-0.23762,0.055086,0.14699,0.24338,0.22077,-0.089062,0.24394,-0.30682,0.087478,-0.18372,0.19818,-0.34485,0.0040685,0.24091,0.0002195,0.23329,0.14055,-0.062801,-0.22121,-0.16989,0.045854,0.056851,-0.16901,0.12362,0.35329,0.21711,0.0044002,-0.27201,0.014967,-0.17818,0.0054713,0.0058528,0.12471,-0.15134,0.2387,0.076251,0.39821,-0.057036,-0.31948,0.022191,0.069384,-0.3391,0.033641,0.10985,0.10887,0.13835,-0.10548,-0.050057,0.10053,-0.12227,-0.17701,-0.19728,0.19492,0.1758,-0.024275,-0.18117,0.2835,-0.37614,0.318,-0.19549,-0.066152
-0.20401,-0.14358,0.09402,-0.034765,0.10605,0.27546,-0.12891,-0.26935,0.089526,-0.018499,-0.096776,0.092108,-0.065661,0.24123,0.1525,-0.12846,0.047813,-0.011155,-0.10853,0.076592,-0.23203,-0.1231,0.13074,0.15036,0.14104,0.41556,-0.041305,0.33571,-0.20002,-0.28469,-0.16467,-0.64224,-0.011507,-0.26254,0.051461,0.26538,-0.073818,0.1251,0.060322,-0.024427,0.011113,0.13207,0.10505,-0.22131,0.1541,0.045515,-0.15283,0.10617,-0.070769,-0.15553,0.15612,0.0095354,-0.0024157,-0.146,0.13219,0.21974,-0.097254,0.022554,-0.18362,0.24,-0.091331,0.34941,-0.17253,-0.1638,-0.064489,-0.03509,0.057739,-0.1253,-0.013653,-0.017783,0.17066,0.23437,0.050849,0.14499,0.0093,0.10049,0.29055,0.27985,0.083225,0.13109,0.16313,-0.17373,0.11994,-0.21484,0.10825,0.21429,0.092242,-0.022874,0.035633,-0.20468,-0.28361,0.5697,-0.29826,0.13016,-0.14219,-0.13075,-0.21269,-0.29874,0.088808,-0.13029
-0.27733,0.13767,-0.014378,-0.225,0.080672,-0.055767,0.046258,0.18565,-0.018312,0.11832,-0.20125,0.10561,-0.017097,-0.32595,0.16805,-0.27502,-0.10326,-0.18817,0.13294,-0.19778,0.069727,-0.072168,0.20206,-0.18308,-0.10423,-0.28799,-0.22877,0.15445,0.04815,0.15599,-0.32606,0.17378,0.11161,-0.089287,-0.29194,-0.082549,0.055308,0.068187,-0.22136,0.25661,0.1511,0.057869,0.05423,-0.053172,0.093592,-0.16866,-0.19845,-0.24645,0.26218,-0.012895,0.0045693,0.26792,0.24784,0.18753,0.27032,0.17274,-0.10347,-0.06543,0.061413,0.11737,0.084437,0.34455,0.016639,0.092495,0.04277,0.051285,0.36057,-0.055842,-0.24543,-0.12959,0.1805,0.70356,-0.16303,-0.19069,-0.31715,0.28921,0.19871,0.23674,0.11472,-0.10635,0.22688,0.44719,-0.30359,-0.13819,0.065566,-0.026835,0.153,0.070966,0.053187,-0.16355,0.15926,0.41155,-0.099955,-0.26331,0.014507,0.08698,-0.15218,-0.24673,-0.23943,-0.18373
-0.16761,-0.079817,-0.29002,0.12026,-0.12207,0.010381,-0.27032,0.11176,0.157,0.23754,-0.13033,0.086634,-0.12296,-0.088148,-0.011431,-0.093834,0.15945,0.27778,0.14377,0.035702,-0.42482,-0.13148,0.14539,-0.15155,-0.012319,0.389,-0.16457,0.14361,0.093451,0.30314,0.10476,-0.57462,0.00047654,-0.26099,0.45316,-0.38343,-0.11659,0.14811,0.3346,0.27005,-0.18401,0.093721,0.18292,0.15368,0.11033,0.064548,-0.16103,0.074092,0.031614,-0.0012045,0.1543,-0.053923,-0.47414,-0.044596,0.066136,-0.24585,0.19884,-0.19041,-0.20448,0.050311,0.28836,0.095084,0.24382,0.31597,-0.078489,-0.13818,-0.092897,0.2193,0.12555,0.23714,-0.27965,0.09423,-0.39274,0.0022955,0.36433,0.077515,0.13842,0.056499,-0.28231,0.038139,0.17189,0.11893,0.11717,-0.021634,-0.40004,0.042047,-0.25312,0.085342,-0.27833,-0.046542,-0.37134,0.19775,0.062519,0.0029879,0.10476,0.22267,-0.18939,0.16911,0.098246,0.15305
-0.091093,-0.2146,-0.27658,0.032532,0.13547,0.053261,0.24148,0.28578,-0.030418,0.065689,-0.038929,0.046717,-0.23622,-0.11802,0.25517,0.1165,-0.011482,-0.14834,0.038851,-0.012965,-0.15367,-0.26585,-0.284,0.14355,0.2622,-0.26738,-0.11548,-0.15327,0.35767,0.23236,0.31567,0.76199,-0.15274,-0.14853,-0.12831,-0.18416,-0.13867,0.14997,-0.045769,-0.22903,-0.21195,-0.010245,0.06208,0.14559,-0.035588,-0.14402,0.27143,-0.060808,-0.23084,-0.21198,-0.14271,0.093934,0.2867,-0.25081,-0.31655,0.16447,-0.22034,0.067686,0.9354,-0.046081,-0.061983,-0.36881,-0.011626,0.22148,-0.34247,-0.010215,-0.33057,-0.28094,0.26237,-0.037714,-0.20392,-0.3252,-0.08212,-0.35275,-0.031545,-0.085105,-0.12049,-0.22676,-0.24941,-0.050156,-0.082329,0.039707,0.3214,-0.14922,0.065502,-0.051655,0.0091565,-0.045765,0.19967,0.11358,-0.11244,-0.074839,-0.087512,-0.2415,-0.053947,0.32096,0.41588,-0.050759,0.10303,-0.20403
0.041043,0.7508,-0.27043,0.052627,0.11912,-0.89865,-0.90965,-0.34247,-0.6435,-0.23054,0.34938,0.13734,-0.085967,0.81806,0.025081,0.19927,0.11517,0.073965,-0.243,-0.75291,0.0066512,0.03004,-0.2824,0.096381,0.0051441,0.20027,0.10535,0.60063,-4.6655e-05,0.027559,0.0021594,-0.17015,0.5327,-0.069819,-0.12993,0.29465,0.0080121,0.88087,-0.36043,0.63925,0.83629,-0.17656,-0.25722,0.026184,-0.019178,0.44625,1.1069,0.014187,0.42393,0.18801,0.088193,-0.044167,0.23351,0.83199,0.6468,-0.26993,-0.27915,-0.52778,0.094646,-0.42615,0.21627,-0.10973,-0.30397,0.16827,0.26126,-0.85611,-0.11559,0.31686,-0.66595,-0.69921,-0.26667,-1.1089,0.17767,0.16056,-0.10587,-0.88249,-0.20521,0.2232,0.053232,-0.15273,-0.22557,0.11849,0.62857,-0.13081,-0.39515,-0.10982,0.10333,0.08152,0.059953,-0.53533,0.36292,-0.21241,-0.069169,-0.3889,0.35499,0.19391,0.55031,-0.20815,0.88968,0.092925
0.23217,0.081062,-0.10163,0.21284,-0.25907,0.070046,-0.088005,0.28874,0.29805,0.13222,-0.075876,-0.15161,-0.10274,0.16019,-0.054332,-0.034207,-0.26624,-0.13433,-0.1445,-0.012239,0.13939,-0.12764,-0.18758,0.22906,0.13121,0.099648,0.20263,-0.13862,0.27232,-0.15514,0.093209,-0.0018909,-0.044291,0.13815,0.31756,0.042375,-0.18335,-0.1029,0.050803,-0.3305,0.081329,-0.17028,-0.12791,-0.05864,-0.18787,0.13984,-0.13362,-6.1895e-05,-0.13881,-0.033658,0.11229,-0.22054,-0.24218,-0.021281,-0.21102,0.013983,-0.010366,0.037587,-0.20355,0.20102,-0.099147,-0.20117,0.036247,0.18185,-0.10435,-0.15161,-0.010261,0.20245,0.18112,0.27266,-0.36479,-0.10229,0.14746,-0.047444,0.3001,0.090591,-0.24598,0.070177,-0.12295,0.4408,-0.30819,-0.18972,-0.07463,0.23871,-0.023896,0.072011,0.050852,0.10372,-0.16022,0.036788,-0.14067,0.090763,-0.15004,0.23796,-0.082642,0.22197,0.21167,0.13917,-0.055477,0.26059
-0.020937,-0.096454,0.11262,0.089166,-0.27489,0.197,-0.046296,0.18461,-0.046492,-0.047268,0.5198,0.31358,-0.26816,0.2854,-0.092499,-0.16045,0.53757,0.22218,0.1977,-0.11837,-0.024116,-0.12711,-0.34941,-0.29638,0.024363,0.19011,-0.2748,0.25298,0.0033261,0.026292,-0.10849,-0.68105,-0.1104,0.054751,-0.34377,0.039807,0.26164,0.061923,-0.018683,0.0065369,-0.059798,-0.19504,-0.071073,0.28779,-0.14077,-0.24182,-0.25099,0.37371,0.095276,0.00031669,-0.29027,-0.044933,-0.05146,-0.17397,-0.12332,0.12594,0.006731,-0.13527,-0.23666,-0.14568,-0.11585,0.03246,-0.097973,0.010221,0.10538,-0.12223,0.058763,0.062982,-0.065056,0.065324,-0.2359,0.36779,-0.10011,0.18331,0.016722,0.49175,0.16147,-0.095588,0.081366,-0.0027736,0.11884,-0.053103,0.14981,-0.031074,-0.54568,0.067005,-0.17462,0.58066,-0.3349,-0.16637,-0.67272,0.42741,0.16305,-0.20519,-0.12382,0.30051,0.11563,-0.095271,0.098418,-0.13234
-0.11928,0.60301,0.63566,-0.23029,-0.3403,-0.061851,-0.44856,-0.52897,-0.40438,-0.087802,0.22126,-0.14674,-0.033663,0.15997,0.029717,-0.019285,-0.16127,-0.087135,-0.25926,-0.26839,0.27372,0.13319,0.39426,0.32097,-0.1065,0.089877,-0.39601,0.12865,-0.16811,-0.30985,0.11662,0.15083,0.50653,-0.13283,-0.31201,0.14113,-0.19404,0.44515,-0.13293,0.39868,0.32221,-0.2994,0.10343,-0.13598,-0.0017364,0.077222,0.17943,-0.01858,0.21284,-0.2223,0.121,-0.20412,-0.13287,0.19093,0.34839,-0.27599,-0.16051,-0.38442,0.23893,0.23525,-0.091004,0.14389,0.14136,0.12584,-0.12452,-0.59294,0.22409,0.10942,-0.19312,-0.010693,-0.28519,0.035685,-0.16509,0.09522,0.11438,-0.11275,0.062881,-7.296,0.080562,-0.66256,0.27647,-0.064818,0.17873,-0.063556,-0.1301,0.24198,0.0051775,0.20138,0.015351,-0.18091,0.0045929,-0.0044876,-0.075382,-0.3763,-0.058772,-0.0076736,-0.26631,0.023518,0.17423,-0.10541
0.18879,0.18634,0.16794,-0.38847,0.36018,-0.20848,-0.12132,-0.17475,-0.2917,-0.67848,-0.05413,-0.47076,-0.14395,-0.064932,0.072612,0.16435,-0.20813,-0.6774,-0.036565,0.12078,-0.27447,0.36512,-0.25506,0.57069,-0.39354,-0.37285,-0.064069,0.15747,0.17263,-0.83099,-0.092196,-0.0038291,0.14836,0.47839,0.039188,0.46748,-0.71839,0.31115,-0.17273,0.029096,0.17091,-0.040802,-0.5517,-0.32098,0.049902,0.59417,0.25562,-0.026762,0.11458,-1.5484,-0.2427,-0.024263,0.17251,0.17246,0.35005,-0.8211,-0.71934,-0.11329,0.3943,-0.51515,-0.08935,-0.040817,-0.62564,-0.45317,-0.15076,-0.018463,0.15287,0.10185,0.078511,-0.35363,-0.30604,0.024254,0.9315,-0.15677,0.18174,-0.24426,0.26667,0.33779,-0.083151,0.17478,0.4209,0.27463,-0.13541,-0.74676,0.24519,0.82016,0.37972,-0.23977,0.71958,-0.03635,0.12161,-0.02378,-0.79276,-0.43233,0.39818,-0.27564,0.1912,-0.66628,0.065138,-0.34678
-0.063807,0.60741,-1.1894,-0.25238,0.048001,-0.57769,-0.28931,0.14191,-0.50429,0.061252,0.14958,-0.0067635,-0.0030575,0.64474,-0.21308,0.10956,-0.015369,-0.21172,0.10274,-0.40589,-0.076859,-0.23398,-0.4558,0.16371,-0.10101,-0.060918,-0.14142,0.66094,-0.10907,0.13006,-0.13062,1.072,0.64541,0.70351,0.1041,0.019177,0.031478,0.61203,-0.06742,0.26291,0.31572,0.010931,0.17096,0.092736,0.11295,-0.0095556,0.41663,-0.084166,0.30782,-0.27864,-0.092909,0.16433,0.25342,0.2945,0.41837,0.082564,-0.24848,-0.57355,0.62241,-0.083679,0.31228,-0.15027,-0.30559,-0.11159,-0.086714,-0.3279,-0.19631,-0.13971,-0.23712,0.11276,0.084475,-2.0163,0.1813,-0.15137,-0.0011861,-0.86109,-0.7472,0.20834,0.094413,0.17163,0.024886,0.075295,0.70054,-0.15608,-0.61629,0.063033,0.76633,0.10924,0.29157,-0.32144,-0.043004,-0.36443,0.13019,-0.028447,-0.018896,0.2283,0.25006,0.072784,0.48462,0.088183
-0.61752,0.15928,0.2678,0.16691,-0.12311,-0.59132,-0.28438,-0.2549,0.013569,0.25224,0.049446,0.20241,0.055923,-0.023873,-0.095112,-0.3633,0.094621,0.34694,0.20723,-0.31201,-0.38183,-0.33787,0.15482,0.058974,0.11147,0.43027,0.02345,0.16822,-0.3627,0.19301,0.60931,-0.09906,-0.19375,-0.37206,0.1143,-0.096272,0.04529,0.054415,0.056462,0.27322,0.043146,0.2722,-0.21119,-0.0056208,0.0042985,-0.305,0.57349,-0.092902,0.28901,-0.1473,-0.21593,0.50503,0.051252,-0.23627,0.13775,-0.23457,0.45678,-0.074981,-0.20387,0.1634,0.3684,-0.26354,-0.2769,0.12686,0.4462,0.00066269,0.091332,-0.059212,-0.13156,0.29428,0.11863,0.093621,-0.054956,-0.25672,-0.036703,-0.1819,-0.17177,0.084441,0.31695,-0.10841,-0.091077,0.28728,0.3687,-0.1409,0.2087,-0.18861,0.16272,-0.029352,0.27182,-0.099669,-0.046952,0.092243,-0.2025,0.00084613,-0.091556,-0.19636,-0.19238,0.14652,0.37714,0.10578
0.068278,-0.28393,-0.15851,-0.099504,0.021943,0.69153,-0.36657,-0.0053708,-0.025983,-0.19426,-0.35281,0.21652,0.0015472,-0.31301,0.30302,0.64503,0.082365,-0.35389,0.092129,-0.21569,0.054928,0.10052,0.34316,-0.27058,0.2185,-0.54387,-0.44641,0.4188,0.11087,0.25046,-0.20239,-0.018186,0.44554,0.075582,1.1395,0.1626,-0.17384,-0.075296,-0.017862,0.01006,-0.021694,0.014723,-0.19995,-0.10235,-2.7166,0.27125,-0.34731,-0.19518,0.010804,0.20397,-0.18641,-0.078979,0.070879,-0.42759,-0.22005,-0.065701,-0.14632,0.087216,0.013351,-0.36465,-0.091892,0.17334,-0.16014,-0.33932,-0.5732,0.24388,-0.32812,-0.7733,0.24417,0.062282,-0.082151,0.32841,0.17481,-0.38913,-0.16122,0.016544,0.11187,0.50892,-0.40098,0.16834,3.7642,-0.12308,-0.46952,0.12524,-0.21641,0.040567,0.038151,0.55844,-0.12898,-0.1309,0.28106,-0.20178,0.16038,0.035864,-0.0077364,0.20574,0.44811,0.0021748,-0.0069886,0.13385
0.062159,-0.25457,0.054827,-0.29234,0.10339,0.10589,-0.14519,0.18125,-0.13913,-0.074208,0.11138,-0.24119,-0.19434,0.073147,-0.10125,0.07962,-0.11244,0.11122,-0.17907,-0.050025,-0.0023852,0.097934,-0.064129,0.055884,-0.2011,-0.0073115,0.034815,0.039374,0.22374,-0.29068,-0.084678,-0.071362,-0.20604,-0.047791,0.3246,0.34769,-0.25122,-0.10381,0.16078,0.10082,-0.18039,-0.04724,-0.35341,0.040419,0.16521,-0.2845,0.32188,-0.064298,0.10308,-0.28537,0.32873,-0.10297,-0.28579,0.24962,-0.20004,-0.098564,-0.27181,0.071892,-0.24183,-0.22562,-0.37241,0.032051,0.11334,-0.07378,0.054056,-0.22885,-0.15016,0.14681,-0.078899,-0.25815,-0.14482,-0.1846,0.292,0.082007,-0.039979,-0.27639,0.091215,-0.020762,-0.13839,0.11584,0.018359,0.16568,-0.020901,0.0014068,0.20695,0.375,-0.014595,-0.44616,0.083965,0.08178,0.057347,-0.32172,0.0077529,0.18627,0.26543,-0.27249,-0.13875,-0.14659,-0.11167,-0.10179
-0.086615,-0.24428,0.0036006,0.45128,-0.23966,0.085354,-0.02967,0.024178,0.23628,0.097677,0.0011249,-0.011874,0.19162,0.083587,0.030342,-0.052294,0.24639,0.45385,0.28577,0.32402,-0.32249,-0.053879,-0.20509,-0.25871,0.41589,0.047124,-0.094459,0.13824,-0.060398,0.14546,-0.082636,-0.18387,0.13749,-0.24585,0.0033397,-0.25019,0.24338,0.070574,0.34311,-0.067808,0.068697,-0.14989,0.3448,0.27337,-0.034208,-0.27682,-0.18385,0.17127,0.12234,0.41952,-0.085486,-0.32066,0.053112,-0.12232,-0.22539,0.016258,0.23383,0.15276,-1.1297,0.25121,0.092084,0.23103,0.32751,0.060346,-0.16549,0.22653,0.1334,-0.097142,-0.11967,0.24972,-0.099778,1.2073,0.054012,-0.35035,0.26893,0.58477,0.098088,-0.26028,0.099877,-0.029456,-0.18221,-0.19565,0.014093,0.30894,-0.056944,-0.42907,-0.31431,0.94828,-0.055728,0.13007,-0.47304,0.69306,0.42604,-0.16017,-0.41888,0.12881,0.20184,0.49351,-0.11124,0.29465
0.24644,0.17038,-0.068938,-0.014104,-0.037245,0.28545,0.014687,-0.083983,0.099544,0.22481,-0.11807,-0.07473,-0.19998,-0.11133,-0.29824,0.30171,0.10224,0.34301,0.37895,0.037882,0.33555,-0.22582,0.16127,-0.28659,0.10522,0.36707,0.14397,-0.24572,0.17967,0.12351,-0.013517,-0.39111,0.072242,0.061176,0.082085,-0.33929,0.11188,0.039083,0.18642,0.15345,-0.24031,-1.8695,0.26419,0.047212,0.1657,0.15413,0.16791,-0.1176,0.34728,0.018623,-0.18409,0.12214,0.038894,0.19651,0.1351,0.38373,0.32084,0.2179,-0.055615,-0.17608,0.12241,-0.09617,0.4041,0.25114,-0.23337,0.21649,-0.24759,-0.32893,-0.041338,0.10576,0.099277,0.34711,-0.21057,0.1868,0.47962,0.47181,0.086869,-0.064308,0.061211,0.18893,-0.04765,-0.30681,-0.21985,0.15673,-0.28331,-0.40199,0.084921,0.067696,-0.032967,-0.17774,-0.070657,0.36104,0.12125,-0.084513,-0.098836,0.017822,0.17715,0.33113,0.0054676,0.023379
-0.0058,-0.4313,-0.33469,0.30303,-0.10026,-0.045004,0.028759,0.13342,0.39921,0.27563,-0.35401,0.24669,-0.21526,-0.087757,-0.024494,-0.084899,-0.12255,0.1748,0.087758,0.065785,-0.14856,-0.20719,0.080668,0.097726,0.078244,-0.10006,-0.29088,-0.25258,-0.21201,0.24192,0.36067,0.91286,-0.43368,0.15667,0.42883,-0.090009,0.14064,-0.27876,0.2278,-0.12533,-0.16997,-0.27638,0.25293,0.18943,-0.097325,-0.01096,-0.061647,-0.098982,-0.22344,0.032158,-0.17145,0.19897,0.16986,-0.01413,-0.13382,0.17915,-0.050853,0.17012,0.0040183,-0.038217,0.052037,-0.12284,0.1476,0.40635,-0.037993,0.27397,0.18249,0.29625,0.43284,-0.27169,0.90889,0.063485,0.030035,0.36913,0.30959,0.065053,-0.11271,-0.038772,0.21677,0.18065,-0.25286,-0.010261,-0.26559,0.076081,0.0071122,-0.18873,-0.0011564,-0.51688,-0.20575,0.34501,0.15448,-0.22091,-0.10935,-0.075877,-0.20298,0.17326,0.31036,-0.19865,-0.28116,-0.16593
0.36852,-0.22513,0.10707,0.043651,-0.10009,0.0065436,-0.12893,-0.032259,-0.12315,0.077426,-0.062746,0.057738,-0.097467,-0.10289,0.18853,-0.20099,0.64214,0.34425,0.38153,0.15223,-0.2521,-0.16116,0.13879,-0.3979,0.29168,0.24165,0.14636,0.059751,-0.052788,-0.0019918,-0.11553,-0.30093,-0.14739,-0.021538,0.028913,-0.34846,-0.088176,-0.041108,0.065073,0.22672,-0.067161,-0.14839,-0.15295,0.41895,0.19383,-0.18263,0.20753,-0.022787,-0.018358,0.12332,0.1019,-0.33742,-0.31752,-0.090742,-0.24282,0.17167,-0.069178,0.24431,-0.025379,0.16393,0.26633,0.056591,0.082689,0.10171,-0.031472,0.26789,0.19933,-0.2898,0.21273,0.25497,0.11828,-0.028356,-0.19575,0.24206,0.13506,0.23881,0.031182,-0.19907,0.036198,-0.12709,0.011966,0.015908,-0.088833,0.025907,-0.073381,-0.14138,-0.077037,0.33628,-0.43753,-0.010842,-0.099128,0.23721,0.204,0.23467,-0.10079,-0.21094,0.16672,0.064659,0.33984,0.30057
0.19293,-0.41424,-0.70152,0.030594,-0.2568,0.28811,0.58804,-1.6738,0.29129,0.062963,-0.21079,0.18402,-0.35144,-0.62466,0.095378,0.092674,0.077717,-0.077223,0.091935,0.57137,-0.29532,0.11405,-0.32875,-0.16123,0.10464,0.15178,0.37646,-0.2813,0.17742,-0.032351,-0.12745,0.071731,-0.58078,-0.060338,0.45809,-0.16764,0.1319,-0.45411,0.22607,-0.30359,-0.40828,-0.12662,-0.079186,0.092377,0.027262,-0.018508,0.051741,0.13638,-0.15607,-0.26436,0.15893,-0.28719,-0.0048289,-0.15384,-0.18701,0.11972,0.22564,0.29404,0.03793,-0.20569,0.21524,-0.27309,0.068298,-0.029348,0.060014,0.21186,-0.11401,0.040753,0.448,-0.20124,-0.39322,-0.067118,-0.27618,-0.3535,0.1198,0.10354,-0.059812,-0.071124,-0.14575,0.64867,0.13231,-0.11636,0.078712,-0.0080928,0.048411,-0.21181,0.16695,0.066678,0.1702,-0.055165,-0.055756,-0.060275,-0.090795,0.20892,0.13863,-0.08602,0.16363,-0.13358,-0.21945,0.12365
0.068339,-0.0020003,0.15856,-0.32697,-0.099096,0.11882,-0.15973,0.17061,-0.084928,-0.21808,0.14694,0.070454,-0.088079,0.29439,0.43152,-0.29998,-0.0352,-0.012017,-0.19332,-0.11695,0.35761,0.23243,-0.19343,-0.040515,-0.2974,0.17831,-0.13113,-0.12824,-0.23005,-0.19039,0.055693,-0.10822,-0.24132,-0.036993,-0.10652,0.24642,-0.18864,-0.09348,-0.3141,-0.15208,-0.034523,-0.016596,-0.16354,-0.0013954,-0.14842,-0.28507,0.2594,-0.20388,-0.35659,0.077692,0.1495,0.017796,0.023452,0.014087,-0.0026369,-0.23868,-0.057491,-0.023916,0.42469,-0.17835,0.21126,-0.45472,-0.28633,0.30391,-0.13909,0.16147,0.11661,-0.1307,0.11816,0.052762,-0.10708,-0.34441,-0.049732,-0.069748,0.048807,-0.49295,0.054435,-0.075985,0.058985,0.20938,0.060343,-0.10048,-0.1406,-0.40243,0.26794,0.0078523,0.31225,-0.15587,0.22294,0.24788,0.28577,-0.33995,0.078196,0.0042045,0.11604,0.064187,0.056238,0.13539,-0.11632,0.081598
0.18864,-0.12813,-0.010948,0.32852,-0.078121,0.088004,0.23745,0.2515,0.10689,-0.076308,0.41187,0.076015,0.097315,0.14709,0.071734,0.22288,0.26617,0.039658,0.062412,-0.033855,-0.22863,0.047787,-0.14962,-0.055961,0.24514,0.22709,0.1138,-0.12724,-0.087977,0.11223,0.26511,-0.39647,-0.026518,-0.26857,-0.14302,-0.28903,-0.034171,0.20345,-0.13397,0.018628,0.097461,-0.22189,-0.040925,-0.069752,0.23904,0.074244,-0.27332,0.10208,-0.0069343,0.1045,0.21171,-0.17167,-0.096119,-0.22143,0.079507,-0.066088,0.33952,0.16273,-0.05125,-0.071031,0.26942,-0.017448,0.057653,-0.0095258,0.099824,0.23296,0.10796,-0.21977,-0.16351,-0.14318,-0.19999,-0.068121,-0.36991,0.18293,0.15431,0.43937,-0.075779,0.016857,0.14306,-0.38902,-0.22366,0.021867,-0.10435,0.031922,-0.203,-0.2489,-0.059749,0.54675,0.065417,-0.06445,-0.088042,0.28304,0.2754,0.17694,-0.30944,0.012794,-0.33208,0.21425,-0.29886,0.16252
0.023015,-0.21649,0.07537,-0.0083048,-0.24453,0.062082,-0.16108,0.13684,0.20602,-0.019642,0.39243,0.32099,0.097633,-0.059876,-0.28584,0.087057,0.56175,0.38723,0.099664,-0.13511,-0.15201,0.17604,-0.29216,-0.26132,0.18667,0.233,0.1357,0.18118,0.1279,0.43255,-0.1441,-0.090495,0.081128,-0.12398,-0.011015,-0.20055,0.043427,-0.13193,-0.058313,-0.28175,0.096201,-0.4308,0.28062,0.12623,-0.032647,-0.25106,0.09984,0.18945,0.19714,0.023958,-0.24065,-0.34707,-0.35806,0.15073,0.088994,-0.047408,0.32225,0.14611,-0.086464,0.20553,0.06196,-0.03167,0.39195,0.01138,0.034646,0.29007,0.14407,-0.17125,0.21778,0.14863,-0.13499,0.58327,-0.29175,-0.26328,-0.14642,0.019542,0.093851,-0.15907,-0.06897,0.16393,-0.060685,0.23787,-0.12586,0.21326,0.1788,-0.18773,-0.075038,0.3833,-0.10891,0.23103,-0.52109,0.12574,0.013974,-0.033785,-0.18819,-0.087338,-0.29742,0.015767,-0.0024792,0.025055
0.22543,-0.19214,0.19675,-0.16956,0.070582,0.30767,-0.19064,-0.17509,-0.16401,-0.12923,-0.25334,0.19326,-0.028806,-0.39394,-0.28719,0.42443,-0.19607,-0.08228,-0.24318,0.18793,0.037393,0.083664,0.25298,0.010196,-0.24773,0.054187,-0.11213,-0.17999,0.0049546,0.062741,-0.052594,0.0022457,-0.20999,0.16054,0.1039,-0.11955,-0.12931,-0.19844,0.085388,-0.16263,-0.02147,0.10117,0.2211,0.2142,0.12405,-0.19777,-0.30944,-0.087104,0.15229,-0.19669,0.17856,0.24103,-0.14254,0.036393,-0.034736,-0.13251,0.3908,0.17331,0.065651,0.17931,-0.30078,0.2537,-0.027457,-0.2567,0.24697,0.23154,0.30313,-0.076324,0.22751,0.0045338,0.030493,0.3305,0.039229,0.15267,-0.075458,0.11651,0.33756,-0.10984,0.28721,0.15949,0.19893,-0.27721,-0.13902,-0.065167,-0.16195,0.0066157,-0.11868,0.081273,0.23721,-0.021433,0.12891,0.29275,0.021465,-0.038597,0.22585,0.068709,-0.19885,0.20106,-0.33355,-0.14622
-0.27133,0.18646,-0.095827,-0.015482,0.16103,0.038907,0.12655,-0.16417,0.05668,0.044518,-0.41256,-0.043129,-0.032569,-0.069963,-0.15105,0.023336,-0.08641,0.29496,0.081396,0.17189,-0.045107,0.18368,0.22724,0.20897,0.015951,0.2807,0.2054,-0.17551,0.053554,-0.00016408,0.19983,0.026397,-0.56202,-0.0011741,0.55045,0.050425,-0.27089,-0.017078,0.029872,-0.23577,-0.20683,0.0015457,0.15998,-0.081528,0.1561,0.2584,-0.0039887,0.035913,-0.47762,-0.28061,0.1265,0.11479,0.063188,-0.067773,0.18852,0.45856,-0.040404,-0.065074,0.0057066,0.2885,-0.32884,0.07039,0.024877,-0.0085869,0.20938,0.24254,0.28758,0.31449,-0.019241,0.17572,0.063371,-0.12438,-0.16669,-0.094837,-0.034696,-0.47836,-0.04842,0.095876,0.26837,0.19307,0.082807,0.34126,0.049452,-0.049073,0.25537,-0.076718,-0.24392,-0.69497,-0.049229,-0.076191,0.33538,0.1109,-0.16102,0.20925,0.15153,-0.2624,-0.080296,0.054965,-0.21781,0.078803
0.06475,-0.044724,-0.37022,-0.18564,-0.01978,-0.12338,0.19103,-0.059783,0.058354,0.064251,-0.0038851,-0.14845,-0.0056419,0.15184,-0.26824,-0.13599,-0.56882,0.031047,0.1694,0.21183,0.25277,0.068728,-0.17334,-0.060922,0.056018,0.17181,0.21892,-0.21591,0.093424,0.1571,-0.23448,0.19307,-0.37084,-0.063628,0.51982,0.15678,0.22694,-0.12437,-0.22624,-0.29052,-0.22625,0.15954,-0.07146,0.14431,-0.17397,-0.068161,0.28378,-0.26239,0.14302,0.19849,-0.13149,-0.17525,-0.18815,-0.34776,0.02323,-0.0085746,0.056251,-0.037557,0.018845,0.10005,-0.038746,-0.1301,0.085991,0.24455,0.16582,0.1477,0.15723,0.096363,0.16944,0.15488,0.27453,0.0070707,0.001541,-0.22631,0.07585,0.17146,0.12683,-0.015316,0.23544,0.37206,-0.098971,0.062933,0.1969,-0.0189,0.65851,-0.020193,0.34259,-0.73895,-0.10947,-0.13934,0.22633,-0.25439,0.18641,-0.14699,0.021919,-0.057279,0.00098782,-0.20702,-0.0026471,-0.21112
0.10148,-0.15088,-0.21653,0.071178,-0.32598,0.19093,-0.053715,-0.241,-0.10848,0.12683,-0.040422,0.074403,0.21243,-0.092277,-1.0005,0.062607,-0.17831,0.16152,0.12427,-0.044408,0.088149,-0.13389,0.17202,-0.091607,0.15038,0.22824,-0.030078,-0.013447,0.04776,0.37837,0.093749,-0.36403,-0.11217,0.12035,-0.021183,-0.10853,0.30577,-0.078698,-0.25311,0.12682,-0.19536,-0.073537,0.022262,0.091518,0.41014,-0.044961,0.13961,0.11126,0.22281,0.34899,0.065211,-0.21981,-0.19096,0.10748,0.22703,0.065814,0.35377,0.22386,-0.23411,0.22944,0.33877,0.20888,-0.25291,0.42028,0.2086,0.10435,0.18075,0.19804,-0.20682,-0.20357,-0.0072385,0.20581,-0.42914,-0.21584,0.010025,0.25325,0.03807,0.13511,-0.2174,0.13813,-0.23293,0.071791,-0.058166,0.043398,-0.16138,-0.2513,-0.54245,0.68776,-0.093996,-0.22676,0.019104,0.43535,0.17126,-0.13283,-0.38043,0.017699,0.10685,0.2324,-0.063395,0.28063
-0.23359,0.070421,-0.24537,0.28312,-0.24272,0.15738,0.00029924,0.12297,-0.095814,0.11858,-0.079926,0.20813,-0.02898,-0.14406,0.045371,0.2394,-0.16606,0.27285,0.055072,0.31675,0.012152,0.07647,-0.077394,-0.16043,-0.062612,-0.12958,0.4179,-0.063496,-0.13573,0.17418,0.1574,0.084671,0.11742,0.06149,-0.070549,-0.25804,0.015075,-0.30055,-0.01237,-0.13929,-0.2491,-0.3659,0.023556,-0.12113,-0.10505,-0.22076,0.16571,-0.35453,-0.34742,-0.19203,0.12606,-0.050829,0.13476,-0.1111,-0.20264,0.075037,-0.21378,-0.10062,-0.24796,-0.43978,0.08921,-0.16494,-0.19824,0.023495,-0.16034,0.19275,-0.38892,-0.12277,0.21298,0.057511,-0.33656,-0.21971,-0.22363,0.13727,-0.021778,-0.022411,0.0401,-0.028501,-0.22417,0.1239,0.074811,-0.03688,0.11438,0.19542,0.0066336,-0.10265,0.091944,-0.079879,0.20863,0.18017,0.37865,-0.22517,-0.1503,-0.087111,0.0084348,0.13087,0.15448,-0.014421,-0.15763,-0.19825
-0.091273,-0.72323,1.2579,0.22993,-0.17709,0.80119,0.70483,0.12742,0.39731,-0.033033,-0.44763,0.016444,0.29493,-0.68469,0.088482,-0.24091,-0.15057,-0.1369,-0.14179,0.59269,0.1031,0.18314,0.44964,-0.017469,0.050437,-0.14652,0.084185,-0.31159,-0.25044,0.30843,0.1383,-0.71429,-0.32249,-0.10796,-0.16386,0.14822,0.12946,-0.50458,0.3011,-0.55503,-0.42627,0.17444,-0.01363,0.20259,0.02465,-0.31336,-0.50846,-0.072956,-0.16803,0.17711,-0.22548,0.073085,0.092638,-0.36941,-0.69771,0.40766,0.18446,0.27837,0.074442,0.24696,-0.26636,0.37439,-0.097471,-0.1289,0.20261,0.61128,0.21011,0.039623,0.47285,0.14187,0.01854,0.72182,-0.15156,-0.028352,0.10658,0.68181,0.57578,0.16066,-0.013269,-0.30542,0.18203,0.068652,-0.90906,0.20021,0.38264,-0.18456,-0.20565,0.26307,0.085084,0.58191,-0.037737,2.9934,0.10223,0.38293,0.062095,-0.039985,-0.062813,0.29402,-0.26274,-0.063999
0.080008,-0.11461,0.041647,-0.36809,0.21486,0.085882,-0.24232,-0.21977,0.10022,-0.28103,0.30358,-0.37954,0.080823,0.20794,0.28581,-0.077705,-0.23067,-0.015593,-0.096513,0.16231,0.21848,0.0062741,0.11184,-0.010207,-0.16972,-0.14159,0.13953,0.21395,-0.13305,-0.30539,-0.029568,0.11055,0.16428,0.36831,-0.10902,0.36498,-0.14748,0.042749,-0.020748,0.12858,-0.097951,0.29668,-0.021783,-0.13819,0.077002,0.0017256,0.078134,0.20112,-0.17408,-0.38898,0.54294,-0.09094,0.089239,-0.21523,0.15973,-0.23133,-0.027992,0.20713,0.67116,-0.053137,-0.36978,0.081883,-0.22261,0.083126,-0.18206,0.12669,-0.12541,0.052564,0.0044223,-0.21207,0.0098236,-0.42612,-0.026152,0.20678,-0.066666,-0.27013,0.033749,-0.067932,-0.039721,-0.13104,-0.097534,-0.13905,0.20407,-0.21475,0.3621,0.0074294,0.36762,-0.29694,0.24242,-0.048405,0.32639,-0.65058,-0.19211,0.14512,0.10319,0.12645,-0.18105,-0.38787,-0.38938,-0.13212
0.069088,0.24495,-0.15573,0.29364,-0.28836,0.2459,0.039632,0.21522,0.18523,-0.25793,0.12568,0.0098674,-0.23226,0.059931,0.0025827,-0.2812,0.35468,-0.019997,-0.013546,0.19002,0.021265,0.15286,0.12883,-0.23256,-0.10147,-0.19614,-0.072148,-0.21242,-0.06512,0.041795,-0.19454,-0.20195,0.11765,0.047856,-0.53713,-0.25888,0.36164,0.20272,0.12583,-0.1426,0.068246,-0.17285,0.017567,0.0335,0.037526,0.27027,-0.076734,-0.031985,0.15878,0.021495,-0.010715,0.040823,-0.034259,0.037747,0.22759,0.27889,0.030129,0.069716,-0.16386,0.35709,0.049257,0.062939,0.081183,-0.22626,0.2115,0.010848,0.11483,0.2092,-0.090091,-0.045617,-0.06411,0.079768,0.037675,0.19725,0.53544,0.48009,0.071211,-0.20139,-0.23977,0.11357,0.057897,0.062949,-0.27515,0.063253,-0.1801,-0.21706,0.041733,0.16513,0.032147,-0.21198,0.14966,0.59308,-0.040592,0.2291,-0.031544,0.13157,-0.25649,0.32719,0.10761,0.22481
-0.045625,0.013308,-0.17663,-0.24138,0.21605,-0.095989,-0.0812,-0.025682,-0.099978,-0.24656,-0.21053,-0.052475,0.20128,0.13449,-0.11146,-0.010904,0.14747,0.059293,-0.22262,-0.011926,0.17895,-0.4016,0.27215,0.14098,0.15968,0.17562,-0.24275,0.26829,-0.13894,-0.011989,-0.075517,-0.29016,0.29109,0.036961,-0.19059,0.25744,-0.26586,0.059063,-0.060368,0.39631,0.060097,0.69816,0.034107,0.090081,0.094274,0.0077533,-0.077798,-0.26731,0.41248,0.29475,0.16822,-0.04482,-0.03975,0.38991,0.35747,-0.10277,0.37036,-0.47053,-0.16882,0.35757,0.3081,0.38072,0.037967,-0.039816,0.014421,-0.37992,0.0071685,-0.13149,-0.018749,0.13353,0.61605,-0.12143,-0.016018,-0.031139,-0.27697,-0.16896,0.027642,0.06828,0.34052,-0.16227,-0.13018,-0.15661,0.18615,-0.098893,-0.089518,0.18304,0.023569,0.044541,-0.095366,-0.30216,-0.070959,0.25048,0.13827,-0.22024,0.27488,0.11262,0.18085,-0.090646,0.14979,-0.12009
0.0037391,-0.16611,-0.19611,-0.30437,0.1887,0.045495,-0.049636,-0.13681,0.16674,-0.43803,0.011235,-0.55251,0.14349,0.10991,-0.066147,-0.18781,-0.38003,-0.49829,-0.56223,0.13601,0.12234,0.3631,-0.20184,0.53765,-0.62352,0.11205,-0.059926,0.14245,0.20364,-0.19419,-0.31155,0.23845,0.027284,0.1352,-0.16786,0.1766,-0.18109,0.29898,-0.29963,0.30734,0.20847,-0.041117,-0.3609,-0.50208,-0.29065,-0.22392,-0.25216,-0.34004,0.053662,-1.3301,0.53112,-0.17869,-0.16169,-0.087001,-0.010742,-0.28391,-0.020526,0.1404,0.33778,-0.5943,-0.2639,-0.021519,-0.32128,-0.29813,-0.13774,0.03065,-0.12762,-0.49467,-0.22406,-0.032676,0.11499,-0.25374,0.36349,-0.52021,-0.33428,-0.12311,0.31565,0.1177,0.018471,0.031238,0.73238,0.46772,-0.12867,-0.2793,0.4514,0.33282,0.79597,-0.20875,0.29111,0.032059,0.08882,0.13963,-0.2345,0.14357,0.23126,0.1136,0.5208,-0.2746,0.021872,-0.26229
0.091416,-0.22878,0.070688,0.14143,-0.26926,-0.027824,0.04485,0.051689,0.032312,0.20923,0.43926,0.092588,0.12202,0.10719,0.16904,0.18854,0.1412,0.25081,0.31115,0.2118,-0.30682,-0.10361,-0.13987,-0.35823,-0.10343,0.19712,-0.07936,-0.25385,0.2937,0.17343,0.3766,0.063513,-0.1072,-0.08402,0.22693,0.046807,0.0602,0.1525,0.20504,0.050725,0.15506,0.057615,0.21607,-0.034377,0.15693,-0.18361,0.24173,0.074142,0.062993,-0.012147,0.057031,0.033995,0.16646,-0.22443,-0.044076,0.077688,0.049967,-0.075109,0.10594,-0.12678,0.33736,0.16282,-0.10284,0.44383,0.18638,0.030671,-0.17069,-0.2912,0.22807,-0.21737,-0.11069,0.11939,-0.25338,0.1897,0.033559,0.59634,-0.13101,-0.21921,0.066629,-0.24033,-0.16472,-0.14665,0.12095,-0.042529,-0.23359,-0.061105,-0.099336,0.16039,0.0023101,0.014756,-0.087461,0.39928,0.2733,-0.049124,-0.11279,0.15073,0.018419,0.19634,0.075269,-0.10256
-0.0070896,0.07222,-0.2776,0.85806,-0.55774,-0.10923,0.10249,0.030957,0.24769,0.75667,0.022577,0.53138,-0.15331,-0.24379,0.098434,0.027533,0.071723,0.71582,0.76261,0.080274,-0.75005,0.0032162,-0.057829,-0.55287,0.73379,0.13288,0.1025,-0.18974,0.12654,0.61169,0.37359,-0.042661,-0.096262,-0.32418,0.1835,-0.61029,0.78735,-0.1799,0.94425,-0.043069,-0.063031,-0.044436,0.98363,0.5972,0.095113,-0.51732,0.14918,0.48467,-0.28843,0.7258,-0.57694,0.14048,-0.22776,-0.076936,-0.15834,0.18997,1.1453,0.013282,-0.35646,0.42245,0.33129,0.23247,0.99011,0.22542,-0.13497,0.082581,0.050916,0.15202,0.37069,-0.23119,0.072183,0.42073,-0.48217,1.1271,0.31234,0.0018632,-0.099218,-0.49106,0.2127,0.33646,-0.84928,-0.16007,0.14719,0.8919,0.019476,-0.64293,-0.42877,-0.068445,-0.36489,0.34315,-0.32525,0.11033,0.75212,-0.13194,-0.62701,-0.19148,-0.77599,0.98435,0.030693,0.91038
0.044001,0.22294,-0.20139,-0.053569,-0.34797,-0.090333,0.049412,-0.047327,-0.23395,-0.056186,0.50238,0.28104,-0.042638,-0.14192,-0.023254,0.077649,0.47185,-0.051653,-0.029603,0.22979,-0.29754,-0.3124,-0.049942,-0.10362,-0.057272,0.10519,-0.144,0.20052,0.15167,0.18116,0.32192,-1.4534,0.038003,-0.019275,-0.047191,-0.14012,0.05332,0.062434,0.28299,0.24679,0.21675,-0.15306,0.16692,0.094352,-0.22537,-0.20333,-0.29066,0.077936,0.010303,0.33626,-0.090627,-0.16112,-0.17723,0.12699,0.25546,0.17266,0.27033,0.020158,-0.51139,0.098378,0.16314,0.016792,0.086877,0.019042,0.17596,0.24541,-0.14715,0.3226,-0.20167,0.22516,0.024574,0.36259,-0.025373,0.026999,-0.045682,0.12496,-0.183,-0.060287,-0.075538,-0.0084254,-0.20956,-0.2568,-0.059259,0.33734,-0.063341,-0.095185,-0.0051577,0.456,-0.2392,-0.19985,-0.45918,1.4221,0.28502,-0.019495,0.086006,-0.0261,0.2853,0.21677,0.17627,0.0075077
-0.36765,-0.26998,-0.38455,0.021005,0.18989,-0.15657,-0.10125,-0.32936,-0.21774,-0.13761,0.15817,-0.050484,-0.032185,0.33384,0.30507,-0.27129,-0.13989,-0.030481,-0.033978,0.05803,-0.013147,-0.15724,-0.18351,0.039162,0.10978,0.30333,-0.016988,0.11812,0.10466,-0.14524,-0.079999,-0.15387,-0.22401,0.22704,-0.054064,-0.12506,0.25075,-0.023129,-0.21117,-0.242,-0.065913,-0.012113,-0.0386,0.25861,0.015232,-0.19033,0.33788,-0.37207,-0.057783,0.11554,0.031306,-0.35041,-0.15791,0.20087,0.11222,0.091582,-0.21701,-0.056122,0.19456,-0.0076317,0.31929,0.063136,-0.20009,0.20301,0.017826,0.24949,-0.16806,0.10466,-0.06363,0.026386,-0.082349,-0.052024,0.12511,0.12978,0.11758,0.051368,-0.17859,0.041333,-0.16005,-0.075918,-0.00054419,0.059526,0.35196,0.12318,-0.22698,-0.075655,0.051059,0.069112,-0.20878,-0.062164,-0.10561,-0.21084,0.10858,-0.16019,-0.13374,0.3566,-0.025416,-0.13141,0.29572,-0.038902
-0.22407,-0.023672,-0.22594,-0.35188,-0.098738,-0.18096,0.25747,0.086321,-0.0051124,-0.097612,-0.15748,-0.054108,-0.060964,-0.073156,0.042616,0.0070526,-0.54008,-0.027325,-0.10172,-0.0062751,-0.15266,0.02718,-0.09936,0.34677,-0.30083,0.02006,0.2919,0.033229,-0.23195,-0.32019,-0.36496,0.89914,0.058669,0.11829,-0.095947,0.051792,-0.033059,-0.025012,-0.22061,-0.22158,0.098421,0.24365,-0.3263,0.0007236,-0.047864,0.01441,-0.19291,-0.35596,0.10933,-0.058441,-0.00069787,0.31996,-0.18929,-0.11939,-0.12768,-0.045301,-0.24813,-0.034808,0.31761,-0.20449,-0.33596,-0.085966,-0.20905,0.19979,0.0042342,-0.19209,0.24291,-0.107,-0.077123,-0.25353,-0.017841,-0.38592,0.072954,0.11069,-0.38926,-0.29948,0.1306,-0.038209,0.092622,0.064018,-0.021025,0.013579,-0.017321,-0.080356,-0.07973,-0.096339,0.28062,-0.39546,-0.052115,0.26282,0.63032,-0.14314,-0.23525,0.25025,0.29216,0.010165,-0.0021526,-0.20313,-0.11313,-0.29053
0.52972,-0.51363,3.2517,0.2831,0.055493,0.72135,0.42958,0.13509,0.21823,-0.18175,-0.72549,-0.070949,0.32283,-0.35265,-0.17207,-0.18178,0.18428,-0.15041,0.10058,0.3736,-0.0015146,0.12128,0.42803,-0.095919,-0.13864,0.0042689,0.12193,-0.19027,-0.17823,-0.048566,0.032092,-0.48639,-0.34016,-0.65901,-2.3175,0.17696,0.32747,-0.4255,0.29731,-0.45147,-0.44726,0.14475,-0.20523,-0.026181,0.073135,-0.089915,-0.68312,0.62049,-2.0049,0.18821,-0.53043,-0.11532,-0.18035,-0.36636,-0.26862,0.1597,-0.063164,0.32974,-0.21998,0.76863,0.35367,0.39796,-0.14527,-0.002215,0.15959,0.26372,0.055633,-0.045639,0.45492,0.41025,0.040036,0.60787,0.0096558,-0.18838,-0.20946,0.11181,0.51105,0.23957,0.1264,-0.55792,-0.011827,-0.09587,-0.58909,-0.12689,0.54603,0.014263,-0.11069,0.013744,0.054621,0.4377,-0.051128,0.81135,0.32112,0.41574,0.12557,-0.27817,-0.31894,0.042327,-0.73123,0.14624
-0.027408,-0.026618,0.21344,0.048383,-0.11915,-0.055441,0.14952,-0.19612,-0.030509,0.012967,-0.024716,0.065533,0.036333,0.089836,0.093465,0.19955,-0.14953,-0.0078643,-0.20292,0.11596,0.075621,0.36451,0.32125,-0.1086,-0.07335,0.05803,-0.042069,-0.22639,-0.37668,0.17389,0.027631,0.043183,-0.22389,-0.21442,0.0084853,0.10585,0.15268,0.18351,-0.11581,0.095314,0.1255,0.015623,0.042275,-0.010726,-0.0026832,-0.22333,-0.11934,-0.18408,-0.091191,-0.34197,-0.19766,0.20249,-0.23149,-0.18051,0.23737,-0.18334,0.11651,-0.30636,0.10288,0.21313,-0.10971,0.11187,0.17251,0.19925,0.098841,-0.068955,-0.0027332,-0.046885,0.036993,0.1396,-0.095403,0.46746,0.3058,-0.12542,0.17915,0.097058,0.33828,0.11186,0.14963,-0.1844,-0.21774,0.2191,-0.11012,0.2019,-0.30508,0.13382,-0.10312,-0.18553,0.13512,-0.01948,0.1162,0.84821,-0.14986,-0.11619,-0.076124,-0.14742,-0.089726,-0.17759,0.037967,-0.038613
0.50644,-0.034387,-0.15367,-0.057731,-0.0025853,0.34568,0.36052,-0.087827,0.14166,0.10509,-0.058491,0.058296,-0.033788,-0.55729,0.32015,0.062548,0.092021,0.13002,-0.24148,-0.0021206,0.16542,0.057077,0.042029,0.13638,0.15365,0.15964,0.38911,0.10213,0.036752,0.078056,0.15014,-0.18314,-0.18515,0.0094285,0.33952,0.13684,0.14218,-0.21877,-0.14774,-0.38957,-0.12084,-0.47178,0.10617,-0.14229,0.33714,-0.046861,-0.13433,-0.18332,-0.36007,0.16876,-0.14902,-0.31303,-0.1919,-0.3838,-0.36185,0.080582,0.21264,-0.056723,0.027365,-0.043301,0.10604,-0.5046,-0.079613,-0.080761,-0.20885,0.13184,-0.18467,-0.016606,0.16862,-0.21059,-0.20254,-0.12615,-0.081008,0.22748,-0.14125,0.2824,0.52871,-0.0012739,-0.020434,-0.076565,-0.1674,0.027845,-0.19353,0.03095,0.054388,0.077899,0.071457,-0.13982,-0.033212,-0.10893,-0.040294,0.24138,-0.075093,0.077171,0.16752,0.21376,0.38761,0.040656,-0.60562,-0.091426
-0.41051,-0.052155,0.23607,-0.093035,-0.067901,-0.3025,-0.12797,-0.19968,-0.02295,-0.089257,-0.21566,0.088284,0.52615,0.24285,0.16692,-0.066416,-0.36509,-0.064411,-0.23008,-0.10899,5.2292,0.11195,0.34239,0.036198,0.13219,0.1345,-0.10654,0.84173,-0.48824,1.9512e-05,-0.056418,-0.24444,0.046632,0.22355,0.033591,0.22103,0.17907,0.35024,-0.17727,-0.042724,0.35288,-36.717,0.068093,-0.2101,0.06646,-0.13711,0.46906,-0.1882,0.057163,-0.15285,-0.12209,0.49598,-0.21667,0.31003,0.20368,-0.3195,0.039792,-0.076065,-0.10518,-0.25277,0.26107,0.32477,0.097538,0.20001,0.13504,-0.010312,0.08117,0.17655,-0.012198,0.35116,0.085436,-0.1967,-0.022084,-1.3583,-0.0019217,0.14314,-1.0349,0.098736,0.37419,-0.045191,0.75801,0.10833,0.60599,0.2517,-0.22424,-0.111,0.12999,-0.12347,0.14001,-0.26275,0.2184,0.19466,0.13568,-1.0046,-0.090647,0.064633,-0.21539,0.16163,0.41424,0.20293
-0.93562,0.42172,-0.59552,-0.20771,0.20171,-1.052,-0.63476,-0.086895,-0.66865,0.032953,0.25263,0.11901,-0.12709,0.89583,0.0052988,0.16048,0.22238,0.079315,-0.31946,-0.42113,0.18267,-0.23456,-0.11886,0.1206,-0.060175,-0.0083818,0.10278,0.87108,-0.15548,-0.28229,0.31632,0.40632,0.59216,0.44467,-0.040392,0.10703,-0.24077,0.77653,-0.0013127,0.65589,0.80438,0.10195,-0.046396,-0.2942,0.29845,-0.10959,0.99848,-0.0086975,0.12884,0.19079,-0.11393,-0.16738,-0.11004,0.41461,0.65052,-0.16604,-0.353,-0.76565,-0.041989,-0.034875,0.1212,-0.39973,-0.0069244,0.19649,-0.25129,-0.517,0.2018,-0.029286,-0.72467,0.24468,-0.33471,-0.79173,-0.21051,0.21303,0.17141,-0.32011,-1.0155,-0.057121,-0.08881,0.24645,-0.06801,0.33058,0.85257,-0.088415,-0.77144,-0.077072,0.58708,-0.19358,0.20627,-0.48613,0.30228,-0.26676,-0.243,-0.44418,-0.074608,0.20846,0.27499,-0.21697,0.63055,-0.04521
-0.21482,0.030452,-0.15569,-0.16306,0.28655,-0.30185,0.11405,-0.037414,-0.16284,-0.047692,-0.40659,-0.26103,0.092004,0.32899,-0.18246,0.010185,-0.49993,-0.20936,-0.36862,-0.13373,0.29058,0.14968,-0.10341,0.26104,0.032382,-0.28845,0.21273,0.0076871,-0.038723,-0.25476,-0.28396,0.38859,0.027229,0.0097644,0.050217,-0.049875,-0.2005,-0.044262,-0.089439,-0.086754,-0.19897,0.050752,0.006496,-0.1915,0.11586,0.41017,0.22339,-0.29519,0.11942,-0.13988,-0.28726,0.036019,0.11359,0.1977,-0.1989,-0.1622,-0.14368,0.2053,0.37223,-0.36728,-0.40893,0.14673,-0.16504,-0.0025951,0.031849,0.0062972,-0.00080898,-0.16189,0.20069,0.34855,-0.1595,-0.78549,0.029755,0.32544,0.091882,-0.16299,0.2562,0.34133,0.016609,-0.1517,-0.091756,-0.14398,-0.039609,-0.23012,0.079195,-0.021755,0.61919,-0.23328,0.087487,-0.060389,0.22689,0.090825,-0.2993,-0.30398,0.097025,-0.21942,0.14251,-0.28335,-0.16428,-0.31003
0.30492,-0.21959,0.16793,-0.017681,-0.36568,-0.042343,-0.012333,-0.18869,0.12015,0.35924,-0.021611,0.19358,-0.065531,-0.04746,0.057255,0.14961,0.27348,0.19974,0.15026,0.039404,0.11129,-0.19199,-0.17213,-0.2656,-0.09448,0.14156,0.94928,-0.081485,0.058683,0.32013,0.51417,-0.29609,-0.20169,-0.3748,-0.16762,-0.25463,0.36957,-0.25606,-0.22817,-0.10726,-0.0078041,0.13784,0.2808,0.17511,-0.0059484,-0.026878,0.1135,-0.1529,0.18366,0.14755,-0.51432,-0.14821,-0.40713,-0.22354,0.13254,0.32138,0.28836,0.056134,-0.30746,-0.1463,0.20443,-0.30132,0.24629,0.19301,-0.12444,-0.18415,0.083813,0.044765,0.067284,-0.23907,0.10445,0.43628,-0.072234,0.16056,0.12682,0.23014,-0.24054,-0.18778,0.042937,0.082929,-0.067466,-0.031972,0.11336,0.36024,0.080606,0.08079,0.091216,0.098386,-0.22947,0.16225,-0.021491,-0.01677,-0.077791,-0.13826,-0.38943,-0.14911,0.24381,0.40336,-0.098778,0.12442
0.30137,-0.076891,0.44178,0.096228,0.17063,-0.090799,0.18829,0.15838,0.10275,-0.26441,-0.17312,-0.0051449,0.28254,0.020998,0.0090437,0.10459,0.13236,-0.05668,-0.064979,-0.062664,0.24931,0.033906,-0.076586,0.23468,0.17474,-0.00021342,0.016766,0.048505,0.10364,0.13268,-0.020745,-0.12631,0.038077,-0.33817,-0.30033,-0.096675,-0.16413,-0.19068,0.15066,0.23098,-0.056585,-0.12213,-0.073947,-0.23827,0.057065,-0.16592,-0.059645,0.15007,0.1841,0.11202,-0.0026748,0.32898,0.022943,0.089244,-0.12398,-0.0050036,0.28377,-0.21952,-0.084953,-0.14693,-0.12347,-0.053613,-0.24261,-0.064384,0.36356,0.079834,0.14257,0.1761,0.05915,-0.053957,-0.095906,0.052533,0.20756,0.18574,-0.038803,0.15811,-0.083654,-0.09664,0.19576,-0.30147,0.033128,0.41474,-0.15524,-0.18072,-0.14859,0.11581,-0.076936,-0.027622,-0.0091529,0.041754,0.13512,0.20958,-0.056903,-0.1901,-0.045854,-0.071071,-0.064997,-0.14997,0.0478,-0.089273
0.021919,-0.34858,0.63182,0.056286,-0.26174,0.24867,0.3056,0.016863,0.25637,0.086007,0.04682,0.026399,-0.15391,-0.24255,0.25038,0.42285,-0.10547,-0.051536,0.30757,0.38906,-0.30249,0.13476,0.098404,-0.00084436,-0.017617,-0.20533,0.11771,-0.30134,0.41918,0.091065,0.08181,-0.17761,-0.51158,-0.16541,-0.35395,-0.090076,0.027432,-0.48941,-0.11332,-0.45171,-0.30718,4.5824,0.51791,0.16786,-0.38096,-0.055407,-0.23231,0.26303,-0.52335,0.16929,0.059799,-0.34685,0.41659,-0.52581,-0.36642,-0.030678,0.24801,0.35214,-0.18572,-0.016658,-0.059064,-0.44465,0.31848,0.051642,-0.4442,0.37225,-0.053434,0.16824,0.54268,0.12233,-0.26207,0.024591,-0.12179,0.20374,0.27709,0.10317,0.07363,-0.15052,-0.18366,-0.50839,-0.096488,-0.25457,-0.24517,0.19463,-0.02178,-0.25016,-0.21212,0.24236,-0.12262,0.5644,-0.1743,1.8475,0.13465,0.14085,-0.16715,0.47779,-0.046436,0.09686,-0.26057,0.29342
-0.56523,0.35503,0.10231,-0.17592,-0.11717,-0.64735,-0.024453,-0.32983,0.086783,0.040216,0.22021,0.080205,0.45894,-0.045498,-0.40595,-0.2151,0.076692,0.05435,-0.18352,-0.13626,0.083503,0.064663,0.37511,-0.072266,-0.12011,0.10124,-0.12702,-0.102,-0.31429,-0.082562,-0.15358,-0.030277,-0.028635,0.12913,-0.16196,0.26371,-0.12799,0.055268,0.14646,0.21504,0.14273,0.19611,-0.18142,0.16316,0.18424,-0.62516,0.37775,-0.17654,-0.10336,-0.2255,-0.032746,0.42888,0.24566,0.022975,0.12911,0.064681,0.018461,-0.18897,-0.0053141,0.50568,0.18612,-0.0062697,-0.058977,-0.077014,0.44158,-0.35844,0.47211,0.11378,0.061311,0.73942,0.31906,0.088137,0.13752,0.029265,0.099211,-0.12061,0.18263,0.23454,0.21724,-0.10224,0.1126,-0.015462,0.56914,-0.1632,0.29815,-0.019489,-0.11118,-0.23559,-0.24321,-0.24092,0.082584,-0.090156,-0.060055,0.078693,0.11823,0.053946,-0.084309,0.0088502,-0.049214,0.17622
-0.051457,0.09941,0.31541,-0.059963,0.17105,0.042704,-0.18647,0.26094,-0.3983,-0.15583,0.098691,-0.0090585,-0.22382,0.16237,0.090619,-0.1082,0.20739,0.089466,-0.1568,-0.33944,-0.075282,0.25895,-0.96876,0.1876,0.15875,0.32278,-0.11021,0.32594,-0.048002,-0.18975,-0.22575,-0.68208,0.086391,0.10298,-0.041125,0.046552,-0.2556,0.16916,0.15328,-0.032005,0.35548,0.13178,-0.25134,0.047609,-0.092805,-0.29191,0.37717,0.10065,-0.10287,0.24201,0.23035,0.025446,-0.15685,0.33513,-0.013681,-0.001176,-0.015436,-0.40457,-0.15221,-0.29852,0.21971,-0.04136,0.050386,-0.069966,-0.10166,-0.32282,0.050684,0.41245,-0.27215,-0.25713,0.078069,0.29176,0.00082626,-0.18292,-0.047518,0.34543,-0.21638,-0.2388,0.11653,-0.063859,-0.18049,-0.14176,-0.058275,-0.17358,-1.0426,0.18866,0.058101,0.79297,0.076996,-0.11139,0.054047,0.22477,0.051877,0.16125,-0.13081,0.021561,0.041244,-0.19938,-0.23454,-0.16546
0.26426,0.18559,-0.19852,-0.11782,-0.307,-0.0017908,-0.24871,0.12757,0.10618,0.10814,0.027965,-0.15305,0.11834,0.17149,-0.086318,0.19803,0.23688,-0.14761,0.24315,-0.0038725,-0.28386,-0.16004,-0.17681,0.10503,0.19687,0.3981,-0.24112,0.25375,0.092021,0.33038,0.47521,-0.72574,-0.012461,-0.23692,-0.031607,0.036908,0.20253,0.19451,0.18707,0.14362,0.011182,0.014411,-0.011876,0.20495,0.056684,-0.28538,-0.24444,0.12329,0.17045,-0.043734,-0.18865,-0.2454,-0.029475,0.030762,0.16021,0.20106,0.18698,0.059756,-0.28282,0.28003,0.33821,0.12269,0.16843,0.098372,-0.20888,-0.15317,-0.11172,0.097307,-0.20425,-0.10454,-0.2254,0.36125,0.21267,0.78186,-0.19242,0.65883,-0.08505,-0.33435,0.087777,-0.17997,-0.226,-0.2119,-0.29734,0.10604,-0.2259,-0.10606,0.064204,0.30713,-0.21245,-0.086355,-0.35335,0.3345,-0.12048,-0.066213,-0.14745,0.23814,-0.050175,0.15449,0.22516,-0.0079936
0.33325,0.043122,-0.21963,0.1003,-0.29575,0.25921,0.2732,0.219,0.17889,0.39724,0.060444,0.38501,-0.094332,0.10413,-0.18143,-0.011741,0.26384,0.21316,0.063356,0.21918,-0.046184,0.033699,0.1754,-0.074464,-0.087971,-0.17777,0.24471,0.23101,-0.0052872,0.11963,0.44557,0.19957,0.030278,-0.068397,-0.1707,0.035393,0.043426,0.04454,0.030906,-0.13066,0.1735,-0.016224,0.053824,0.20158,0.19627,0.18256,0.058541,0.32594,0.81421,0.22401,-0.11424,-0.040123,-0.16816,0.012751,-0.13271,0.10997,-0.016291,0.02394,-0.23748,-0.019922,0.46262,0.12749,0.27905,-0.2434,0.031032,-0.082718,0.20688,0.15953,-0.01961,0.017645,-0.072297,0.49782,-0.17217,0.34006,0.11035,0.52961,-0.14991,-0.21724,-0.19085,0.24079,-0.24053,-0.15597,0.080849,0.33097,-0.034245,-0.28183,-0.28964,0.27956,-0.075386,0.043539,-0.22823,-0.51873,0.098789,-1.1867,-0.3804,-0.04541,0.18663,0.20424,0.30636,0.29483
0.12629,0.21378,0.055782,0.29651,-0.21657,-0.14953,-0.10943,-0.011182,0.037499,0.32263,0.28261,-0.13378,0.16693,0.087638,0.24056,0.19426,0.66896,-0.040753,-0.075569,-0.026368,-0.28544,-0.096592,0.13354,-0.18074,-0.13846,-0.16675,0.18343,0.27316,0.23517,0.039893,0.31526,-0.47786,0.13496,-0.33465,-0.046025,-0.095665,0.3051,0.010016,0.16311,0.28809,-0.092924,-0.10518,-0.012375,0.033166,0.12999,0.17305,-0.2329,0.22619,0.2734,0.17132,-0.29494,-0.0090709,0.23781,0.15582,0.23167,0.00018303,0.17914,0.19713,-0.17132,-0.10275,0.10826,0.053593,0.21738,0.19415,-0.1916,0.088915,-0.034359,0.2968,-0.24584,-0.21395,-0.30433,0.32189,0.18237,0.078813,0.40716,0.59232,-0.32997,-0.10551,0.0058994,-0.18694,-0.17037,0.0175,-0.1933,0.28046,-0.41597,-0.19031,0.088389,0.35129,-0.16045,-0.00040494,-0.83591,0.80951,0.33744,-0.00062337,-0.014084,0.13003,0.040082,0.11242,-0.077347,-0.057422
-0.1659,0.1646,0.17855,-0.19759,0.33342,-0.015597,-0.12503,-0.12087,0.15144,-0.26956,0.25789,-0.3461,-0.0633,-0.21005,-0.17768,0.13172,-0.32336,0.06561,-0.21912,0.067901,0.26296,0.15939,0.20058,-0.012868,-0.2457,0.046744,0.18009,0.19076,-0.086692,-0.26037,-0.089992,0.40485,0.18451,0.24245,-0.19592,0.066503,0.057132,0.21414,-0.27785,0.15908,0.082549,-0.007808,-0.026057,-0.39356,-0.03792,-0.20206,0.19483,-0.34068,0.061025,-0.36264,0.33086,-0.12263,-0.013599,-0.19437,0.16026,-0.16519,-0.19856,0.044029,0.10532,-0.064859,-0.047134,0.27206,-0.061557,0.092142,-0.023894,0.17036,0.086859,-0.023782,0.17918,0.086519,-0.13061,-0.2255,-0.35465,0.010834,-0.29636,-0.28648,-0.17661,0.2646,0.17132,-0.14962,0.46171,0.36965,0.24961,-0.070326,-0.08958,0.24701,0.56421,-0.86339,0.31145,-0.20754,1.0854,0.052493,0.073679,-0.090246,-0.082104,-0.11457,0.0019735,-0.010161,-0.17342,0.070528
-0.24095,-0.12804,0.49238,-0.26262,0.25293,-0.80772,-0.20096,-0.2997,0.025482,-0.26192,-0.05498,0.12253,0.36335,0.41118,0.1466,-0.22295,-0.21405,-0.050202,0.12965,-0.11813,0.039851,-0.19133,0.90631,0.14191,0.11999,-0.26793,-0.3802,0.38398,-0.47187,-0.17737,-0.15341,0.29293,-0.060193,0.16221,0.0057017,0.15683,0.044417,0.26713,-0.25902,0.24945,-0.10053,0.19296,0.1385,0.1293,0.41032,0.022047,0.49017,0.16713,-0.086203,0.35415,0.30592,0.1317,-0.11041,0.24744,0.22489,0.012348,-0.063651,-0.11108,-0.1152,-0.20646,-0.073775,0.63919,0.17995,0.083084,0.27282,0.10808,0.25066,0.13509,-0.39993,1.0949,0.23663,0.013493,-0.22844,0.094353,-0.30712,-0.085517,-0.24076,-1.4643,0.076647,-0.28961,-0.46054,0.17621,0.38241,-0.01604,0.13639,0.25692,-0.041173,-0.31352,-0.14403,-0.2101,0.025241,-0.15428,-0.17255,-0.019738,-0.0082685,-0.18988,0.20683,-0.21423,0.22755,-0.12849
0.13298,-0.097731,-0.23568,0.091808,0.091379,-0.28442,0.09242,0.30525,0.12729,0.10627,0.12159,-0.16032,-0.31279,0.14591,-0.25999,-0.081069,-0.08094,-0.0039554,-0.060277,-0.14337,0.036517,0.089861,0.0085635,-0.14413,-0.077329,0.047166,0.050872,-0.026092,-0.11524,0.0022266,0.11794,-0.070605,0.028303,0.14857,-0.0015879,0.011008,-0.020743,-0.15337,-0.11332,-0.18411,-0.31075,0.029552,-0.13829,-0.15686,-0.15406,0.15333,0.047762,0.01045,-0.15137,-0.06873,0.21779,-0.09405,0.086717,-0.28304,-0.22734,-0.045329,0.16185,0.31163,0.15601,-0.45921,0.088732,0.13731,-0.085112,-0.14167,-0.36433,0.086583,-0.11803,-0.05416,-0.1486,0.068048,-0.1889,-0.14631,0.090339,-0.064906,0.24507,-0.33982,-0.17843,0.085383,-0.36752,0.27134,-0.13669,-0.48377,-0.092667,0.20566,-0.11209,-0.0085705,0.14306,-0.15427,0.15564,-0.087124,-0.1258,-0.39179,0.22892,0.14481,0.1456,0.14591,0.28037,-0.14912,-0.027296,0.079678
0.14636,-0.042683,0.16675,0.059367,0.071492,0.19588,0.019899,0.14249,-0.2993,0.29869,0.089849,0.093796,-0.23595,0.12194,-0.162,-0.044235,0.14358,-0.064903,-0.099324,-0.073945,-0.23408,-0.28686,0.075702,-0.31342,0.26095,0.26663,-0.1386,0.21664,0.16786,-0.018608,0.049704,-1.0608,0.0025343,-0.073425,0.26605,-0.19179,0.31584,0.24473,0.029518,0.045523,0.0042153,-0.081126,0.069695,0.21958,-0.3153,-0.36886,-0.043323,0.36101,0.070173,0.31395,0.2094,-0.075034,-0.0023929,0.010519,-0.1752,-0.11178,0.13599,-0.28949,-0.10217,0.13777,0.0085636,0.064344,0.13247,-0.061749,0.14099,-0.079581,-0.27337,0.20659,-0.21851,0.31032,0.1898,-0.11113,0.20668,0.15216,0.25221,0.58616,0.23262,0.030475,0.010991,-0.18638,-0.20956,-0.010635,0.077205,0.24599,0.18063,0.099567,-0.49796,0.5631,0.10643,0.18487,-0.55687,1.0703,0.31514,-0.19422,-0.034053,0.17121,-0.0016595,0.22829,-0.16365,0.13168
-0.15314,0.090608,-0.031281,-0.017468,0.16428,-0.25407,-0.042053,0.053356,0.30572,-0.24267,-0.29035,-0.23987,0.11601,0.12818,-0.35273,0.041682,-0.16921,-0.19626,0.15236,0.13708,0.27449,0.18133,0.19362,-0.13676,0.023376,-0.16329,0.25076,0.035349,-0.28542,0.10325,-0.054375,0.68111,0.10745,0.083569,0.04599,-0.097396,-0.042212,-0.087881,0.0032857,0.13154,-0.13946,-0.26908,0.14961,0.11305,0.20582,-0.037363,-0.29662,0.30768,-0.089608,0.20722,-0.27763,0.24025,-0.27622,-0.23542,0.13906,0.0026248,-0.027413,-0.044422,-0.089398,-0.11961,-0.022063,0.055928,0.043483,-0.20638,-0.15171,-0.048114,0.10397,0.27841,-0.088797,-0.32723,-0.0071072,0.1839,0.27092,-0.59448,0.24931,-0.23258,-0.15304,-0.14406,0.27382,0.2286,-0.00069144,0.11996,-0.0058219,0.19364,0.4344,0.046751,-0.08572,-0.68622,0.23205,0.069545,0.49886,-0.59822,-0.010108,0.14873,0.057245,-1.1091,-0.12286,-0.27757,0.19271,0.16445
-0.16393,0.081631,-0.2207,-0.2715,0.036401,0.098003,0.1167,0.37482,-0.22418,-0.0091198,0.21976,-0.23814,-0.062084,0.32069,0.93062,0.086419,-0.62816,-0.38018,0.046952,-0.18098,0.55376,0.060661,-0.11588,0.39363,-0.2434,-0.19008,-0.26878,0.018833,-0.01628,-0.28166,-0.14197,0.2691,0.013404,0.16285,-0.20211,0.40319,-0.16718,-0.14936,-0.11576,-0.13126,0.17597,-0.025351,-0.35378,0.046496,0.050061,0.054419,0.24422,-0.063982,0.25582,-0.3139,0.20341,-0.11806,0.11543,-0.0057384,-0.16267,-0.087523,-0.36136,-0.095218,0.57009,0.17049,-0.18088,0.0097305,-0.43245,0.05647,0.0025895,0.027234,0.19368,-0.13681,0.10685,0.035336,0.0091228,-0.73517,0.10284,-0.70069,0.091983,-0.38348,-0.23953,0.10995,-0.13974,-0.064474,0.27553,0.027354,0.086411,0.028599,-0.094159,0.13887,0.15549,-0.43159,0.11944,0.14285,0.10402,-0.46897,0.02854,-0.17362,0.051548,0.067763,-0.13411,-0.066746,-0.39521,-0.053468
0.71018,-0.44449,0.31465,-0.10188,-0.23645,0.62158,0.37819,1.0718,0.56155,0.26765,-0.59495,-0.11085,0.24975,-0.36279,-0.036884,-0.017788,0.082622,0.015205,-0.047025,0.61289,-0.29438,0.50814,0.15972,-0.096919,0.28684,0.24297,0.11779,-0.63364,0.12132,-0.12669,-0.12169,-1.0555,-0.20472,0.15755,-0.35858,0.029445,0.27193,-0.70061,-0.089432,-0.24454,-0.44036,0.083961,-0.064059,0.1597,-0.14595,-0.62262,-0.36443,0.0079497,-0.073343,0.011313,-0.046614,0.21773,0.10628,-0.4369,-0.24246,0.28397,0.49064,0.40967,-0.28283,0.22536,-0.059938,0.030195,0.05005,0.10798,-0.037931,0.67829,-0.034081,0.040603,0.64291,-0.029207,0.11891,0.59135,0.065416,-0.218,-0.077944,-0.02763,0.5724,-0.19347,-0.20068,0.14448,-0.037628,-0.2648,-0.70093,0.13917,0.15532,-0.065941,-0.7998,0.3234,-0.033794,0.43618,-0.13651,1.5105,-0.13724,0.43266,0.13801,0.0029686,-0.036296,0.19078,-0.085299,0.030588
-0.31872,-0.22534,-0.13647,-0.086218,-0.14801,-0.26194,-0.17132,0.24058,0.33684,-0.2643,0.068438,-0.040306,-0.027278,-0.1088,0.12199,-0.11221,-0.2635,-0.084579,-0.039042,-0.07665,-0.051985,0.35853,0.02262,-0.11271,-0.22357,-0.042149,-0.15123,0.16178,-0.13903,-0.04345,-0.04193,0.38113,0.094244,0.12193,0.13851,-0.13233,-0.10361,-0.11569,0.14719,-0.18956,-0.2605,-0.060118,0.18254,-0.00091616,0.072728,-0.082782,-0.26338,0.19876,0.10299,-0.15997,0.13629,0.28233,-0.26676,0.0035874,-0.030152,0.11525,0.13539,-0.098062,-0.058937,0.34078,-0.085807,0.14499,0.07458,0.037963,-0.057154,0.21696,0.065829,-0.06094,0.16258,0.086173,0.24348,0.18457,0.3452,-0.08068,-0.0038432,-0.3018,0.030313,0.26062,0.23398,0.093075,0.32495,-0.070558,-0.16629,-0.098883,0.55871,-0.01328,0.16308,-0.46972,0.23272,0.27796,0.50648,-0.1765,0.11112,0.21995,-0.061662,-0.11166,-0.13033,-0.17688,0.26052,0.068834
-0.35032,0.14018,0.24269,-0.059828,-0.033839,-0.28783,-0.24398,-0.078181,-0.19817,0.16108,0.12232,0.12539,-0.40625,0.27104,-0.1159,-0.63525,0.1325,-0.28954,-0.074496,-0.071416,0.49233,0.087689,-0.29032,-0.14696,0.15649,0.015275,-0.11566,0.078639,0.10283,-0.048117,0.23334,0.01123,0.23557,0.19973,-0.3983,-0.05575,0.1288,0.082543,0.10168,0.13453,0.087251,0.060421,-0.20203,0.20476,-0.005498,0.15806,0.41416,-0.1129,-0.0077873,0.13334,0.16329,-0.18795,0.24834,0.45635,0.27454,-0.15368,0.12663,-0.35239,-0.1099,-0.10668,0.21263,0.0026961,-0.25091,0.25347,0.17184,-0.29517,-0.069167,0.37103,-0.33626,0.42345,-0.30351,-0.71874,-0.20635,-0.035235,0.2445,-0.3039,-0.54283,0.13966,-0.24044,-0.050262,-0.05015,0.12392,0.6156,0.084895,-0.4478,-0.10287,0.28006,-0.21807,-0.023138,-0.48883,-0.070564,-0.43966,0.037127,-0.094031,0.1121,-0.062245,-0.064404,-0.076478,0.25043,0.19431
0.049727,-0.10557,0.35672,-0.031127,-0.099302,-0.40101,0.15572,1.0027,-0.18696,-0.2625,-0.79563,-0.16018,-0.35402,0.033854,-0.27167,0.35521,-0.097793,0.037018,-0.1981,-0.10916,0.52666,-0.18206,-0.27274,-0.14535,-0.19459,0.14355,2.1417,0.24346,0.11499,-0.084142,0.14162,0.20383,0.10065,0.3354,-0.55991,-0.069572,0.22338,-0.18938,-0.11451,-0.16106,-0.14821,0.00065335,0.016492,0.14678,0.13818,0.47706,0.033993,-0.21804,-0.23863,-0.040632,-0.35526,-0.23568,-0.30497,0.14506,0.29357,0.11979,-0.28863,-0.1751,0.3665,-0.081304,-0.09763,0.012065,-0.19316,-0.14451,0.017146,0.047107,-0.068427,0.25178,-0.12573,0.40344,-0.18565,-0.97519,0.1116,-0.069164,0.077056,-0.11162,-0.21442,0.25116,-0.22679,-0.18932,-0.075666,0.11416,0.39846,-0.18117,-0.131,0.057504,0.10338,-0.031276,0.20226,-0.2825,0.002107,-0.46734,0.050165,-0.28874,-0.06081,0.15613,0.037286,-0.22398,0.17161,-0.15375
-0.095417,-0.10807,-0.22405,0.13075,0.1583,0.095671,-0.057323,0.0092099,0.26817,-0.058876,-0.059239,0.15404,-0.14326,0.10684,-0.077402,-0.31221,-0.59484,-0.33123,-0.30149,0.14009,-0.054126,0.056872,-0.16892,0.15551,-0.099682,0.021773,-0.053972,0.18216,-0.13708,-0.1559,-0.18838,0.60616,-0.109,0.085604,0.3077,0.13341,0.1311,-0.12383,0.26099,-0.14134,0.16681,0.15323,-0.28424,-0.074498,0.21578,-0.0049082,-0.15791,0.33258,-0.23365,-0.082647,0.30123,0.12567,-0.17847,-0.21702,-0.22781,-0.31887,0.099034,0.12708,0.067043,0.083943,-0.10058,-0.14499,0.16614,-0.31266,-0.067772,-0.19002,0.33136,0.11711,-0.12397,0.0044528,-0.17706,-0.0042963,0.32442,-0.31203,-0.098094,-0.22592,-0.27582,0.17576,0.091005,0.19757,-0.099469,-0.045764,-0.17408,-0.088987,0.23461,-0.10752,0.22329,-0.3298,-0.13729,0.012029,0.41551,-0.38177,0.0012093,0.085635,-0.018868,-0.1278,-0.12523,0.084443,-0.12676,-0.041274
-0.14727,0.16819,0.1517,0.13702,-0.072049,-0.32507,-0.44804,-0.16952,-0.42399,-0.079918,0.45165,-0.27913,0.33314,0.27816,0.13579,0.17548,-0.1453,-0.3113,-0.20243,-0.24512,0.20193,-0.19723,0.218,0.091378,-0.10035,-0.30247,-0.45753,0.268,-0.054664,-0.29923,-0.2328,-0.18334,0.42355,-0.0089343,-0.56107,0.31138,-0.11955,0.27985,-0.12457,0.23057,0.26046,-1.7245,-0.24304,-0.17538,-0.11845,-0.15837,0.19306,0.18107,0.39618,0.047712,0.19922,-0.087547,-0.30275,0.34231,0.59781,-0.28607,-0.059231,-0.54809,0.10525,0.26028,0.074361,0.3255,-0.051975,0.088961,0.23074,-0.3513,0.22525,-0.06477,-0.35994,0.55352,-0.38299,0.037658,0.18515,-0.31398,-0.3126,-0.19248,0.030944,-0.08223,0.0093753,-0.42649,-0.074983,0.26337,0.30517,-0.080714,0.0017214,0.11463,0.1239,-0.06767,0.085,-0.50821,0.088637,-0.054441,-0.17731,-0.15109,0.19864,0.23094,-0.12811,-0.071568,0.14043,0.15147
0.24291,0.040174,0.063214,-0.099703,0.024762,-0.12267,0.18692,-0.19264,-0.14372,0.10655,0.24757,0.23908,0.19447,0.076649,-0.090157,-0.092076,0.5262,0.20096,0.15103,0.14631,-0.39705,0.2722,-0.23569,-0.30481,0.27639,0.10949,0.15187,-0.18261,-0.16312,-0.10647,0.35908,-0.41481,0.068481,-0.094309,-0.32128,-0.10111,0.053995,0.055157,0.13914,0.040697,-0.096348,0.11331,0.36364,0.012157,0.35203,-0.32304,-0.21247,0.059792,0.1926,0.24946,0.086113,-0.24567,-0.00073375,0.030461,0.14569,-0.10664,-0.070995,-0.23788,-0.0061597,0.16862,0.1223,0.084752,-0.24951,0.32074,-0.071672,0.04912,-0.24999,0.14856,-0.11839,-0.16766,-0.16486,0.4054,-0.32142,0.71286,0.046112,0.31309,-0.072301,-0.012722,0.14913,0.13687,-0.049135,-0.26431,0.095185,0.31369,-0.24632,-0.076723,-0.25195,0.23128,-0.16423,-0.19089,-0.019244,0.57156,0.29812,-0.15818,-0.070426,-0.025869,-0.32312,0.119,0.053029,0.38343
-0.092165,-0.14437,0.21875,0.018224,-0.055175,-0.34375,0.14762,0.010471,-0.11249,-0.41086,-0.129,-0.17294,-0.18175,-0.025605,-0.19986,-0.33784,-0.39444,-0.26312,-0.38452,-0.1811,0.38815,-0.0016912,0.10282,0.12717,-0.10047,0.17016,0.042545,-0.088603,-0.11019,-0.42472,-0.17676,-0.0083542,-0.025156,0.34282,-0.081019,0.11646,-0.25575,-0.20449,0.27811,0.26499,0.17108,0.023778,-0.28697,-0.091779,0.17604,0.0038715,-0.11714,-0.17507,0.17288,0.0067793,0.16538,-0.045802,0.069229,0.16968,0.15687,0.0095576,-0.19014,0.20323,0.0071943,0.19181,-0.32113,-0.30965,-0.039148,-0.042056,-0.18762,-0.21137,-0.058109,0.14653,0.00037841,0.046556,0.26321,-0.55289,-0.018642,-0.056969,0.21006,-0.75007,0.14092,-0.06777,0.21987,0.20918,-0.018178,0.32008,-0.058735,-0.31686,0.45123,0.26459,0.109,-0.065357,0.33101,-0.12583,0.1397,-0.25742,-0.11638,-0.016592,-0.078355,-0.067673,0.077816,-0.20621,-0.0044095,-0.13185
